{"gradients/predictor.nn_layers.2.bias": {"_type": "histogram", "values": [1.0, 0.0, 0.0, 0.0, 0.0, 0.0, 0.0, 0.0, 0.0, 0.0, 0.0, 0.0, 0.0, 0.0, 0.0, 0.0, 0.0, 0.0, 0.0, 0.0, 0.0, 0.0, 0.0, 0.0, 0.0, 0.0, 0.0, 0.0, 0.0, 0.0, 0.0, 0.0, 1.0, 1.0, 0.0, 0.0, 0.0, 0.0, 0.0, 0.0, 0.0, 0.0, 0.0, 0.0, 0.0, 0.0, 0.0, 0.0, 0.0, 0.0, 0.0, 0.0, 0.0, 0.0, 0.0, 0.0, 0.0, 0.0, 0.0, 0.0, 0.0, 0.0, 0.0, 1.0], "bins": [-1.6275436326003922e-15, -1.5773305665750916e-15, -1.527117500549791e-15, -1.4769044345244904e-15, -1.4266913684991898e-15, -1.3764783024738892e-15, -1.3262652364485887e-15, -1.276052170423288e-15, -1.2258392102771059e-15, -1.1756261442518053e-15, -1.1254130782265047e-15, -1.0752000122012041e-15, -1.0249869461759036e-15, -9.74773880150603e-16, -9.245608141253024e-16, -8.743477481000018e-16, -8.241346820747012e-16, -7.739216160494006e-16, -7.237085500241e-16, -6.734954839987995e-16, -6.232824179734989e-16, -5.730694048877575e-16, -5.228563388624569e-16, -4.726432728371563e-16, -4.2243020681185573e-16, -3.7221714078655515e-16, -3.2200407476125456e-16, -2.717910352057336e-16, -2.21577969180433e-16, -1.713649031551324e-16, -1.2115185036472162e-16, -7.093879095686594e-17, -2.0725625669891848e-17, 2.9487433737963837e-17, 7.970049314581952e-17, 1.299135459362303e-16, 1.801266119615309e-16, 2.303396779868315e-16, 2.8055271754235246e-16, 3.3076578356765305e-16, 3.8097884959295363e-16, 4.311919156182542e-16, 4.814049816435548e-16, 5.316180476688554e-16, 5.818310607545968e-16, 6.320441267798974e-16, 6.822571928051979e-16, 7.324702588304985e-16, 7.826833248557991e-16, 8.328963908810997e-16, 8.831094569064003e-16, 9.333225229317009e-16, 9.835355889570014e-16, 1.033748654982302e-15, 1.0839617210076026e-15, 1.1341747870329032e-15, 1.1843877471790854e-15, 1.234600813204386e-15, 1.2848138792296866e-15, 1.3350269452549871e-15, 1.3852400112802877e-15, 1.4354530773055883e-15, 1.4856661433308889e-15, 1.5358792093561895e-15, 1.58609227538149e-15]}, "_timestamp": 1686660438.939084, "gradients/predictor.nn_layers.2.weight": {"_type": "histogram", "values": [1.0, 1.0, 1.0, 1.0, 1.0, 2.0, 1.0, 2.0, 0.0, 1.0, 1.0, 3.0, 1.0, 0.0, 2.0, 0.0, 0.0, 0.0, 0.0, 0.0, 0.0, 0.0, 0.0, 0.0, 0.0, 0.0, 0.0, 0.0, 0.0, 0.0, 0.0, 0.0, 26.0, 18.0, 0.0, 0.0, 0.0, 0.0, 0.0, 0.0, 0.0, 0.0, 0.0, 0.0, 0.0, 0.0, 0.0, 0.0, 0.0, 0.0, 2.0, 0.0, 3.0, 2.0, 1.0, 0.0, 2.0, 1.0, 1.0, 2.0, 1.0, 1.0, 1.0, 1.0], "bins": [-8.164100804089209e-15, -7.913287572143633e-15, -7.662474340198056e-15, -7.41166110825248e-15, -7.160847876306903e-15, -6.9100342208448535e-15, -6.659220988899277e-15, -6.408407756953701e-15, -6.157594525008124e-15, -5.906781293062548e-15, -5.655968061116972e-15, -5.405154829171395e-15, -5.154341173709345e-15, -4.903527941763769e-15, -4.6527147098181926e-15, -4.401901477872616e-15, -4.15108824592704e-15, -3.9002750139814635e-15, -3.649461782035887e-15, -3.398648338332074e-15, -3.1478351063864976e-15, -2.8970218744409212e-15, -2.646208430737108e-15, -2.3953951987915317e-15, -2.1445819668459553e-15, -1.893768734900379e-15, -1.6429553970756842e-15, -1.3921420592509894e-15, -1.141328827305413e-15, -8.905155953598367e-16, -6.397022575351419e-16, -3.888889726500063e-16, -1.380748407319235e-16, 1.1273844415321207e-16, 3.6355172903834764e-16, 6.143650139234832e-16, 8.651782988086188e-16, 1.1159915307541951e-15, 1.36680486857889e-15, 1.6176182064035847e-15, 1.868431438349161e-15, 2.1192446702947374e-15, 2.3700579022403138e-15, 2.620871345944127e-15, 2.8716845778897033e-15, 3.1224978098352797e-15, 3.373311253539093e-15, 3.624124485484669e-15, 3.8749377174302456e-15, 4.125750949375822e-15, 4.376564181321398e-15, 4.627377413266975e-15, 4.878190645212551e-15, 5.129004300674601e-15, 5.3798175326201774e-15, 5.630630764565754e-15, 5.88144399651133e-15, 6.1322572284569065e-15, 6.383070460402483e-15, 6.633883692348059e-15, 6.884697347810109e-15, 7.135510579755686e-15, 7.386323811701262e-15, 7.637137043646838e-15, 7.887950275592415e-15]}, "gradients/predictor.nn_layers.1.bias": {"_type": "histogram", "values": [1.0, 0.0, 0.0, 0.0, 0.0, 0.0, 0.0, 0.0, 0.0, 0.0, 0.0, 0.0, 1.0, 0.0, 0.0, 1.0, 2.0, 1.0, 2.0, 3.0, 1.0, 1.0, 0.0, 1.0, 0.0, 2.0, 0.0, 1.0, 0.0, 0.0, 0.0, 1.0, 0.0, 0.0, 0.0, 0.0, 0.0, 0.0, 0.0, 0.0, 0.0, 0.0, 0.0, 0.0, 0.0, 0.0, 0.0, 0.0, 0.0, 0.0, 0.0, 0.0, 0.0, 0.0, 0.0, 0.0, 0.0, 0.0, 0.0, 0.0, 0.0, 0.0, 0.0, 2.0], "bins": [-1.640012592858686e-15, -1.61438741098452e-15, -1.588762229110354e-15, -1.563137047236188e-15, -1.5375117594829037e-15, -1.5118865776087378e-15, -1.4862613957345719e-15, -1.460636213860406e-15, -1.43501103198624e-15, -1.409385850112074e-15, -1.383760668237908e-15, -1.3581353804846237e-15, -1.3325101986104578e-15, -1.3068850167362919e-15, -1.281259834862126e-15, -1.25563465298796e-15, -1.230009471113794e-15, -1.204384289239628e-15, -1.1787590014863437e-15, -1.1531338196121778e-15, -1.1275086377380119e-15, -1.101883455863846e-15, -1.07625827398968e-15, -1.050633092115514e-15, -1.025007910241348e-15, -9.993826224880637e-16, -9.737574406138978e-16, -9.481322587397319e-16, -9.22507076865566e-16, -8.968818949914e-16, -8.71256713117234e-16, -8.456314783035089e-16, -8.20006296429343e-16, -7.94381114555177e-16, -7.687558797414519e-16, -7.431306978672859e-16, -7.1750551599312e-16, -6.91880334118954e-16, -6.662550993052289e-16, -6.40629917431063e-16, -6.15004735556897e-16, -5.893795007431719e-16, -5.637543188690059e-16, -5.3812913699484e-16, -5.12503955120674e-16, -4.868787203069489e-16, -4.61253538432783e-16, -4.35628356558617e-16, -4.100031482146715e-16, -3.8437793987072593e-16, -3.5875275799656e-16, -3.3312754965261445e-16, -3.075023677784485e-16, -2.8187715943450297e-16, -2.56251977560337e-16, -2.306267692163915e-16, -2.0500157410733574e-16, -1.7937637899828e-16, -1.5375118388922425e-16, -1.281259887801685e-16, -1.0250078705366787e-16, -7.687559194461213e-17, -5.1250393526833935e-17, -2.5625196763416967e-17, 0.0]}, "gradients/predictor.nn_layers.1.weight": {"_type": "histogram", "values": [2.0, 0.0, 0.0, 0.0, 0.0, 0.0, 1.0, 0.0, 0.0, 0.0, 0.0, 0.0, 1.0, 1.0, 0.0, 2.0, 4.0, 3.0, 4.0, 7.0, 2.0, 5.0, 2.0, 7.0, 1.0, 5.0, 2.0, 4.0, 3.0, 5.0, 6.0, 8.0, 6.0, 5.0, 6.0, 6.0, 4.0, 3.0, 8.0, 12.0, 7.0, 16.0, 11.0, 7.0, 6.0, 4.0, 3.0, 3.0, 8.0, 3.0, 2.0, 3.0, 1.0, 2.0, 6.0, 12.0, 20.0, 25.0, 8.0, 17.0, 25.0, 10.0, 2.0, 74.0], "bins": [-3.0782820547138948e-15, -3.0301839240787698e-15, -2.9820857934436448e-15, -2.9339876628085198e-15, -2.8858895321733948e-15, -2.837791189780033e-15, -2.789693059144908e-15, -2.741594928509783e-15, -2.693496797874658e-15, -2.645398667239533e-15, -2.597300536604408e-15, -2.549202405969283e-15, -2.501104063575921e-15, -2.453005932940796e-15, -2.404907802305671e-15, -2.356809671670546e-15, -2.308711541035421e-15, -2.260613410400296e-15, -2.212515279765171e-15, -2.164417149130046e-15, -2.116319018494921e-15, -2.0682206761015592e-15, -2.0201225454664342e-15, -1.9720244148313092e-15, -1.9239262841961842e-15, -1.8758281535610592e-15, -1.8277300229259342e-15, -1.7796318922908092e-15, -1.7315336557765658e-15, -1.6834355251414408e-15, -1.6353372886271974e-15, -1.5872391579920724e-15, -1.5391410273569474e-15, -1.4910428967218224e-15, -1.4429447660866974e-15, -1.394846529572454e-15, -1.346748398937329e-15, -1.298650268302204e-15, -1.2505520317879605e-15, -1.2024539011528355e-15, -1.1543557705177105e-15, -1.1062576398825855e-15, -1.0581595092474605e-15, -1.0100612727332171e-15, -9.619631420980921e-16, -9.138650114629671e-16, -8.657668278882829e-16, -8.176686443135987e-16, -7.695705136784737e-16, -7.214723830433487e-16, -6.733741994686645e-16, -6.252760158939803e-16, -5.771778852588553e-16, -5.290797546237303e-16, -4.809815710490461e-16, -4.3288341394414145e-16, -3.8478525683923685e-16, -3.3668709973433224e-16, -2.8858894262942763e-16, -2.4049078552452303e-16, -1.9239262841961842e-16, -1.4429447131471382e-16, -9.619631420980921e-17, -4.8098157104904606e-17, 0.0]}, "gradients/predictor.nn_layers.0.bias": {"_type": "histogram", "values": [2.0, 0.0, 0.0, 1.0, 0.0, 0.0, 1.0, 0.0, 1.0, 0.0, 1.0, 1.0, 0.0, 1.0, 1.0, 2.0, 1.0, 2.0, 0.0, 1.0, 1.0, 1.0, 0.0, 0.0, 1.0, 0.0, 0.0, 0.0, 0.0, 0.0, 0.0, 0.0, 0.0, 0.0, 0.0, 0.0, 0.0, 0.0, 0.0, 0.0, 0.0, 0.0, 0.0, 0.0, 0.0, 0.0, 0.0, 0.0, 0.0, 0.0, 0.0, 0.0, 0.0, 0.0, 0.0, 0.0, 0.0, 0.0, 0.0, 0.0, 0.0, 0.0, 0.0, 2.0], "bins": [-5.994359841127433e-15, -5.901925253175939e-15, -5.809491088740919e-15, -5.7170565007894254e-15, -5.624621912837932e-15, -5.532187748402912e-15, -5.439753160451418e-15, -5.3473185724999244e-15, -5.254884408064904e-15, -5.162449820113411e-15, -5.070015232161917e-15, -4.977581067726897e-15, -4.885146479775403e-15, -4.79271189182391e-15, -4.70027772738889e-15, -4.607843139437396e-15, -4.515408975002376e-15, -4.422974387050882e-15, -4.330539799099389e-15, -4.238105634664369e-15, -4.145671046712875e-15, -4.053236458761381e-15, -3.960802294326361e-15, -3.868367706374868e-15, -3.775933118423374e-15, -3.683498953988354e-15, -3.59106436603686e-15, -3.4986299898436034e-15, -3.4061954018921098e-15, -3.313761025698853e-15, -3.221326649505596e-15, -3.1288920615541024e-15, -3.0364578971190824e-15, -2.9440233091675887e-15, -2.851588932974332e-15, -2.759154556781075e-15, -2.6667199688295814e-15, -2.5742855926363245e-15, -2.4818512164430677e-15, -2.389416628491574e-15, -2.296982252298317e-15, -2.2045478761050603e-15, -2.1121134999118035e-15, -2.0196789119603098e-15, -1.927244535767053e-15, -1.834810159573796e-15, -1.7423755716223024e-15, -1.6499411954290456e-15, -1.5575067133566703e-15, -1.4650723371634135e-15, -1.3726378550910382e-15, -1.280203373018663e-15, -1.1877689968254061e-15, -1.0953345147530309e-15, -1.002900138559774e-15, -9.104656564873988e-16, -8.180311744150235e-16, -7.255967452822075e-16, -6.331623161493914e-16, -5.407278870165754e-16, -4.482934578837593e-16, -3.558589758113841e-16, -2.6342454667856803e-16, -1.7099010431086218e-16, -7.855566194315633e-17]}, "gradients/predictor.nn_layers.0.weight": {"_type": "histogram", "values": [2.0, 0.0, 1.0, 0.0, 1.0, 1.0, 1.0, 1.0, 1.0, 1.0, 3.0, 2.0, 1.0, 1.0, 1.0, 1.0, 0.0, 0.0, 0.0, 0.0, 2.0, 3.0, 4.0, 4.0, 4.0, 8.0, 8.0, 12.0, 6.0, 5.0, 2.0, 3.0, 7.0, 11.0, 15.0, 27.0, 21.0, 2.0, 0.0, 8.0, 10.0, 3.0, 29.0, 0.0, 0.0, 25.0, 24.0, 15.0, 5.0, 9.0, 6.0, 3.0, 3.0, 0.0, 0.0, 0.0, 2.0, 2.0, 5.0, 3.0, 1.0, 2.0, 1.0, 2.0], "bins": [-1.4107283761576484e-14, -1.377378740848468e-14, -1.3440291902425822e-14, -1.3106795549334017e-14, -1.2773299196242212e-14, -1.2439802843150407e-14, -1.2106306490058602e-14, -1.1772810983999744e-14, -1.143931463090794e-14, -1.1105818277816135e-14, -1.0772322771757277e-14, -1.0438826418665472e-14, -1.0105330065573667e-14, -9.771833712481862e-15, -9.438337359390057e-15, -9.1048418533312e-15, -8.771345500239395e-15, -8.43784914714759e-15, -8.104353641088732e-15, -7.770857287996927e-15, -7.437360934905123e-15, -7.103864581813318e-15, -6.7703686522379864e-15, -6.436872722662655e-15, -6.10337636957085e-15, -5.769880016479045e-15, -5.436384086903714e-15, -5.102888157328383e-15, -4.769391804236578e-15, -4.435895451144773e-15, -4.102399521569442e-15, -3.7689035919941105e-15, -3.4354072389023056e-15, -3.1019110975687375e-15, -2.7684149562351695e-15, -2.4349188149016014e-15, -2.1014226735680333e-15, -1.7679265322344652e-15, -1.4344303909008971e-15, -1.100934249567329e-15, -7.67438108233761e-16, -4.339419669001929e-16, -1.0044582556662483e-16, 2.3305031576694325e-16, 5.665464571005113e-16, 9.000425984340794e-16, 1.2335387397676475e-15, 1.5670348811012156e-15, 1.9005310224347836e-15, 2.2340271637683517e-15, 2.5675233051019198e-15, 2.901019446435488e-15, 3.234515587769056e-15, 3.568011940860861e-15, 3.901507870436192e-15, 4.235003800011523e-15, 4.568500153103328e-15, 4.901996506195133e-15, 5.2354924357704644e-15, 5.568988365345796e-15, 5.9024847184376006e-15, 6.2359810715294055e-15, 6.569477001104737e-15, 6.902972930680068e-15, 7.236469283771873e-15]}, "gradients/cell_update.nn_layers.2.bias": {"_type": "histogram", "values": [1.0, 0.0, 0.0, 0.0, 0.0, 0.0, 0.0, 0.0, 0.0, 0.0, 0.0, 0.0, 0.0, 0.0, 0.0, 0.0, 0.0, 0.0, 0.0, 0.0, 0.0, 0.0, 0.0, 0.0, 0.0, 0.0, 0.0, 0.0, 0.0, 0.0, 0.0, 0.0, 0.0, 0.0, 0.0, 0.0, 7.0, 4.0, 0.0, 0.0, 0.0, 1.0, 1.0, 0.0, 0.0, 0.0, 1.0, 0.0, 0.0, 0.0, 0.0, 0.0, 0.0, 0.0, 0.0, 0.0, 0.0, 0.0, 0.0, 0.0, 0.0, 0.0, 0.0, 1.0], "bins": [-0.0001701909932307899, -0.00016555000911466777, -0.00016090903955046088, -0.00015626806998625398, -0.00015162708587013185, -0.00014698610175400972, -0.00014234513218980283, -0.00013770416262559593, -0.0001330631785094738, -0.00012842219439335167, -0.00012378122482914478, -0.00011914024798898026, -0.00011449927114881575, -0.00010985829430865124, -0.00010521731746848673, -0.00010057634062832221, -9.59353637881577e-05, -9.129438694799319e-05, -8.665341010782868e-05, -8.201243326766416e-05, -7.737145642749965e-05, -7.273047958733514e-05, -6.808950274717063e-05, -6.344852590700611e-05, -5.88075490668416e-05, -5.416657222667709e-05, -4.952559538651258e-05, -4.4884618546348065e-05, -4.024364170618355e-05, -3.560266486601904e-05, -3.096168802585453e-05, -2.6320711185690016e-05, -2.1679719793610275e-05, -1.7038742953445762e-05, -1.239776611328125e-05, -7.756789273116738e-06, -3.115812432952225e-06, 1.5251644072122872e-06, 6.1661412473768e-06, 1.0807118087541312e-05, 1.5448094927705824e-05, 2.0089071767870337e-05, 2.473004860803485e-05, 2.937102544819936e-05, 3.4012002288363874e-05, 3.8652979128528386e-05, 4.32939559686929e-05, 4.793493280885741e-05, 5.2575909649021924e-05, 5.7216886489186436e-05, 6.185786332935095e-05, 6.649884016951546e-05, 7.113981700967997e-05, 7.578079384984449e-05, 8.0421770690009e-05, 8.506274753017351e-05, 8.970372437033802e-05, 9.434470121050254e-05, 9.898567805066705e-05, 0.00010362665489083156, 0.00010826763173099607, 0.00011290860857116058, 0.0001175495854113251, 0.00012219056952744722, 0.00012683153909165412]}, "gradients/cell_update.nn_layers.2.weight": {"_type": "histogram", "values": [1.0, 0.0, 0.0, 0.0, 0.0, 1.0, 0.0, 1.0, 0.0, 1.0, 1.0, 0.0, 0.0, 1.0, 0.0, 1.0, 0.0, 0.0, 0.0, 0.0, 0.0, 1.0, 1.0, 0.0, 2.0, 2.0, 0.0, 0.0, 0.0, 0.0, 0.0, 0.0, 0.0, 0.0, 0.0, 0.0, 215.0, 40.0, 10.0, 8.0, 10.0, 3.0, 3.0, 2.0, 3.0, 3.0, 1.0, 2.0, 0.0, 0.0, 0.0, 0.0, 1.0, 1.0, 0.0, 0.0, 2.0, 0.0, 1.0, 0.0, 1.0, 0.0, 0.0, 1.0], "bins": [-0.001549768727272749, -0.001507642213255167, -0.001465515699237585, -0.0014233890688046813, -0.0013812625547870994, -0.0013391360407695174, -0.0012970095267519355, -0.0012548830127343535, -0.0012127563823014498, -0.0011706298682838678, -0.001128503354266286, -0.001086376840248704, -0.001044250326231122, -0.00100212381221354, -0.0009599972399882972, -0.0009178706677630544, -0.0008757441537454724, -0.0008336176397278905, -0.0007914910675026476, -0.0007493645534850657, -0.0007072379812598228, -0.0006651114672422409, -0.000622984953224659, -0.0005808583809994161, -0.0005387318669818342, -0.0004966053529642522, -0.0004544787807390094, -0.00041235226672142744, -0.00037022572360001504, -0.00032809918047860265, -0.0002859726664610207, -0.0002438461233396083, -0.00020171969663351774, -0.00015959315351210535, -0.00011746662494260818, -7.53400890971534e-05, -3.321355325169861e-05, 8.912982593756169e-06, 5.103951843921095e-05, 9.316605428466573e-05, 0.00013529259013012052, 0.0001774191332515329, 0.00021954566182103008, 0.00026167219039052725, 0.00030379873351193964, 0.00034592527663335204, 0.000388051790650934, 0.0004301783337723464, 0.0004723048768937588, 0.0005144313909113407, 0.0005565579631365836, 0.0005986844771541655, 0.0006408110493794084, 0.0006829375633969903, 0.0007250640774145722, 0.0007671906496398151, 0.000809317163657397, 0.000851443677674979, 0.0008935702499002218, 0.0009356967639178038, 0.0009778232779353857, 0.0010199497919529676, 0.0010620764223858714, 0.0011042029364034534, 0.0011463294504210353]}, "gradients/cell_update.nn_layers.1.bias": {"_type": "histogram", "values": [1.0, 0.0, 0.0, 0.0, 0.0, 0.0, 0.0, 0.0, 1.0, 0.0, 0.0, 0.0, 0.0, 0.0, 0.0, 0.0, 0.0, 0.0, 0.0, 0.0, 0.0, 1.0, 8.0, 0.0, 0.0, 0.0, 0.0, 0.0, 0.0, 1.0, 1.0, 1.0, 0.0, 0.0, 0.0, 1.0, 0.0, 0.0, 0.0, 1.0, 0.0, 0.0, 0.0, 1.0, 0.0, 0.0, 0.0, 0.0, 0.0, 0.0, 0.0, 0.0, 0.0, 0.0, 1.0, 0.0, 0.0, 0.0, 0.0, 0.0, 1.0, 0.0, 0.0, 1.0], "bins": [-3.171990829287097e-05, -3.0304821848403662e-05, -2.8889735403936356e-05, -2.747464895946905e-05, -2.6059562515001744e-05, -2.4644476070534438e-05, -2.3229389626067132e-05, -2.1814303181599826e-05, -2.039921673713252e-05, -1.8984130292665213e-05, -1.7569043848197907e-05, -1.61539574037306e-05, -1.4738870959263295e-05, -1.3323784514795989e-05, -1.1908698070328683e-05, -1.0493611625861377e-05, -9.07852518139407e-06, -7.663438736926764e-06, -6.248352292459458e-06, -4.833265847992152e-06, -3.418179403524846e-06, -2.0030929590575397e-06, -5.880065145902336e-07, 8.270799298770726e-07, 2.2421663743443787e-06, 3.657252818811685e-06, 5.072339263278991e-06, 6.487425707746297e-06, 7.902512152213603e-06, 9.31759859668091e-06, 1.0732685041148216e-05, 1.2147771485615522e-05, 1.3562857930082828e-05, 1.4977944374550134e-05, 1.639303081901744e-05, 1.7808117263484746e-05, 1.9223203707952052e-05, 2.063829015241936e-05, 2.2053376596886665e-05, 2.346846304135397e-05, 2.4883549485821277e-05, 2.6298635930288583e-05, 2.771372237475589e-05, 2.9128808819223195e-05, 3.05438952636905e-05, 3.195898170815781e-05, 3.3374068152625114e-05, 3.478915459709242e-05, 3.6204241041559726e-05, 3.761932748602703e-05, 3.903441393049434e-05, 4.0449500374961644e-05, 4.186458681942895e-05, 4.327967326389626e-05, 4.469475970836356e-05, 4.610984615283087e-05, 4.7524932597298175e-05, 4.894001904176548e-05, 5.035510548623279e-05, 5.1770191930700094e-05, 5.31852783751674e-05, 5.4600364819634706e-05, 5.601545126410201e-05, 5.743053770856932e-05, 5.8845624153036624e-05]}, "gradients/cell_update.nn_layers.1.weight": {"_type": "histogram", "values": [2.0, 0.0, 1.0, 3.0, 2.0, 0.0, 0.0, 1.0, 2.0, 1.0, 3.0, 3.0, 1.0, 1.0, 0.0, 1.0, 1.0, 0.0, 0.0, 0.0, 0.0, 9.0, 270.0, 0.0, 0.0, 2.0, 4.0, 3.0, 8.0, 14.0, 5.0, 3.0, 3.0, 4.0, 2.0, 2.0, 5.0, 2.0, 4.0, 4.0, 3.0, 1.0, 1.0, 3.0, 0.0, 0.0, 0.0, 3.0, 1.0, 3.0, 0.0, 1.0, 2.0, 1.0, 3.0, 3.0, 2.0, 1.0, 1.0, 2.0, 1.0, 0.0, 1.0, 1.0], "bins": [-0.00017855102487374097, -0.00017055030912160873, -0.00016254957881756127, -0.00015454886306542903, -0.0001465481473132968, -0.00013854741700924933, -0.0001305467012571171, -0.00012254598550498486, -0.000114545262476895, -0.00010654453944880515, -9.854382369667292e-05, -9.054310066858307e-05, -8.254237764049321e-05, -7.454166188836098e-05, -6.654093886027113e-05, -5.854021947016008e-05, -5.053950008004904e-05, -4.2538780689937994e-05, -3.453806129982695e-05, -2.65373382717371e-05, -1.8536618881626055e-05, -1.0535898582020309e-05, -2.535178282414563e-06, 5.465542017191183e-06, 1.3466262316796929e-05, 2.1466981706907973e-05, 2.946770291600842e-05, 3.746842412510887e-05, 4.546914351521991e-05, 5.3469862905330956e-05, 6.147058593342081e-05, 6.947130168555304e-05, 7.747201016172767e-05, 8.547273318981752e-05, 9.347344894194975e-05, 0.0001014741719700396, 0.00010947488772217184, 0.0001174756107502617, 0.00012547633377835155, 0.00013347704953048378, 0.00014147776528261602, 0.00014947849558666348, 0.00015747921133879572, 0.00016547992709092796, 0.00017348065739497542, 0.00018148137314710766, 0.0001894820888992399, 0.00019748281920328736, 0.0002054835349554196, 0.00021348425070755184, 0.0002214849810115993, 0.00022948569676373154, 0.00023748641251586378, 0.00024548714281991124, 0.00025348784402012825, 0.0002614885743241757, 0.0002694893046282232, 0.0002774900058284402, 0.00028549073613248765, 0.0002934914664365351, 0.00030149216763675213, 0.0003094928979407996, 0.00031749362824484706, 0.00032549432944506407, 0.00033349505974911153]}, "gradients/cell_update.nn_layers.0.bias": {"_type": "histogram", "values": [1.0, 0.0, 0.0, 0.0, 0.0, 0.0, 0.0, 0.0, 9.0, 0.0, 0.0, 0.0, 1.0, 0.0, 0.0, 0.0, 1.0, 0.0, 0.0, 0.0, 0.0, 0.0, 0.0, 0.0, 1.0, 1.0, 0.0, 0.0, 0.0, 0.0, 0.0, 0.0, 1.0, 0.0, 0.0, 0.0, 1.0, 0.0, 0.0, 2.0, 0.0, 0.0, 0.0, 1.0, 0.0, 0.0, 0.0, 0.0, 0.0, 0.0, 0.0, 0.0, 0.0, 0.0, 0.0, 0.0, 0.0, 0.0, 0.0, 0.0, 0.0, 0.0, 0.0, 1.0], "bins": [-7.89070691098459e-06, -6.938812020962359e-06, -5.986917130940128e-06, -5.035021786170546e-06, -4.083126896148315e-06, -3.1312320061260834e-06, -2.1793368887301767e-06, -1.2274418850211077e-06, -2.7554688131203875e-07, 6.763481223970302e-07, 1.6282431261060992e-06, 2.580138243502006e-06, 3.532033133524237e-06, 4.4839280235464685e-06, 5.435823368316051e-06, 6.387718258338282e-06, 7.339613148360513e-06, 8.291508493130095e-06, 9.243402928404976e-06, 1.0195298273174558e-05, 1.1147192708449438e-05, 1.209908805321902e-05, 1.3050983397988603e-05, 1.4002877833263483e-05, 1.4954773178033065e-05, 1.5906667613307945e-05, 1.6858562958077528e-05, 1.781045830284711e-05, 1.8762353647616692e-05, 1.9714248992386274e-05, 2.0666142518166453e-05, 2.1618037862936035e-05, 2.2569933207705617e-05, 2.35218285524752e-05, 2.447372389724478e-05, 2.542561742302496e-05, 2.6377512767794542e-05, 2.7329408112564124e-05, 2.8281303457333706e-05, 2.923319880210329e-05, 3.0185092327883467e-05, 3.113698767265305e-05, 3.208888301742263e-05, 3.3040778362192214e-05, 3.3992673706961796e-05, 3.494456905173138e-05, 3.589646439650096e-05, 3.684835974127054e-05, 3.780025144806132e-05, 3.87521467928309e-05, 3.970404213760048e-05, 4.0655937482370064e-05, 4.1607832827139646e-05, 4.255972817190923e-05, 4.351162351667881e-05, 4.446351886144839e-05, 4.5415414206217974e-05, 4.6367309550987557e-05, 4.731920489575714e-05, 4.8271096602547914e-05, 4.9222991947317496e-05, 5.017488729208708e-05, 5.112678263685666e-05, 5.207867798162624e-05, 5.3030573326395825e-05]}, "gradients/cell_update.nn_layers.0.weight": {"_type": "histogram", "values": [19.0, 0.0, 1.0, 0.0, 0.0, 0.0, 1.0, 0.0, 0.0, 0.0, 0.0, 8.0, 11.0, 31.0, 8.0, 13.0, 9.0, 3.0, 20.0, 2.0, 0.0, 0.0, 38.0, 3.0, 1.0, 0.0, 0.0, 45.0, 0.0, 21.0, 5.0, 440.0, 2.0, 5.0, 28.0, 3.0, 43.0, 2.0, 0.0, 0.0, 1.0, 49.0, 2.0, 1.0, 0.0, 24.0, 0.0, 17.0, 7.0, 6.0, 43.0, 18.0, 6.0, 0.0, 0.0, 0.0, 0.0, 0.0, 0.0, 0.0, 0.0, 0.0, 0.0, 24.0], "bins": [-5.325525489752181e-05, -5.159102875040844e-05, -4.992680260329507e-05, -4.82625728182029e-05, -4.659834667108953e-05, -4.493412052397616e-05, -4.3269894376862794e-05, -4.1605668229749426e-05, -3.994144208263606e-05, -3.827721229754388e-05, -3.6612986150430515e-05, -3.494876000331715e-05, -3.328453385620378e-05, -3.162030770909041e-05, -2.995607974298764e-05, -2.829185177688487e-05, -2.66276256297715e-05, -2.4963399482658133e-05, -2.329917151655536e-05, -2.1634945369441994e-05, -1.9970717403339222e-05, -1.8306491256225854e-05, -1.6642265109112486e-05, -1.4978038052504417e-05, -1.3313810995896347e-05, -1.1649583939288277e-05, -9.985356882680207e-06, -8.32113073556684e-06, -6.65690367895877e-06, -4.9926766223507e-06, -3.3284500204899814e-06, -1.6642231912555872e-06, 3.637978807091713e-12, 1.6642304672132013e-06, 3.3284572964475956e-06, 4.992683898308314e-06, 6.656910954916384e-06, 8.321138011524454e-06, 9.985364158637822e-06, 1.1649591215245891e-05, 1.3313818271853961e-05, 1.497804532846203e-05, 1.66422723850701e-05, 1.830649853218347e-05, 1.9970724679296836e-05, 2.1634952645399608e-05, 2.3299178792512976e-05, 2.4963406758615747e-05, 2.6627632905729115e-05, 2.8291859052842483e-05, 2.9956087018945254e-05, 3.1620314985048026e-05, 3.3284541132161394e-05, 3.494876727927476e-05, 3.661299342638813e-05, 3.82772195735015e-05, 3.994144935859367e-05, 4.160567550570704e-05, 4.326990165282041e-05, 4.4934127799933776e-05, 4.6598353947047144e-05, 4.826258009416051e-05, 4.992680987925269e-05, 5.1591036026366055e-05, 5.325526217347942e-05]}, "gradients/encoder.nn_layers.2.bias": {"_type": "histogram", "values": [1.0, 0.0, 2.0, 1.0, 1.0, 2.0, 2.0, 0.0, 0.0, 0.0, 0.0, 0.0, 0.0, 0.0, 0.0, 0.0, 0.0, 0.0, 0.0, 0.0, 0.0, 0.0, 0.0, 0.0, 0.0, 0.0, 0.0, 0.0, 0.0, 0.0, 0.0, 0.0, 0.0, 0.0, 0.0, 0.0, 0.0, 0.0, 0.0, 0.0, 0.0, 0.0, 0.0, 0.0, 0.0, 0.0, 0.0, 0.0, 0.0, 0.0, 0.0, 0.0, 0.0, 0.0, 0.0, 0.0, 0.0, 0.0, 0.0, 0.0, 0.0, 0.0, 0.0, 1.0], "bins": [-0.009494727477431297, -0.008550258353352547, -0.007605789229273796, -0.006661319639533758, -0.0057168505154550076, -0.004772381391376257, -0.0038279120344668627, -0.0028834426775574684, -0.0019389735534787178, -0.0009945043129846454, -5.003507249057293e-05, 0.0008944341680034995, 0.001838903408497572, 0.0027833725325763226, 0.003727841889485717, 0.004672311246395111, 0.005616780370473862, 0.006561249494552612, 0.007505718618631363, 0.008450187742710114, 0.009394656866788864, 0.01033912692219019, 0.01128359604626894, 0.01222806517034769, 0.013172534294426441, 0.014117003418505192, 0.015061472542583942, 0.016005942597985268, 0.016950411722064018, 0.01789488084614277, 0.01883934997022152, 0.01978381909430027, 0.02072829008102417, 0.02167275920510292, 0.02261722832918167, 0.023561697453260422, 0.024506166577339172, 0.025450635701417923, 0.026395104825496674, 0.027339573949575424, 0.028284043073654175, 0.029228514060378075, 0.030172983184456825, 0.031117452308535576, 0.03206191956996918, 0.03300638869404793, 0.03395085781812668, 0.03489532694220543, 0.03583979606628418, 0.03678426891565323, 0.03772873803973198, 0.03867320716381073, 0.03961767628788948, 0.04056214541196823, 0.04150661453604698, 0.04245108366012573, 0.04339555278420448, 0.044340021908283234, 0.045284491032361984, 0.046228960156440735, 0.047173429280519485, 0.048117898404598236, 0.04906236752867699, 0.05000683665275574, 0.05095130577683449]}, "gradients/encoder.nn_layers.2.weight": {"_type": "histogram", "values": [1.0, 1.0, 3.0, 5.0, 7.0, 5.0, 16.0, 13.0, 5.0, 16.0, 120.0, 0.0, 0.0, 0.0, 0.0, 0.0, 1.0, 0.0, 1.0, 0.0, 0.0, 0.0, 0.0, 0.0, 0.0, 0.0, 0.0, 0.0, 0.0, 0.0, 0.0, 0.0, 0.0, 0.0, 0.0, 0.0, 0.0, 0.0, 2.0, 0.0, 0.0, 1.0, 0.0, 0.0, 0.0, 0.0, 0.0, 0.0, 0.0, 0.0, 0.0, 0.0, 0.0, 1.0, 0.0, 0.0, 0.0, 0.0, 1.0, 0.0, 0.0, 0.0, 0.0, 1.0], "bins": [-0.013144362717866898, -0.01184333860874176, -0.010542314499616623, -0.009241289459168911, -0.007940265350043774, -0.006639241240918636, -0.005338216666132212, -0.004037192091345787, -0.0027361679822206497, -0.0014351436402648687, -0.00013411929830908775, 0.0011669050436466932, 0.002467929385602474, 0.003768953727558255, 0.005069978069514036, 0.006371002644300461, 0.007672026753425598, 0.008973050862550735, 0.010274074971675873, 0.011575100012123585, 0.012876124121248722, 0.01417714823037386, 0.015478173270821571, 0.01677919737994671, 0.018080221489071846, 0.019381245598196983, 0.02068226970732212, 0.021983293816447258, 0.023284319788217545, 0.024585343897342682, 0.02588636800646782, 0.027187392115592957, 0.028488419950008392, 0.02978944405913353, 0.031090468168258667, 0.032391492277383804, 0.03369251638650894, 0.03499354049563408, 0.036294564604759216, 0.037595588713884354, 0.03889661282300949, 0.04019764065742493, 0.041498664766550064, 0.0427996888756752, 0.04410071298480034, 0.045401737093925476, 0.04670276120305061, 0.04800378531217575, 0.04930480942130089, 0.050605833530426025, 0.05190685763955116, 0.0532078817486763, 0.05450890585780144, 0.055809929966926575, 0.05711095407605171, 0.05841197818517685, 0.059713006019592285, 0.06101403012871742, 0.06231505423784256, 0.0636160746216774, 0.06491710245609283, 0.06621812283992767, 0.06751915067434311, 0.06882017105817795, 0.07012119889259338]}, "gradients/encoder.nn_layers.1.bias": {"_type": "histogram", "values": [1.0, 0.0, 0.0, 0.0, 0.0, 0.0, 0.0, 0.0, 0.0, 0.0, 0.0, 0.0, 0.0, 12.0, 0.0, 0.0, 0.0, 0.0, 0.0, 0.0, 0.0, 0.0, 0.0, 0.0, 0.0, 0.0, 0.0, 1.0, 0.0, 0.0, 0.0, 0.0, 0.0, 0.0, 0.0, 1.0, 0.0, 1.0, 0.0, 1.0, 0.0, 0.0, 0.0, 0.0, 0.0, 0.0, 0.0, 0.0, 0.0, 0.0, 0.0, 0.0, 0.0, 0.0, 1.0, 0.0, 1.0, 0.0, 0.0, 0.0, 0.0, 0.0, 0.0, 1.0], "bins": [-0.005382781848311424, -0.004995733965188265, -0.004608685616403818, -0.004221637733280659, -0.0038345896173268557, -0.0034475415013730526, -0.003060493618249893, -0.00267344550229609, -0.002286397386342287, -0.001899349270388484, -0.0015123012708500028, -0.0011252532713115215, -0.0007382051553577185, -0.0003511570976115763, 3.589096013456583e-05, 0.000422939017880708, 0.0008099870756268501, 0.0011970351915806532, 0.0015840831911191344, 0.0019711311906576157, 0.0023581793066114187, 0.002745227422565222, 0.003132275305688381, 0.0035193234216421843, 0.003906371537595987, 0.004293419420719147, 0.0046804677695035934, 0.005067515652626753, 0.005454563535749912, 0.005841611884534359, 0.006228659767657518, 0.006615708116441965, 0.0070027559995651245, 0.007389803882688284, 0.007776852231472731, 0.00816390011459589, 0.008550948463380337, 0.008937995880842209, 0.009325044229626656, 0.009712092578411102, 0.010099140927195549, 0.010486188344657421, 0.010873236693441868, 0.011260285042226315, 0.011647332459688187, 0.012034380808472633, 0.01242142915725708, 0.012808476574718952, 0.013195524923503399, 0.013582573272287846, 0.013969620689749718, 0.014356669038534164, 0.014743717387318611, 0.015130764804780483, 0.01551781315356493, 0.015904860571026802, 0.01629190891981125, 0.016678957268595695, 0.017066005617380142, 0.01745305396616459, 0.017840102314949036, 0.018227148801088333, 0.01861419714987278, 0.019001245498657227, 0.019388293847441673]}, "gradients/encoder.nn_layers.1.weight": {"_type": "histogram", "values": [1.0, 1.0, 0.0, 0.0, 0.0, 0.0, 1.0, 1.0, 2.0, 1.0, 1.0, 2.0, 1.0, 305.0, 6.0, 2.0, 5.0, 1.0, 7.0, 8.0, 2.0, 3.0, 6.0, 5.0, 6.0, 1.0, 5.0, 2.0, 0.0, 3.0, 2.0, 1.0, 1.0, 3.0, 0.0, 4.0, 2.0, 1.0, 0.0, 1.0, 1.0, 0.0, 0.0, 0.0, 0.0, 0.0, 0.0, 0.0, 0.0, 0.0, 1.0, 0.0, 1.0, 0.0, 1.0, 0.0, 1.0, 0.0, 0.0, 1.0, 0.0, 0.0, 0.0, 1.0], "bins": [-0.011714302934706211, -0.010871876031160355, -0.010029450058937073, -0.009187024086713791, -0.008344597183167934, -0.007502170745283365, -0.006659744307398796, -0.005817317869514227, -0.004974891431629658, -0.004132464993745089, -0.0032900385558605194, -0.0024476121179759502, -0.001605185680091381, -0.0007627592422068119, 7.966719567775726e-05, 0.0009220936335623264, 0.0017645200714468956, 0.0026069465093314648, 0.003449372947216034, 0.004291799385100603, 0.005134225822985172, 0.0059766522608697414, 0.006819078698754311, 0.00766150513663888, 0.008503931574523449, 0.009346358478069305, 0.010188784450292587, 0.01103121042251587, 0.011873637326061726, 0.012716064229607582, 0.013558490201830864, 0.014400916174054146, 0.015243344008922577, 0.01608576998114586, 0.01692819595336914, 0.01777062378823757, 0.018613049760460854, 0.019455475732684135, 0.020297903567552567, 0.02114032953977585, 0.02198275551199913, 0.022825181484222412, 0.023667607456445694, 0.024510035291314125, 0.025352461263537407, 0.02619488723576069, 0.02703731507062912, 0.0278797410428524, 0.028722167015075684, 0.029564592987298965, 0.030407018959522247, 0.03124944679439068, 0.03209187090396881, 0.03293430060148239, 0.03377672657370567, 0.034619152545928955, 0.03546157851815224, 0.03630400449037552, 0.0371464304625988, 0.03798885643482208, 0.03883128613233566, 0.039673712104558945, 0.04051613807678223, 0.04135856404900551, 0.04220099002122879]}, "gradients/encoder.nn_layers.0.bias": {"_type": "histogram", "values": [1.0, 0.0, 0.0, 0.0, 0.0, 0.0, 0.0, 0.0, 0.0, 0.0, 0.0, 0.0, 0.0, 0.0, 0.0, 0.0, 0.0, 0.0, 0.0, 0.0, 0.0, 1.0, 0.0, 0.0, 0.0, 0.0, 0.0, 0.0, 1.0, 0.0, 0.0, 8.0, 0.0, 0.0, 0.0, 0.0, 0.0, 1.0, 0.0, 0.0, 0.0, 0.0, 1.0, 0.0, 0.0, 1.0, 0.0, 0.0, 0.0, 1.0, 0.0, 0.0, 0.0, 1.0, 0.0, 0.0, 1.0, 1.0, 0.0, 1.0, 0.0, 0.0, 0.0, 1.0], "bins": [-0.011508611030876637, -0.011138342320919037, -0.010768073610961437, -0.010397804901003838, -0.010027536191046238, -0.009657267481088638, -0.009286999702453613, -0.008916730992496014, -0.008546462282538414, -0.008176193572580814, -0.007805924862623215, -0.007435656152665615, -0.0070653874427080154, -0.006695118732750416, -0.0063248504884541035, -0.005954581778496504, -0.005584313068538904, -0.0052140443585813046, -0.004843775648623705, -0.004473507404327393, -0.004103238694369793, -0.0037329699844121933, -0.0033627012744545937, -0.0029924327973276377, -0.002622164087370038, -0.0022518953774124384, -0.0018816269002854824, -0.0015113581903278828, -0.001141089596785605, -0.0007708210032433271, -0.0004005523514933884, -3.0283728847280145e-05, 0.0003399848937988281, 0.0007102534873411059, 0.0010805220808833838, 0.0014507907908409834, 0.0018210593843832612, 0.002191327977925539, 0.0025615966878831387, 0.0029318651650100946, 0.0033021338749676943, 0.003672402584925294, 0.00404267106205225, 0.0044129397720098495, 0.004783208481967449, 0.005153477191925049, 0.005523745436221361, 0.005894014146178961, 0.0062642828561365604, 0.00663455156609416, 0.00700482027605176, 0.007375088520348072, 0.007745357230305672, 0.008115625940263271, 0.008485894650220871, 0.00885616336017847, 0.00922643207013607, 0.00959670078009367, 0.00996696949005127, 0.010337237268686295, 0.010707505978643894, 0.011077774688601494, 0.011448043398559093, 0.011818312108516693, 0.012188580818474293]}, "gradients/encoder.nn_layers.0.weight": {"_type": "histogram", "values": [6.0, 3.0, 12.0, 7.0, 5.0, 4.0, 15.0, 14.0, 10.0, 1.0, 5.0, 11.0, 3.0, 5.0, 2.0, 11.0, 0.0, 0.0, 16.0, 1.0, 0.0, 16.0, 13.0, 1.0, 0.0, 15.0, 2.0, 1.0, 1.0, 12.0, 2.0, 4.0, 266.0, 4.0, 20.0, 2.0, 0.0, 0.0, 13.0, 1.0, 2.0, 15.0, 13.0, 0.0, 1.0, 12.0, 1.0, 2.0, 7.0, 0.0, 6.0, 0.0, 7.0, 5.0, 1.0, 7.0, 9.0, 12.0, 3.0, 6.0, 9.0, 8.0, 5.0, 5.0], "bins": [-0.012187973596155643, -0.011807113885879517, -0.01142625417560339, -0.011045393534004688, -0.010664533823728561, -0.010283674113452435, -0.009902814403176308, -0.00952195469290018, -0.009141094982624054, -0.008760234341025352, -0.008379374630749226, -0.007998514920473099, -0.007617655210196972, -0.007236795034259558, -0.006855935323983431, -0.006475075148046017, -0.00609421543776989, -0.005713355727493763, -0.005332495551556349, -0.004951635841280222, -0.004570775665342808, -0.004189915955066681, -0.003809056244790554, -0.0034281963016837835, -0.003047336358577013, -0.0026664764154702425, -0.002285616472363472, -0.0019047567620873451, -0.0015238968189805746, -0.001143036875873804, -0.0007621770491823554, -0.0003813171642832458, -4.5821070671081543e-07, 0.0003804016741923988, 0.0007612615590915084, 0.001142121385782957, 0.0015229813288897276, 0.001903841271996498, 0.002284700982272625, 0.0026655609253793955, 0.003046420868486166, 0.0034272808115929365, 0.003808140754699707, 0.004189000464975834, 0.004569860175251961, 0.004950720351189375, 0.005331580061465502, 0.005712440237402916, 0.006093299947679043, 0.00647415965795517, 0.006855019833892584, 0.007235879544168711, 0.007616739720106125, 0.007997599430382252, 0.008378459140658379, 0.008759318850934505, 0.009140178561210632, 0.009521039202809334, 0.00990189891308546, 0.010282758623361588, 0.010663618333637714, 0.011044478043913841, 0.011425338685512543, 0.01180619839578867, 0.012187058106064796]}, "gradients/phi_x.nn_layers.2.bias": {"_type": "histogram", "values": [1.0, 0.0, 0.0, 0.0, 0.0, 0.0, 0.0, 0.0, 0.0, 0.0, 0.0, 0.0, 1.0, 0.0, 0.0, 0.0, 0.0, 0.0, 0.0, 0.0, 0.0, 2.0, 0.0, 3.0, 3.0, 1.0, 0.0, 2.0, 0.0, 0.0, 0.0, 0.0, 0.0, 0.0, 0.0, 0.0, 0.0, 0.0, 0.0, 0.0, 1.0, 0.0, 0.0, 0.0, 0.0, 0.0, 0.0, 0.0, 0.0, 0.0, 0.0, 0.0, 1.0, 0.0, 0.0, 0.0, 0.0, 0.0, 0.0, 0.0, 0.0, 0.0, 0.0, 1.0], "bins": [-0.000719352625310421, -0.0006894019898027182, -0.0006594512960873544, -0.0006295006605796516, -0.0005995499668642879, -0.000569599331356585, -0.0005396486376412213, -0.0005096980021335185, -0.0004797473375219852, -0.0004497966729104519, -0.0004198460082989186, -0.0003898953436873853, -0.0003599447081796825, -0.0003299940435681492, -0.0003000433789566159, -0.00027009271434508264, -0.00024014204973354936, -0.00021019138512201607, -0.0001802407205104828, -0.00015029007045086473, -0.00012033940583933145, -9.038874122779816e-05, -6.0438083892222494e-05, -3.0487422918668017e-05, -5.367619451135397e-07, 2.9413899028440937e-05, 5.9364560001995414e-05, 8.931521733757108e-05, 0.00011926588194910437, 0.00014921654656063765, 0.0001791671966202557, 0.000209117861231789, 0.00023906852584332228, 0.00026901919045485556, 0.00029896985506638885, 0.00032892051967792213, 0.0003588711842894554, 0.00038882181979715824, 0.0004187724844086915, 0.0004487231490202248, 0.0004786738136317581, 0.0005086244782432914, 0.0005385751137509942, 0.000568525807466358, 0.0005984764429740608, 0.0006284271366894245, 0.0006583777721971273, 0.0006883284659124911, 0.0007182791014201939, 0.0007482297369278967, 0.0007781804306432605, 0.0008081310661509633, 0.000838081759866327, 0.0008680323953740299, 0.0008979830890893936, 0.0009279337245970964, 0.0009578843601047993, 0.000987834995612502, 0.0010177857475355268, 0.0010477363830432296, 0.0010776870185509324, 0.0011076376540586352, 0.0011375884059816599, 0.0011675390414893627, 0.0011974896769970655]}, "gradients/phi_x.nn_layers.2.weight": {"_type": "histogram", "values": [1.0, 0.0, 0.0, 0.0, 0.0, 0.0, 0.0, 0.0, 0.0, 2.0, 0.0, 0.0, 1.0, 3.0, 1.0, 2.0, 2.0, 0.0, 2.0, 4.0, 0.0, 2.0, 11.0, 208.0, 35.0, 15.0, 3.0, 1.0, 0.0, 0.0, 5.0, 1.0, 0.0, 1.0, 3.0, 1.0, 2.0, 1.0, 2.0, 1.0, 3.0, 2.0, 1.0, 0.0, 0.0, 0.0, 0.0, 0.0, 2.0, 0.0, 0.0, 0.0, 0.0, 1.0, 0.0, 0.0, 0.0, 0.0, 0.0, 0.0, 0.0, 0.0, 0.0, 1.0], "bins": [-0.002499682828783989, -0.002395445480942726, -0.0022912081331014633, -0.0021869707852602005, -0.0020827334374189377, -0.001978496089577675, -0.0018742588581517339, -0.001770021510310471, -0.0016657841624692082, -0.0015615468146279454, -0.0014573094667866826, -0.0013530721189454198, -0.0012488348875194788, -0.001144597539678216, -0.0010403601918369532, -0.0009361228439956903, -0.0008318854961544275, -0.0007276481483131647, -0.0006234108004719019, -0.0005191735108383, -0.00041493616299703717, -0.00031069881515577435, -0.000206461496418342, -0.0001022241631289944, 2.0131701603531837e-06, 0.00010625050344970077, 0.00021048783673904836, 0.0003147251554764807, 0.00041896250331774354, 0.0005231998511590064, 0.0006274371407926083, 0.0007316744886338711, 0.0008359118364751339, 0.0009401491843163967, 0.0010443865321576595, 0.0011486238799989223, 0.0012528612278401852, 0.0013570984592661262, 0.001461335807107389, 0.0015655731549486518, 0.0016698105027899146, 0.0017740478506311774, 0.0018782851984724402, 0.0019825224298983812, 0.002086759777739644, 0.002190997125580907, 0.0022952344734221697, 0.0023994718212634325, 0.0025037091691046953, 0.002607946516945958, 0.002712183864787221, 0.0028164212126284838, 0.0029206585604697466, 0.0030248959083110094, 0.0031291332561522722, 0.003233370603993535, 0.003337607719004154, 0.003441845066845417, 0.00354608241468668, 0.0036503197625279427, 0.0037545571103692055, 0.0038587944582104683, 0.003963031806051731, 0.004067269153892994, 0.004171506501734257]}, "gradients/phi_x.nn_layers.1.bias": {"_type": "histogram", "values": [1.0, 0.0, 0.0, 0.0, 0.0, 0.0, 0.0, 0.0, 0.0, 0.0, 1.0, 0.0, 0.0, 0.0, 0.0, 0.0, 0.0, 0.0, 0.0, 0.0, 0.0, 1.0, 0.0, 0.0, 0.0, 1.0, 11.0, 0.0, 0.0, 0.0, 0.0, 0.0, 0.0, 1.0, 0.0, 1.0, 0.0, 1.0, 0.0, 0.0, 0.0, 0.0, 0.0, 0.0, 0.0, 0.0, 0.0, 1.0, 0.0, 0.0, 0.0, 0.0, 0.0, 0.0, 0.0, 0.0, 0.0, 0.0, 0.0, 0.0, 0.0, 0.0, 0.0, 1.0], "bins": [-0.00022709017503075302, -0.0002184854238294065, -0.00020988067262805998, -0.0002012759359786287, -0.00019267118477728218, -0.00018406643357593566, -0.00017546169692650437, -0.00016685694572515786, -0.00015825219452381134, -0.00014964744332246482, -0.0001410426921211183, -0.00013243795547168702, -0.0001238332042703405, -0.00011522845306899399, -0.00010662370914360508, -9.801896521821618e-05, -8.941421401686966e-05, -8.080946281552315e-05, -7.220471889013425e-05, -6.359997496474534e-05, -5.4995223763398826e-05, -4.6390476200031117e-05, -3.778572863666341e-05, -2.9180981073295698e-05, -2.0576233509927988e-05, -1.1971485946560279e-05, -3.366738383192569e-06, 5.2380091801751405e-06, 1.384275674354285e-05, 2.244750430691056e-05, 3.105225187027827e-05, 3.965699943364598e-05, 4.826171789318323e-05, 5.686646545655094e-05, 6.547121301991865e-05, 7.407595694530755e-05, 8.268070814665407e-05, 9.128545934800059e-05, 9.989020327338949e-05, 0.00010849494719877839, 0.00011709969840012491, 0.00012570444960147142, 0.00013430920080281794, 0.00014291393745224923, 0.00015151868865359575, 0.00016012343985494226, 0.00016872817650437355, 0.00017733292770572007, 0.00018593767890706658, 0.0001945424301084131, 0.00020314718130975962, 0.0002117519179591909, 0.00022035666916053742, 0.00022896142036188394, 0.00023756615701131523, 0.00024617090821266174, 0.00025477565941400826, 0.0002633804106153548, 0.0002719851618167013, 0.0002805899130180478, 0.00028919463511556387, 0.0002977993863169104, 0.0003064041375182569, 0.0003150088887196034, 0.00032361363992094994]}, "gradients/phi_x.nn_layers.1.weight": {"_type": "histogram", "values": [1.0, 0.0, 0.0, 0.0, 0.0, 0.0, 0.0, 0.0, 0.0, 0.0, 1.0, 0.0, 1.0, 1.0, 0.0, 1.0, 3.0, 0.0, 5.0, 3.0, 5.0, 6.0, 3.0, 4.0, 8.0, 18.0, 265.0, 3.0, 15.0, 14.0, 9.0, 5.0, 4.0, 4.0, 3.0, 3.0, 2.0, 3.0, 2.0, 2.0, 1.0, 1.0, 0.0, 0.0, 1.0, 1.0, 0.0, 1.0, 0.0, 0.0, 0.0, 0.0, 0.0, 0.0, 0.0, 0.0, 0.0, 0.0, 0.0, 0.0, 0.0, 0.0, 0.0, 1.0], "bins": [-0.0003837099066004157, -0.00036910761264152825, -0.00035450534778647125, -0.0003399030538275838, -0.00032530075986869633, -0.00031069849501363933, -0.0002960962010547519, -0.0002814939070958644, -0.00026689161313697696, -0.00025228934828191996, -0.0002376870543230325, -0.00022308477491606027, -0.00020848249550908804, -0.00019388020155020058, -0.00017927792214322835, -0.0001646756281843409, -0.00015007334877736866, -0.00013547106937039644, -0.00012086877541150898, -0.00010626649600453675, -9.16642093216069e-05, -7.706192263867706e-05, -6.245964323170483e-05, -4.785735654877499e-05, -3.3255069865845144e-05, -1.8652785001904704e-05, -4.0505001379642636e-06, 1.0551784725976177e-05, 2.5154069589916617e-05, 3.975635627284646e-05, 5.43586393177975e-05, 6.896092236274853e-05, 8.356320904567838e-05, 9.816549572860822e-05, 0.00011276778241153806, 0.0001273700618185103, 0.00014197235577739775, 0.00015657463518436998, 0.0001711769145913422, 0.00018577920855022967, 0.0002003814879572019, 0.00021498376736417413, 0.00022958606132306159, 0.00024418835528194904, 0.00025879062013700604, 0.0002733929140958935, 0.00028799520805478096, 0.00030259747290983796, 0.0003171997668687254, 0.0003318020608276129, 0.0003464043256826699, 0.00036100661964155734, 0.0003756089136004448, 0.0003902111784555018, 0.00040481347241438925, 0.0004194157663732767, 0.0004340180312283337, 0.00044862032518722117, 0.00046322261914610863, 0.0004778249131049961, 0.0004924272070638835, 0.0005070294719189405, 0.0005216317367739975, 0.0005362340598367155, 0.0005508363246917725]}, "gradients/phi_x.nn_layers.0.bias": {"_type": "histogram", "values": [1.0, 0.0, 0.0, 1.0, 0.0, 0.0, 0.0, 1.0, 0.0, 0.0, 0.0, 0.0, 0.0, 0.0, 0.0, 0.0, 0.0, 0.0, 0.0, 1.0, 0.0, 0.0, 1.0, 0.0, 0.0, 1.0, 0.0, 0.0, 1.0, 0.0, 1.0, 0.0, 0.0, 0.0, 2.0, 0.0, 2.0, 0.0, 1.0, 0.0, 0.0, 0.0, 0.0, 1.0, 0.0, 2.0, 0.0, 1.0, 0.0, 0.0, 0.0, 0.0, 0.0, 0.0, 0.0, 0.0, 0.0, 0.0, 0.0, 0.0, 1.0, 1.0, 0.0, 1.0], "bins": [-0.00011460058158263564, -0.00011146164615638554, -0.00010832271073013544, -0.00010518377530388534, -0.00010204483987763524, -9.890590445138514e-05, -9.576696902513504e-05, -9.262803359888494e-05, -8.948909817263484e-05, -8.635017002234235e-05, -8.321123459609225e-05, -8.007229916984215e-05, -7.693336374359205e-05, -7.379442831734195e-05, -7.065549289109185e-05, -6.751655746484175e-05, -6.437762203859165e-05, -6.123868661234155e-05, -5.809975118609145e-05, -5.496081575984135e-05, -5.182188033359125e-05, -4.868294854531996e-05, -4.554401311906986e-05, -4.240507769281976e-05, -3.926614226656966e-05, -3.612720684031956e-05, -3.298827141406946e-05, -2.9849337806808762e-05, -2.6710402380558662e-05, -2.3571466954308562e-05, -2.0432533347047865e-05, -1.7293597920797765e-05, -1.4154655218590051e-05, -1.101571979233995e-05, -7.876785275584552e-06, -4.737850304081803e-06, -1.598915332579054e-06, 1.5400196389236953e-06, 4.6789546104264446e-06, 7.817889127181843e-06, 1.0956824553431943e-05, 1.4095759979682043e-05, 1.7234695405932143e-05, 2.037362901319284e-05, 2.351256443944294e-05, 2.665149986569304e-05, 2.9790433472953737e-05, 3.292936889920384e-05, 3.606830432545394e-05, 3.920723975170404e-05, 4.234617517795414e-05, 4.548511060420424e-05, 4.862404603045434e-05, 5.176297781872563e-05, 5.490191324497573e-05, 5.804084867122583e-05, 6.117978773545474e-05, 6.431871588574722e-05, 6.745765131199732e-05, 7.059658673824742e-05, 7.373552216449752e-05, 7.687445759074762e-05, 8.001339301699772e-05, 8.315232844324782e-05, 8.629126386949793e-05]}, "gradients/phi_x.nn_layers.0.weight": {"_type": "histogram", "values": [2.0, 0.0, 0.0, 2.0, 0.0, 0.0, 1.0, 0.0, 1.0, 1.0, 0.0, 2.0, 1.0, 1.0, 2.0, 1.0, 1.0, 3.0, 0.0, 1.0, 2.0, 0.0, 0.0, 3.0, 3.0, 2.0, 4.0, 6.0, 7.0, 3.0, 5.0, 5.0, 8.0, 5.0, 10.0, 26.0, 5.0, 8.0, 6.0, 5.0, 8.0, 5.0, 7.0, 5.0, 1.0, 3.0, 0.0, 1.0, 1.0, 1.0, 0.0, 3.0, 3.0, 1.0, 3.0, 0.0, 0.0, 0.0, 1.0, 1.0, 2.0, 1.0, 0.0, 1.0], "bins": [-9.261618833988905e-05, -9.002922888612375e-05, -8.744226215640083e-05, -8.485530270263553e-05, -8.226833597291261e-05, -7.96813765191473e-05, -7.709440978942439e-05, -7.450745033565909e-05, -7.192048360593617e-05, -6.933352415217087e-05, -6.674656469840556e-05, -6.415959796868265e-05, -6.157263851491734e-05, -5.8985675423173234e-05, -5.6398712331429124e-05, -5.3811749239685014e-05, -5.1224786147940904e-05, -4.8637823056196794e-05, -4.6050859964452684e-05, -4.3463896872708574e-05, -4.0876933780964464e-05, -3.828997432719916e-05, -3.570301123545505e-05, -3.311604814371094e-05, -3.052908505196683e-05, -2.794212196022272e-05, -2.535515886847861e-05, -2.2768197595723905e-05, -2.0181234503979795e-05, -1.7594271412235685e-05, -1.5007309229986276e-05, -1.2420347047736868e-05, -9.833383955992758e-06, -7.246421318995999e-06, -4.65945868199924e-06, -2.072496045002481e-06, 5.144665919942781e-07, 3.1014292289910372e-06, 5.688391865987796e-06, 8.275354048237205e-06, 1.0862317139981315e-05, 1.3449280231725425e-05, 1.6036243323469535e-05, 1.862320459622424e-05, 2.121016768796835e-05, 2.379713077971246e-05, 2.6384092052467167e-05, 2.8971055144211277e-05, 3.155801823595539e-05, 3.41449813276995e-05, 3.673194441944361e-05, 3.931890751118772e-05, 4.190587060293183e-05, 4.449283005669713e-05, 4.707979314844124e-05, 4.966675624018535e-05, 5.225371933192946e-05, 5.484068242367357e-05, 5.742764551541768e-05, 6.001460860716179e-05, 6.260156806092709e-05, 6.518853479065001e-05, 6.777549424441531e-05, 7.036246097413823e-05, 7.294942042790353e-05]}, "gradients/prior.nn_layers.2.bias": {"_type": "histogram", "values": [1.0, 0.0, 0.0, 0.0, 0.0, 0.0, 0.0, 0.0, 0.0, 0.0, 0.0, 0.0, 0.0, 0.0, 0.0, 0.0, 0.0, 0.0, 0.0, 0.0, 0.0, 0.0, 0.0, 0.0, 0.0, 0.0, 0.0, 0.0, 0.0, 0.0, 0.0, 0.0, 0.0, 0.0, 0.0, 0.0, 0.0, 0.0, 0.0, 0.0, 0.0, 0.0, 0.0, 4.0, 2.0, 0.0, 0.0, 1.0, 0.0, 0.0, 0.0, 0.0, 0.0, 0.0, 0.0, 0.0, 0.0, 0.0, 0.0, 1.0, 0.0, 0.0, 0.0, 1.0], "bins": [-0.0023362040519714355, -0.0022823840845376253, -0.0022285638842731714, -0.002174743916839361, -0.002120923949405551, -0.0020671039819717407, -0.002013283781707287, -0.0019594638142734766, -0.0019056438468396664, -0.0018518237629905343, -0.0017980036791414022, -0.001744183711707592, -0.00169036362785846, -0.0016365436604246497, -0.0015827235765755177, -0.0015289036091417074, -0.0014750835252925754, -0.0014212634414434433, -0.001367443474009633, -0.001313623390160501, -0.0012598034227266908, -0.0012059833388775587, -0.0011521633714437485, -0.0010983432875946164, -0.0010445232037454844, -0.0009907032363116741, -0.000936883210670203, -0.0008830631850287318, -0.0008292431011795998, -0.0007754230755381286, -0.0007216030498966575, -0.0006677830242551863, -0.0006139629986137152, -0.000560142972972244, -0.0005063229473307729, -0.00045250289258547127, -0.0003986828669440001, -0.000344862841302529, -0.0002910427865572274, -0.00023722276091575623, -0.00018340273527428508, -0.00012958270963281393, -7.576266943942755e-05, -2.1942636521998793e-05, 3.187739639542997e-05, 8.569742931285873e-05, 0.0001395174622302875, 0.00019333750242367387, 0.000247157528065145, 0.00030097755370661616, 0.0003547975793480873, 0.0004086176340933889, 0.00046243765973486006, 0.0005162577144801617, 0.0005700777401216328, 0.000623897765763104, 0.0006777177914045751, 0.0007315378170460463, 0.0007853578426875174, 0.0008391778683289886, 0.0008929979521781206, 0.0009468179778195918, 0.001000638003461063, 0.0010544579708948731, 0.0011082780547440052]}, "gradients/prior.nn_layers.2.weight": {"_type": "histogram", "values": [1.0, 0.0, 0.0, 1.0, 1.0, 1.0, 0.0, 0.0, 0.0, 2.0, 1.0, 3.0, 0.0, 1.0, 2.0, 0.0, 1.0, 0.0, 0.0, 0.0, 0.0, 0.0, 0.0, 0.0, 0.0, 0.0, 0.0, 0.0, 0.0, 0.0, 0.0, 0.0, 0.0, 0.0, 0.0, 0.0, 0.0, 0.0, 0.0, 0.0, 0.0, 0.0, 0.0, 137.0, 7.0, 1.0, 9.0, 4.0, 0.0, 0.0, 0.0, 0.0, 0.0, 1.0, 3.0, 3.0, 5.0, 4.0, 4.0, 4.0, 0.0, 2.0, 1.0, 1.0], "bins": [-0.007793075870722532, -0.007613543886691332, -0.0074340119026601315, -0.007254479452967644, -0.007074947468936443, -0.006895415484905243, -0.0067158835008740425, -0.006536351051181555, -0.006356819067150354, -0.006177287083119154, -0.005997755099087954, -0.005818223115056753, -0.0056386906653642654, -0.005459158681333065, -0.005279626697301865, -0.005100094713270664, -0.004920562729239464, -0.004741030279546976, -0.004561498295515776, -0.004381966311484575, -0.004202434327453375, -0.004022901877760887, -0.0038433698937296867, -0.0036638379096984863, -0.003484305925667286, -0.003304773708805442, -0.0031252417247742414, -0.0029457095079123974, -0.002766177523881197, -0.002586645307019353, -0.0024071133229881525, -0.0022275811061263084, -0.0020480488892644644, -0.0018685167888179421, -0.00168898468837142, -0.0015094525879248977, -0.0013299204874783754, -0.001150388503447175, -0.0009708564030006528, -0.0007913243025541306, -0.0006117922021076083, -0.0004322601016610861, -0.0002527280303183943, -7.31959444237873e-05, 0.00010633614147081971, 0.00028586824191734195, 0.0004654003132600337, 0.0006449323846027255, 0.0008244644850492477, 0.00100399658549577, 0.0011835286859422922, 0.0013630607863888144, 0.0015425928868353367, 0.001722124870866537, 0.0019016569713130593, 0.0020811890717595816, 0.0022607212886214256, 0.002440253272652626, 0.0026197852566838264, 0.0027993174735456705, 0.002978849457576871, 0.003158381674438715, 0.0033379136584699154, 0.0035174458753317595, 0.00369697785936296]}, "gradients/prior.nn_layers.1.bias": {"_type": "histogram", "values": [2.0, 0.0, 0.0, 0.0, 0.0, 1.0, 1.0, 0.0, 1.0, 1.0, 1.0, 0.0, 0.0, 0.0, 0.0, 1.0, 0.0, 0.0, 1.0, 0.0, 1.0, 0.0, 1.0, 0.0, 0.0, 0.0, 1.0, 0.0, 0.0, 0.0, 0.0, 1.0, 1.0, 0.0, 0.0, 0.0, 0.0, 0.0, 0.0, 0.0, 0.0, 0.0, 0.0, 0.0, 0.0, 0.0, 0.0, 0.0, 0.0, 0.0, 0.0, 0.0, 0.0, 0.0, 0.0, 0.0, 0.0, 0.0, 0.0, 0.0, 0.0, 0.0, 0.0, 6.0], "bins": [-0.0017066941363736987, -0.0016800269950181246, -0.0016533599700778723, -0.0016266928287222981, -0.0016000258037820458, -0.0015733586624264717, -0.0015466915210708976, -0.0015200244961306453, -0.0014933573547750711, -0.0014666903298348188, -0.0014400231884792447, -0.0014133560471236706, -0.0013866890221834183, -0.0013600218808278441, -0.00133335473947227, -0.0013066877145320177, -0.0012800205731764436, -0.0012533535482361913, -0.0012266864068806171, -0.001200019265525043, -0.0011733522405847907, -0.0011466850992292166, -0.0011200180742889643, -0.0010933509329333901, -0.001066683791577816, -0.0010400167666375637, -0.0010133496252819896, -0.0009866826003417373, -0.0009600154589861631, -0.0009333483758382499, -0.0009066812344826758, -0.0008800141513347626, -0.0008533470681868494, -0.0008266799850389361, -0.0008000129018910229, -0.0007733457605354488, -0.0007466786773875356, -0.0007200115942396224, -0.0006933445110917091, -0.000666677369736135, -0.0006400102865882218, -0.0006133432034403086, -0.0005866761202923954, -0.0005600090371444821, -0.000533341895788908, -0.0005066748126409948, -0.00048000772949308157, -0.0004533406172413379, -0.0004266735340934247, -0.00040000645094551146, -0.0003733393386937678, -0.00034667225554585457, -0.0003200051432941109, -0.0002933380601461977, -0.000266670947894454, -0.00024000386474654078, -0.00021333676704671234, -0.0001866696693468839, -0.00016000257164705545, -0.000133335473947227, -0.00010666838352335617, -8.000128582352772e-05, -5.3334191761678085e-05, -2.6667095880839042e-05, 0.0]}, "gradients/prior.nn_layers.1.weight": {"_type": "histogram", "values": [2.0, 0.0, 0.0, 0.0, 0.0, 1.0, 1.0, 0.0, 1.0, 1.0, 1.0, 0.0, 0.0, 1.0, 1.0, 3.0, 0.0, 0.0, 2.0, 2.0, 5.0, 2.0, 3.0, 3.0, 3.0, 2.0, 3.0, 5.0, 5.0, 4.0, 6.0, 6.0, 5.0, 4.0, 5.0, 2.0, 4.0, 3.0, 4.0, 5.0, 4.0, 1.0, 3.0, 3.0, 2.0, 2.0, 2.0, 0.0, 0.0, 0.0, 0.0, 0.0, 0.0, 0.0, 0.0, 0.0, 0.0, 0.0, 0.0, 0.0, 0.0, 0.0, 0.0, 288.0], "bins": [-0.0017603803426027298, -0.0017328744288533926, -0.0017053685151040554, -0.0016778624849393964, -0.0016503565711900592, -0.001622850657440722, -0.001595344627276063, -0.0015678387135267258, -0.0015403327997773886, -0.0015128268860280514, -0.0014853209722787142, -0.0014578149421140552, -0.001430309028364718, -0.0014028031146153808, -0.0013752970844507217, -0.0013477911707013845, -0.0013202852569520473, -0.0012927793432027102, -0.001265273429453373, -0.001237767399288714, -0.0012102614855393767, -0.0011827555717900395, -0.0011552495416253805, -0.0011277436278760433, -0.0011002377141267061, -0.001072731800377369, -0.0010452258866280317, -0.0010177198564633727, -0.0009902139427140355, -0.0009627080289646983, -0.0009352020570077002, -0.0009076960850507021, -0.0008801901713013649, -0.0008526841993443668, -0.0008251782855950296, -0.0007976723136380315, -0.0007701663998886943, -0.0007426604279316962, -0.000715154514182359, -0.0006876485422253609, -0.0006601426284760237, -0.0006326366565190256, -0.0006051307427696884, -0.0005776247708126903, -0.0005501188570633531, -0.000522612885106355, -0.0004951069713570178, -0.0004676010285038501, -0.00044009508565068245, -0.0004125891427975148, -0.00038508319994434714, -0.0003575772570911795, -0.00033007131423801184, -0.0003025653713848442, -0.00027505942853167653, -0.0002475534856785089, -0.00022004754282534122, -0.00019254159997217357, -0.00016503565711900592, -0.00013752971426583827, -0.00011002377141267061, -8.251782855950296e-05, -5.5011885706335306e-05, -2.7505942853167653e-05, 1.0550441450579583e-26]}, "gradients/prior.nn_layers.0.bias": {"_type": "histogram", "values": [1.0, 0.0, 0.0, 0.0, 0.0, 0.0, 0.0, 0.0, 0.0, 0.0, 0.0, 0.0, 0.0, 0.0, 0.0, 0.0, 0.0, 0.0, 0.0, 0.0, 0.0, 0.0, 0.0, 0.0, 0.0, 0.0, 0.0, 1.0, 1.0, 0.0, 0.0, 2.0, 1.0, 0.0, 1.0, 0.0, 1.0, 0.0, 0.0, 0.0, 0.0, 0.0, 0.0, 0.0, 0.0, 0.0, 0.0, 0.0, 0.0, 0.0, 0.0, 0.0, 0.0, 0.0, 0.0, 0.0, 0.0, 0.0, 0.0, 0.0, 0.0, 0.0, 0.0, 12.0], "bins": [-0.011133292689919472, -0.010959334671497345, -0.010785377584397793, -0.010611419565975666, -0.01043746154755354, -0.010263504460453987, -0.01008954644203186, -0.009915588423609734, -0.009741631336510181, -0.009567673318088055, -0.009393715299665928, -0.009219758212566376, -0.009045800194144249, -0.008871842175722122, -0.00869788508862257, -0.008523927070200443, -0.008349969983100891, -0.008176011964678764, -0.008002053946256638, -0.007828096859157085, -0.007654138840734959, -0.007480180822312832, -0.007306223269551992, -0.007132265716791153, -0.006958307698369026, -0.006784350145608187, -0.006610392592847347, -0.006436435040086508, -0.006262477021664381, -0.0060885194689035416, -0.005914561916142702, -0.005740603897720575, -0.005566646344959736, -0.005392688792198896, -0.00521873077377677, -0.00504477322101593, -0.004870815668255091, -0.004696857649832964, -0.0045229000970721245, -0.004348942544311285, -0.0041749849915504456, -0.004001026973128319, -0.0038270694203674793, -0.003653111634775996, -0.003479153849184513, -0.0033051962964236736, -0.0031312385108321905, -0.002957280958071351, -0.002783323172479868, -0.002609365386888385, -0.0024354078341275454, -0.0022614500485360622, -0.0020874924957752228, -0.0019135347101837397, -0.0017395769245922565, -0.0015656192554160953, -0.001391661586239934, -0.0012177039170637727, -0.0010437462478876114, -0.0008697884622961283, -0.000695830793119967, -0.0005218731239438057, -0.0003479153965599835, -0.00017395769827999175, 0.0]}, "gradients/prior.nn_layers.0.weight": {"_type": "histogram", "values": [7.0, 0.0, 0.0, 0.0, 0.0, 0.0, 0.0, 0.0, 0.0, 0.0, 0.0, 0.0, 7.0, 7.0, 14.0, 7.0, 0.0, 7.0, 0.0, 0.0, 7.0, 7.0, 0.0, 0.0, 0.0, 0.0, 0.0, 0.0, 0.0, 0.0, 0.0, 0.0, 176.0, 0.0, 0.0, 0.0, 0.0, 0.0, 0.0, 0.0, 0.0, 0.0, 9.0, 9.0, 0.0, 0.0, 9.0, 0.0, 9.0, 18.0, 9.0, 9.0, 0.0, 0.0, 0.0, 0.0, 0.0, 0.0, 0.0, 0.0, 0.0, 0.0, 0.0, 9.0], "bins": [-3.5584227372573036e-26, -3.4472220074587135e-26, -3.336021277660123e-26, -3.224820856010324e-26, -3.113620126211734e-26, -3.002419396413144e-26, -2.8912186666145536e-26, -2.7800182449647546e-26, -2.6688175151661644e-26, -2.5576167853675742e-26, -2.446416055568984e-26, -2.3352154798447894e-26, -2.2240147500461992e-26, -2.1128141743220046e-26, -2.0016134445234144e-26, -1.8904128687992198e-26, -1.7792121390006296e-26, -1.6680114092020394e-26, -1.5568108334778448e-26, -1.4456101036792546e-26, -1.33440952795506e-26, -1.2232087981564698e-26, -1.1120081453950774e-26, -1.000807492633685e-26, -8.896068398722925e-27, -7.784061871109001e-27, -6.672055343495077e-27, -5.560048430695164e-27, -4.44804190308124e-27, -3.336035375467316e-27, -2.2240286552603977e-27, -1.1120220313499764e-27, -1.5407439555097887e-32, 1.1119912164708662e-27, 2.2239978403812875e-27, 3.336004560588206e-27, 4.44801108820213e-27, 5.560017615816054e-27, 6.672024528615967e-27, 7.784031056229891e-27, 8.896037583843815e-27, 1.000804411145774e-26, 1.1120050639071663e-26, 1.2232057166685587e-26, 1.334406446467149e-26, 1.4456070221913436e-26, 1.5568077519899337e-26, 1.6680083277141284e-26, 1.7792090575127186e-26, 1.8904097873113087e-26, 2.0016103630355034e-26, 2.1128110928340935e-26, 2.2240116685582882e-26, 2.3352123983568784e-26, 2.446412974081073e-26, 2.5576137038796632e-26, 2.6688144336782534e-26, 2.7800151634768435e-26, 2.8912155851266426e-26, 3.002416314925233e-26, 3.113617044723823e-26, 3.224817774522413e-26, 3.336018196172212e-26, 3.4472189259708024e-26, 3.5584196557693926e-26]}, "gradients/decoder.fc_out.bias": {"_type": "histogram", "values": [1.0, 0.0, 0.0, 0.0, 0.0, 0.0, 0.0, 0.0, 0.0, 0.0, 0.0, 0.0, 1.0, 0.0, 2.0, 2.0, 2.0, 2.0, 3.0, 2.0, 0.0, 0.0, 0.0, 1.0, 0.0, 0.0, 0.0, 0.0, 0.0, 0.0, 0.0, 0.0, 0.0, 0.0, 0.0, 0.0, 0.0, 0.0, 0.0, 0.0, 0.0, 0.0, 0.0, 0.0, 0.0, 0.0, 0.0, 0.0, 0.0, 0.0, 0.0, 1.0, 0.0, 0.0, 0.0, 0.0, 0.0, 0.0, 0.0, 0.0, 0.0, 0.0, 0.0, 1.0], "bins": [-18.79937744140625, -17.683469772338867, -16.567562103271484, -15.451654434204102, -14.335746765136719, -13.219839096069336, -12.103931427001953, -10.98802375793457, -9.872116088867188, -8.756208419799805, -7.640300750732422, -6.524393081665039, -5.408485412597656, -4.292577743530273, -3.1766700744628906, -2.060762405395508, -0.944854736328125, 0.1710529327392578, 1.2869606018066406, 2.4028682708740234, 3.5187759399414062, 4.634683609008789, 5.750591278076172, 6.866498947143555, 7.9824066162109375, 9.09831428527832, 10.214221954345703, 11.330129623413086, 12.446037292480469, 13.561944961547852, 14.677852630615234, 15.793760299682617, 16.909664154052734, 18.025571823120117, 19.1414794921875, 20.257387161254883, 21.373294830322266, 22.48920249938965, 23.60511016845703, 24.721017837524414, 25.836925506591797, 26.95283317565918, 28.068740844726562, 29.184648513793945, 30.300556182861328, 31.41646385192871, 32.532371520996094, 33.648277282714844, 34.76418685913086, 35.880096435546875, 36.996002197265625, 38.111907958984375, 39.22781753540039, 40.343727111816406, 41.459632873535156, 42.575538635253906, 43.69144821166992, 44.80735778808594, 45.92326354980469, 47.03916931152344, 48.15507888793945, 49.27098846435547, 50.38689422607422, 51.50279998779297, 52.618709564208984]}, "gradients/decoder.fc_out.weight": {"_type": "histogram", "values": [1.0, 0.0, 0.0, 0.0, 0.0, 0.0, 0.0, 0.0, 0.0, 0.0, 0.0, 0.0, 1.0, 0.0, 1.0, 1.0, 0.0, 0.0, 0.0, 1.0, 0.0, 0.0, 1.0, 0.0, 1.0, 1.0, 2.0, 1.0, 6.0, 0.0, 0.0, 6.0, 4.0, 6.0, 15.0, 62.0, 350.0, 61.0, 14.0, 9.0, 5.0, 1.0, 2.0, 4.0, 2.0, 3.0, 1.0, 2.0, 0.0, 3.0, 2.0, 1.0, 2.0, 0.0, 0.0, 1.0, 0.0, 0.0, 1.0, 0.0, 1.0, 0.0, 0.0, 1.0], "bins": [-151.55987548828125, -147.4015655517578, -143.24325561523438, -139.08493041992188, -134.92662048339844, -130.768310546875, -126.61000061035156, -122.4516830444336, -118.29337310791016, -114.13506317138672, -109.97674560546875, -105.81843566894531, -101.66012573242188, -97.5018081665039, -93.34349822998047, -89.1851806640625, -85.02687072753906, -80.86856079101562, -76.71024322509766, -72.55193328857422, -68.39361572265625, -64.23530578613281, -60.076995849609375, -55.91868209838867, -51.76036834716797, -47.602054595947266, -43.44374084472656, -39.285430908203125, -35.12711715698242, -30.96880340576172, -26.81049156188965, -22.652179718017578, -18.493873596191406, -14.33556079864502, -10.177248001098633, -6.018935203552246, -1.8606224060058594, 2.2976903915405273, 6.456003189086914, 10.6143159866333, 14.772628784179688, 18.93094253540039, 23.08925437927246, 27.24756622314453, 31.405879974365234, 35.56419372558594, 39.722503662109375, 43.88081741333008, 48.03913116455078, 52.197444915771484, 56.35575866699219, 60.514068603515625, 64.67237854003906, 68.83069610595703, 72.98900604248047, 77.14732360839844, 81.30563354492188, 85.46394348144531, 89.62226104736328, 93.78057098388672, 97.93888854980469, 102.09719848632812, 106.25550842285156, 110.41382598876953, 114.57213592529297]}, "gradients/decoder.lstm_cell.bias_ih": {"_type": "histogram", "values": [1.0, 0.0, 0.0, 0.0, 0.0, 0.0, 0.0, 0.0, 0.0, 0.0, 0.0, 0.0, 0.0, 1.0, 0.0, 0.0, 1.0, 1.0, 0.0, 0.0, 1.0, 2.0, 2.0, 0.0, 1.0, 4.0, 1.0, 3.0, 5.0, 1.0, 5.0, 6.0, 41.0, 21.0, 7.0, 0.0, 3.0, 4.0, 1.0, 2.0, 3.0, 1.0, 3.0, 0.0, 2.0, 2.0, 0.0, 1.0, 0.0, 0.0, 0.0, 0.0, 0.0, 0.0, 0.0, 0.0, 0.0, 0.0, 1.0, 0.0, 0.0, 0.0, 0.0, 1.0], "bins": [-3.9802660942077637, -3.85890793800354, -3.7375495433807373, -3.6161913871765137, -3.49483323097229, -3.3734748363494873, -3.2521166801452637, -3.13075852394104, -3.0094003677368164, -2.8880419731140137, -2.76668381690979, -2.6453256607055664, -2.5239672660827637, -2.40260910987854, -2.2812509536743164, -2.1598925590515137, -2.03853440284729, -1.9171761274337769, -1.7958179712295532, -1.67445969581604, -1.5531015396118164, -1.4317432641983032, -1.31038498878479, -1.1890268325805664, -1.0676685571670532, -0.9463103413581848, -0.8249521255493164, -0.7035938501358032, -0.5822356343269348, -0.4608774185180664, -0.3395191729068756, -0.218160942196846, -0.0968027114868164, 0.024555519223213196, 0.1459137499332428, 0.2672719955444336, 0.388630211353302, 0.5099884271621704, 0.6313467025756836, 0.752704918384552, 0.8740631341934204, 0.9954213500022888, 1.1167795658111572, 1.2381378412246704, 1.3594961166381836, 1.4808542728424072, 1.6022125482559204, 1.723570704460144, 1.8449289798736572, 1.9662872552871704, 2.0876455307006836, 2.2090036869049072, 2.330361843109131, 2.4517202377319336, 2.5730783939361572, 2.694436550140381, 2.8157949447631836, 2.9371531009674072, 3.058511257171631, 3.1798694133758545, 3.3012278079986572, 3.422585964202881, 3.5439441204071045, 3.6653025150299072, 3.786660671234131]}, "gradients/decoder.lstm_cell.bias_hh": {"_type": "histogram", "values": [1.0, 0.0, 0.0, 0.0, 0.0, 0.0, 0.0, 0.0, 0.0, 0.0, 0.0, 0.0, 0.0, 1.0, 0.0, 0.0, 1.0, 1.0, 0.0, 0.0, 1.0, 2.0, 2.0, 0.0, 1.0, 4.0, 1.0, 3.0, 5.0, 1.0, 5.0, 6.0, 41.0, 21.0, 7.0, 0.0, 3.0, 4.0, 1.0, 2.0, 3.0, 1.0, 3.0, 0.0, 2.0, 2.0, 0.0, 1.0, 0.0, 0.0, 0.0, 0.0, 0.0, 0.0, 0.0, 0.0, 0.0, 0.0, 1.0, 0.0, 0.0, 0.0, 0.0, 1.0], "bins": [-3.9802660942077637, -3.85890793800354, -3.7375495433807373, -3.6161913871765137, -3.49483323097229, -3.3734748363494873, -3.2521166801452637, -3.13075852394104, -3.0094003677368164, -2.8880419731140137, -2.76668381690979, -2.6453256607055664, -2.5239672660827637, -2.40260910987854, -2.2812509536743164, -2.1598925590515137, -2.03853440284729, -1.9171761274337769, -1.7958179712295532, -1.67445969581604, -1.5531015396118164, -1.4317432641983032, -1.31038498878479, -1.1890268325805664, -1.0676685571670532, -0.9463103413581848, -0.8249521255493164, -0.7035938501358032, -0.5822356343269348, -0.4608774185180664, -0.3395191729068756, -0.218160942196846, -0.0968027114868164, 0.024555519223213196, 0.1459137499332428, 0.2672719955444336, 0.388630211353302, 0.5099884271621704, 0.6313467025756836, 0.752704918384552, 0.8740631341934204, 0.9954213500022888, 1.1167795658111572, 1.2381378412246704, 1.3594961166381836, 1.4808542728424072, 1.6022125482559204, 1.723570704460144, 1.8449289798736572, 1.9662872552871704, 2.0876455307006836, 2.2090036869049072, 2.330361843109131, 2.4517202377319336, 2.5730783939361572, 2.694436550140381, 2.8157949447631836, 2.9371531009674072, 3.058511257171631, 3.1798694133758545, 3.3012278079986572, 3.422585964202881, 3.5439441204071045, 3.6653025150299072, 3.786660671234131]}, "gradients/decoder.lstm_cell.weight_hh": {"_type": "histogram", "values": [1.0, 0.0, 0.0, 0.0, 0.0, 0.0, 1.0, 2.0, 1.0, 3.0, 3.0, 2.0, 3.0, 0.0, 2.0, 5.0, 4.0, 6.0, 3.0, 22.0, 20.0, 11.0, 13.0, 13.0, 30.0, 54.0, 47.0, 82.0, 90.0, 143.0, 203.0, 300.0, 1648.0, 573.0, 191.0, 163.0, 86.0, 84.0, 57.0, 65.0, 41.0, 16.0, 14.0, 12.0, 14.0, 27.0, 5.0, 3.0, 2.0, 3.0, 3.0, 4.0, 4.0, 2.0, 1.0, 3.0, 7.0, 1.0, 1.0, 0.0, 0.0, 1.0, 0.0, 1.0], "bins": [-3.329759359359741, -3.227843999862671, -3.1259286403656006, -3.0240135192871094, -2.922098159790039, -2.8201828002929688, -2.7182674407958984, -2.616352081298828, -2.514436721801758, -2.4125216007232666, -2.3106062412261963, -2.208690881729126, -2.1067755222320557, -2.0048601627349854, -1.9029449224472046, -1.8010296821594238, -1.6991143226623535, -1.5971989631652832, -1.4952837228775024, -1.3933683633804321, -1.2914531230926514, -1.189537763595581, -1.0876224040985107, -0.9857071042060852, -0.8837918043136597, -0.7818765044212341, -0.6799612045288086, -0.5780458450317383, -0.47613054513931274, -0.3742152452468872, -0.2722999155521393, -0.17038460075855255, -0.06846952438354492, 0.03344579041004181, 0.13536110520362854, 0.23727641999721527, 0.339191734790802, 0.44110703468322754, 0.5430223941802979, 0.6449376940727234, 0.7468529939651489, 0.8487682938575745, 0.95068359375, 1.0525989532470703, 1.1545143127441406, 1.2564295530319214, 1.3583449125289917, 1.4602601528167725, 1.5621755123138428, 1.664090871810913, 1.7660061120986938, 1.8679214715957642, 1.969836711883545, 2.0717520713806152, 2.1736674308776855, 2.275582790374756, 2.377498149871826, 2.4794132709503174, 2.5813286304473877, 2.683243989944458, 2.7851593494415283, 2.8870747089385986, 2.98898983001709, 3.09090518951416, 3.1928205490112305]}, "gradients/decoder.lstm_cell.weight_ih": {"_type": "histogram", "values": [1.0, 1.0, 1.0, 1.0, 0.0, 0.0, 0.0, 0.0, 0.0, 1.0, 1.0, 1.0, 1.0, 0.0, 0.0, 2.0, 2.0, 4.0, 4.0, 6.0, 4.0, 4.0, 10.0, 6.0, 5.0, 15.0, 15.0, 20.0, 37.0, 62.0, 117.0, 1386.0, 324.0, 61.0, 44.0, 28.0, 21.0, 23.0, 25.0, 8.0, 7.0, 12.0, 7.0, 3.0, 5.0, 2.0, 6.0, 4.0, 3.0, 1.0, 1.0, 1.0, 2.0, 1.0, 1.0, 3.0, 0.0, 0.0, 0.0, 1.0, 0.0, 1.0, 0.0, 2.0], "bins": [-13.557317733764648, -13.132524490356445, -12.707731246948242, -12.282937049865723, -11.85814380645752, -11.433350563049316, -11.008556365966797, -10.583763122558594, -10.15896987915039, -9.734176635742188, -9.309383392333984, -8.884589195251465, -8.459795951843262, -8.035002708435059, -7.610208988189697, -7.185415267944336, -6.760622024536133, -6.33582878112793, -5.911035060882568, -5.486241340637207, -5.061448097229004, -4.636654853820801, -4.2118611335754395, -3.7870676517486572, -3.362274169921875, -2.9374806880950928, -2.5126872062683105, -2.0878937244415283, -1.663100242614746, -1.2383067607879639, -0.8135132789611816, -0.3887197971343994, 0.03607368469238281, 0.46086716651916504, 0.8856606483459473, 1.3104541301727295, 1.7352476119995117, 2.160041093826294, 2.584834575653076, 3.0096280574798584, 3.4344215393066406, 3.859215021133423, 4.284008502960205, 4.708802223205566, 5.1335954666137695, 5.558388710021973, 5.983182430267334, 6.407976150512695, 6.832769393920898, 7.257562637329102, 7.682356357574463, 8.107150077819824, 8.531943321228027, 8.95673656463623, 9.38153076171875, 9.806324005126953, 10.231117248535156, 10.65591049194336, 11.080703735351562, 11.505497932434082, 11.930291175842285, 12.355084419250488, 12.779878616333008, 13.204671859741211, 13.629465103149414]}, "gradients/phi_z.nn_layers.2.bias": {"_type": "histogram", "values": [1.0, 0.0, 1.0, 0.0, 0.0, 0.0, 0.0, 0.0, 1.0, 0.0, 1.0, 0.0, 0.0, 1.0, 0.0, 0.0, 0.0, 0.0, 2.0, 4.0, 2.0, 0.0, 0.0, 1.0, 0.0, 0.0, 0.0, 0.0, 0.0, 0.0, 1.0, 0.0, 0.0, 0.0, 0.0, 0.0, 0.0, 0.0, 0.0, 0.0, 0.0, 0.0, 0.0, 0.0, 0.0, 0.0, 0.0, 0.0, 0.0, 0.0, 0.0, 0.0, 0.0, 0.0, 0.0, 0.0, 0.0, 0.0, 0.0, 0.0, 0.0, 0.0, 0.0, 1.0], "bins": [-0.003659619018435478, -0.0034716702066361904, -0.003283721162006259, -0.003095772350206971, -0.0029078233055770397, -0.002719874493777752, -0.0025319254491478205, -0.0023439766373485327, -0.0021560275927186012, -0.0019680787809193134, -0.0017801298527047038, -0.0015921809244900942, -0.0014042321126908064, -0.0012162831844761968, -0.0010283342562615871, -0.0008403853280469775, -0.0006524363998323679, -0.0004644874716177583, -0.0002765385725069791, -8.858965884428471e-05, 9.935925481840968e-05, 0.0002873081830330193, 0.00047525708214379847, 0.0006632059812545776, 0.0008511549094691873, 0.0010391038376837969, 0.0012270527658984065, 0.0014150016941130161, 0.001602950505912304, 0.0017908994341269135, 0.001978848362341523, 0.0021667974069714546, 0.0023547462187707424, 0.00254269503057003, 0.0027306440751999617, 0.0029185928869992495, 0.003106541931629181, 0.0032944907434284687, 0.0034824397880584, 0.003670388599857688, 0.0038583376444876194, 0.004046286456286907, 0.004234235268086195, 0.004422184079885483, 0.004610133357346058, 0.004798082169145346, 0.0049860309809446335, 0.005173979792743921, 0.005361928604543209, 0.005549877882003784, 0.005737826693803072, 0.00592577550560236, 0.006113724317401648, 0.006301673594862223, 0.0064896224066615105, 0.006677571218460798, 0.006865520030260086, 0.007053468842059374, 0.007241418119519949, 0.007429366931319237, 0.0076173157431185246, 0.007805264554917812, 0.007993213832378387, 0.008181162178516388, 0.008369111455976963]}, "gradients/phi_z.nn_layers.2.weight": {"_type": "histogram", "values": [2.0, 0.0, 0.0, 3.0, 1.0, 3.0, 4.0, 3.0, 3.0, 6.0, 4.0, 6.0, 5.0, 6.0, 5.0, 10.0, 5.0, 6.0, 3.0, 10.0, 8.0, 21.0, 23.0, 118.0, 10.0, 5.0, 11.0, 3.0, 2.0, 1.0, 5.0, 7.0, 2.0, 1.0, 1.0, 0.0, 0.0, 0.0, 0.0, 1.0, 0.0, 0.0, 1.0, 0.0, 0.0, 0.0, 1.0, 0.0, 1.0, 1.0, 2.0, 0.0, 3.0, 0.0, 2.0, 2.0, 1.0, 0.0, 0.0, 1.0, 0.0, 0.0, 0.0, 1.0], "bins": [-0.009693568572402, -0.009274105541408062, -0.008854643441736698, -0.00843518041074276, -0.008015718311071396, -0.007596255280077457, -0.007176792714744806, -0.006757330149412155, -0.006337867118418217, -0.005918404553085566, -0.005498941987752914, -0.005079479422420263, -0.004660016857087612, -0.004240554291754961, -0.0038210914935916662, -0.0034016286954283714, -0.0029821661300957203, -0.002562703564763069, -0.0021432407665997744, -0.0017237782012671232, -0.0013043155195191503, -0.0008848528377711773, -0.00046539021423086524, -4.592756158672273e-05, 0.0003735350910574198, 0.0007929977728053927, 0.0012124604545533657, 0.0016319230198860168, 0.002051385585218668, 0.0024708483833819628, 0.002890310948714614, 0.0033097737468779087, 0.00372923631221056, 0.004148698877543211, 0.004568161442875862, 0.004987624473869801, 0.005407087039202452, 0.005826549604535103, 0.006246012169867754, 0.006665474735200405, 0.007084937766194344, 0.007504400331526995, 0.007923862896859646, 0.008343325927853584, 0.008762788027524948, 0.009182251058518887, 0.00960171315819025, 0.010021176189184189, 0.010440638288855553, 0.010860101319849491, 0.01127956435084343, 0.011699026450514793, 0.012118489481508732, 0.012537951581180096, 0.012957414612174034, 0.013376877643167973, 0.013796339742839336, 0.014215802773833275, 0.014635264873504639, 0.015054727904498577, 0.015474190935492516, 0.01589365303516388, 0.016313115134835243, 0.016732579097151756, 0.01715204119682312]}, "gradients/phi_z.nn_layers.1.bias": {"_type": "histogram", "values": [1.0, 0.0, 0.0, 1.0, 0.0, 0.0, 1.0, 0.0, 0.0, 1.0, 2.0, 0.0, 0.0, 1.0, 0.0, 0.0, 0.0, 0.0, 1.0, 1.0, 0.0, 1.0, 0.0, 0.0, 0.0, 0.0, 1.0, 1.0, 1.0, 0.0, 0.0, 0.0, 0.0, 0.0, 0.0, 0.0, 0.0, 0.0, 1.0, 1.0, 0.0, 2.0, 0.0, 0.0, 0.0, 0.0, 0.0, 0.0, 1.0, 0.0, 1.0, 0.0, 0.0, 0.0, 0.0, 0.0, 0.0, 0.0, 0.0, 0.0, 0.0, 0.0, 0.0, 1.0], "bins": [-0.0018232893198728561, -0.0017269422532990575, -0.0016305953031405807, -0.001534248236566782, -0.0014379012864083052, -0.0013415542198345065, -0.0012452072696760297, -0.001148860203102231, -0.0010525132529437542, -0.0009561661863699555, -0.0008598191780038178, -0.00076347216963768, -0.0006671251030638814, -0.0005707780946977437, -0.0004744310863316059, -0.00037808407796546817, -0.0002817370695993304, -0.00018539006123319268, -8.904303831513971e-05, 7.303977326955646e-06, 0.000103650992969051, 0.00019999800133518875, 0.00029634503880515695, 0.0003926920471712947, 0.0004890390555374324, 0.0005853860639035702, 0.0006817330722697079, 0.0007780800806358457, 0.0008744271472096443, 0.0009707741555757821, 0.0010671211639419198, 0.0011634681141003966, 0.0012598151806741953, 0.001356162247247994, 0.0014525091974064708, 0.0015488562639802694, 0.0016452032141387463, 0.001741550280712545, 0.0018378972308710217, 0.0019342442974448204, 0.0020305912476032972, 0.0021269384305924177, 0.0022232853807508945, 0.0023196323309093714, 0.002415979281067848, 0.0025123264640569687, 0.0026086734142154455, 0.0027050203643739223, 0.002801367547363043, 0.0028977144975215197, 0.0029940614476799965, 0.0030904083978384733, 0.003186755580827594, 0.0032831025309860706, 0.0033794494811445475, 0.0034757964313030243, 0.0035721436142921448, 0.0036684905644506216, 0.0037648375146090984, 0.003861184697598219, 0.003957531414926052, 0.004053878597915173, 0.004150225780904293, 0.004246572498232126, 0.004342919681221247]}, "gradients/phi_z.nn_layers.1.weight": {"_type": "histogram", "values": [2.0, 0.0, 0.0, 0.0, 1.0, 2.0, 4.0, 4.0, 5.0, 8.0, 11.0, 9.0, 16.0, 20.0, 17.0, 13.0, 126.0, 20.0, 21.0, 14.0, 19.0, 6.0, 18.0, 9.0, 6.0, 6.0, 8.0, 4.0, 4.0, 4.0, 5.0, 2.0, 2.0, 2.0, 0.0, 1.0, 0.0, 1.0, 3.0, 1.0, 0.0, 1.0, 1.0, 1.0, 0.0, 0.0, 0.0, 1.0, 0.0, 0.0, 1.0, 0.0, 0.0, 0.0, 0.0, 0.0, 0.0, 0.0, 0.0, 0.0, 0.0, 0.0, 0.0, 1.0], "bins": [-0.003053449559956789, -0.002868439769372344, -0.0026834302116185427, -0.0024984204210340977, -0.0023134108632802963, -0.0021284010726958513, -0.0019433912821114063, -0.0017583816079422832, -0.00157337193377316, -0.0013883622596040368, -0.0012033525854349136, -0.0010183427948504686, -0.0008333331206813455, -0.0006483234465122223, -0.0004633137141354382, -0.0002783040108624846, -9.329430758953094e-05, 9.171539568342268e-05, 0.0002767250989563763, 0.00046173480222932994, 0.0006467445055022836, 0.0008317541796714067, 0.0010167639702558517, 0.001201773644424975, 0.001386783318594098, 0.0015717929927632213, 0.0017568026669323444, 0.0019418124575167894, 0.0021268222481012344, 0.0023118318058550358, 0.0024968415964394808, 0.002681851154193282, 0.00286686047911644, 0.003051870269700885, 0.003236879827454686, 0.003421889618039131, 0.0036068991757929325, 0.0037919089663773775, 0.0039769187569618225, 0.004161928314715624, 0.004346937872469425, 0.004531947895884514, 0.004716957453638315, 0.0049019670113921165, 0.005086977034807205, 0.0052719865925610065, 0.005456996150314808, 0.0056420061737298965, 0.005827015731483698, 0.006012025289237499, 0.006197035312652588, 0.006382044870406389, 0.006567054428160191, 0.006752064451575279, 0.006937074009329081, 0.007122083567082882, 0.007307093590497971, 0.007492103148251772, 0.007677112706005573, 0.007862122729420662, 0.008047131821513176, 0.008232141844928265, 0.008417151868343353, 0.008602160960435867, 0.008787170983850956]}, "gradients/phi_z.nn_layers.0.bias": {"_type": "histogram", "values": [3.0, 0.0, 0.0, 1.0, 1.0, 1.0, 0.0, 3.0, 2.0, 0.0, 0.0, 0.0, 0.0, 0.0, 1.0, 0.0, 0.0, 0.0, 0.0, 0.0, 0.0, 0.0, 0.0, 0.0, 0.0, 1.0, 0.0, 0.0, 1.0, 0.0, 0.0, 0.0, 0.0, 0.0, 0.0, 0.0, 0.0, 0.0, 0.0, 1.0, 2.0, 0.0, 0.0, 0.0, 0.0, 1.0, 0.0, 0.0, 0.0, 0.0, 0.0, 0.0, 0.0, 0.0, 0.0, 0.0, 0.0, 1.0, 0.0, 0.0, 0.0, 0.0, 0.0, 1.0], "bins": [-0.00016813781985547394, -0.00011218657891731709, -5.623533797916025e-05, -2.8409704100340605e-07, 5.566714389715344e-05, 0.00011161838483531028, 0.00016756962577346712, 0.00022352086671162397, 0.0002794720930978656, 0.0003354233340360224, 0.00039137457497417927, 0.0004473258159123361, 0.000503277056850493, 0.0005592282977886498, 0.0006151795387268066, 0.0006711307796649635, 0.0007270820206031203, 0.0007830332615412772, 0.000838984502479434, 0.0008949357434175909, 0.0009508869843557477, 0.0010068382835015655, 0.0010627894662320614, 0.0011187407653778791, 0.001174691948108375, 0.0012306432472541928, 0.0012865944299846888, 0.0013425457291305065, 0.0013984969118610024, 0.0014544482110068202, 0.0015103993937373161, 0.0015663506928831339, 0.0016223019920289516, 0.0016782532911747694, 0.0017342044739052653, 0.0017901556566357613, 0.001846106955781579, 0.0019020582549273968, 0.001958009321242571, 0.0020139606203883886, 0.0020699119195342064, 0.002125863218680024, 0.002181814517825842, 0.002237765584141016, 0.0022937168832868338, 0.0023496681824326515, 0.0024056192487478256, 0.0024615705478936434, 0.002517521847039461, 0.002573473146185279, 0.0026294244453310966, 0.0026853755116462708, 0.0027413268107920885, 0.0027972781099379063, 0.0028532291762530804, 0.002909180475398898, 0.002965131774544716, 0.0030210830736905336, 0.0030770343728363514, 0.0031329854391515255, 0.0031889367382973433, 0.003244888037443161, 0.003300839103758335, 0.003356790402904153, 0.0034127417020499706]}, "gradients/phi_z.nn_layers.0.weight": {"_type": "histogram", "values": [1.0, 0.0, 0.0, 0.0, 1.0, 0.0, 0.0, 0.0, 2.0, 0.0, 1.0, 1.0, 2.0, 0.0, 3.0, 2.0, 2.0, 6.0, 1.0, 5.0, 8.0, 4.0, 2.0, 4.0, 4.0, 10.0, 9.0, 13.0, 16.0, 65.0, 43.0, 22.0, 14.0, 6.0, 8.0, 5.0, 12.0, 1.0, 8.0, 5.0, 4.0, 1.0, 3.0, 7.0, 3.0, 0.0, 1.0, 2.0, 1.0, 2.0, 1.0, 2.0, 0.0, 1.0, 1.0, 0.0, 2.0, 0.0, 0.0, 0.0, 1.0, 1.0, 0.0, 1.0], "bins": [-0.005632630083709955, -0.005442015826702118, -0.005251401104032993, -0.005060786381363869, -0.004870172124356031, -0.004679557867348194, -0.0044889431446790695, -0.004298328422009945, -0.004107714165002108, -0.00391709990799427, -0.0037264851853251457, -0.0035358706954866648, -0.003345256205648184, -0.003154641715809703, -0.002964027225971222, -0.002773412736132741, -0.00258279824629426, -0.002392183756455779, -0.002201569266617298, -0.002010954776778817, -0.0018203402869403362, -0.0016297257971018553, -0.0014391113072633743, -0.0012484968174248934, -0.0010578823275864124, -0.0008672678377479315, -0.0006766533479094505, -0.0004860388580709696, -0.00029542436823248863, -0.00010480987839400768, 8.580461144447327e-05, 0.0002764191012829542, 0.00046703359112143517, 0.0006576480809599161, 0.0008482625707983971, 0.001038877060636878, 0.001229491550475359, 0.00142010604031384, 0.0016107205301523209, 0.0018013350199908018, 0.0019919495098292828, 0.0021825639996677637, 0.0023731784895062447, 0.0025637929793447256, 0.0027544074691832066, 0.0029450219590216875, 0.0031356364488601685, 0.0033262509386986494, 0.0035168654285371304, 0.0037074799183756113, 0.0038980944082140923, 0.004088709130883217, 0.004279323387891054, 0.0044699376448988914, 0.004660552367568016, 0.004851167090237141, 0.005041781347244978, 0.005232395604252815, 0.00542301032692194, 0.0056136250495910645, 0.005804239306598902, 0.005994853563606739, 0.006185468286275864, 0.006376083008944988, 0.0065666972659528255]}, "gradients/c_means": {"_type": "histogram", "values": [1.0, 0.0, 0.0, 0.0, 0.0, 0.0, 0.0, 0.0, 0.0, 3.0, 0.0, 4.0, 22.0, 26.0, 50.0, 17.0, 5.0, 3.0, 3.0, 1.0, 0.0, 3.0, 1.0, 7.0, 0.0, 0.0, 0.0, 1.0, 0.0, 0.0, 1.0, 0.0, 0.0, 1.0, 0.0, 1.0, 0.0, 0.0, 0.0, 0.0, 0.0, 0.0, 0.0, 0.0, 0.0, 0.0, 0.0, 2.0, 0.0, 0.0, 1.0, 1.0, 1.0, 0.0, 1.0, 0.0, 0.0, 0.0, 0.0, 1.0, 1.0, 0.0, 1.0, 1.0], "bins": [-0.0004281424335204065, -0.0003964669012930244, -0.00036479136906564236, -0.0003331158368382603, -0.00030144030461087823, -0.0002697647432796657, -0.00023808921105228364, -0.00020641367882490158, -0.00017473814659751952, -0.00014306261437013745, -0.00011138707486679778, -7.97115353634581e-05, -4.803600313607603e-05, -1.6360467270715162e-05, 1.531506859464571e-05, 4.699060446000658e-05, 7.866614032536745e-05, 0.00011034167255274951, 0.00014201720478013158, 0.00017369275155942887, 0.00020536828378681093, 0.000237043816014193, 0.0002687193627934903, 0.00030039489502087235, 0.0003320704272482544, 0.0003637459594756365, 0.00039542149170301855, 0.0004270970239304006, 0.00045877258526161313, 0.0004904480883851647, 0.0005221236497163773, 0.0005537991528399289, 0.0005854746559634805, 0.000617150217294693, 0.0006488257204182446, 0.0006805012817494571, 0.0007121767848730087, 0.0007438523462042212, 0.0007755278493277729, 0.0008072034106589854, 0.000838878913782537, 0.0008705544751137495, 0.000902230036444962, 0.0009339055395685136, 0.0009655811008997262, 0.0009972566040232778, 0.0010289321653544903, 0.0010606077266857028, 0.0010922832880169153, 0.001123958732932806, 0.0011556342942640185, 0.001187309855595231, 0.0012189854169264436, 0.0012506608618423343, 0.0012823364231735468, 0.0013140119845047593, 0.0013456875458359718, 0.0013773631071671844, 0.001409038552083075, 0.0014407141134142876, 0.0014723896747455, 0.0015040652360767126, 0.0015357406809926033, 0.0015674162423238158, 0.0015990918036550283]}, "gradients/log_c_vars": {"_type": "histogram", "values": [1.0, 0.0, 0.0, 0.0, 0.0, 0.0, 0.0, 0.0, 0.0, 0.0, 0.0, 0.0, 0.0, 0.0, 0.0, 0.0, 0.0, 0.0, 0.0, 0.0, 0.0, 0.0, 0.0, 0.0, 0.0, 0.0, 0.0, 0.0, 0.0, 0.0, 0.0, 0.0, 0.0, 0.0, 0.0, 0.0, 0.0, 0.0, 0.0, 0.0, 0.0, 0.0, 0.0, 0.0, 0.0, 1.0, 0.0, 0.0, 0.0, 0.0, 3.0, 2.0, 2.0, 0.0, 0.0, 0.0, 0.0, 0.0, 0.0, 0.0, 0.0, 0.0, 0.0, 1.0], "bins": [-0.0034481771290302277, -0.0033800958190113306, -0.0033120145089924335, -0.003243932966142893, -0.0031758516561239958, -0.0031077703461050987, -0.003039688803255558, -0.002971607493236661, -0.002903526183217764, -0.002835444873198867, -0.00276736356317997, -0.002699282020330429, -0.002631200710311532, -0.002563119400292635, -0.0024950378574430943, -0.002426956547424197, -0.0023588752374053, -0.002290793927386403, -0.002222712617367506, -0.0021546310745179653, -0.0020865497644990683, -0.002018468454480171, -0.0019503870280459523, -0.0018823056016117334, -0.0018142242915928364, -0.0017461429815739393, -0.0016780615551397204, -0.0016099801287055016, -0.0015418988186866045, -0.0014738175086677074, -0.0014057360822334886, -0.0013376546557992697, -0.0012695733457803726, -0.0012014920357614756, -0.0011334106093272567, -0.0010653291828930378, -0.0009972478728741407, -0.0009291665046475828, -0.0008610851364210248, -0.0007930037681944668, -0.0007249223999679089, -0.0006568410317413509, -0.0005887596635147929, -0.000520678295288235, -0.000452596927061677, -0.000384515558835119, -0.00031643419060856104, -0.00024835282238200307, -0.0001802714541554451, -0.00011219008592888713, -4.410871770232916e-05, 2.397265052422881e-05, 9.205401875078678e-05, 0.00016013538697734475, 0.00022821675520390272, 0.0002962981234304607, 0.00036437949165701866, 0.00043246085988357663, 0.0005005422281101346, 0.0005686235963366926, 0.0006367049645632505, 0.0007047863327898085, 0.0007728677010163665, 0.0008409490692429245, 0.0009090304374694824]}, "train/epoch": 301, "train/loss": -18336.993286132812, "train/loglik": 854.15380859375, "train/kldiv": -5160.2216796875, "train/out_l": 293.867431640625, "_runtime": 487.4516689777374, "_step": 600, "val/epoch": 301, "val/loss": -1144.7425537109375, "val/loglik": 52.94728088378906, "val/kldiv": -322.5138854980469, "val/out_l": 18.359237670898438, "test/epoch": "evaluation", "test/loss": -1145.0435791015625, "test/loglik": 53.04561996459961, "test/kldiv": -322.51385498046875, "test/out_l": 18.36526107788086, "_wandb": {"runtime": 487}}