{"gradients/predictor.nn_layers.2.bias": {"_type": "histogram", "values": [1.0, 0.0, 0.0, 0.0, 0.0, 0.0, 0.0, 0.0, 0.0, 0.0, 0.0, 0.0, 0.0, 0.0, 0.0, 0.0, 0.0, 0.0, 0.0, 0.0, 0.0, 0.0, 0.0, 0.0, 0.0, 0.0, 0.0, 0.0, 0.0, 0.0, 0.0, 0.0, 0.0, 1.0, 0.0, 1.0, 0.0, 0.0, 0.0, 0.0, 0.0, 0.0, 0.0, 0.0, 0.0, 0.0, 0.0, 0.0, 0.0, 0.0, 0.0, 0.0, 0.0, 0.0, 0.0, 0.0, 0.0, 0.0, 0.0, 0.0, 0.0, 0.0, 0.0, 1.0], "bins": [-2.130028358554581e-12, -2.0660500220370803e-12, -2.002071902360014e-12, -1.938093782682948e-12, -1.8741154461654475e-12, -1.810137218068164e-12, -1.7461589899708807e-12, -1.6821807618735973e-12, -1.618202533776314e-12, -1.5542243056790306e-12, -1.4902460775817472e-12, -1.4262678494844638e-12, -1.3622896213871805e-12, -1.298311393289897e-12, -1.2343331651926137e-12, -1.1703549370953303e-12, -1.106376708998047e-12, -1.0423984809007636e-12, -9.784202528034802e-13, -9.144420247061968e-13, -8.504637966089135e-13, -7.864855685116301e-13, -7.225073404143467e-13, -6.585291123170633e-13, -5.9455088421978e-13, -5.305726561224966e-13, -4.665944280252132e-13, -4.0261619992792985e-13, -3.386379718306465e-13, -2.746597437333631e-13, -2.1068151563607973e-13, -1.4670328753879636e-13, -8.272527628194748e-14, -1.8747048184664106e-14, 4.523117991261927e-14, 1.0920940800990264e-13, 1.7318763610718602e-13, 2.371658642044694e-13, 3.0114409230175276e-13, 3.6512232039903614e-13, 4.291005484963195e-13, 4.930787765936029e-13, 5.570570046908863e-13, 6.210352327881696e-13, 6.85013460885453e-13, 7.489916889827364e-13, 8.129699170800198e-13, 8.769481451773031e-13, 9.409263732745865e-13, 1.0049046013718699e-12, 1.0688828294691533e-12, 1.1328610575664366e-12, 1.19683928566372e-12, 1.2608175137610034e-12, 1.3247957418582867e-12, 1.3887739699555701e-12, 1.4527521980528535e-12, 1.5167304261501369e-12, 1.5807086542474202e-12, 1.6446868823447036e-12, 1.708665110441987e-12, 1.7726433385392704e-12, 1.8366215666365537e-12, 1.9005999031540544e-12, 1.9645780228311205e-12]}, "_timestamp": 1686659790.9709375, "gradients/predictor.nn_layers.2.weight": {"_type": "histogram", "values": [1.0, 2.0, 1.0, 0.0, 1.0, 2.0, 3.0, 1.0, 3.0, 0.0, 1.0, 1.0, 1.0, 1.0, 0.0, 0.0, 0.0, 0.0, 0.0, 0.0, 0.0, 0.0, 0.0, 0.0, 0.0, 0.0, 0.0, 0.0, 0.0, 0.0, 0.0, 0.0, 26.0, 5.0, 13.0, 0.0, 0.0, 0.0, 0.0, 0.0, 0.0, 0.0, 0.0, 0.0, 0.0, 0.0, 0.0, 0.0, 0.0, 0.0, 0.0, 1.0, 2.0, 0.0, 1.0, 2.0, 2.0, 2.0, 3.0, 1.0, 0.0, 1.0, 2.0, 1.0], "bins": [-1.4808012455125308e-11, -1.4356943585369653e-11, -1.3905874715613997e-11, -1.3454804978496604e-11, -1.3003736108740949e-11, -1.2552667238985293e-11, -1.2101598369229638e-11, -1.1650529499473983e-11, -1.119945976235659e-11, -1.0748390892600934e-11, -1.0297322022845279e-11, -9.846253153089624e-12, -9.395184283333968e-12, -8.944115413578313e-12, -8.49304567646092e-12, -8.041976806705264e-12, -7.590907936949609e-12, -7.139839067193954e-12, -6.6887697637574295e-12, -6.237700894001774e-12, -5.78663159056525e-12, -5.3355627208095946e-12, -4.884493851053939e-12, -4.433424547617415e-12, -3.98235567786176e-12, -3.53128659126567e-12, -3.08021750466958e-12, -2.629148634913925e-12, -2.178079548317835e-12, -1.7270104617217452e-12, -1.2759414835458727e-12, -8.248724511598915e-13, -3.7380255141217233e-13, 7.726648097380884e-14, 5.2833551335979e-13, 9.794044915356626e-13, 1.4304735781317524e-12, 1.881542664727842e-12, 2.3326115344834975e-12, 2.7836806210795872e-12, 3.234749707675677e-12, 3.685818577431332e-12, 4.136887880867857e-12, 4.587956750623512e-12, 5.039025620379167e-12, 5.4900949238156915e-12, 5.941163793571347e-12, 6.392233097007871e-12, 6.8433019667635264e-12, 7.294370836519182e-12, 7.745439706274837e-12, 8.19650944339223e-12, 8.647578313147886e-12, 9.098647182903541e-12, 9.549716052659196e-12, 1.0000784922414852e-11, 1.0451854659532245e-11, 1.09029235292879e-11, 1.1353992399043555e-11, 1.180506126879921e-11, 1.2256130138554866e-11, 1.2707199008310521e-11, 1.3158268745427915e-11, 1.360933761518357e-11, 1.4060406484939225e-11]}, "gradients/predictor.nn_layers.1.bias": {"_type": "histogram", "values": [1.0, 0.0, 0.0, 0.0, 0.0, 1.0, 0.0, 0.0, 0.0, 0.0, 0.0, 0.0, 0.0, 0.0, 0.0, 0.0, 0.0, 0.0, 0.0, 0.0, 0.0, 0.0, 0.0, 1.0, 0.0, 0.0, 2.0, 0.0, 2.0, 1.0, 1.0, 0.0, 1.0, 1.0, 1.0, 0.0, 3.0, 1.0, 1.0, 0.0, 0.0, 0.0, 0.0, 0.0, 0.0, 0.0, 0.0, 0.0, 0.0, 0.0, 0.0, 0.0, 0.0, 0.0, 0.0, 0.0, 1.0, 0.0, 0.0, 0.0, 0.0, 0.0, 0.0, 2.0], "bins": [-1.7085781574277537e-12, -1.6818816304942086e-12, -1.6551851035606635e-12, -1.6284885766271184e-12, -1.6017920496935734e-12, -1.5750955227600283e-12, -1.5483989958264832e-12, -1.5217024688929381e-12, -1.495005941959393e-12, -1.4683093066056307e-12, -1.4416127796720857e-12, -1.4149162527385406e-12, -1.3882197258049955e-12, -1.3615231988714505e-12, -1.3348266719379054e-12, -1.3081301450043603e-12, -1.2814336180708152e-12, -1.2547370911372702e-12, -1.228040564203725e-12, -1.20134403727018e-12, -1.174647510336635e-12, -1.1479509834030899e-12, -1.1212544564695448e-12, -1.0945579295359997e-12, -1.0678612941822374e-12, -1.0411647672486923e-12, -1.0144682403151473e-12, -9.877717133816022e-13, -9.610751864480571e-13, -9.34378659514512e-13, -9.07682132580967e-13, -8.809856056474219e-13, -8.542890787138768e-13, -8.275925517803318e-13, -8.008960248467867e-13, -7.741994979132416e-13, -7.475029709796965e-13, -7.208063898360428e-13, -6.941098629024978e-13, -6.674133359689527e-13, -6.407168090354076e-13, -6.140202821018625e-13, -5.873237551683175e-13, -5.606272282347724e-13, -5.339306470911187e-13, -5.072341201575736e-13, -4.805375932240286e-13, -4.538410662904835e-13, -4.271445393569384e-13, -4.0044801242339334e-13, -3.7375148548984827e-13, -3.470549314512489e-13, -3.203584045177038e-13, -2.9366187758415874e-13, -2.6696532354555935e-13, -2.402687966120143e-13, -2.135722696784692e-13, -1.8687574274492413e-13, -1.601792022588519e-13, -1.3348266177277968e-13, -1.067861348392346e-13, -8.008960112942595e-14, -5.33930674196173e-14, -2.669653370980865e-14, 0.0]}, "gradients/predictor.nn_layers.1.weight": {"_type": "histogram", "values": [3.0, 0.0, 0.0, 0.0, 1.0, 2.0, 1.0, 1.0, 0.0, 0.0, 0.0, 3.0, 3.0, 0.0, 0.0, 0.0, 3.0, 2.0, 0.0, 0.0, 1.0, 1.0, 0.0, 3.0, 1.0, 0.0, 2.0, 7.0, 4.0, 4.0, 7.0, 7.0, 4.0, 7.0, 13.0, 9.0, 16.0, 12.0, 12.0, 16.0, 7.0, 15.0, 12.0, 12.0, 5.0, 7.0, 7.0, 9.0, 10.0, 3.0, 9.0, 9.0, 12.0, 11.0, 18.0, 15.0, 15.0, 6.0, 5.0, 3.0, 10.0, 10.0, 4.0, 41.0], "bins": [-3.5937643919764506e-12, -3.5376118267399503e-12, -3.48145926150345e-12, -3.42530669626695e-12, -3.3691541310304496e-12, -3.3130015657939493e-12, -3.256849000557449e-12, -3.200696435320949e-12, -3.1445438700844486e-12, -3.0883913048479483e-12, -3.032238739611448e-12, -2.976086174374948e-12, -2.9199336091384476e-12, -2.8637810439019473e-12, -2.807628478665447e-12, -2.751475913428947e-12, -2.6953233481924466e-12, -2.6391707829559463e-12, -2.583018217719446e-12, -2.526865652482946e-12, -2.4707130872464456e-12, -2.4145605220099453e-12, -2.358407956773445e-12, -2.302255391536945e-12, -2.2461028263004446e-12, -2.1899502610639443e-12, -2.133797695827444e-12, -2.077645130590944e-12, -2.0214925653544435e-12, -1.9653400001179433e-12, -1.909187434881443e-12, -1.8530348696449428e-12, -1.7968821959882253e-12, -1.740729630751725e-12, -1.6845770655152248e-12, -1.6284245002787245e-12, -1.5722719350422243e-12, -1.516119369805724e-12, -1.4599668045692238e-12, -1.4038142393327235e-12, -1.3476616740962233e-12, -1.291509108859723e-12, -1.2353565436232228e-12, -1.1792039783867225e-12, -1.1230514131502223e-12, -1.066898847913722e-12, -1.0107462826772218e-12, -9.545937174407215e-13, -8.984410979941126e-13, -8.422885327576124e-13, -7.861359675211121e-13, -7.299834022846119e-13, -6.738308370481116e-13, -6.176782718116114e-13, -5.615257065751111e-13, -5.053731413386109e-13, -4.492205489970563e-13, -3.9306798376055607e-13, -3.369154185240558e-13, -2.8076285328755557e-13, -2.2461027449852816e-13, -1.684577092620279e-13, -1.1230513724926408e-13, -5.615256862463204e-14, 0.0]}, "gradients/predictor.nn_layers.0.bias": {"_type": "histogram", "values": [1.0, 0.0, 0.0, 1.0, 0.0, 0.0, 0.0, 0.0, 0.0, 0.0, 0.0, 1.0, 0.0, 0.0, 0.0, 0.0, 2.0, 0.0, 1.0, 1.0, 1.0, 0.0, 0.0, 2.0, 0.0, 0.0, 1.0, 1.0, 1.0, 0.0, 0.0, 0.0, 1.0, 0.0, 1.0, 0.0, 0.0, 1.0, 0.0, 1.0, 0.0, 0.0, 0.0, 0.0, 1.0, 0.0, 0.0, 0.0, 0.0, 0.0, 0.0, 0.0, 0.0, 0.0, 0.0, 0.0, 1.0, 0.0, 0.0, 0.0, 0.0, 0.0, 0.0, 1.0], "bins": [-4.064006076109905e-12, -4.033173968409631e-12, -4.0023418607093575e-12, -3.971509753009084e-12, -3.94067764530881e-12, -3.909845537608536e-12, -3.879013863589131e-12, -3.8481817558888576e-12, -3.817349648188584e-12, -3.78651754048831e-12, -3.755685432788036e-12, -3.7248533250877625e-12, -3.694021217387489e-12, -3.663189109687215e-12, -3.632357001986941e-12, -3.601525111127102e-12, -3.570693003426828e-12, -3.5398608957265543e-12, -3.5090287880262805e-12, -3.4781966803260067e-12, -3.447364572625733e-12, -3.4165326817658936e-12, -3.38570057406562e-12, -3.354868466365346e-12, -3.3240363586650723e-12, -3.2932042509647985e-12, -3.2623721432645247e-12, -3.2315402524046855e-12, -3.2007081447044117e-12, -3.169876037004138e-12, -3.139043929303864e-12, -3.1082118216035903e-12, -3.077379930743751e-12, -3.0465478230434773e-12, -3.0157157153432035e-12, -2.9848836076429297e-12, -2.954051499942656e-12, -2.923219392242382e-12, -2.892387501382543e-12, -2.861555393682269e-12, -2.8307232859819953e-12, -2.7998911782817215e-12, -2.7690590705814477e-12, -2.738226962881174e-12, -2.7073950720213347e-12, -2.676562964321061e-12, -2.645730856620787e-12, -2.6148987489205133e-12, -2.5840666412202395e-12, -2.5532345335199658e-12, -2.5224026426601265e-12, -2.4915705349598527e-12, -2.460738427259579e-12, -2.429906319559305e-12, -2.3990742118590314e-12, -2.3682421041587576e-12, -2.3374102132989183e-12, -2.3065781055986445e-12, -2.2757459978983707e-12, -2.244913890198097e-12, -2.214081782497823e-12, -2.1832496747975494e-12, -2.15241778393771e-12, -2.1215856762374363e-12, -2.0907535685371625e-12]}, "gradients/predictor.nn_layers.0.weight": {"_type": "histogram", "values": [2.0, 2.0, 0.0, 1.0, 1.0, 4.0, 7.0, 3.0, 4.0, 5.0, 3.0, 7.0, 5.0, 5.0, 1.0, 5.0, 7.0, 6.0, 6.0, 11.0, 14.0, 8.0, 11.0, 6.0, 5.0, 4.0, 4.0, 8.0, 9.0, 12.0, 7.0, 4.0, 9.0, 6.0, 5.0, 4.0, 15.0, 22.0, 24.0, 13.0, 18.0, 7.0, 0.0, 0.0, 0.0, 0.0, 0.0, 0.0, 0.0, 0.0, 0.0, 0.0, 0.0, 0.0, 0.0, 2.0, 0.0, 2.0, 3.0, 2.0, 5.0, 3.0, 1.0, 2.0], "bins": [-5.932933398039575e-12, -5.798118495742299e-12, -5.663303593445024e-12, -5.528489124828617e-12, -5.393674222531342e-12, -5.258859320234066e-12, -5.1240444179367906e-12, -4.989229515639515e-12, -4.8544146133422394e-12, -4.719600144725833e-12, -4.584785242428557e-12, -4.449970340131282e-12, -4.315155437834006e-12, -4.180340535536731e-12, -4.045526066920324e-12, -3.9107111646230486e-12, -3.775896262325773e-12, -3.6410813600284975e-12, -3.5062666745716564e-12, -3.371451772274381e-12, -3.23663708681754e-12, -3.1018221845202643e-12, -2.9670072822229887e-12, -2.8321925967661477e-12, -2.697377694468872e-12, -2.5625627921715965e-12, -2.4277481067147555e-12, -2.29293320441748e-12, -2.1581183021202044e-12, -2.0233036166633633e-12, -1.8884887143660878e-12, -1.7536739204890295e-12, -1.6188595602928402e-12, -1.4840447664157819e-12, -1.3492299725387236e-12, -1.214415070241448e-12, -1.0796002763643897e-12, -9.447854824873314e-13, -8.099706344001645e-13, -6.751557863129976e-13, -5.403409924359392e-13, -4.0552617145382663e-13, -2.70711350471714e-13, -1.358965294896014e-13, -1.0817085074887878e-15, 1.3373311247462383e-13, 2.6854793345673644e-13, 4.0336275443884906e-13, 5.381775754209617e-13, 6.7299236929802e-13, 8.078072173851869e-13, 9.426220654723538e-13, 1.0774368593494121e-12, 1.2122516532264704e-12, 1.347066555523746e-12, 1.4818813494008043e-12, 1.6166961432778626e-12, 1.751510937154921e-12, 1.8863257310319792e-12, 2.0211406333292548e-12, 2.1559555356265303e-12, 2.2907702210833714e-12, 2.425585123380647e-12, 2.560399808837488e-12, 2.6952147111347635e-12]}, "gradients/cell_update.nn_layers.2.bias": {"_type": "histogram", "values": [1.0, 0.0, 0.0, 0.0, 0.0, 0.0, 0.0, 0.0, 0.0, 0.0, 0.0, 0.0, 0.0, 0.0, 0.0, 0.0, 0.0, 0.0, 0.0, 0.0, 0.0, 0.0, 0.0, 0.0, 0.0, 0.0, 0.0, 0.0, 0.0, 0.0, 0.0, 0.0, 0.0, 0.0, 0.0, 0.0, 0.0, 1.0, 0.0, 1.0, 8.0, 2.0, 2.0, 0.0, 0.0, 0.0, 0.0, 0.0, 0.0, 0.0, 0.0, 0.0, 0.0, 0.0, 0.0, 0.0, 0.0, 0.0, 0.0, 0.0, 0.0, 0.0, 0.0, 1.0], "bins": [-9.763958951225504e-05, -9.521130414213985e-05, -9.278301149606705e-05, -9.035472612595186e-05, -8.792644075583667e-05, -8.549814810976386e-05, -8.306986273964867e-05, -8.064157736953348e-05, -7.821328472346067e-05, -7.578499935334548e-05, -7.335671398323029e-05, -7.092842133715749e-05, -6.85001359670423e-05, -6.60718505969271e-05, -6.36435579508543e-05, -6.121527258073911e-05, -5.878698357264511e-05, -5.6358694564551115e-05, -5.3930409194435924e-05, -5.1502120186341926e-05, -4.907383117824793e-05, -4.664554580813274e-05, -4.421725680003874e-05, -4.178896779194474e-05, -3.936068242182955e-05, -3.6932393413735554e-05, -3.4504104405641556e-05, -3.207581539754756e-05, -2.9647530027432367e-05, -2.721924101933837e-05, -2.4790953830233775e-05, -2.2362664822139777e-05, -1.9934373995056376e-05, -1.750608680595178e-05, -1.5077797797857784e-05, -1.264951060875319e-05, -1.0221222510153893e-05, -7.792934411554597e-06, -5.364646767702652e-06, -2.9363588964770315e-06, -5.080710252514109e-07, 1.9202168459742097e-06, 4.34850471719983e-06, 6.7767923610517755e-06, 9.205080459651072e-06, 1.1633368558250368e-05, 1.4061655747354962e-05, 1.648994475544896e-05, 1.8918231944553554e-05, 2.134651913365815e-05, 2.3774808141752146e-05, 2.620309533085674e-05, 2.863138433895074e-05, 3.105966970906593e-05, 3.348795871715993e-05, 3.5916247725253925e-05, 3.834453673334792e-05, 4.077282210346311e-05, 4.320111111155711e-05, 4.562940011965111e-05, 4.80576854897663e-05, 5.04859744978603e-05, 5.2914263505954295e-05, 5.5342548876069486e-05, 5.7770837884163484e-05]}, "gradients/cell_update.nn_layers.2.weight": {"_type": "histogram", "values": [1.0, 0.0, 0.0, 0.0, 0.0, 1.0, 0.0, 0.0, 1.0, 0.0, 2.0, 0.0, 0.0, 0.0, 1.0, 0.0, 0.0, 1.0, 0.0, 0.0, 0.0, 0.0, 0.0, 1.0, 1.0, 0.0, 2.0, 2.0, 0.0, 0.0, 0.0, 0.0, 0.0, 0.0, 0.0, 0.0, 0.0, 5.0, 6.0, 183.0, 79.0, 14.0, 7.0, 0.0, 0.0, 0.0, 0.0, 4.0, 0.0, 2.0, 0.0, 0.0, 0.0, 1.0, 1.0, 0.0, 0.0, 2.0, 0.0, 1.0, 1.0, 0.0, 0.0, 1.0], "bins": [-0.0008762636571191251, -0.0008542935247533023, -0.0008323233341798186, -0.0008103532018139958, -0.000788383069448173, -0.0007664129370823503, -0.0007444428047165275, -0.0007224726141430438, -0.000700502481777221, -0.0006785323494113982, -0.0006565621588379145, -0.0006345920264720917, -0.0006126218941062689, -0.0005906517617404461, -0.0005686816293746233, -0.0005467114388011396, -0.0005247413064353168, -0.000502771174069494, -0.00048080101259984076, -0.0004588308511301875, -0.0004368607187643647, -0.00041489058639854193, -0.0003929204249288887, -0.00037095026345923543, -0.00034898013109341264, -0.00032700999872758985, -0.0003050398372579366, -0.00028306967578828335, -0.00026109954342246056, -0.00023912939650472254, -0.00021715924958698452, -0.0001951891026692465, -0.00017321889754384756, -0.00015124875062610954, -0.00012927860370837152, -0.0001073084567906335, -8.533830987289548e-05, -6.336816295515746e-05, -4.139801603741944e-05, -1.9427869119681418e-05, 2.5422777980566025e-06, 2.4512424715794623e-05, 4.648257163353264e-05, 6.845271855127066e-05, 9.042286546900868e-05, 0.0001123930123867467, 0.00013436315930448472, 0.00015633330622222275, 0.00017830345313996077, 0.00020027360005769879, 0.0002222437469754368, 0.00024421390844509006, 0.00026618404081091285, 0.00028815417317673564, 0.0003101243346463889, 0.00033209449611604214, 0.00035406462848186493, 0.0003760347608476877, 0.00039800492231734097, 0.0004199750837869942, 0.000441945216152817, 0.0004639153485186398, 0.00048588550998829305, 0.0005078556714579463, 0.0005298258038237691]}, "gradients/cell_update.nn_layers.1.bias": {"_type": "histogram", "values": [1.0, 0.0, 0.0, 0.0, 0.0, 0.0, 0.0, 1.0, 0.0, 0.0, 0.0, 2.0, 1.0, 0.0, 0.0, 0.0, 0.0, 0.0, 0.0, 0.0, 0.0, 0.0, 0.0, 7.0, 0.0, 0.0, 0.0, 1.0, 0.0, 0.0, 1.0, 0.0, 0.0, 0.0, 0.0, 1.0, 1.0, 0.0, 0.0, 0.0, 0.0, 2.0, 0.0, 0.0, 1.0, 0.0, 0.0, 0.0, 0.0, 0.0, 0.0, 0.0, 0.0, 0.0, 0.0, 0.0, 0.0, 0.0, 0.0, 0.0, 0.0, 0.0, 0.0, 1.0], "bins": [-1.854121364885941e-05, -1.775386044755578e-05, -1.696650724625215e-05, -1.6179152225959115e-05, -1.5391799024655484e-05, -1.4604445823351853e-05, -1.3817092622048222e-05, -1.3029738511249889e-05, -1.2242385309946258e-05, -1.1455032108642627e-05, -1.0667677997844294e-05, -9.880324796540663e-06, -9.092971595237032e-06, -8.305617484438699e-06, -7.518264283135068e-06, -6.730910627084086e-06, -5.943556971033104e-06, -5.156203314982122e-06, -4.36884965893114e-06, -3.581496457627509e-06, -2.794142801576527e-06, -2.006789145525545e-06, -1.2194357168482384e-06, -4.3208217448409414e-07, 3.552713678800501e-07, 1.1426249102441943e-06, 1.9299784526083386e-06, 2.717331881285645e-06, 3.504685537336627e-06, 4.292039193387609e-06, 5.07939239469124e-06, 5.866746050742222e-06, 6.654099706793204e-06, 7.441453362844186e-06, 8.228807018895168e-06, 9.016160220198799e-06, 9.803514330997132e-06, 1.0590867532300763e-05, 1.1378220733604394e-05, 1.2165574844402727e-05, 1.2952928045706358e-05, 1.3740281247009989e-05, 1.4527635357808322e-05, 1.5314988559111953e-05, 1.6102341760415584e-05, 1.6889694961719215e-05, 1.767704998201225e-05, 1.846440318331588e-05, 1.925175638461951e-05, 2.0039109585923143e-05, 2.0826462787226774e-05, 2.161381780751981e-05, 2.240117100882344e-05, 2.318852421012707e-05, 2.39758774114307e-05, 2.4763230612734333e-05, 2.5550583814037964e-05, 2.6337938834331e-05, 2.712529203563463e-05, 2.791264523693826e-05, 2.869999843824189e-05, 2.9487351639545523e-05, 3.0274706659838557e-05, 3.106205986114219e-05, 3.184941306244582e-05]}, "gradients/cell_update.nn_layers.1.weight": {"_type": "histogram", "values": [2.0, 0.0, 2.0, 1.0, 3.0, 0.0, 0.0, 3.0, 1.0, 3.0, 2.0, 5.0, 7.0, 11.0, 4.0, 3.0, 2.0, 5.0, 1.0, 0.0, 0.0, 0.0, 0.0, 257.0, 0.0, 2.0, 7.0, 4.0, 1.0, 7.0, 5.0, 3.0, 4.0, 4.0, 7.0, 6.0, 2.0, 7.0, 3.0, 3.0, 6.0, 3.0, 2.0, 1.0, 2.0, 0.0, 0.0, 0.0, 0.0, 0.0, 1.0, 0.0, 0.0, 0.0, 0.0, 1.0, 1.0, 2.0, 1.0, 0.0, 1.0, 0.0, 1.0, 1.0], "bins": [-0.00010357488645240664, -9.918861906044185e-05, -9.480234439251944e-05, -9.041607700055465e-05, -8.602980960858986e-05, -8.164353494066745e-05, -7.725726754870266e-05, -7.287100015673786e-05, -6.848473276477307e-05, -6.409845809685066e-05, -5.971219070488587e-05, -5.532591967494227e-05, -5.093964864499867e-05, -4.6553381253033876e-05, -4.2167110223090276e-05, -3.778084283112548e-05, -3.339457180118188e-05, -2.9008302590227686e-05, -2.462203337927349e-05, -2.023576234932989e-05, -1.5849493138375692e-05, -1.1463223927421495e-05, -7.076953806972597e-06, -2.690684141271049e-06, 1.6955855244304985e-06, 6.081855190132046e-06, 1.0468124855833594e-05, 1.4854394976282492e-05, 1.924066418723669e-05, 2.3626933398190886e-05, 2.8013204428134486e-05, 3.239947182009928e-05, 3.678574285004288e-05, 4.117201387998648e-05, 4.555828127195127e-05, 4.994455230189487e-05, 5.4330819693859667e-05, 5.871709072380327e-05, 6.310336175374687e-05, 6.748962914571166e-05, 7.187589653767645e-05, 7.626217120559886e-05, 8.064843859756365e-05, 8.503470598952845e-05, 8.942098065745085e-05, 9.380724804941565e-05, 9.819351544138044e-05, 0.00010257979010930285, 0.00010696605750126764, 0.00011135232489323243, 0.00011573859956115484, 0.00012012486695311964, 0.00012451113434508443, 0.00012889740173704922, 0.00013328366912901402, 0.00013766995107289404, 0.00014205621846485883, 0.00014644248585682362, 0.00015082875324878842, 0.0001552150206407532, 0.000159601288032718, 0.00016398756997659802, 0.00016837383736856282, 0.0001727601047605276, 0.0001771463721524924]}, "gradients/cell_update.nn_layers.0.bias": {"_type": "histogram", "values": [1.0, 0.0, 0.0, 0.0, 0.0, 0.0, 0.0, 0.0, 0.0, 0.0, 0.0, 0.0, 0.0, 0.0, 0.0, 0.0, 0.0, 0.0, 0.0, 0.0, 0.0, 0.0, 0.0, 0.0, 0.0, 0.0, 0.0, 0.0, 0.0, 0.0, 10.0, 0.0, 0.0, 0.0, 1.0, 0.0, 0.0, 0.0, 1.0, 0.0, 0.0, 2.0, 1.0, 0.0, 0.0, 0.0, 0.0, 1.0, 0.0, 0.0, 0.0, 0.0, 1.0, 0.0, 0.0, 1.0, 0.0, 0.0, 0.0, 0.0, 0.0, 0.0, 0.0, 1.0], "bins": [-8.704862011654768e-06, -8.418485776928719e-06, -8.13210954220267e-06, -7.845733307476621e-06, -7.559357072750572e-06, -7.272981292771874e-06, -6.986605058045825e-06, -6.700228823319776e-06, -6.413852588593727e-06, -6.127476353867678e-06, -5.841100119141629e-06, -5.55472388441558e-06, -5.268348104436882e-06, -4.981971869710833e-06, -4.695595634984784e-06, -4.409219400258735e-06, -4.122843165532686e-06, -3.836466930806637e-06, -3.550090696080588e-06, -3.2637146887282142e-06, -2.9773384540021652e-06, -2.6909622192761162e-06, -2.4045862119237427e-06, -2.1182099771976937e-06, -1.8318337424716447e-06, -1.5454575077455956e-06, -1.2590813867063844e-06, -9.72705265667173e-07, -6.863290309411241e-07, -3.9995285305849393e-07, -1.1357667517586378e-07, 1.7279950270676636e-07, 4.5917477109469473e-07, 7.455509489773249e-07, 1.031927126859955e-06, 1.3183032478991663e-06, 1.6046794826252153e-06, 1.8910557173512643e-06, 2.177431724703638e-06, 2.463807959429687e-06, 2.750184194155736e-06, 3.036560428881785e-06, 3.322936663607834e-06, 3.6093126709602075e-06, 3.895688678312581e-06, 4.18206491303863e-06, 4.468441147764679e-06, 4.754817382490728e-06, 5.041193617216777e-06, 5.327569851942826e-06, 5.613946086668875e-06, 5.900322321394924e-06, 6.186698556120973e-06, 6.473074336099671e-06, 6.75945057082572e-06, 7.045826805551769e-06, 7.332203040277818e-06, 7.618579275003867e-06, 7.904955054982565e-06, 8.191331289708614e-06, 8.477707524434663e-06, 8.764083759160712e-06, 9.050459993886761e-06, 9.33683622861281e-06, 9.62321246333886e-06]}, "gradients/cell_update.nn_layers.0.weight": {"_type": "histogram", "values": [1.0, 9.0, 0.0, 9.0, 22.0, 3.0, 1.0, 1.0, 5.0, 7.0, 9.0, 5.0, 6.0, 0.0, 3.0, 2.0, 8.0, 10.0, 13.0, 2.0, 7.0, 17.0, 6.0, 12.0, 11.0, 27.0, 2.0, 2.0, 7.0, 5.0, 3.0, 13.0, 475.0, 10.0, 2.0, 3.0, 16.0, 2.0, 3.0, 15.0, 24.0, 0.0, 20.0, 31.0, 8.0, 2.0, 8.0, 0.0, 21.0, 3.0, 2.0, 1.0, 14.0, 2.0, 8.0, 2.0, 18.0, 0.0, 0.0, 2.0, 15.0, 1.0, 7.0, 17.0], "bins": [-1.0076965736516286e-05, -9.768992640601937e-06, -9.461018635192886e-06, -9.153045539278537e-06, -8.845071533869486e-06, -8.537098437955137e-06, -8.229124432546087e-06, -7.921151336631738e-06, -7.613177331222687e-06, -7.305204235308338e-06, -6.997230684646638e-06, -6.689257133984938e-06, -6.381283583323238e-06, -6.0733100326615386e-06, -5.765336481999839e-06, -5.457362931338139e-06, -5.149389380676439e-06, -4.841415830014739e-06, -4.533442279353039e-06, -4.2254687286913395e-06, -3.91749517802964e-06, -3.6095218547416152e-06, -3.3015483040799154e-06, -2.9935747534182156e-06, -2.6856012027565157e-06, -2.377627652094816e-06, -2.069654101433116e-06, -1.7616806644582539e-06, -1.453707113796554e-06, -1.1457335631348542e-06, -8.377600693165732e-07, -5.297865754982922e-07, -2.2181302483659238e-07, 8.616049740339804e-08, 3.9413401964338846e-07, 7.021075134616694e-07, 1.0100810641233693e-06, 1.3180546147850691e-06, 1.6260280517599313e-06, 1.934001602421631e-06, 2.241975153083331e-06, 2.549948703745031e-06, 2.8579222544067306e-06, 3.1658958050684305e-06, 3.473869128356455e-06, 3.7818426790181547e-06, 4.089816229679855e-06, 4.3977897803415544e-06, 4.705763331003254e-06, 5.013736881664954e-06, 5.321710432326654e-06, 5.629683982988354e-06, 5.937657533650054e-06, 6.2456310843117535e-06, 6.553604634973453e-06, 6.861578185635153e-06, 7.169551281549502e-06, 7.477524832211202e-06, 7.785498382872902e-06, 8.093472388281953e-06, 8.401445484196302e-06, 8.709419489605352e-06, 9.017392585519701e-06, 9.325366590928752e-06, 9.633339686843101e-06]}, "gradients/encoder.nn_layers.2.bias": {"_type": "histogram", "values": [1.0, 0.0, 0.0, 0.0, 0.0, 0.0, 0.0, 0.0, 0.0, 0.0, 0.0, 0.0, 0.0, 0.0, 0.0, 0.0, 0.0, 0.0, 0.0, 0.0, 0.0, 0.0, 0.0, 0.0, 0.0, 0.0, 0.0, 0.0, 0.0, 0.0, 0.0, 0.0, 0.0, 0.0, 0.0, 0.0, 0.0, 0.0, 0.0, 0.0, 0.0, 0.0, 0.0, 0.0, 0.0, 0.0, 0.0, 0.0, 0.0, 0.0, 0.0, 0.0, 0.0, 0.0, 0.0, 0.0, 0.0, 0.0, 0.0, 2.0, 2.0, 0.0, 1.0, 4.0], "bins": [-0.16842932999134064, -0.165400430560112, -0.16237151622772217, -0.15934261679649353, -0.1563137173652649, -0.15328480303287506, -0.15025590360164642, -0.14722700417041779, -0.14419808983802795, -0.14116919040679932, -0.13814029097557068, -0.13511137664318085, -0.1320824772119522, -0.12905357778072357, -0.12602466344833374, -0.1229957640171051, -0.11996685713529587, -0.11693795025348663, -0.113909050822258, -0.11088014394044876, -0.10785123705863953, -0.10482233762741089, -0.10179343074560165, -0.09876452386379242, -0.09573562443256378, -0.09270671755075455, -0.08967781066894531, -0.08664890378713608, -0.08362000435590744, -0.0805910974740982, -0.07756219059228897, -0.07453329116106033, -0.0715043842792511, -0.06847547739744186, -0.06544657796621323, -0.06241767108440399, -0.05938876420259476, -0.05635986104607582, -0.053330957889556885, -0.05030205100774765, -0.047273147851228714, -0.04424424469470978, -0.04121533781290054, -0.03818643465638161, -0.03515753149986267, -0.032128624618053436, -0.0290997214615345, -0.026070816442370415, -0.02304191142320633, -0.020013006404042244, -0.01698410138487816, -0.013955198228359222, -0.010926293209195137, -0.007897388190031052, -0.004868484102189541, -0.0018395795486867428, 0.0011893250048160553, 0.004218229558318853, 0.0072471341118216515, 0.010276038199663162, 0.013304943218827248, 0.016333848237991333, 0.01936275139451027, 0.022391656413674355, 0.02542056143283844]}, "gradients/encoder.nn_layers.2.weight": {"_type": "histogram", "values": [1.0, 0.0, 0.0, 0.0, 0.0, 1.0, 0.0, 0.0, 0.0, 0.0, 0.0, 1.0, 0.0, 0.0, 0.0, 0.0, 0.0, 0.0, 0.0, 0.0, 0.0, 0.0, 0.0, 0.0, 1.0, 0.0, 0.0, 0.0, 1.0, 0.0, 1.0, 0.0, 0.0, 0.0, 0.0, 0.0, 0.0, 0.0, 0.0, 0.0, 0.0, 0.0, 0.0, 0.0, 0.0, 1.0, 0.0, 0.0, 1.0, 0.0, 0.0, 0.0, 0.0, 0.0, 4.0, 125.0, 14.0, 9.0, 12.0, 12.0, 2.0, 7.0, 5.0, 2.0], "bins": [-0.2389853149652481, -0.23464278876781464, -0.23030027747154236, -0.2259577512741089, -0.22161522507667542, -0.21727271378040314, -0.21293018758296967, -0.2085876762866974, -0.20424515008926392, -0.19990262389183044, -0.19556011259555817, -0.1912175863981247, -0.18687507510185242, -0.18253254890441895, -0.17819002270698547, -0.1738475114107132, -0.16950498521327972, -0.16516245901584625, -0.16081994771957397, -0.1564774215221405, -0.15213489532470703, -0.14779238402843475, -0.14344985783100128, -0.139107346534729, -0.13476482033729553, -0.13042229413986206, -0.12607978284358978, -0.12173725664615631, -0.11739473789930344, -0.11305221915245056, -0.10870969295501709, -0.10436717420816422, -0.10002467036247253, -0.09568215161561966, -0.09133963286876678, -0.08699710667133331, -0.08265458792448044, -0.07831206917762756, -0.07396954298019409, -0.06962702423334122, -0.06528450548648834, -0.06094198673963547, -0.056599464267492294, -0.05225694179534912, -0.047914423048496246, -0.04357190430164337, -0.0392293818295002, -0.034886859357357025, -0.03054434061050415, -0.026201820001006126, -0.021859299391508102, -0.01751677878201008, -0.013174258172512054, -0.00883173756301403, -0.0044892169535160065, -0.00014669634401798248, 0.0041958242654800415, 0.008538344874978065, 0.01288086548447609, 0.017223386093974113, 0.021565906703472137, 0.02590842731297016, 0.030250947922468185, 0.03459347039461136, 0.03893598914146423]}, "gradients/encoder.nn_layers.1.bias": {"_type": "histogram", "values": [1.0, 0.0, 0.0, 0.0, 0.0, 0.0, 0.0, 0.0, 2.0, 0.0, 0.0, 0.0, 0.0, 0.0, 0.0, 0.0, 0.0, 0.0, 0.0, 0.0, 0.0, 0.0, 0.0, 0.0, 0.0, 1.0, 0.0, 1.0, 0.0, 1.0, 0.0, 0.0, 0.0, 0.0, 0.0, 1.0, 0.0, 0.0, 0.0, 0.0, 0.0, 0.0, 0.0, 0.0, 0.0, 0.0, 0.0, 0.0, 0.0, 0.0, 12.0, 0.0, 0.0, 0.0, 0.0, 0.0, 0.0, 0.0, 0.0, 0.0, 0.0, 0.0, 0.0, 1.0], "bins": [-0.06459163874387741, -0.0633092001080513, -0.06202675402164459, -0.06074431538581848, -0.05946187302470207, -0.05817943066358566, -0.05689699202775955, -0.05561454966664314, -0.05433210730552673, -0.053049664944410324, -0.051767222583293915, -0.050484783947467804, -0.049202341586351395, -0.047919899225234985, -0.046637460589408875, -0.045355018228292465, -0.044072575867176056, -0.04279013350605965, -0.04150769114494324, -0.040225252509117126, -0.03894281014800072, -0.03766036778688431, -0.0363779291510582, -0.03509548678994179, -0.03381304442882538, -0.03253060206770897, -0.03124816156923771, -0.02996572107076645, -0.02868327870965004, -0.02740083634853363, -0.02611839585006237, -0.02483595535159111, -0.0235535129904747, -0.02227107062935829, -0.02098863013088703, -0.01970618963241577, -0.018423747271299362, -0.017141304910182953, -0.015858864411711693, -0.014576422981917858, -0.013293981552124023, -0.012011540122330189, -0.010729098692536354, -0.00944665726274252, -0.008164215832948685, -0.00688177440315485, -0.005599332973361015, -0.004316891543567181, -0.003034450113773346, -0.0017520086839795113, -0.0004695672541856766, 0.0008128741756081581, 0.002095315605401993, 0.0033777570351958275, 0.004660198464989662, 0.005942639894783497, 0.0072250813245773315, 0.008507522754371166, 0.009789964184165001, 0.011072405613958836, 0.01235484704375267, 0.013637288473546505, 0.01491972990334034, 0.0162021704018116, 0.01748461276292801]}, "gradients/encoder.nn_layers.1.weight": {"_type": "histogram", "values": [1.0, 0.0, 0.0, 0.0, 0.0, 0.0, 0.0, 1.0, 2.0, 0.0, 0.0, 0.0, 0.0, 1.0, 1.0, 0.0, 0.0, 0.0, 0.0, 0.0, 0.0, 0.0, 0.0, 0.0, 0.0, 1.0, 0.0, 2.0, 1.0, 2.0, 2.0, 4.0, 2.0, 1.0, 1.0, 3.0, 1.0, 3.0, 1.0, 3.0, 7.0, 6.0, 6.0, 5.0, 6.0, 6.0, 5.0, 3.0, 0.0, 312.0, 0.0, 1.0, 2.0, 1.0, 2.0, 1.0, 2.0, 0.0, 0.0, 0.0, 0.0, 0.0, 1.0, 1.0], "bins": [-0.15024763345718384, -0.14724259078502655, -0.14423754811286926, -0.14123250544071198, -0.1382274627685547, -0.1352224051952362, -0.13221736252307892, -0.12921231985092163, -0.12620727717876434, -0.12320223450660706, -0.12019719183444977, -0.11719214171171188, -0.1141870990395546, -0.11118205636739731, -0.10817700624465942, -0.10517196357250214, -0.10216692090034485, -0.09916187822818756, -0.09615683555603027, -0.09315178543329239, -0.0901467427611351, -0.08714170008897781, -0.08413664996623993, -0.08113160729408264, -0.07812656462192535, -0.07512152194976807, -0.07211647927761078, -0.0691114291548729, -0.0661063864827156, -0.06310134381055832, -0.06009629741311073, -0.05709125101566315, -0.05408621206879616, -0.05108116567134857, -0.048076122999191284, -0.045071080327034, -0.04206603392958641, -0.039060987532138824, -0.03605594485998154, -0.03305090218782425, -0.030045855790376663, -0.027040811255574226, -0.02403576672077179, -0.021030722185969353, -0.018025677651166916, -0.015020633116364479, -0.012015588581562042, -0.009010544046759605, -0.006005499511957169, -0.0030004549771547318, 4.589557647705078e-06, 0.003009634092450142, 0.006014678627252579, 0.009019723162055016, 0.012024767696857452, 0.01502981223165989, 0.018034856766462326, 0.021039901301264763, 0.0240449458360672, 0.027049990370869637, 0.030055034905672073, 0.03306008130311966, 0.03606512397527695, 0.039070166647434235, 0.04207521304488182]}, "gradients/encoder.nn_layers.0.bias": {"_type": "histogram", "values": [1.0, 0.0, 0.0, 1.0, 0.0, 0.0, 2.0, 0.0, 0.0, 1.0, 0.0, 0.0, 0.0, 1.0, 0.0, 0.0, 0.0, 0.0, 1.0, 0.0, 0.0, 1.0, 0.0, 0.0, 0.0, 0.0, 0.0, 0.0, 0.0, 0.0, 0.0, 0.0, 9.0, 0.0, 0.0, 0.0, 1.0, 0.0, 0.0, 0.0, 0.0, 0.0, 0.0, 1.0, 0.0, 0.0, 0.0, 0.0, 0.0, 0.0, 0.0, 0.0, 0.0, 0.0, 0.0, 0.0, 0.0, 0.0, 0.0, 0.0, 0.0, 0.0, 0.0, 1.0], "bins": [-0.040473341941833496, -0.03924077749252319, -0.03800821304321289, -0.036775652319192886, -0.035543087869882584, -0.03431052342057228, -0.03307796269655228, -0.031845398247241974, -0.03061283379793167, -0.02938026934862137, -0.028147706761956215, -0.02691514417529106, -0.02568257972598076, -0.024450015276670456, -0.023217452690005302, -0.02198489010334015, -0.020752325654029846, -0.019519761204719543, -0.01828719861805439, -0.017054636031389236, -0.015822071582078934, -0.014589508064091206, -0.013356944546103477, -0.01212438102811575, -0.010891817510128021, -0.009659253992140293, -0.008426690474152565, -0.007194126956164837, -0.005961563438177109, -0.004728999920189381, -0.0034964364022016525, -0.0022638728842139244, -0.0010313130915164948, 0.00020125042647123337, 0.0014338139444589615, 0.0026663774624466896, 0.0038989409804344177, 0.005131504498422146, 0.006364068016409874, 0.007596631534397602, 0.00882919505238533, 0.010061758570373058, 0.011294322088360786, 0.012526885606348515, 0.013759449124336243, 0.01499201264232397, 0.0162245761603117, 0.017457138746976852, 0.018689703196287155, 0.019922267645597458, 0.02115483023226261, 0.022387392818927765, 0.023619957268238068, 0.02485252171754837, 0.026085084304213524, 0.027317646890878677, 0.02855021134018898, 0.029782775789499283, 0.031015338376164436, 0.03224790096282959, 0.03348046541213989, 0.034713029861450195, 0.0359455943107605, 0.0371781550347805, 0.038410719484090805]}, "gradients/encoder.nn_layers.0.weight": {"_type": "histogram", "values": [5.0, 10.0, 2.0, 12.0, 3.0, 8.0, 7.0, 3.0, 0.0, 10.0, 10.0, 1.0, 7.0, 5.0, 8.0, 2.0, 0.0, 1.0, 12.0, 0.0, 1.0, 10.0, 19.0, 2.0, 3.0, 2.0, 1.0, 3.0, 18.0, 4.0, 2.0, 288.0, 2.0, 1.0, 1.0, 13.0, 1.0, 0.0, 1.0, 1.0, 0.0, 19.0, 11.0, 0.0, 2.0, 15.0, 0.0, 1.0, 2.0, 9.0, 7.0, 11.0, 2.0, 11.0, 15.0, 2.0, 2.0, 10.0, 9.0, 4.0, 9.0, 3.0, 12.0, 5.0], "bins": [-0.04044102877378464, -0.03917701914906502, -0.0379130095243454, -0.03664899989962578, -0.03538499400019646, -0.03412098437547684, -0.03285697475075722, -0.0315929651260376, -0.030328955501317978, -0.029064947739243507, -0.027800938114523888, -0.026536928489804268, -0.025272920727729797, -0.024008911103010178, -0.022744901478290558, -0.021480893716216087, -0.020216884091496468, -0.018952874466776848, -0.017688866704702377, -0.016424857079982758, -0.015160847455263138, -0.013896838761866093, -0.012632830068469048, -0.011368820443749428, -0.010104811750352383, -0.008840803056955338, -0.007576793432235718, -0.006312784738838673, -0.00504877557978034, -0.0037847664207220078, -0.002520757494494319, -0.0012567484518513083, 7.2605907917022705e-06, 0.0012712696334347129, 0.0025352786760777235, 0.0037992876023054123, 0.005063296761363745, 0.006327305920422077, 0.007591314613819122, 0.008855324238538742, 0.010119332931935787, 0.011383341625332832, 0.012647351250052452, 0.013911359943449497, 0.015175368636846542, 0.016439378261566162, 0.017703387886285782, 0.018967395648360252, 0.020231405273079872, 0.021495414897799492, 0.022759422659873962, 0.024023432284593582, 0.025287441909313202, 0.026551449671387672, 0.027815459296107292, 0.029079468920826912, 0.030343476682901382, 0.031607486307621, 0.03287149593234062, 0.03413550555706024, 0.03539951518177986, 0.03666352108120918, 0.0379275307059288, 0.03919154033064842, 0.04045554995536804]}, "gradients/phi_x.nn_layers.2.bias": {"_type": "histogram", "values": [1.0, 0.0, 0.0, 0.0, 0.0, 0.0, 0.0, 0.0, 0.0, 0.0, 0.0, 0.0, 1.0, 0.0, 0.0, 0.0, 0.0, 0.0, 0.0, 0.0, 0.0, 0.0, 0.0, 0.0, 0.0, 0.0, 1.0, 0.0, 0.0, 0.0, 0.0, 0.0, 0.0, 0.0, 0.0, 0.0, 0.0, 0.0, 0.0, 1.0, 0.0, 0.0, 1.0, 1.0, 0.0, 1.0, 3.0, 2.0, 0.0, 0.0, 1.0, 1.0, 0.0, 0.0, 0.0, 0.0, 0.0, 1.0, 0.0, 0.0, 0.0, 0.0, 0.0, 1.0], "bins": [-0.00751538248732686, -0.0073544844053685665, -0.007193586323410273, -0.007032688241451979, -0.006871790625154972, -0.006710892543196678, -0.006549994461238384, -0.00638909637928009, -0.006228198297321796, -0.0060673002153635025, -0.005906402133405209, -0.005745504051446915, -0.005584605969488621, -0.005423708353191614, -0.00526281027123332, -0.005101912189275026, -0.004941014107316732, -0.0047801160253584385, -0.004619217943400145, -0.004458319861441851, -0.004297422245144844, -0.00413652416318655, -0.003975626081228256, -0.0038147279992699623, -0.0036538299173116684, -0.0034929318353533745, -0.0033320337533950806, -0.0031711359042674303, -0.0030102378223091364, -0.0028493397403508425, -0.002688441891223192, -0.0025275438092648983, -0.002366645261645317, -0.002205747179687023, -0.0020448490977287292, -0.001883951248601079, -0.001723053166642785, -0.0015621550846844912, -0.001401257119141519, -0.001240359153598547, -0.001079461071640253, -0.0009185630478896201, -0.0007576650241389871, -0.0005967670003883541, -0.00043586897663772106, -0.00027497095288708806, -0.00011407292913645506, 4.682509461417794e-05, 0.00020772311836481094, 0.00036862114211544394, 0.000529519165866077, 0.00069041718961671, 0.000851315213367343, 0.0010122132953256369, 0.001173111260868609, 0.001334009226411581, 0.001494907308369875, 0.0016558053903281689, 0.001816703355871141, 0.001977601321414113, 0.002138499403372407, 0.002299397485330701, 0.002460295334458351, 0.002621193416416645, 0.002782091498374939]}, "gradients/phi_x.nn_layers.2.weight": {"_type": "histogram", "values": [1.0, 0.0, 0.0, 0.0, 0.0, 0.0, 0.0, 0.0, 0.0, 0.0, 0.0, 0.0, 0.0, 1.0, 2.0, 0.0, 0.0, 0.0, 0.0, 0.0, 0.0, 1.0, 0.0, 3.0, 0.0, 2.0, 1.0, 1.0, 2.0, 1.0, 0.0, 2.0, 2.0, 2.0, 0.0, 0.0, 2.0, 2.0, 1.0, 2.0, 0.0, 2.0, 1.0, 7.0, 6.0, 11.0, 215.0, 14.0, 11.0, 5.0, 3.0, 4.0, 1.0, 3.0, 3.0, 1.0, 1.0, 1.0, 2.0, 0.0, 0.0, 0.0, 0.0, 1.0], "bins": [-0.021894309669733047, -0.021426327526569366, -0.020958343520760536, -0.020490361377596855, -0.020022379234433174, -0.019554395228624344, -0.019086413085460663, -0.018618430942296982, -0.0181504487991333, -0.01768246479332447, -0.01721448265016079, -0.01674650050699711, -0.016278516501188278, -0.015810534358024597, -0.015342551283538342, -0.01487456914037466, -0.014406586065888405, -0.01393860299140215, -0.013470620848238468, -0.013002637773752213, -0.012534655630588531, -0.012066672556102276, -0.01159868948161602, -0.01113070733845234, -0.010662724263966084, -0.010194741189479828, -0.009726759046316147, -0.009258775971829891, -0.008790792897343636, -0.008322810754179955, -0.007854827679693699, -0.0073868450708687305, -0.006918862462043762, -0.006450879853218794, -0.0059828972443938255, -0.00551491416990757, -0.0050469315610826015, -0.004578948952257633, -0.0041109658777713776, -0.0036429832689464092, -0.003175000660121441, -0.0027070180512964725, -0.0022390352096408606, -0.0017710524844005704, -0.0013030697591602802, -0.0008350870339199901, -0.0003671043086796999, 0.00010087841656059027, 0.0005688611418008804, 0.0010368438670411706, 0.0015048265922814608, 0.0019728094339370728, 0.002440792042762041, 0.0029087746515870094, 0.0033767574932426214, 0.0038447403348982334, 0.004312722943723202, 0.00478070555254817, 0.005248688161373138, 0.005716671235859394, 0.006184653844684362, 0.006652636453509331, 0.007120619527995586, 0.007588602136820555, 0.008056584745645523]}, "gradients/phi_x.nn_layers.1.bias": {"_type": "histogram", "values": [1.0, 0.0, 0.0, 0.0, 0.0, 0.0, 0.0, 0.0, 0.0, 1.0, 0.0, 0.0, 0.0, 0.0, 0.0, 0.0, 0.0, 0.0, 0.0, 0.0, 0.0, 0.0, 1.0, 0.0, 0.0, 0.0, 0.0, 1.0, 0.0, 0.0, 2.0, 0.0, 0.0, 0.0, 0.0, 0.0, 0.0, 0.0, 0.0, 0.0, 11.0, 0.0, 0.0, 0.0, 0.0, 0.0, 0.0, 0.0, 1.0, 0.0, 0.0, 0.0, 0.0, 0.0, 0.0, 0.0, 1.0, 0.0, 0.0, 0.0, 0.0, 0.0, 0.0, 1.0], "bins": [-0.002053431700915098, -0.0020025481935590506, -0.0019516648026183248, -0.0019007812952622771, -0.0018498979043215513, -0.0017990143969655037, -0.001748130889609456, -0.0016972474986687303, -0.0016463639913126826, -0.0015954806003719568, -0.0015445970930159092, -0.0014937135856598616, -0.0014428301947191358, -0.0013919466873630881, -0.0013410632964223623, -0.0012901797890663147, -0.001239296281710267, -0.0011884128907695413, -0.0011375293834134936, -0.0010866459924727678, -0.0010357624851167202, -0.0009848790941759944, -0.0009339955868199468, -0.00088311213767156, -0.0008322286885231733, -0.0007813451811671257, -0.000730461732018739, -0.0006795782828703523, -0.0006286948337219656, -0.0005778113845735788, -0.0005269278772175312, -0.0004760444280691445, -0.00042516097892075777, -0.00037427752977237105, -0.0003233940515201539, -0.00027251060237176716, -0.00022162713867146522, -0.00017074367497116327, -0.00011986021854681894, -6.897676212247461e-05, -1.8093298422172666e-05, 3.279016164015047e-05, 8.367362170247361e-05, 0.00013455707812681794, 0.0001854405418271199, 0.00023632400552742183, 0.00028720745467580855, 0.0003380909329280257, 0.00038897438207641244, 0.00043985783122479916, 0.0004907412803731859, 0.0005416247877292335, 0.0005925082368776202, 0.0006433916860260069, 0.0006942751351743937, 0.0007451585843227804, 0.0007960420334711671, 0.0008469255408272147, 0.0008978089899756014, 0.0009486924391239882, 0.0009995759464800358, 0.0010504593374207616, 0.0011013428447768092, 0.001152226235717535, 0.0012031097430735826]}, "gradients/phi_x.nn_layers.1.weight": {"_type": "histogram", "values": [1.0, 0.0, 0.0, 0.0, 0.0, 0.0, 0.0, 0.0, 0.0, 0.0, 1.0, 0.0, 0.0, 0.0, 0.0, 0.0, 0.0, 0.0, 0.0, 1.0, 0.0, 0.0, 1.0, 2.0, 0.0, 2.0, 2.0, 5.0, 2.0, 2.0, 4.0, 6.0, 3.0, 4.0, 6.0, 10.0, 15.0, 14.0, 5.0, 17.0, 253.0, 2.0, 6.0, 8.0, 3.0, 8.0, 2.0, 5.0, 4.0, 2.0, 1.0, 0.0, 1.0, 0.0, 0.0, 0.0, 0.0, 1.0, 0.0, 0.0, 0.0, 0.0, 0.0, 1.0], "bins": [-0.0033796157222241163, -0.0032952132169157267, -0.0032108109444379807, -0.003126408439129591, -0.0030420059338212013, -0.0029576034285128117, -0.002873200923204422, -0.002788798650726676, -0.0027043961454182863, -0.0026199936401098967, -0.0025355913676321507, -0.002451188862323761, -0.0023667863570153713, -0.0022823838517069817, -0.002197981346398592, -0.002113579073920846, -0.0020291765686124563, -0.0019447740633040667, -0.0018603716744109988, -0.001775969285517931, -0.0016915667802095413, -0.0016071642749011517, -0.0015227618860080838, -0.001438359497115016, -0.0013539569918066263, -0.0012695544864982367, -0.0011851520976051688, -0.001100749708712101, -0.0010163472034037113, -0.0009319447563029826, -0.0008475423092022538, -0.0007631398621015251, -0.00067873764783144, -0.0005943352007307112, -0.0005099327536299825, -0.0004255303065292537, -0.00034112785942852497, -0.0002567254123277962, -0.00017232296522706747, -8.792051812633872e-05, -3.51807102560997e-06, 8.088437607511878e-05, 0.00016528682317584753, 0.0002496892702765763, 0.00033409171737730503, 0.0004184941644780338, 0.0005028966115787625, 0.0005872990586794913, 0.00067170150578022, 0.0007561039528809488, 0.0008405063999816775, 0.0009249088470824063, 0.001009311294183135, 0.0010937137994915247, 0.0011781161883845925, 0.0012625185772776604, 0.00134692108258605, 0.0014313235878944397, 0.0015157259767875075, 0.0016001283656805754, 0.001684530870988965, 0.0017689333762973547, 0.0018533357651904225, 0.0019377381540834904, 0.00202214065939188]}, "gradients/phi_x.nn_layers.0.bias": {"_type": "histogram", "values": [1.0, 0.0, 1.0, 1.0, 0.0, 1.0, 0.0, 0.0, 2.0, 0.0, 0.0, 0.0, 0.0, 0.0, 0.0, 0.0, 1.0, 0.0, 0.0, 0.0, 0.0, 0.0, 0.0, 0.0, 0.0, 1.0, 0.0, 0.0, 1.0, 0.0, 0.0, 1.0, 0.0, 0.0, 0.0, 2.0, 2.0, 1.0, 0.0, 0.0, 0.0, 0.0, 0.0, 0.0, 0.0, 0.0, 0.0, 0.0, 0.0, 0.0, 0.0, 0.0, 1.0, 0.0, 0.0, 1.0, 0.0, 0.0, 2.0, 0.0, 0.0, 0.0, 0.0, 1.0], "bins": [-0.0007889209664426744, -0.000767348799854517, -0.0007457765750586987, -0.0007242044084705412, -0.0007026321836747229, -0.0006810600170865655, -0.0006594877922907472, -0.0006379156257025898, -0.0006163434591144323, -0.000594771234318614, -0.0005731990677304566, -0.0005516268429346383, -0.0005300546763464808, -0.0005084824515506625, -0.0004869102849625051, -0.00046533808927051723, -0.00044376589357852936, -0.0004221936978865415, -0.0004006215021945536, -0.00037904930650256574, -0.00035747711081057787, -0.00033590494422242045, -0.0003143327485304326, -0.0002927605528384447, -0.00027118835714645684, -0.00024961616145446897, -0.0002280439657624811, -0.00020647178462240845, -0.00018489958893042058, -0.0001633273932384327, -0.00014175521209836006, -0.00012018301640637219, -9.86107625067234e-05, -7.703856681473553e-05, -5.5466378398705274e-05, -3.389418634469621e-05, -1.2321994290687144e-05, 9.250197763321921e-06, 3.0822389817330986e-05, 5.239458187134005e-05, 7.396677392534912e-05, 9.553896961733699e-05, 0.00011711115803336725, 0.0001386833464493975, 0.00016025554214138538, 0.00018182773783337325, 0.0002033999189734459, 0.00022497211466543376, 0.00024654431035742164, 0.0002681165060494095, 0.0002896887017413974, 0.00031126089743338525, 0.0003328330931253731, 0.00035440525971353054, 0.0003759774554055184, 0.0003975496510975063, 0.00041912184678949416, 0.00044069404248148203, 0.0004622662381734699, 0.0004838384338654578, 0.0005054106004536152, 0.0005269828252494335, 0.0005485549918375909, 0.0005701272166334093, 0.0005916993832215667]}, "gradients/phi_x.nn_layers.0.weight": {"_type": "histogram", "values": [2.0, 1.0, 1.0, 1.0, 2.0, 0.0, 2.0, 3.0, 1.0, 2.0, 1.0, 1.0, 4.0, 2.0, 2.0, 2.0, 7.0, 1.0, 2.0, 3.0, 1.0, 1.0, 1.0, 3.0, 4.0, 2.0, 7.0, 6.0, 6.0, 2.0, 9.0, 5.0, 17.0, 23.0, 1.0, 5.0, 1.0, 4.0, 3.0, 3.0, 4.0, 1.0, 1.0, 2.0, 1.0, 2.0, 2.0, 3.0, 3.0, 3.0, 0.0, 2.0, 2.0, 1.0, 3.0, 1.0, 2.0, 1.0, 0.0, 1.0, 0.0, 0.0, 0.0, 1.0], "bins": [-0.0005655422573909163, -0.0005484251887537539, -0.0005313080619089305, -0.0005141909932717681, -0.0004970738664269447, -0.0004799567977897823, -0.00046283972915261984, -0.00044572263141162694, -0.00042860553367063403, -0.00041148843592964113, -0.0003943713381886482, -0.0003772542695514858, -0.0003601371718104929, -0.00034302007406949997, -0.0003259030054323375, -0.0003087859076913446, -0.0002916688099503517, -0.0002745517122093588, -0.0002574346144683659, -0.00024031754583120346, -0.00022320044809021056, -0.00020608335034921765, -0.00018896626716013998, -0.0001718491839710623, -0.0001547320862300694, -0.0001376149884890765, -0.00012049790529999882, -0.00010338081483496353, -8.626372436992824e-05, -6.914663390489295e-05, -5.202954343985766e-05, -3.491245297482237e-05, -1.779530430212617e-05, -6.782138370908797e-07, 1.643887662794441e-05, 3.35559670929797e-05, 5.067305755801499e-05, 6.779014802305028e-05, 8.490723848808557e-05, 0.00010202432895312086, 0.00011914141941815615, 0.00013625851715914905, 0.00015337560034822673, 0.0001704926835373044, 0.0001876097812782973, 0.0002047268790192902, 0.00022184396220836788, 0.00023896104539744556, 0.00025607814313843846, 0.00027319524087943137, 0.00029031233862042427, 0.0003074294072575867, 0.0003245465049985796, 0.0003416636027395725, 0.00035878067137673497, 0.0003758977691177279, 0.0003930148668587208, 0.0004101319645997137, 0.0004272490623407066, 0.00044436613097786903, 0.00046148322871886194, 0.00047860032645985484, 0.0004957173950970173, 0.0005128345219418406, 0.0005299515905790031]}, "gradients/prior.nn_layers.2.bias": {"_type": "histogram", "values": [1.0, 0.0, 0.0, 0.0, 0.0, 0.0, 0.0, 0.0, 0.0, 0.0, 0.0, 0.0, 0.0, 0.0, 0.0, 0.0, 0.0, 0.0, 0.0, 0.0, 0.0, 0.0, 0.0, 0.0, 0.0, 0.0, 0.0, 0.0, 0.0, 0.0, 0.0, 0.0, 0.0, 0.0, 0.0, 0.0, 0.0, 0.0, 0.0, 0.0, 0.0, 6.0, 0.0, 1.0, 0.0, 0.0, 0.0, 0.0, 0.0, 0.0, 0.0, 0.0, 0.0, 0.0, 0.0, 0.0, 0.0, 1.0, 0.0, 0.0, 0.0, 0.0, 0.0, 1.0], "bins": [-0.3625848889350891, -0.3538166880607605, -0.3450484871864319, -0.33628028631210327, -0.32751208543777466, -0.31874388456344604, -0.30997568368911743, -0.3012074828147888, -0.2924392819404602, -0.283671110868454, -0.27490290999412537, -0.26613470911979675, -0.25736650824546814, -0.24859830737113953, -0.2398301064968109, -0.2310619056224823, -0.2222937047481537, -0.21352550387382507, -0.20475730299949646, -0.19598910212516785, -0.18722090125083923, -0.17845271527767181, -0.1696845144033432, -0.1609163135290146, -0.15214811265468597, -0.14337991178035736, -0.13461171090602875, -0.12584351003170013, -0.11707531660795212, -0.1083071157336235, -0.09953892230987549, -0.09077072143554688, -0.08200250566005707, -0.07323430478572845, -0.06446610391139984, -0.055697910487651825, -0.04692970961332321, -0.0381615087389946, -0.029393311589956284, -0.02062511257827282, -0.011856913566589355, -0.0030887145549058914, 0.005679484456777573, 0.014447683468461037, 0.0232158824801445, 0.031984083354473114, 0.04075228050351143, 0.049520477652549744, 0.05828867852687836, 0.06705687940120697, 0.07582508027553558, 0.0845932736992836, 0.09336147457361221, 0.10212967544794083, 0.11089786887168884, 0.11966606974601746, 0.12843427062034607, 0.13720247149467468, 0.1459706723690033, 0.1547388732433319, 0.16350707411766052, 0.17227526009082794, 0.18104346096515656, 0.18981166183948517, 0.19857986271381378]}, "gradients/prior.nn_layers.2.weight": {"_type": "histogram", "values": [1.0, 0.0, 0.0, 2.0, 1.0, 0.0, 0.0, 0.0, 3.0, 3.0, 0.0, 1.0, 1.0, 0.0, 2.0, 0.0, 0.0, 0.0, 0.0, 0.0, 0.0, 0.0, 0.0, 0.0, 0.0, 0.0, 0.0, 0.0, 0.0, 0.0, 0.0, 0.0, 0.0, 0.0, 0.0, 0.0, 0.0, 0.0, 0.0, 0.0, 0.0, 144.0, 10.0, 4.0, 0.0, 0.0, 0.0, 0.0, 0.0, 0.0, 0.0, 2.0, 2.0, 4.0, 2.0, 5.0, 1.0, 2.0, 3.0, 3.0, 0.0, 2.0, 1.0, 1.0], "bins": [-1.0132949352264404, -0.9887909889221191, -0.9642869830131531, -0.939782977104187, -0.9152790307998657, -0.8907750844955444, -0.8662710785865784, -0.8417670726776123, -0.817263126373291, -0.7927591800689697, -0.7682551741600037, -0.7437511682510376, -0.7192472219467163, -0.694743275642395, -0.670239269733429, -0.6457352638244629, -0.6212313175201416, -0.5967273712158203, -0.5722233653068542, -0.5477193593978882, -0.5232154130935669, -0.4987114369869232, -0.47420746088027954, -0.44970348477363586, -0.4251995086669922, -0.4006955325603485, -0.37619155645370483, -0.35168758034706116, -0.3271836042404175, -0.3026796281337738, -0.2781756520271301, -0.25367167592048645, -0.22916775941848755, -0.20466378331184387, -0.1801598072052002, -0.15565583109855652, -0.13115185499191284, -0.10664787888526917, -0.08214390277862549, -0.05763992667198181, -0.033135950565338135, -0.008631974458694458, 0.01587200164794922, 0.040375977754592896, 0.06487995386123657, 0.08938392996788025, 0.11388790607452393, 0.1383918821811676, 0.16289585828781128, 0.18739983439445496, 0.21190381050109863, 0.2364077866077423, 0.260911762714386, 0.28541573882102966, 0.30991971492767334, 0.334423691034317, 0.3589276671409607, 0.38343164324760437, 0.40793561935424805, 0.4324395954608917, 0.4569435715675354, 0.4814475476741791, 0.5059515237808228, 0.530455470085144, 0.5549594759941101]}, "gradients/prior.nn_layers.1.bias": {"_type": "histogram", "values": [1.0, 0.0, 1.0, 0.0, 0.0, 0.0, 0.0, 1.0, 0.0, 0.0, 1.0, 1.0, 1.0, 1.0, 0.0, 0.0, 0.0, 1.0, 0.0, 0.0, 0.0, 0.0, 2.0, 0.0, 0.0, 0.0, 0.0, 0.0, 0.0, 1.0, 0.0, 1.0, 0.0, 0.0, 0.0, 0.0, 1.0, 1.0, 0.0, 0.0, 0.0, 0.0, 0.0, 0.0, 0.0, 0.0, 0.0, 0.0, 0.0, 0.0, 0.0, 0.0, 0.0, 0.0, 0.0, 0.0, 0.0, 0.0, 0.0, 0.0, 0.0, 0.0, 0.0, 6.0], "bins": [-0.2450396865606308, -0.2412109375, -0.2373822033405304, -0.2335534542798996, -0.2297247052192688, -0.225895956158638, -0.2220672219991684, -0.2182384729385376, -0.2144097238779068, -0.210580974817276, -0.2067522406578064, -0.2029234915971756, -0.1990947425365448, -0.195265993475914, -0.1914372593164444, -0.1876085102558136, -0.1837797611951828, -0.1799510270357132, -0.1761222779750824, -0.1722935289144516, -0.1684647798538208, -0.1646360456943512, -0.1608072966337204, -0.1569785475730896, -0.1531497985124588, -0.1493210643529892, -0.1454923152923584, -0.1416635662317276, -0.1378348171710968, -0.1340060830116272, -0.1301773339509964, -0.1263485848903656, -0.1225198432803154, -0.1186911016702652, -0.1148623526096344, -0.1110336109995842, -0.1072048619389534, -0.1033761203289032, -0.0995473712682724, -0.0957186296582222, -0.0918898805975914, -0.0880611389875412, -0.0842323899269104, -0.0804036483168602, -0.0765748992562294, -0.0727461576461792, -0.0689174085855484, -0.0650886669754982, -0.0612599216401577, -0.0574311763048172, -0.0536024309694767, -0.0497736856341362, -0.0459449402987957, -0.0421161949634552, -0.0382874496281147, -0.0344587042927742, -0.03062996082007885, -0.02680121548473835, -0.02297247014939785, -0.01914372481405735, -0.015314980410039425, -0.011486235074698925, -0.0076574902050197124, -0.0038287451025098562, 0.0]}, "gradients/prior.nn_layers.1.weight": {"_type": "histogram", "values": [1.0, 0.0, 1.0, 0.0, 0.0, 0.0, 0.0, 1.0, 0.0, 0.0, 1.0, 2.0, 2.0, 2.0, 0.0, 1.0, 0.0, 2.0, 0.0, 2.0, 1.0, 4.0, 5.0, 2.0, 2.0, 2.0, 2.0, 3.0, 2.0, 6.0, 3.0, 9.0, 3.0, 2.0, 3.0, 7.0, 4.0, 5.0, 4.0, 0.0, 3.0, 6.0, 3.0, 1.0, 2.0, 4.0, 3.0, 2.0, 2.0, 2.0, 0.0, 0.0, 0.0, 0.0, 0.0, 0.0, 0.0, 0.0, 0.0, 0.0, 0.0, 0.0, 0.0, 288.0], "bins": [-0.22744245827198029, -0.22388866543769836, -0.22033488750457764, -0.21678109467029572, -0.2132273018360138, -0.20967350900173187, -0.20611973106861115, -0.20256593823432922, -0.1990121454000473, -0.19545836746692657, -0.19190457463264465, -0.18835078179836273, -0.184797003865242, -0.18124321103096008, -0.17768941819667816, -0.17413562536239624, -0.1705818474292755, -0.1670280545949936, -0.16347426176071167, -0.15992048382759094, -0.15636669099330902, -0.1528128981590271, -0.14925912022590637, -0.14570532739162445, -0.14215153455734253, -0.1385977417230606, -0.13504396378993988, -0.13149017095565796, -0.12793637812137604, -0.12438259273767471, -0.12082880735397339, -0.11727501451969147, -0.11372122913599014, -0.11016744375228882, -0.1066136509180069, -0.10305986553430557, -0.09950607270002365, -0.09595228731632233, -0.092398501932621, -0.08884470909833908, -0.08529092371463776, -0.08173713088035583, -0.07818334549665451, -0.07462956011295319, -0.07107576727867126, -0.06752198189496994, -0.06396818906068802, -0.060414403676986694, -0.05686061456799507, -0.05330682545900345, -0.049753036350011826, -0.0461992509663105, -0.04264546185731888, -0.039091672748327255, -0.03553788363933563, -0.03198409453034401, -0.028430307283997536, -0.024876518175005913, -0.02132273092865944, -0.017768941819667816, -0.014215153641998768, -0.01066136546432972, -0.007107576820999384, -0.003553788410499692, 1.8624984787881796e-19]}, "gradients/prior.nn_layers.0.bias": {"_type": "histogram", "values": [1.0, 0.0, 0.0, 0.0, 0.0, 0.0, 0.0, 0.0, 0.0, 0.0, 0.0, 0.0, 0.0, 0.0, 0.0, 0.0, 0.0, 0.0, 0.0, 0.0, 0.0, 0.0, 0.0, 0.0, 0.0, 2.0, 0.0, 0.0, 1.0, 0.0, 2.0, 1.0, 0.0, 0.0, 0.0, 1.0, 0.0, 0.0, 0.0, 0.0, 0.0, 0.0, 0.0, 0.0, 0.0, 0.0, 0.0, 0.0, 0.0, 0.0, 0.0, 0.0, 0.0, 0.0, 0.0, 0.0, 0.0, 0.0, 0.0, 0.0, 0.0, 0.0, 0.0, 12.0], "bins": [-1.3012233972549438, -1.2808917760849, -1.260560154914856, -1.240228533744812, -1.219896912574768, -1.1995652914047241, -1.1792336702346802, -1.1589020490646362, -1.1385704278945923, -1.1182388067245483, -1.0979071855545044, -1.07757568359375, -1.057244062423706, -1.036912441253662, -1.0165808200836182, -0.9962491393089294, -0.9759175777435303, -0.9555859565734863, -0.9352543354034424, -0.9149227142333984, -0.8945910930633545, -0.8742594718933105, -0.8539278507232666, -0.8335962295532227, -0.8132646083831787, -0.7929329872131348, -0.7726013660430908, -0.7522698044776917, -0.7319381833076477, -0.7116065621376038, -0.6912749409675598, -0.6709433197975159, -0.6506116986274719, -0.630280077457428, -0.609948456287384, -0.5896168351173401, -0.5692852139472961, -0.5489535927772522, -0.528622031211853, -0.5082904100418091, -0.48795878887176514, -0.4676271677017212, -0.44729554653167725, -0.4269639253616333, -0.40663230419158936, -0.3863006830215454, -0.36596909165382385, -0.3456374704837799, -0.32530584931373596, -0.304974228143692, -0.28464260697364807, -0.2643110156059265, -0.24397939443588257, -0.22364777326583862, -0.20331615209579468, -0.18298454582691193, -0.16265292465686798, -0.14232130348682404, -0.12198969721794128, -0.10165807604789734, -0.08132646232843399, -0.06099484860897064, -0.040663231164216995, -0.020331615582108498, 0.0]}, "gradients/prior.nn_layers.0.weight": {"_type": "histogram", "values": [7.0, 0.0, 0.0, 0.0, 7.0, 0.0, 0.0, 0.0, 0.0, 0.0, 0.0, 0.0, 7.0, 7.0, 21.0, 0.0, 7.0, 0.0, 0.0, 0.0, 0.0, 0.0, 0.0, 7.0, 0.0, 0.0, 0.0, 0.0, 0.0, 0.0, 0.0, 0.0, 176.0, 0.0, 0.0, 0.0, 0.0, 0.0, 0.0, 0.0, 9.0, 0.0, 0.0, 0.0, 0.0, 0.0, 0.0, 9.0, 0.0, 27.0, 9.0, 9.0, 0.0, 0.0, 0.0, 0.0, 0.0, 0.0, 0.0, 9.0, 0.0, 0.0, 0.0, 9.0], "bins": [-1.7118973235758297e-19, -1.658400580681699e-19, -1.6049038377875684e-19, -1.551406965646467e-19, -1.4979102227523364e-19, -1.4444134798582057e-19, -1.390916736964075e-19, -1.3374199940699444e-19, -1.283923121928843e-19, -1.2304263790347123e-19, -1.1769296361405817e-19, -1.123432893246451e-19, -1.0699361503523204e-19, -1.0164393428347043e-19, -9.629425999405737e-20, -9.094457924229577e-20, -8.55949049528827e-20, -8.024523066346963e-20, -7.489554991170803e-20, -6.954587562229497e-20, -6.419619487053336e-20, -5.88465205811203e-20, -5.349684629170723e-20, -4.81471687711199e-20, -4.2797491250532563e-20, -3.744781372994523e-20, -3.2098136209357895e-20, -2.674846191994483e-20, -2.1398784399357495e-20, -1.604910687877016e-20, -1.0699430973769961e-20, -5.349754260976194e-21, -6.462348535570529e-26, 5.349612089308411e-21, 1.0699288802102178e-20, 1.604896470710238e-20, 2.1398642227689713e-20, 2.6748319748277047e-20, 3.209799403769011e-20, 3.7447671558277447e-20, 4.279734907886478e-20, 4.8147026599452115e-20, 5.349670412003945e-20, 5.884637840945251e-20, 6.419605269886558e-20, 6.954573345062718e-20, 7.489540774004025e-20, 8.024508849180185e-20, 8.559476278121492e-20, 9.094443707062798e-20, 9.629411782238959e-20, 1.0164379211180265e-19, 1.0699347286356425e-19, 1.1234314715297732e-19, 1.1769282144239039e-19, 1.2304249573180345e-19, 1.283921829459136e-19, 1.3374185723532666e-19, 1.3909153152473972e-19, 1.4444120581415279e-19, 1.4979088010356585e-19, 1.5514055439297892e-19, 1.6049024160708906e-19, 1.6583991589650212e-19, 1.711895901859152e-19]}, "gradients/decoder.fc_out.bias": {"_type": "histogram", "values": [1.0, 0.0, 0.0, 0.0, 0.0, 0.0, 0.0, 0.0, 0.0, 0.0, 0.0, 0.0, 1.0, 0.0, 0.0, 0.0, 1.0, 0.0, 0.0, 1.0, 0.0, 0.0, 0.0, 0.0, 0.0, 0.0, 0.0, 2.0, 0.0, 0.0, 0.0, 0.0, 0.0, 2.0, 0.0, 3.0, 0.0, 2.0, 0.0, 1.0, 1.0, 0.0, 0.0, 0.0, 0.0, 0.0, 0.0, 0.0, 0.0, 0.0, 0.0, 1.0, 0.0, 0.0, 1.0, 0.0, 0.0, 0.0, 0.0, 0.0, 0.0, 0.0, 0.0, 1.0], "bins": [-19.778724670410156, -19.227020263671875, -18.675315856933594, -18.123611450195312, -17.57190704345703, -17.02020263671875, -16.46849822998047, -15.916792869567871, -15.36508846282959, -14.813384056091309, -14.261679649353027, -13.709975242614746, -13.158269882202148, -12.606565475463867, -12.054861068725586, -11.503156661987305, -10.951452255249023, -10.399747848510742, -9.848043441772461, -9.29633903503418, -8.744634628295898, -8.1929292678833, -7.6412248611450195, -7.089520454406738, -6.537816047668457, -5.986111640930176, -5.4344072341918945, -4.882702350616455, -4.330997943878174, -3.7792935371398926, -3.2275888919830322, -2.675884246826172, -2.1241798400878906, -1.5724753141403198, -1.020770788192749, -0.4690662622451782, 0.08263826370239258, 0.6343427896499634, 1.1860473155975342, 1.737751841545105, 2.289456367492676, 2.841160774230957, 3.3928654193878174, 3.9445700645446777, 4.496274471282959, 5.04797887802124, 5.59968376159668, 6.151388168334961, 6.703092575073242, 7.254796981811523, 7.806501388549805, 8.358205795288086, 8.909910202026367, 9.461615562438965, 10.013319969177246, 10.565024375915527, 11.116728782653809, 11.66843318939209, 12.220137596130371, 12.771842002868652, 13.32354736328125, 13.875251770019531, 14.426956176757812, 14.978660583496094, 15.530364990234375]}, "gradients/decoder.fc_out.weight": {"_type": "histogram", "values": [1.0, 0.0, 0.0, 0.0, 0.0, 0.0, 0.0, 1.0, 1.0, 0.0, 1.0, 0.0, 1.0, 3.0, 2.0, 1.0, 3.0, 1.0, 4.0, 1.0, 3.0, 8.0, 5.0, 7.0, 7.0, 9.0, 8.0, 7.0, 9.0, 21.0, 14.0, 30.0, 60.0, 171.0, 60.0, 28.0, 24.0, 11.0, 9.0, 9.0, 10.0, 7.0, 6.0, 4.0, 3.0, 3.0, 3.0, 4.0, 4.0, 3.0, 2.0, 0.0, 0.0, 1.0, 0.0, 1.0, 1.0, 2.0, 1.0, 0.0, 0.0, 0.0, 0.0, 1.0], "bins": [-48.61431884765625, -47.16215515136719, -45.70998764038086, -44.2578239440918, -42.805660247802734, -41.353492736816406, -39.901329040527344, -38.44916534423828, -36.99700164794922, -35.54483413696289, -34.09267044067383, -32.640506744384766, -31.188339233398438, -29.736175537109375, -28.28400993347168, -26.831846237182617, -25.379680633544922, -23.927515029907227, -22.475351333618164, -21.02318572998047, -19.571022033691406, -18.11885643005371, -16.666690826416016, -15.214526176452637, -13.762361526489258, -12.310196876525879, -10.8580322265625, -9.405866622924805, -7.953701972961426, -6.501537322998047, -5.04937219619751, -3.5972073078155518, -2.1450424194335938, -0.6928775310516357, 0.7592873573303223, 2.2114522457122803, 3.6636171340942383, 5.115781784057617, 6.567946910858154, 8.020112037658691, 9.47227668762207, 10.92444133758545, 12.376605987548828, 13.828771591186523, 15.280936241149902, 16.73310089111328, 18.185266494750977, 19.63743019104004, 21.089595794677734, 22.54176139831543, 23.993925094604492, 25.446090698242188, 26.89825439453125, 28.350419998168945, 29.80258560180664, 31.254749298095703, 32.70691680908203, 34.159080505371094, 35.611244201660156, 37.06340789794922, 38.51557540893555, 39.96773910522461, 41.41990280151367, 42.8720703125, 44.32423400878906]}, "gradients/decoder.lstm_cell.bias_ih": {"_type": "histogram", "values": [1.0, 0.0, 0.0, 1.0, 1.0, 1.0, 2.0, 0.0, 2.0, 1.0, 0.0, 2.0, 2.0, 0.0, 4.0, 2.0, 1.0, 1.0, 2.0, 5.0, 2.0, 5.0, 8.0, 17.0, 22.0, 8.0, 3.0, 3.0, 5.0, 3.0, 1.0, 1.0, 1.0, 3.0, 0.0, 2.0, 1.0, 1.0, 0.0, 1.0, 1.0, 0.0, 3.0, 0.0, 2.0, 0.0, 0.0, 0.0, 0.0, 1.0, 0.0, 1.0, 0.0, 1.0, 0.0, 1.0, 0.0, 1.0, 1.0, 0.0, 0.0, 0.0, 0.0, 1.0], "bins": [-1.868967056274414, -1.7921866178512573, -1.715406060218811, -1.6386256217956543, -1.561845064163208, -1.4850646257400513, -1.4082841873168945, -1.3315036296844482, -1.2547231912612915, -1.1779427528381348, -1.1011621952056885, -1.0243817567825317, -0.9476012587547302, -0.8708207607269287, -0.794040322303772, -0.7172598242759705, -0.640479326248169, -0.5636988282203674, -0.4869183599948883, -0.4101378917694092, -0.33335739374160767, -0.25657689571380615, -0.17979642748832703, -0.1030159443616867, -0.026235461235046387, 0.05054502189159393, 0.12732550501823425, 0.20410598814487457, 0.2808864712715149, 0.3576669692993164, 0.43444743752479553, 0.5112279057502747, 0.5880081653594971, 0.6647886633872986, 0.7415691614151001, 0.8183495998382568, 0.8951300978660583, 0.9719105958938599, 1.0486910343170166, 1.125471591949463, 1.2022520303726196, 1.2790324687957764, 1.3558130264282227, 1.4325934648513794, 1.5093739032745361, 1.5861544609069824, 1.6629348993301392, 1.7397154569625854, 1.8164958953857422, 1.893276333808899, 1.9700568914413452, 2.046837329864502, 2.1236178874969482, 2.2003982067108154, 2.2771787643432617, 2.353959321975708, 2.4307398796081543, 2.5075201988220215, 2.5843007564544678, 2.661081314086914, 2.7378616333007812, 2.8146421909332275, 2.891422748565674, 2.968203067779541, 3.0449836254119873]}, "gradients/decoder.lstm_cell.bias_hh": {"_type": "histogram", "values": [1.0, 0.0, 0.0, 1.0, 1.0, 1.0, 2.0, 0.0, 2.0, 1.0, 0.0, 2.0, 2.0, 0.0, 4.0, 2.0, 1.0, 1.0, 2.0, 5.0, 2.0, 5.0, 8.0, 17.0, 22.0, 8.0, 3.0, 3.0, 5.0, 3.0, 1.0, 1.0, 1.0, 3.0, 0.0, 2.0, 1.0, 1.0, 0.0, 1.0, 1.0, 0.0, 3.0, 0.0, 2.0, 0.0, 0.0, 0.0, 0.0, 1.0, 0.0, 1.0, 0.0, 1.0, 0.0, 1.0, 0.0, 1.0, 1.0, 0.0, 0.0, 0.0, 0.0, 1.0], "bins": [-1.868967056274414, -1.7921866178512573, -1.715406060218811, -1.6386256217956543, -1.561845064163208, -1.4850646257400513, -1.4082841873168945, -1.3315036296844482, -1.2547231912612915, -1.1779427528381348, -1.1011621952056885, -1.0243817567825317, -0.9476012587547302, -0.8708207607269287, -0.794040322303772, -0.7172598242759705, -0.640479326248169, -0.5636988282203674, -0.4869183599948883, -0.4101378917694092, -0.33335739374160767, -0.25657689571380615, -0.17979642748832703, -0.1030159443616867, -0.026235461235046387, 0.05054502189159393, 0.12732550501823425, 0.20410598814487457, 0.2808864712715149, 0.3576669692993164, 0.43444743752479553, 0.5112279057502747, 0.5880081653594971, 0.6647886633872986, 0.7415691614151001, 0.8183495998382568, 0.8951300978660583, 0.9719105958938599, 1.0486910343170166, 1.125471591949463, 1.2022520303726196, 1.2790324687957764, 1.3558130264282227, 1.4325934648513794, 1.5093739032745361, 1.5861544609069824, 1.6629348993301392, 1.7397154569625854, 1.8164958953857422, 1.893276333808899, 1.9700568914413452, 2.046837329864502, 2.1236178874969482, 2.2003982067108154, 2.2771787643432617, 2.353959321975708, 2.4307398796081543, 2.5075201988220215, 2.5843007564544678, 2.661081314086914, 2.7378616333007812, 2.8146421909332275, 2.891422748565674, 2.968203067779541, 3.0449836254119873]}, "gradients/decoder.lstm_cell.weight_hh": {"_type": "histogram", "values": [6.0, 0.0, 2.0, 0.0, 0.0, 1.0, 5.0, 13.0, 7.0, 6.0, 5.0, 2.0, 9.0, 12.0, 19.0, 18.0, 19.0, 20.0, 43.0, 29.0, 46.0, 67.0, 66.0, 78.0, 113.0, 120.0, 137.0, 209.0, 426.0, 1083.0, 476.0, 194.0, 166.0, 138.0, 105.0, 76.0, 59.0, 37.0, 34.0, 41.0, 34.0, 31.0, 25.0, 21.0, 9.0, 13.0, 7.0, 9.0, 7.0, 11.0, 4.0, 1.0, 13.0, 7.0, 0.0, 2.0, 3.0, 3.0, 7.0, 1.0, 0.0, 0.0, 0.0, 1.0], "bins": [-2.166846990585327, -2.0937187671661377, -2.0205907821655273, -1.9474626779556274, -1.8743345737457275, -1.801206350326538, -1.7280782461166382, -1.6549501419067383, -1.5818220376968384, -1.5086939334869385, -1.4355658292770386, -1.3624377250671387, -1.2893095016479492, -1.2161813974380493, -1.1430532932281494, -1.0699251890182495, -0.9967970848083496, -0.9236689805984497, -0.8505408763885498, -0.7774127125740051, -0.7042846083641052, -0.6311565041542053, -0.5580283403396606, -0.48490023612976074, -0.41177213191986084, -0.33864402770996094, -0.26551589369773865, -0.19238777458667755, -0.11925965547561646, -0.04613153636455536, 0.026996582746505737, 0.10012470185756683, 0.17325258255004883, 0.24638070166110992, 0.319508820772171, 0.3926369547843933, 0.4657650589942932, 0.5388931632041931, 0.6120213270187378, 0.6851494312286377, 0.7582775354385376, 0.8314056396484375, 0.9045337438583374, 0.9776619076728821, 1.0507900714874268, 1.1239181756973267, 1.1970462799072266, 1.2701743841171265, 1.3433024883270264, 1.4164305925369263, 1.4895586967468262, 1.562686800956726, 1.635814905166626, 1.7089431285858154, 1.7820712327957153, 1.8551993370056152, 1.9283274412155151, 2.001455545425415, 2.0745837688446045, 2.147711753845215, 2.2208399772644043, 2.2939679622650146, 2.367096185684204, 2.4402241706848145, 2.513352394104004]}, "gradients/decoder.lstm_cell.weight_ih": {"_type": "histogram", "values": [1.0, 2.0, 1.0, 0.0, 1.0, 3.0, 1.0, 2.0, 1.0, 2.0, 0.0, 3.0, 2.0, 2.0, 3.0, 2.0, 2.0, 0.0, 3.0, 4.0, 5.0, 4.0, 3.0, 0.0, 1.0, 0.0, 4.0, 9.0, 6.0, 5.0, 6.0, 2.0, 8.0, 14.0, 15.0, 9.0, 17.0, 14.0, 14.0, 17.0, 22.0, 50.0, 89.0, 192.0, 1323.0, 179.0, 58.0, 36.0, 38.0, 18.0, 24.0, 16.0, 9.0, 9.0, 7.0, 9.0, 10.0, 6.0, 3.0, 1.0, 8.0, 1.0, 5.0, 3.0], "bins": [-13.979653358459473, -13.6641206741333, -13.348587989807129, -13.033056259155273, -12.717523574829102, -12.40199089050293, -12.086458206176758, -11.770925521850586, -11.455392837524414, -11.139861106872559, -10.824328422546387, -10.508795738220215, -10.193263053894043, -9.877730369567871, -9.562198638916016, -9.246665954589844, -8.931133270263672, -8.6156005859375, -8.300067901611328, -7.9845356941223145, -7.669003486633301, -7.353470802307129, -7.037938117980957, -6.722405910491943, -6.4068732261657715, -6.0913405418396, -5.775808334350586, -5.460275650024414, -5.144742965698242, -4.8292107582092285, -4.513678073883057, -4.198145866394043, -3.882613182067871, -3.5670807361602783, -3.2515482902526855, -2.9360156059265137, -2.620483160018921, -2.304950714111328, -1.9894181489944458, -1.6738855838775635, -1.3583531379699707, -1.042820692062378, -0.7272881269454956, -0.41175562143325806, -0.09622311592102051, 0.21930938959121704, 0.5348418951034546, 0.8503744006156921, 1.1659069061279297, 1.4814393520355225, 1.7969719171524048, 2.112504482269287, 2.42803692817688, 2.7435693740844727, 3.0591020584106445, 3.3746345043182373, 3.69016695022583, 4.005699634552002, 4.321231842041016, 4.6367645263671875, 4.952297210693359, 5.267829418182373, 5.583362102508545, 5.898894309997559, 6.2144269943237305]}, "gradients/phi_z.nn_layers.2.bias": {"_type": "histogram", "values": [1.0, 0.0, 0.0, 0.0, 0.0, 1.0, 0.0, 0.0, 0.0, 0.0, 0.0, 0.0, 0.0, 0.0, 0.0, 0.0, 0.0, 0.0, 1.0, 0.0, 0.0, 0.0, 0.0, 0.0, 0.0, 0.0, 1.0, 3.0, 1.0, 0.0, 1.0, 1.0, 1.0, 1.0, 0.0, 0.0, 0.0, 0.0, 0.0, 0.0, 0.0, 0.0, 0.0, 1.0, 0.0, 0.0, 0.0, 0.0, 0.0, 0.0, 1.0, 0.0, 0.0, 0.0, 0.0, 0.0, 0.0, 0.0, 0.0, 1.0, 0.0, 0.0, 0.0, 1.0], "bins": [-0.005872117355465889, -0.0056647639721632, -0.005457410588860512, -0.005250056739896536, -0.005042703356593847, -0.004835349973291159, -0.004627996124327183, -0.004420642741024494, -0.004213289357721806, -0.004005935974419117, -0.0037985823582857847, -0.0035912287421524525, -0.003383875358849764, -0.0031765219755470753, -0.002969168359413743, -0.0027618147432804108, -0.002554461359977722, -0.0023471079766750336, -0.0021397543605417013, -0.0019324008608236909, -0.0017250473611056805, -0.00151769386138767, -0.0013103403616696596, -0.0011029868619516492, -0.0008956333622336388, -0.0006882798625156283, -0.0004809263627976179, -0.0002735728630796075, -6.621936336159706e-05, 0.00014113413635641336, 0.0003484876360744238, 0.0005558411357924342, 0.0007631941698491573, 0.0009705476695671678, 0.0011779011692851782, 0.0013852546690031886, 0.001592608168721199, 0.0017999616684392095, 0.00200731516815722, 0.002214668784290552, 0.0024220221675932407, 0.0026293755508959293, 0.0028367291670292616, 0.003044082783162594, 0.0032514361664652824, 0.003458789549767971, 0.0036661431659013033, 0.0038734967820346355, 0.004080850165337324, 0.004288203548640013, 0.004495557397603989, 0.004702910780906677, 0.004910264164209366, 0.0051176175475120544, 0.005324970930814743, 0.005532324779778719, 0.0057396781630814075, 0.005947031546384096, 0.006154385395348072, 0.006361738778650761, 0.006569092161953449, 0.006776445545256138, 0.0069837989285588264, 0.007191152777522802, 0.007398506160825491]}, "gradients/phi_z.nn_layers.2.weight": {"_type": "histogram", "values": [1.0, 1.0, 0.0, 0.0, 0.0, 0.0, 2.0, 2.0, 0.0, 1.0, 0.0, 3.0, 2.0, 0.0, 2.0, 3.0, 3.0, 3.0, 5.0, 0.0, 4.0, 1.0, 5.0, 3.0, 4.0, 8.0, 10.0, 2.0, 4.0, 14.0, 28.0, 77.0, 15.0, 21.0, 15.0, 9.0, 1.0, 2.0, 1.0, 4.0, 0.0, 7.0, 4.0, 5.0, 3.0, 4.0, 6.0, 6.0, 4.0, 1.0, 2.0, 6.0, 4.0, 2.0, 1.0, 1.0, 3.0, 1.0, 2.0, 1.0, 0.0, 0.0, 0.0, 1.0], "bins": [-0.01622569002211094, -0.01571112684905529, -0.015196564607322216, -0.014682002365589142, -0.014167440123856068, -0.013652876950800419, -0.013138314709067345, -0.01262375246733427, -0.012109190225601196, -0.011594627052545547, -0.011080064810812473, -0.010565502569079399, -0.01005093939602375, -0.009536377154290676, -0.009021814912557602, -0.008507251739501953, -0.007992689497768879, -0.0074781267903745174, -0.006963564548641443, -0.006449001841247082, -0.005934439599514008, -0.005419876892119646, -0.004905314184725285, -0.00439075194299221, -0.003876189235597849, -0.003361626761034131, -0.002847064286470413, -0.0023325015790760517, -0.0018179391045123339, -0.001303376629948616, -0.0007888140389695764, -0.0002742515061981976, 0.00024031102657318115, 0.0007548735593445599, 0.0012694360921159387, 0.0017839986830949783, 0.002298561157658696, 0.002813123632222414, 0.0033276863396167755, 0.0038422488141804934, 0.004356811288744211, 0.004871373996138573, 0.005385936237871647, 0.005900498945266008, 0.00641506165266037, 0.006929623894393444, 0.0074441866017878056, 0.007958749309182167, 0.008473311550915241, 0.008987873792648315, 0.009502436965703964, 0.010016999207437038, 0.010531561449170113, 0.011046124622225761, 0.011560686863958836, 0.01207524910569191, 0.012589812278747559, 0.013104374520480633, 0.013618936762213707, 0.014133499003946781, 0.01464806217700243, 0.015162624418735504, 0.015677187591791153, 0.016191748902201653, 0.0167063120752573]}, "gradients/phi_z.nn_layers.1.bias": {"_type": "histogram", "values": [3.0, 0.0, 0.0, 0.0, 0.0, 1.0, 0.0, 0.0, 0.0, 0.0, 0.0, 0.0, 1.0, 0.0, 0.0, 0.0, 0.0, 0.0, 0.0, 0.0, 0.0, 0.0, 0.0, 1.0, 0.0, 0.0, 1.0, 1.0, 2.0, 0.0, 2.0, 0.0, 0.0, 0.0, 2.0, 0.0, 0.0, 0.0, 0.0, 0.0, 2.0, 0.0, 1.0, 0.0, 0.0, 0.0, 1.0, 0.0, 1.0, 0.0, 0.0, 0.0, 0.0, 0.0, 0.0, 0.0, 0.0, 0.0, 0.0, 0.0, 0.0, 0.0, 0.0, 1.0], "bins": [-0.0031106704846024513, -0.003000844269990921, -0.0028910182882100344, -0.002781192073598504, -0.0026713658589869738, -0.002561539877206087, -0.002451713662594557, -0.0023418874479830265, -0.002232061233371496, -0.0021222352515906096, -0.0020124090369790792, -0.0019025829387828708, -0.0017927568405866623, -0.001682930625975132, -0.0015731045277789235, -0.0014632783131673932, -0.0013534522149711847, -0.0012436261167749763, -0.001133799902163446, -0.0010239738039672375, -0.0009141476475633681, -0.0008043214911594987, -0.0006944953929632902, -0.0005846692365594208, -0.00047484308015555143, -0.00036501692375168204, -0.0002551907964516431, -0.00014536465459968895, -3.5538512747734785e-05, 7.428762910421938e-05, 0.00018411377095617354, 0.0002939398982562125, 0.00040376605466008186, 0.0005135922110639513, 0.0006234183674678206, 0.0007332444656640291, 0.0008430706220678985, 0.0009528967784717679, 0.0010627228766679764, 0.0011725490912795067, 0.0012823751894757152, 0.0013922012876719236, 0.001502027502283454, 0.0016118536004796624, 0.001721679698675871, 0.0018315059132874012, 0.0019413320114836097, 0.002051158109679818, 0.0021609843242913485, 0.0022708105389028788, 0.0023806365206837654, 0.0024904627352952957, 0.002600288949906826, 0.0027101149316877127, 0.002819941146299243, 0.0029297673609107733, 0.00303959334269166, 0.0031494195573031902, 0.0032592457719147205, 0.003369071986526251, 0.0034788979683071375, 0.003588724182918668, 0.003698550397530198, 0.0038083763793110847, 0.003918202593922615]}, "gradients/phi_z.nn_layers.1.weight": {"_type": "histogram", "values": [2.0, 1.0, 1.0, 2.0, 1.0, 2.0, 1.0, 1.0, 2.0, 1.0, 3.0, 0.0, 0.0, 1.0, 2.0, 1.0, 6.0, 3.0, 6.0, 8.0, 10.0, 4.0, 11.0, 8.0, 12.0, 21.0, 16.0, 24.0, 71.0, 26.0, 25.0, 15.0, 18.0, 16.0, 15.0, 12.0, 4.0, 10.0, 2.0, 6.0, 6.0, 5.0, 3.0, 1.0, 2.0, 1.0, 2.0, 1.0, 2.0, 2.0, 1.0, 1.0, 0.0, 1.0, 0.0, 0.0, 0.0, 1.0, 0.0, 0.0, 0.0, 0.0, 0.0, 1.0], "bins": [-0.005634848028421402, -0.005438406020402908, -0.005241964012384415, -0.005045522004365921, -0.004849080462008715, -0.004652638453990221, -0.004456196445971727, -0.004259754437953234, -0.00406331242993474, -0.00386687065474689, -0.0036704286467283964, -0.0034739866387099028, -0.0032775448635220528, -0.003081102855503559, -0.0028846608474850655, -0.0026882190722972155, -0.002491777064278722, -0.002295335056260228, -0.002098893281072378, -0.0019024512730538845, -0.0017060092650353909, -0.001509567373432219, -0.0013131254818290472, -0.0011166834738105536, -0.0009202415822073817, -0.000723799632396549, -0.0005273576825857162, -0.0003309157909825444, -0.00013447384117171168, 6.196809408720583e-05, 0.00025841002934612334, 0.0004548519500531256, 0.0006512938998639584, 0.0008477358496747911, 0.0010441777994856238, 0.0012406196910887957, 0.0014370616991072893, 0.0016335035907104611, 0.001829945482313633, 0.0020263874903321266, 0.0022228294983506203, 0.0024192712735384703, 0.002615713281556964, 0.0028121552895754576, 0.0030085970647633076, 0.0032050390727818012, 0.003401481080800295, 0.003597922855988145, 0.0037943648640066385, 0.0039908066391944885, 0.004187248647212982, 0.004383690655231476, 0.0045801326632499695, 0.004776574671268463, 0.004973016679286957, 0.005169458221644163, 0.005365900229662657, 0.0055623422376811504, 0.005758784245699644, 0.005955226253718138, 0.006151668261736631, 0.006348109804093838, 0.006544551812112331, 0.006740993820130825, 0.006937435828149319]}, "gradients/phi_z.nn_layers.0.bias": {"_type": "histogram", "values": [1.0, 0.0, 0.0, 0.0, 0.0, 0.0, 0.0, 0.0, 0.0, 0.0, 0.0, 0.0, 0.0, 0.0, 0.0, 0.0, 0.0, 0.0, 0.0, 0.0, 0.0, 1.0, 0.0, 1.0, 0.0, 0.0, 1.0, 1.0, 0.0, 0.0, 0.0, 0.0, 1.0, 1.0, 1.0, 0.0, 0.0, 1.0, 0.0, 1.0, 1.0, 0.0, 2.0, 0.0, 0.0, 2.0, 1.0, 0.0, 0.0, 0.0, 0.0, 1.0, 0.0, 0.0, 0.0, 0.0, 0.0, 0.0, 2.0, 0.0, 0.0, 0.0, 0.0, 1.0], "bins": [-0.0032229821663349867, -0.0031466088257730007, -0.003070235252380371, -0.002993861911818385, -0.002917488571256399, -0.002841115230694413, -0.0027647416573017836, -0.0026883683167397976, -0.0026119949761778116, -0.002535621402785182, -0.002459248062223196, -0.00238287472166121, -0.002306501381099224, -0.0022301278077065945, -0.0021537544671446085, -0.0020773811265826225, -0.002001007553189993, -0.001924634212628007, -0.001848260872066021, -0.0017718874150887132, -0.0016955140745267272, -0.0016191406175494194, -0.0015427672769874334, -0.0014663938200101256, -0.0013900203630328178, -0.0013136470224708319, -0.001237273565493524, -0.001160900224931538, -0.0010845267679542303, -0.0010081534273922443, -0.0009317799704149365, -0.0008554065716452897, -0.0007790332892909646, -0.0007026598905213177, -0.0006262864917516708, -0.000549913092982024, -0.0004735396651085466, -0.00039716626633889973, -0.0003207928384654224, -0.0002444194396957755, -0.00016804604092612863, -9.167263488052413e-05, -1.529922883491963e-05, 6.107417721068487e-05, 0.00013744758325628936, 0.00021382098202593625, 0.0002901944098994136, 0.00036656780866906047, 0.00044294120743870735, 0.0005193146062083542, 0.0005956880049780011, 0.000672061403747648, 0.0007484348025172949, 0.0008248082594946027, 0.0009011816582642496, 0.0009775550570338964, 0.0010539283975958824, 0.0011303018545731902, 0.001206675311550498, 0.001283048652112484, 0.0013594221090897918, 0.0014357954496517777, 0.0015121689066290855, 0.0015885422471910715, 0.0016649157041683793]}, "gradients/phi_z.nn_layers.0.weight": {"_type": "histogram", "values": [1.0, 0.0, 0.0, 0.0, 2.0, 0.0, 0.0, 0.0, 2.0, 0.0, 3.0, 4.0, 2.0, 3.0, 4.0, 3.0, 4.0, 6.0, 3.0, 4.0, 12.0, 10.0, 7.0, 5.0, 12.0, 21.0, 15.0, 15.0, 15.0, 7.0, 12.0, 28.0, 11.0, 12.0, 5.0, 10.0, 1.0, 7.0, 7.0, 4.0, 5.0, 7.0, 6.0, 7.0, 6.0, 4.0, 2.0, 5.0, 3.0, 5.0, 1.0, 0.0, 2.0, 1.0, 0.0, 2.0, 0.0, 3.0, 2.0, 0.0, 0.0, 0.0, 0.0, 2.0], "bins": [-0.005043153651058674, -0.004885402042418718, -0.0047276499681174755, -0.00456989835947752, -0.0044121467508375645, -0.004254394676536322, -0.004096643067896366, -0.003938891459256411, -0.0037811396177858114, -0.0036233877763152122, -0.0034656361676752567, -0.0033078843262046576, -0.0031501324847340584, -0.002992380876094103, -0.0028346290346235037, -0.002676877425983548, -0.002519125584512949, -0.00236137374304235, -0.0022036221344023943, -0.002045870292931795, -0.0018881185678765178, -0.0017303668428212404, -0.0015726150013506413, -0.001414863276295364, -0.0012571115512400866, -0.0010993598261848092, -0.000941608042921871, -0.0007838562596589327, -0.0006261045346036553, -0.00046835278044454753, -0.00031060102628543973, -0.00015284927212633193, 4.902016371488571e-06, 0.00016265377053059638, 0.0003204055246897042, 0.000478157278848812, 0.0006359090330079198, 0.0007936607580631971, 0.0009514125413261354, 0.0011091643245890737, 0.001266916049644351, 0.0014246677746996284, 0.0015824194997549057, 0.0017401713412255049, 0.0018979230662807822, 0.0020556747913360596, 0.0022134266328066587, 0.0023711782414466143, 0.0025289300829172134, 0.0026866819243878126, 0.002844433533027768, 0.0030021853744983673, 0.003159936983138323, 0.003317688824608922, 0.003475440666079521, 0.0036331922747194767, 0.003790944116190076, 0.003948695957660675, 0.004106447566300631, 0.004264199174940586, 0.004421951249241829, 0.0045797028578817844, 0.00473745446652174, 0.004895206540822983, 0.005052958149462938]}, "gradients/c_means": {"_type": "histogram", "values": [1.0, 0.0, 0.0, 0.0, 1.0, 1.0, 1.0, 2.0, 1.0, 5.0, 2.0, 4.0, 5.0, 6.0, 11.0, 2.0, 6.0, 5.0, 3.0, 6.0, 19.0, 19.0, 17.0, 4.0, 2.0, 1.0, 5.0, 2.0, 1.0, 4.0, 2.0, 4.0, 1.0, 0.0, 2.0, 1.0, 2.0, 0.0, 1.0, 0.0, 0.0, 1.0, 0.0, 1.0, 1.0, 0.0, 1.0, 2.0, 0.0, 0.0, 2.0, 0.0, 0.0, 0.0, 0.0, 0.0, 0.0, 1.0, 0.0, 0.0, 0.0, 0.0, 1.0, 1.0], "bins": [-0.002172312466427684, -0.002071838825941086, -0.0019713654182851315, -0.0018708918942138553, -0.001770418370142579, -0.001669944729655981, -0.0015694712055847049, -0.0014689976815134287, -0.0013685241574421525, -0.0012680506333708763, -0.0011675771092996001, -0.001067103585228324, -0.0009666300029493868, -0.0008661564788781106, -0.0007656828965991735, -0.0006652093725278974, -0.0005647358484566212, -0.000464262324385345, -0.00036378877121023834, -0.0002633152180351317, -0.0001628416939638555, -6.236815534066409e-05, 3.810538328252733e-05, 0.00013857892190571874, 0.00023905246052891016, 0.00033952598460018635, 0.000439999537775293, 0.0005404730909503996, 0.0006409466150216758, 0.000741420139092952, 0.0008418937213718891, 0.0009423672454431653, 0.0010428410023450851, 0.0011433145264163613, 0.0012437880504876375, 0.0013442615745589137, 0.00144473509863019, 0.001545208739116788, 0.001645682263188064, 0.0017461557872593403, 0.0018466293113306165, 0.0019471028354018927, 0.0020475764758884907, 0.002148049883544445, 0.002248523524031043, 0.0023489969316869974, 0.0024494705721735954, 0.00254994397982955, 0.002650417620316148, 0.002750891260802746, 0.0028513646684587, 0.002951838308945298, 0.0030523117166012526, 0.0031527853570878506, 0.003253258764743805, 0.003353732405230403, 0.003454206045717001, 0.0035546794533729553, 0.0036551530938595533, 0.0037556265015155077, 0.0038561001420021057, 0.00395657354965806, 0.0040570469573140144, 0.004157520830631256, 0.0042579942382872105]}, "gradients/log_c_vars": {"_type": "histogram", "values": [1.0, 0.0, 0.0, 0.0, 0.0, 0.0, 0.0, 0.0, 0.0, 0.0, 0.0, 0.0, 0.0, 0.0, 0.0, 0.0, 0.0, 0.0, 0.0, 0.0, 0.0, 0.0, 0.0, 0.0, 0.0, 0.0, 0.0, 0.0, 0.0, 0.0, 0.0, 0.0, 0.0, 1.0, 0.0, 0.0, 0.0, 0.0, 0.0, 0.0, 0.0, 0.0, 0.0, 0.0, 0.0, 0.0, 0.0, 0.0, 1.0, 1.0, 0.0, 1.0, 1.0, 0.0, 0.0, 1.0, 0.0, 1.0, 0.0, 0.0, 1.0, 0.0, 0.0, 1.0], "bins": [-0.0071023376658558846, -0.006959959398955107, -0.006817581132054329, -0.006675202865153551, -0.006532824598252773, -0.0063904463313519955, -0.006248068064451218, -0.00610568979755044, -0.005963311530649662, -0.005820933263748884, -0.005678554996848106, -0.005536176729947329, -0.005393798463046551, -0.005251420196145773, -0.005109041929244995, -0.004966663662344217, -0.0048242853954434395, -0.004681906662881374, -0.0045395283959805965, -0.004397150129079819, -0.004254771862179041, -0.004112393595278263, -0.003970015328377485, -0.003827637294307351, -0.0036852587945759296, -0.003542880527675152, -0.003400502260774374, -0.003258123993873596, -0.0031157457269728184, -0.0029733674600720406, -0.0028309891931712627, -0.002688610926270485, -0.002546232659369707, -0.0024038543924689293, -0.0022614761255681515, -0.0021190978586673737, -0.001976719591766596, -0.0018343412084504962, -0.0016919629415497184, -0.0015495846746489406, -0.0014072064077481627, -0.001264828140847385, -0.0011224498739466071, -0.0009800716070458293, -0.0008376932819373906, -0.0006953150150366127, -0.000552936689928174, -0.0004105584230273962, -0.0002681801561266184, -0.00012580187467392534, 1.6576406778767705e-05, 0.00015895468823146075, 0.0003013329696841538, 0.0004437112365849316, 0.0005860895616933703, 0.0007284678285941482, 0.000870846095494926, 0.0010132243623957038, 0.0011556026292964816, 0.0012979808961972594, 0.001440359279513359, 0.0015827375464141369, 0.0017251158133149147, 0.0018674940802156925, 0.0020098723471164703]}, "train/epoch": 51, "train/loss": -18312.896606445312, "train/loglik": 848.4085693359375, "train/kldiv": -5157.99560546875, "train/out_l": 293.6852722167969, "_runtime": 81.52796840667725, "_step": 100, "val/epoch": 51, "val/loss": -1143.4674072265625, "val/loglik": 52.65321350097656, "val/kldiv": -322.38287353515625, "val/out_l": 18.35923194885254, "test/epoch": "evaluation", "test/loss": -1143.4180908203125, "test/loglik": 52.63473129272461, "test/kldiv": -322.38287353515625, "test/out_l": 18.36539649963379, "_wandb": {"runtime": 81}}