{"gradients/predictor.nn_layers.2.bias": {"_type": "histogram", "values": [1.0, 0.0, 0.0, 0.0, 0.0, 0.0, 0.0, 0.0, 0.0, 0.0, 0.0, 0.0, 0.0, 0.0, 0.0, 0.0, 0.0, 0.0, 0.0, 0.0, 0.0, 1.0, 0.0, 0.0, 0.0, 0.0, 0.0, 0.0, 0.0, 0.0, 0.0, 0.0, 0.0, 0.0, 0.0, 0.0, 0.0, 0.0, 0.0, 0.0, 0.0, 0.0, 0.0, 0.0, 0.0, 0.0, 0.0, 0.0, 0.0, 0.0, 0.0, 0.0, 0.0, 0.0, 0.0, 0.0, 0.0, 0.0, 0.0, 0.0, 1.0, 0.0, 0.0, 1.0], "bins": [-0.5629820227622986, -0.5475865006446838, -0.5321909785270691, -0.5167954564094543, -0.5013999342918396, -0.48600438237190247, -0.4706088602542877, -0.455213338136673, -0.4398178160190582, -0.4244222939014435, -0.40902677178382874, -0.393631249666214, -0.37823569774627686, -0.3628401756286621, -0.34744465351104736, -0.3320491313934326, -0.31665360927581787, -0.3012580871582031, -0.2858625650405884, -0.27046704292297363, -0.2550715208053589, -0.23967598378658295, -0.224280446767807, -0.20888492465019226, -0.19348940253257751, -0.17809388041496277, -0.16269835829734802, -0.14730282127857208, -0.13190729916095734, -0.11651177704334259, -0.10111624747514725, -0.0857207179069519, -0.07032516598701477, -0.054929640144109726, -0.03953411430120468, -0.024138588458299637, -0.008743062615394592, 0.006652463227510452, 0.022047989070415497, 0.03744351491332054, 0.052839040756225586, 0.06823456287384033, 0.08363009244203568, 0.09902562201023102, 0.11442114412784576, 0.1298166662454605, 0.14521220326423645, 0.1606077253818512, 0.17600324749946594, 0.1913987696170807, 0.20679429173469543, 0.22218982875347137, 0.23758535087108612, 0.25298088788986206, 0.2683764100074768, 0.28377193212509155, 0.2991674542427063, 0.31456297636032104, 0.3299584984779358, 0.34535402059555054, 0.3607495427131653, 0.3761450946331024, 0.39154061675071716, 0.4069361388683319, 0.42233166098594666]}, "_timestamp": 1686659595.4099367, "gradients/predictor.nn_layers.2.weight": {"_type": "histogram", "values": [1.0, 0.0, 0.0, 0.0, 0.0, 0.0, 1.0, 0.0, 0.0, 0.0, 0.0, 1.0, 0.0, 1.0, 2.0, 0.0, 0.0, 0.0, 1.0, 0.0, 1.0, 1.0, 1.0, 0.0, 2.0, 1.0, 1.0, 3.0, 1.0, 0.0, 4.0, 1.0, 2.0, 2.0, 2.0, 1.0, 20.0, 1.0, 2.0, 1.0, 3.0, 1.0, 2.0, 0.0, 1.0, 1.0, 3.0, 1.0, 1.0, 0.0, 2.0, 2.0, 1.0, 2.0, 1.0, 1.0, 1.0, 0.0, 0.0, 1.0, 0.0, 1.0, 0.0, 1.0], "bins": [-1.057722568511963, -1.0287673473358154, -0.9998122453689575, -0.9708570837974548, -0.9419019222259521, -0.9129467606544495, -0.8839915990829468, -0.8550364375114441, -0.8260812759399414, -0.7971261143684387, -0.768170952796936, -0.7392157912254333, -0.7102606296539307, -0.681305468082428, -0.6523503065109253, -0.6233951449394226, -0.5944399833679199, -0.5654848217964172, -0.5365296602249146, -0.5075744986534119, -0.4786193370819092, -0.4496641755104065, -0.4207090139389038, -0.3917538523674011, -0.36279869079589844, -0.33384352922439575, -0.30488836765289307, -0.2759332060813904, -0.2469780445098877, -0.218022882938385, -0.18906772136688232, -0.16011255979537964, -0.13115733861923218, -0.10220217704772949, -0.0732470154762268, -0.04429185390472412, -0.015336692333221436, 0.01361846923828125, 0.042573630809783936, 0.07152879238128662, 0.1004839539527893, 0.129439115524292, 0.15839427709579468, 0.18734943866729736, 0.21630460023880005, 0.24525976181030273, 0.2742149233818054, 0.3031700849533081, 0.3321252465248108, 0.3610804080963135, 0.39003556966781616, 0.41899073123931885, 0.44794589281082153, 0.4769010543823242, 0.5058562159538269, 0.5348113775253296, 0.5637665390968323, 0.592721700668335, 0.6216768622398376, 0.6506320238113403, 0.679587185382843, 0.7085423469543457, 0.7374975085258484, 0.7664526700973511, 0.7954078316688538]}, "gradients/predictor.nn_layers.1.bias": {"_type": "histogram", "values": [1.0, 0.0, 1.0, 0.0, 0.0, 0.0, 0.0, 0.0, 1.0, 0.0, 0.0, 1.0, 0.0, 0.0, 0.0, 0.0, 0.0, 0.0, 1.0, 1.0, 0.0, 0.0, 0.0, 1.0, 0.0, 0.0, 0.0, 0.0, 0.0, 1.0, 0.0, 0.0, 0.0, 0.0, 1.0, 0.0, 1.0, 0.0, 1.0, 1.0, 0.0, 0.0, 1.0, 1.0, 0.0, 0.0, 0.0, 0.0, 0.0, 0.0, 0.0, 0.0, 0.0, 0.0, 0.0, 0.0, 0.0, 1.0, 0.0, 0.0, 0.0, 0.0, 1.0, 4.0], "bins": [-0.3195428252220154, -0.31451666355133057, -0.30949047207832336, -0.30446431040763855, -0.29943811893463135, -0.29441195726394653, -0.28938576579093933, -0.2843596041202545, -0.2793334126472473, -0.2743072509765625, -0.2692810893058777, -0.2642548978328705, -0.25922873616218567, -0.25420254468917847, -0.24917638301849365, -0.24415020644664764, -0.23912402987480164, -0.23409785330295563, -0.22907167673110962, -0.2240455001592636, -0.2190193235874176, -0.2139931619167328, -0.20896698534488678, -0.20394080877304077, -0.19891463220119476, -0.19388845562934875, -0.18886227905750275, -0.18383610248565674, -0.17880994081497192, -0.17378376424312592, -0.1687575876712799, -0.1637314110994339, -0.1587052345275879, -0.15367905795574188, -0.14865288138389587, -0.14362670481204987, -0.13860052824020386, -0.13357435166835785, -0.12854817509651184, -0.12352200597524643, -0.11849582940340042, -0.11346965283155441, -0.108443483710289, -0.103417307138443, -0.09839113056659698, -0.09336495399475098, -0.08833877742290497, -0.08331260830163956, -0.07828643172979355, -0.07326025515794754, -0.06823408603668213, -0.06320790946483612, -0.05818173289299011, -0.053155556321144104, -0.048129383474588394, -0.043103210628032684, -0.038077034056186676, -0.03305085748434067, -0.028024684637784958, -0.0229985099285841, -0.01797233521938324, -0.01294616051018238, -0.007919985800981522, -0.0028938110917806625, 0.0021323636174201965]}, "gradients/predictor.nn_layers.1.weight": {"_type": "histogram", "values": [1.0, 0.0, 1.0, 0.0, 0.0, 0.0, 0.0, 0.0, 0.0, 2.0, 2.0, 0.0, 0.0, 0.0, 0.0, 0.0, 1.0, 2.0, 1.0, 4.0, 2.0, 2.0, 1.0, 3.0, 2.0, 0.0, 6.0, 2.0, 2.0, 3.0, 2.0, 2.0, 3.0, 4.0, 6.0, 2.0, 5.0, 5.0, 3.0, 6.0, 6.0, 7.0, 5.0, 11.0, 3.0, 9.0, 10.0, 9.0, 6.0, 10.0, 6.0, 9.0, 7.0, 3.0, 8.0, 7.0, 4.0, 4.0, 8.0, 8.0, 7.0, 13.0, 141.0, 24.0], "bins": [-0.40937983989715576, -0.4028789699077606, -0.3963780999183655, -0.38987720012664795, -0.3833763301372528, -0.37687546014785767, -0.3703745901584625, -0.3638737201690674, -0.35737282037734985, -0.3508719503879547, -0.34437108039855957, -0.33787021040916443, -0.3313693404197693, -0.32486844062805176, -0.3183675706386566, -0.3118667006492615, -0.30536583065986633, -0.2988649606704712, -0.29236406087875366, -0.2858631908893585, -0.2793623208999634, -0.27286145091056824, -0.2663605809211731, -0.25985968112945557, -0.2533588111400604, -0.24685794115066528, -0.24035705626010895, -0.2338561862707138, -0.22735531628131866, -0.22085443139076233, -0.2143535614013672, -0.20785267651081085, -0.2013518065214157, -0.19485092163085938, -0.18835005164146423, -0.1818491816520691, -0.17534829676151276, -0.16884742677211761, -0.16234654188156128, -0.15584567189216614, -0.149344801902771, -0.14284391701221466, -0.13634304702281952, -0.12984216213226318, -0.12334129214286804, -0.1168404147028923, -0.11033953726291656, -0.10383866727352142, -0.09733778983354568, -0.09083691239356995, -0.08433603495359421, -0.07783515751361847, -0.07133428752422333, -0.06483341008424759, -0.05833253264427185, -0.05183165520429611, -0.045330777764320374, -0.038829904049634933, -0.032329026609659195, -0.025828151032328606, -0.019327275454998016, -0.012826399877667427, -0.006325523369014263, 0.00017535267397761345, 0.00667622871696949]}, "gradients/predictor.nn_layers.0.bias": {"_type": "histogram", "values": [1.0, 0.0, 0.0, 0.0, 0.0, 0.0, 0.0, 0.0, 0.0, 0.0, 0.0, 0.0, 0.0, 0.0, 0.0, 0.0, 0.0, 0.0, 0.0, 0.0, 0.0, 1.0, 0.0, 0.0, 0.0, 0.0, 0.0, 1.0, 0.0, 1.0, 1.0, 0.0, 0.0, 0.0, 0.0, 1.0, 0.0, 1.0, 1.0, 0.0, 0.0, 0.0, 1.0, 0.0, 0.0, 1.0, 1.0, 0.0, 0.0, 0.0, 0.0, 1.0, 1.0, 0.0, 0.0, 1.0, 0.0, 0.0, 0.0, 1.0, 0.0, 0.0, 1.0, 4.0], "bins": [-0.49530917406082153, -0.4875699579715729, -0.4798307716846466, -0.47209155559539795, -0.4643523395061493, -0.456613153219223, -0.44887393712997437, -0.4411347210407257, -0.43339553475379944, -0.4256563186645508, -0.4179171025753021, -0.41017791628837585, -0.4024387001991272, -0.39469948410987854, -0.38696029782295227, -0.3792210817337036, -0.37148189544677734, -0.3637426793575287, -0.35600346326828003, -0.34826427698135376, -0.3405250608921051, -0.33278584480285645, -0.3250466585159302, -0.3173074424266815, -0.30956822633743286, -0.3018290400505066, -0.29408982396125793, -0.2863506078720093, -0.278611421585083, -0.27087220549583435, -0.2631329894065857, -0.2553938031196594, -0.24765458703041077, -0.2399153858423233, -0.23217616975307465, -0.22443696856498718, -0.21669776737689972, -0.20895855128765106, -0.2012193500995636, -0.19348014891147614, -0.18574094772338867, -0.17800173163414001, -0.17026253044605255, -0.1625233292579651, -0.15478411316871643, -0.14704491198062897, -0.1393057107925415, -0.13156649470329285, -0.12382729351520538, -0.11608808487653732, -0.10834888368844986, -0.1006096750497818, -0.09287047386169434, -0.08513126522302628, -0.07739205658435822, -0.06965285539627075, -0.06191364675760269, -0.05417444184422493, -0.04643523693084717, -0.03869602829217911, -0.030956823378801346, -0.023217618465423584, -0.015478411689400673, -0.0077392058447003365, 0.0]}, "gradients/predictor.nn_layers.0.weight": {"_type": "histogram", "values": [1.0, 0.0, 0.0, 0.0, 0.0, 1.0, 0.0, 0.0, 0.0, 0.0, 0.0, 1.0, 0.0, 0.0, 0.0, 0.0, 1.0, 0.0, 0.0, 2.0, 2.0, 1.0, 0.0, 4.0, 1.0, 1.0, 1.0, 2.0, 2.0, 2.0, 4.0, 2.0, 5.0, 3.0, 8.0, 6.0, 7.0, 6.0, 4.0, 5.0, 9.0, 13.0, 11.0, 16.0, 10.0, 10.0, 19.0, 17.0, 18.0, 51.0, 49.0, 3.0, 6.0, 3.0, 2.0, 1.0, 3.0, 4.0, 1.0, 1.0, 0.0, 0.0, 0.0, 1.0], "bins": [-0.7007465362548828, -0.6867592334747314, -0.6727719306945801, -0.6587846279144287, -0.6447973251342773, -0.630810022354126, -0.6168227195739746, -0.6028354167938232, -0.5888481140136719, -0.5748608708381653, -0.5608735680580139, -0.5468862652778625, -0.5328989624977112, -0.5189116597175598, -0.5049243569374084, -0.4909370541572571, -0.4769497513771057, -0.46296244859695435, -0.448975145816803, -0.4349878430366516, -0.42100054025650024, -0.40701326727867126, -0.3930259644985199, -0.37903866171836853, -0.36505135893821716, -0.3510640561580658, -0.33707675337791443, -0.32308945059776306, -0.3091021776199341, -0.2951148748397827, -0.28112757205963135, -0.26714026927948, -0.253152996301651, -0.23916569352149963, -0.22517839074134827, -0.2111911028623581, -0.19720380008220673, -0.18321649730205536, -0.16922920942306519, -0.15524190664291382, -0.14125460386276245, -0.12726730108261108, -0.11328000575304031, -0.09929271042346954, -0.08530540764331818, -0.07131810486316681, -0.05733080953359604, -0.04334351047873497, -0.0293562114238739, -0.015368912369012833, -0.001381613314151764, 0.012605685740709305, 0.026592984795570374, 0.04058028385043144, 0.05456758290529251, 0.06855487823486328, 0.08254218101501465, 0.09652948379516602, 0.11051677912473679, 0.12450407445430756, 0.13849137723445892, 0.1524786800146103, 0.16646596789360046, 0.18045327067375183, 0.1944405734539032]}, "gradients/cell_update.nn_layers.2.bias": {"_type": "histogram", "values": [1.0, 0.0, 0.0, 1.0, 0.0, 0.0, 0.0, 0.0, 1.0, 0.0, 0.0, 0.0, 1.0, 0.0, 1.0, 7.0, 2.0, 1.0, 0.0, 0.0, 0.0, 0.0, 0.0, 0.0, 0.0, 0.0, 0.0, 0.0, 0.0, 0.0, 0.0, 0.0, 0.0, 0.0, 0.0, 0.0, 0.0, 0.0, 0.0, 0.0, 0.0, 0.0, 0.0, 0.0, 0.0, 0.0, 0.0, 0.0, 0.0, 0.0, 0.0, 0.0, 0.0, 0.0, 0.0, 0.0, 0.0, 0.0, 0.0, 0.0, 0.0, 0.0, 0.0, 1.0], "bins": [-2.5411152839660645, -2.3793511390686035, -2.2175869941711426, -2.0558228492736816, -1.8940588235855103, -1.7322946786880493, -1.570530652999878, -1.408766508102417, -1.247002363204956, -1.0852382183074951, -0.923474133014679, -0.7617100477218628, -0.5999459028244019, -0.4381817877292633, -0.27641767263412476, -0.1146535575389862, 0.047110557556152344, 0.2088746726512909, 0.37063878774642944, 0.5324028730392456, 0.6941670179367065, 0.8559311628341675, 1.0176951885223389, 1.1794593334197998, 1.3412234783172607, 1.5029876232147217, 1.6647517681121826, 1.826515793800354, 1.988279938697815, 2.1500439643859863, 2.3118081092834473, 2.473572254180908, 2.635335922241211, 2.797100067138672, 2.958864212036133, 3.1206283569335938, 3.2823925018310547, 3.4441564083099365, 3.6059205532073975, 3.7676846981048584, 3.9294488430023193, 4.091212749481201, 4.252976894378662, 4.414741039276123, 4.576505184173584, 4.738269329071045, 4.900033473968506, 5.061797618865967, 5.223561763763428, 5.385325908660889, 5.54709005355835, 5.7088541984558105, 5.8706183433532715, 6.032382488250732, 6.194146633148193, 6.355910778045654, 6.517674446105957, 6.679438591003418, 6.841202735900879, 7.00296688079834, 7.164731025695801, 7.326495170593262, 7.488259315490723, 7.650023460388184, 7.8117876052856445]}, "gradients/cell_update.nn_layers.2.weight": {"_type": "histogram", "values": [1.0, 0.0, 0.0, 1.0, 1.0, 2.0, 0.0, 2.0, 2.0, 2.0, 3.0, 4.0, 5.0, 5.0, 6.0, 263.0, 13.0, 2.0, 0.0, 0.0, 0.0, 0.0, 0.0, 0.0, 0.0, 0.0, 0.0, 1.0, 1.0, 0.0, 0.0, 0.0, 0.0, 0.0, 1.0, 1.0, 0.0, 0.0, 0.0, 0.0, 0.0, 0.0, 0.0, 0.0, 0.0, 0.0, 1.0, 1.0, 0.0, 1.0, 0.0, 0.0, 0.0, 0.0, 0.0, 0.0, 0.0, 0.0, 0.0, 0.0, 0.0, 0.0, 0.0, 1.0], "bins": [-19.456119537353516, -18.206497192382812, -16.956876754760742, -15.707254409790039, -14.457633018493652, -13.208011627197266, -11.958389282226562, -10.708767890930176, -9.459146499633789, -8.209525108337402, -6.959903240203857, -5.7102813720703125, -4.460659980773926, -3.21103835105896, -1.9614167213439941, -0.7117950916290283, 0.5378265380859375, 1.7874481678009033, 3.037069797515869, 4.286691665649414, 5.536313056945801, 6.7859344482421875, 8.03555679321289, 9.285178184509277, 10.534799575805664, 11.78442096710205, 13.034042358398438, 14.28366470336914, 15.533286094665527, 16.782907485961914, 18.032529830932617, 19.282150268554688, 20.531776428222656, 21.78139877319336, 23.03101921081543, 24.280641555786133, 25.530261993408203, 26.779884338378906, 28.02950668334961, 29.27912712097168, 30.528749465942383, 31.778371810913086, 33.027992248535156, 34.27761459350586, 35.52723693847656, 36.776859283447266, 38.0264778137207, 39.276100158691406, 40.52572250366211, 41.77534484863281, 43.024967193603516, 44.27458572387695, 45.524208068847656, 46.77383041381836, 48.02345275878906, 49.273075103759766, 50.52269744873047, 51.772315979003906, 53.02193832397461, 54.27156066894531, 55.521183013916016, 56.77080535888672, 58.020423889160156, 59.27004623413086, 60.51966857910156]}, "gradients/cell_update.nn_layers.1.bias": {"_type": "histogram", "values": [1.0, 0.0, 0.0, 0.0, 0.0, 0.0, 0.0, 0.0, 0.0, 0.0, 0.0, 0.0, 0.0, 0.0, 0.0, 1.0, 0.0, 0.0, 0.0, 0.0, 0.0, 0.0, 0.0, 0.0, 1.0, 0.0, 0.0, 0.0, 0.0, 0.0, 0.0, 0.0, 0.0, 0.0, 0.0, 0.0, 0.0, 0.0, 1.0, 0.0, 0.0, 0.0, 0.0, 0.0, 1.0, 0.0, 1.0, 0.0, 0.0, 1.0, 0.0, 0.0, 0.0, 0.0, 0.0, 0.0, 0.0, 11.0, 0.0, 0.0, 0.0, 0.0, 0.0, 2.0], "bins": [-1.5573678016662598, -1.5301282405853271, -1.502888560295105, -1.4756489992141724, -1.4484093189239502, -1.4211697578430176, -1.3939300775527954, -1.3666905164718628, -1.3394508361816406, -1.312211275100708, -1.2849715948104858, -1.2577320337295532, -1.2304924726486206, -1.2032527923583984, -1.1760132312774658, -1.1487735509872437, -1.121533989906311, -1.0942943096160889, -1.0670547485351562, -1.039815068244934, -1.0125755071640015, -0.9853358864784241, -0.9580962657928467, -0.9308566451072693, -0.9036170244216919, -0.8763774037361145, -0.8491377830505371, -0.8218982219696045, -0.7946586012840271, -0.7674189805984497, -0.7401793599128723, -0.7129397392272949, -0.6857001781463623, -0.6584605574607849, -0.6312209367752075, -0.6039813160896301, -0.5767416954040527, -0.5495020747184753, -0.522262454032898, -0.49502286314964294, -0.46778324246406555, -0.44054362177848816, -0.41330400109291077, -0.38606441020965576, -0.35882478952407837, -0.331585168838501, -0.3043455481529236, -0.2771059274673462, -0.24986632168293, -0.2226267009973526, -0.1953870952129364, -0.168147474527359, -0.14090785384178162, -0.11366824805736542, -0.08642862737178802, -0.05918901413679123, -0.031949400901794434, -0.004709785804152489, 0.022529829293489456, 0.04976944625377655, 0.07700905948877335, 0.10424867272377014, 0.13148829340934753, 0.15872789919376373, 0.18596751987934113]}, "gradients/cell_update.nn_layers.1.weight": {"_type": "histogram", "values": [1.0, 1.0, 0.0, 0.0, 0.0, 0.0, 1.0, 1.0, 0.0, 0.0, 1.0, 1.0, 0.0, 2.0, 0.0, 0.0, 1.0, 2.0, 1.0, 0.0, 0.0, 1.0, 2.0, 1.0, 1.0, 3.0, 2.0, 0.0, 1.0, 3.0, 1.0, 1.0, 3.0, 0.0, 2.0, 1.0, 0.0, 1.0, 0.0, 3.0, 0.0, 2.0, 2.0, 2.0, 3.0, 1.0, 6.0, 6.0, 4.0, 5.0, 4.0, 8.0, 3.0, 0.0, 0.0, 0.0, 292.0, 0.0, 0.0, 1.0, 2.0, 8.0, 7.0, 6.0], "bins": [-5.971245765686035, -5.865682125091553, -5.76011848449707, -5.654554843902588, -5.5489912033081055, -5.443427085876465, -5.337863445281982, -5.2322998046875, -5.126736164093018, -5.021172523498535, -4.915608882904053, -4.81004524230957, -4.70448112487793, -4.598917484283447, -4.493353843688965, -4.387790203094482, -4.2822265625, -4.176662921905518, -4.071099281311035, -3.9655354022979736, -3.859971761703491, -3.754408121109009, -3.6488442420959473, -3.543280601501465, -3.4377169609069824, -3.3321533203125, -3.2265896797180176, -3.121025800704956, -3.0154621601104736, -2.909898519515991, -2.8043346405029297, -2.6987709999084473, -2.593207359313965, -2.4876434803009033, -2.382079839706421, -2.2765161991119385, -2.170952320098877, -2.0653886795043945, -1.959825038909912, -1.8542613983154297, -1.7486976385116577, -1.6431338787078857, -1.5375702381134033, -1.432006597518921, -1.326442837715149, -1.220879077911377, -1.1153154373168945, -1.009751796722412, -0.9041880369186401, -0.7986243367195129, -0.6930606365203857, -0.5874969363212585, -0.48193323612213135, -0.37636953592300415, -0.27080583572387695, -0.16524213552474976, -0.05967843532562256, 0.04588526487350464, 0.15144896507263184, 0.25701266527175903, 0.36257636547088623, 0.4681400656700134, 0.5737037658691406, 0.6792674660682678, 0.784831166267395]}, "gradients/cell_update.nn_layers.0.bias": {"_type": "histogram", "values": [1.0, 0.0, 0.0, 1.0, 0.0, 0.0, 0.0, 0.0, 0.0, 0.0, 0.0, 0.0, 1.0, 0.0, 0.0, 1.0, 1.0, 0.0, 0.0, 0.0, 0.0, 0.0, 0.0, 0.0, 0.0, 0.0, 1.0, 0.0, 0.0, 0.0, 1.0, 1.0, 1.0, 1.0, 0.0, 0.0, 0.0, 0.0, 1.0, 0.0, 0.0, 0.0, 0.0, 1.0, 0.0, 0.0, 0.0, 0.0, 0.0, 0.0, 0.0, 0.0, 0.0, 0.0, 0.0, 0.0, 0.0, 0.0, 0.0, 0.0, 0.0, 0.0, 0.0, 8.0], "bins": [-0.9535743594169617, -0.9386747479438782, -0.9237751364707947, -0.908875584602356, -0.8939759731292725, -0.879076361656189, -0.8641767501831055, -0.849277138710022, -0.8343775868415833, -0.8194779753684998, -0.8045783638954163, -0.7896787524223328, -0.7747791409492493, -0.7598795890808105, -0.744979977607727, -0.7300803661346436, -0.7151807546615601, -0.7002811431884766, -0.6853815913200378, -0.6704819798469543, -0.6555823683738708, -0.6406827569007874, -0.6257831454277039, -0.6108835935592651, -0.5959839820861816, -0.5810843706130981, -0.5661847591400146, -0.5512851476669312, -0.5363855957984924, -0.5214859843254089, -0.5065863728523254, -0.49168679118156433, -0.47678717970848083, -0.46188756823539734, -0.44698798656463623, -0.43208837509155273, -0.4171887934207916, -0.40228918194770813, -0.38738957047462463, -0.3724899888038635, -0.35759037733078003, -0.3426907956600189, -0.3277911841869354, -0.31289157271385193, -0.2979919910430908, -0.2830923795700073, -0.2681927978992462, -0.2532931864261627, -0.23839358985424042, -0.22349399328231812, -0.2085943967103958, -0.19369478523731232, -0.17879518866539001, -0.1638955920934677, -0.1489959955215454, -0.1340963989496231, -0.11919679492712021, -0.1042971983551979, -0.08939759433269501, -0.0744979977607727, -0.059598397463560104, -0.044698797166347504, -0.029799198731780052, -0.014899599365890026, 0.0]}, "gradients/cell_update.nn_layers.0.weight": {"_type": "histogram", "values": [1.0, 3.0, 4.0, 2.0, 2.0, 1.0, 3.0, 5.0, 6.0, 12.0, 7.0, 10.0, 5.0, 4.0, 13.0, 17.0, 12.0, 12.0, 7.0, 15.0, 21.0, 18.0, 16.0, 6.0, 11.0, 13.0, 0.0, 1.0, 1.0, 0.0, 0.0, 0.0, 384.0, 0.0, 0.0, 1.0, 1.0, 5.0, 2.0, 5.0, 18.0, 15.0, 24.0, 15.0, 31.0, 26.0, 24.0, 22.0, 17.0, 10.0, 17.0, 17.0, 7.0, 10.0, 20.0, 16.0, 11.0, 6.0, 7.0, 3.0, 8.0, 5.0, 3.0, 2.0], "bins": [-0.929601788520813, -0.9011605381965637, -0.8727192878723145, -0.8442780375480652, -0.8158367872238159, -0.7873955368995667, -0.7589542865753174, -0.7305130362510681, -0.7020717859268188, -0.6736304759979248, -0.6451892256736755, -0.6167479753494263, -0.588306725025177, -0.5598654747009277, -0.5314242243766785, -0.5029829740524292, -0.47454172372817993, -0.44610047340393066, -0.4176592230796814, -0.38921797275543213, -0.36077672243118286, -0.3323354423046112, -0.30389419198036194, -0.27545294165611267, -0.2470116913318634, -0.21857044100761414, -0.19012919068336487, -0.1616879254579544, -0.13324667513370514, -0.10480542480945587, -0.07636416703462601, -0.04792291298508644, -0.019481658935546875, 0.008959595113992691, 0.03740084916353226, 0.06584210693836212, 0.09428335726261139, 0.12272460758686066, 0.15116587281227112, 0.17960712313652039, 0.20804837346076965, 0.23648962378501892, 0.2649308741092682, 0.29337212443351746, 0.3218134045600891, 0.3502546548843384, 0.37869590520858765, 0.4071371555328369, 0.4355784058570862, 0.46401965618133545, 0.4924609065055847, 0.520902156829834, 0.5493434071540833, 0.5777846574783325, 0.6062259078025818, 0.634667158126831, 0.6631084680557251, 0.6915497183799744, 0.7199909687042236, 0.7484322190284729, 0.7768734693527222, 0.8053147196769714, 0.8337559700012207, 0.86219722032547, 0.8906384706497192]}, "gradients/encoder.nn_layers.2.bias": {"_type": "histogram", "values": [1.0, 0.0, 0.0, 0.0, 0.0, 0.0, 0.0, 0.0, 1.0, 0.0, 1.0, 0.0, 0.0, 0.0, 0.0, 0.0, 0.0, 0.0, 0.0, 1.0, 1.0, 0.0, 0.0, 2.0, 0.0, 0.0, 0.0, 0.0, 0.0, 0.0, 0.0, 0.0, 0.0, 0.0, 1.0, 0.0, 0.0, 0.0, 0.0, 0.0, 0.0, 0.0, 0.0, 0.0, 0.0, 0.0, 0.0, 0.0, 0.0, 0.0, 0.0, 0.0, 0.0, 1.0, 0.0, 0.0, 0.0, 0.0, 0.0, 0.0, 0.0, 0.0, 0.0, 1.0], "bins": [-2.261969804763794, -2.174889087677002, -2.08780837059021, -2.000727653503418, -1.913646936416626, -1.826566219329834, -1.739485502243042, -1.65240478515625, -1.565324068069458, -1.478243350982666, -1.391162633895874, -1.304081916809082, -1.21700119972229, -1.129920482635498, -1.042839765548706, -0.9557590484619141, -0.8686783313751221, -0.7815976142883301, -0.6945168972015381, -0.6074361801147461, -0.5203554630279541, -0.4332747459411621, -0.3461940288543701, -0.2591133117675781, -0.17203259468078613, -0.08495187759399414, 0.0021288394927978516, 0.08920955657958984, 0.17629027366638184, 0.26337099075317383, 0.3504517078399658, 0.4375324249267578, 0.5246131420135498, 0.6116938591003418, 0.6987745761871338, 0.7858552932739258, 0.8729360103607178, 0.9600167274475098, 1.0470974445343018, 1.1341781616210938, 1.2212588787078857, 1.3083395957946777, 1.3954203128814697, 1.4825010299682617, 1.5695817470550537, 1.6566624641418457, 1.7437431812286377, 1.8308238983154297, 1.9179046154022217, 2.0049853324890137, 2.0920660495758057, 2.1791467666625977, 2.2662274837493896, 2.3533082008361816, 2.4403889179229736, 2.5274696350097656, 2.6145503520965576, 2.7016310691833496, 2.7887117862701416, 2.8757925033569336, 2.9628732204437256, 3.0499539375305176, 3.1370346546173096, 3.2241153717041016, 3.3111960887908936]}, "gradients/encoder.nn_layers.2.weight": {"_type": "histogram", "values": [1.0, 0.0, 1.0, 1.0, 1.0, 2.0, 0.0, 2.0, 0.0, 2.0, 3.0, 0.0, 0.0, 0.0, 3.0, 1.0, 2.0, 1.0, 3.0, 2.0, 1.0, 8.0, 10.0, 14.0, 114.0, 3.0, 2.0, 1.0, 2.0, 2.0, 0.0, 1.0, 1.0, 2.0, 1.0, 0.0, 2.0, 0.0, 0.0, 0.0, 2.0, 0.0, 0.0, 0.0, 0.0, 0.0, 2.0, 0.0, 1.0, 1.0, 0.0, 0.0, 1.0, 0.0, 1.0, 0.0, 0.0, 1.0, 0.0, 1.0, 0.0, 0.0, 0.0, 1.0], "bins": [-2.460200548171997, -2.359889507293701, -2.2595784664154053, -2.1592671871185303, -2.0589561462402344, -1.9586451053619385, -1.858333945274353, -1.7580229043960571, -1.6577117443084717, -1.5574007034301758, -1.4570896625518799, -1.3567785024642944, -1.2564674615859985, -1.156156301498413, -1.0558452606201172, -0.9555341601371765, -0.8552230596542358, -0.7549119591712952, -0.6546008586883545, -0.5542897582054138, -0.45397868752479553, -0.35366758704185486, -0.2533565163612366, -0.1530454158782959, -0.052734315395355225, 0.04757677763700485, 0.14788787066936493, 0.2481989562511444, 0.3485100567340851, 0.44882115721702576, 0.549132227897644, 0.6494433283805847, 0.7497544288635254, 0.8500655293464661, 0.9503766298294067, 1.0506876707077026, 1.150998830795288, 1.251309871673584, 1.3516210317611694, 1.4519320726394653, 1.5522432327270508, 1.6525542736053467, 1.7528653144836426, 1.853176474571228, 1.953487515449524, 2.0537986755371094, 2.1541097164154053, 2.254420757293701, 2.354732036590576, 2.455043077468872, 2.555354118347168, 2.655665159225464, 2.7559762001037598, 2.8562874794006348, 2.9565985202789307, 3.0569095611572266, 3.1572206020355225, 3.2575316429138184, 3.3578429222106934, 3.4581539630889893, 3.558465003967285, 3.658776044845581, 3.759087324142456, 3.859398365020752, 3.959709405899048]}, "gradients/encoder.nn_layers.1.bias": {"_type": "histogram", "values": [1.0, 0.0, 0.0, 0.0, 0.0, 0.0, 0.0, 0.0, 0.0, 0.0, 0.0, 0.0, 1.0, 0.0, 0.0, 1.0, 1.0, 0.0, 1.0, 0.0, 9.0, 1.0, 1.0, 0.0, 0.0, 0.0, 0.0, 0.0, 0.0, 0.0, 0.0, 0.0, 0.0, 0.0, 0.0, 0.0, 0.0, 0.0, 0.0, 0.0, 2.0, 0.0, 0.0, 0.0, 0.0, 0.0, 0.0, 0.0, 0.0, 0.0, 0.0, 0.0, 0.0, 0.0, 0.0, 0.0, 0.0, 0.0, 0.0, 0.0, 0.0, 1.0, 0.0, 1.0], "bins": [-0.43753066658973694, -0.41579270362854004, -0.39405474066734314, -0.37231677770614624, -0.35057881474494934, -0.32884085178375244, -0.30710288882255554, -0.28536492586135864, -0.26362699270248413, -0.24188901484012604, -0.22015105187892914, -0.19841308891773224, -0.17667514085769653, -0.15493717789649963, -0.13319921493530273, -0.11146125197410583, -0.08972328901290894, -0.06798532605171204, -0.046247366815805435, -0.024509405717253685, -0.002771444618701935, 0.018966516479849815, 0.040704477578401566, 0.062442436814308167, 0.08418039977550507, 0.10591836273670197, 0.12765632569789886, 0.14939428865909576, 0.17113223671913147, 0.19287019968032837, 0.21460816264152527, 0.23634612560272217, 0.25808411836624146, 0.27982208132743835, 0.30156004428863525, 0.32329800724983215, 0.34503597021102905, 0.36677393317222595, 0.38851189613342285, 0.41024985909461975, 0.43198782205581665, 0.45372575521469116, 0.47546371817588806, 0.49720168113708496, 0.5189396739006042, 0.5406776070594788, 0.562415599822998, 0.5841535329818726, 0.6058914661407471, 0.6276294589042664, 0.6493673920631409, 0.6711053848266602, 0.6928433179855347, 0.714581310749054, 0.7363192439079285, 0.7580572366714478, 0.7797951698303223, 0.8015331625938416, 0.8232710957527161, 0.8450090885162354, 0.8667470216751099, 0.8884850144386292, 0.9102229475975037, 0.931960940361023, 0.9536988735198975]}, "gradients/encoder.nn_layers.1.weight": {"_type": "histogram", "values": [1.0, 0.0, 0.0, 0.0, 0.0, 0.0, 1.0, 0.0, 0.0, 0.0, 0.0, 1.0, 0.0, 1.0, 1.0, 2.0, 0.0, 0.0, 0.0, 0.0, 2.0, 4.0, 7.0, 10.0, 316.0, 19.0, 3.0, 2.0, 1.0, 1.0, 4.0, 2.0, 0.0, 1.0, 1.0, 1.0, 2.0, 3.0, 2.0, 2.0, 1.0, 1.0, 0.0, 1.0, 0.0, 1.0, 0.0, 0.0, 0.0, 0.0, 1.0, 0.0, 2.0, 0.0, 0.0, 1.0, 0.0, 0.0, 0.0, 0.0, 1.0, 0.0, 0.0, 1.0], "bins": [-1.2536271810531616, -1.2033700942993164, -1.1531131267547607, -1.102856159210205, -1.0525990724563599, -1.0023419857025146, -0.952085018157959, -0.9018279910087585, -0.8515709638595581, -0.8013139367103577, -0.7510569095611572, -0.7007998824119568, -0.6505428552627563, -0.6002858281135559, -0.5500288009643555, -0.49977177381515503, -0.4495147466659546, -0.39925771951675415, -0.3490006923675537, -0.29874366521835327, -0.24848663806915283, -0.1982296109199524, -0.14797258377075195, -0.09771555662155151, -0.047458529472351074, 0.0027984976768493652, 0.053055524826049805, 0.10331255197525024, 0.15356957912445068, 0.20382660627365112, 0.25408363342285156, 0.304340660572052, 0.35459768772125244, 0.4048547148704529, 0.4551117420196533, 0.5053687691688538, 0.5556257963180542, 0.6058828234672546, 0.6561398506164551, 0.7063968777656555, 0.756653904914856, 0.8069109320640564, 0.8571679592132568, 0.9074249863624573, 0.9576820135116577, 1.007939100265503, 1.0581960678100586, 1.1084530353546143, 1.1587101221084595, 1.2089672088623047, 1.2592241764068604, 1.309481143951416, 1.3597382307052612, 1.4099953174591064, 1.460252285003662, 1.5105092525482178, 1.560766339302063, 1.6110234260559082, 1.6612803936004639, 1.7115373611450195, 1.7617944478988647, 1.81205153465271, 1.8623085021972656, 1.9125654697418213, 1.9628225564956665]}, "gradients/encoder.nn_layers.0.bias": {"_type": "histogram", "values": [1.0, 0.0, 0.0, 2.0, 0.0, 1.0, 0.0, 0.0, 0.0, 0.0, 11.0, 0.0, 0.0, 0.0, 0.0, 0.0, 0.0, 0.0, 0.0, 0.0, 0.0, 0.0, 0.0, 0.0, 0.0, 0.0, 0.0, 0.0, 1.0, 0.0, 0.0, 1.0, 0.0, 0.0, 0.0, 0.0, 0.0, 0.0, 1.0, 0.0, 0.0, 0.0, 0.0, 0.0, 0.0, 0.0, 1.0, 0.0, 0.0, 0.0, 0.0, 0.0, 0.0, 0.0, 0.0, 0.0, 0.0, 0.0, 0.0, 0.0, 0.0, 0.0, 0.0, 1.0], "bins": [-0.1234637200832367, -0.11199511587619781, -0.10052651166915894, -0.08905790746212006, -0.07758930325508118, -0.0661206990480423, -0.05465209484100342, -0.04318349063396454, -0.03171488642692566, -0.02024628221988678, -0.0087776780128479, 0.002690926194190979, 0.014159530401229858, 0.025628134608268738, 0.03709673881530762, 0.0485653430223465, 0.060033947229385376, 0.07150255143642426, 0.08297115564346313, 0.09443975985050201, 0.1059083640575409, 0.11737696826457977, 0.12884557247161865, 0.14031417667865753, 0.1517827808856964, 0.1632513850927353, 0.17471998929977417, 0.18618859350681305, 0.19765719771385193, 0.2091258019208908, 0.2205944061279297, 0.23206301033496857, 0.24353158473968506, 0.25500017404556274, 0.2664687931537628, 0.2779374122619629, 0.2894060015678406, 0.30087459087371826, 0.31234320998191833, 0.3238118290901184, 0.3352804183959961, 0.3467490077018738, 0.35821762681007385, 0.3696862459182739, 0.3811548352241516, 0.3926234245300293, 0.40409204363822937, 0.41556066274642944, 0.42702925205230713, 0.4384978413581848, 0.4499664604663849, 0.46143507957458496, 0.47290366888046265, 0.48437225818634033, 0.4958408772945404, 0.5073094964027405, 0.5187780857086182, 0.5302466750144958, 0.5417152643203735, 0.553183913230896, 0.5646525025367737, 0.5761210918426514, 0.5875897407531738, 0.5990583300590515, 0.6105269193649292]}, "gradients/encoder.nn_layers.0.weight": {"_type": "histogram", "values": [11.0, 1.0, 1.0, 2.0, 3.0, 0.0, 1.0, 0.0, 0.0, 0.0, 4.0, 2.0, 2.0, 9.0, 1.0, 5.0, 5.0, 6.0, 4.0, 2.0, 5.0, 24.0, 9.0, 2.0, 11.0, 6.0, 5.0, 1.0, 12.0, 5.0, 2.0, 0.0, 368.0, 4.0, 10.0, 15.0, 20.0, 6.0, 9.0, 14.0, 1.0, 1.0, 13.0, 7.0, 0.0, 2.0, 6.0, 0.0, 3.0, 1.0, 7.0, 0.0, 2.0, 0.0, 0.0, 0.0, 0.0, 0.0, 0.0, 0.0, 0.0, 2.0, 2.0, 6.0], "bins": [-0.5398513674736023, -0.5231145024299622, -0.5063775777816772, -0.4896407127380371, -0.4729038178920746, -0.45616692304611206, -0.4394300580024719, -0.4226931631565094, -0.4059562683105469, -0.38921937346458435, -0.3724824786186218, -0.3557456135749817, -0.33900871872901917, -0.32227182388305664, -0.3055349588394165, -0.288798063993454, -0.27206116914749146, -0.25532427430152893, -0.2385873943567276, -0.22185051441192627, -0.20511361956596375, -0.18837672472000122, -0.1716398447751999, -0.15490296483039856, -0.13816606998443604, -0.12142918258905411, -0.10469229519367218, -0.08795540779829025, -0.07121852040290833, -0.0544816330075264, -0.03774474561214447, -0.021007858216762543, -0.00427091121673584, 0.012465976178646088, 0.029202863574028015, 0.04593975096940994, 0.06267663836479187, 0.0794135257601738, 0.09615041315555573, 0.11288730055093765, 0.12962418794631958, 0.1463610827922821, 0.16309796273708344, 0.17983484268188477, 0.1965717375278473, 0.21330863237380981, 0.23004551231861115, 0.24678239226341248, 0.263519287109375, 0.2802561819553375, 0.29699307680130005, 0.3137299418449402, 0.3304668366909027, 0.34720373153686523, 0.36394059658050537, 0.3806774914264679, 0.3974143862724304, 0.41415128111839294, 0.43088817596435547, 0.4476250410079956, 0.46436193585395813, 0.48109883069992065, 0.4978356957435608, 0.5145726203918457, 0.5313094854354858]}, "gradients/phi_x.nn_layers.2.bias": {"_type": "histogram", "values": [1.0, 0.0, 0.0, 0.0, 0.0, 0.0, 0.0, 0.0, 0.0, 0.0, 0.0, 0.0, 0.0, 0.0, 0.0, 0.0, 0.0, 0.0, 0.0, 0.0, 1.0, 0.0, 1.0, 0.0, 0.0, 0.0, 0.0, 0.0, 0.0, 0.0, 0.0, 0.0, 0.0, 0.0, 1.0, 1.0, 1.0, 0.0, 1.0, 1.0, 2.0, 0.0, 1.0, 1.0, 1.0, 1.0, 0.0, 0.0, 0.0, 0.0, 0.0, 0.0, 0.0, 0.0, 1.0, 0.0, 0.0, 0.0, 0.0, 0.0, 0.0, 0.0, 0.0, 1.0], "bins": [-0.5812869071960449, -0.5618753433227539, -0.5424637198448181, -0.5230520963668823, -0.5036405324935913, -0.4842289388179779, -0.4648173451423645, -0.4454057514667511, -0.4259941577911377, -0.4065825641155243, -0.3871709704399109, -0.3677593767642975, -0.3483477830886841, -0.3289361894130707, -0.3095245957374573, -0.29011300206184387, -0.27070140838623047, -0.25128981471061707, -0.23187822103500366, -0.21246662735939026, -0.19305503368377686, -0.17364344000816345, -0.15423184633255005, -0.13482025265693665, -0.11540865898132324, -0.09599706530570984, -0.07658547163009644, -0.05717387795448303, -0.03776228427886963, -0.018350690603256226, 0.0010609030723571777, 0.02047249674797058, 0.03988415002822876, 0.05929574370384216, 0.07870733737945557, 0.09811893105506897, 0.11753052473068237, 0.13694211840629578, 0.15635371208190918, 0.17576530575752258, 0.195176899433136, 0.2145884931087494, 0.2340000867843628, 0.2534116804599762, 0.2728232741355896, 0.292234867811203, 0.3116464614868164, 0.3310580551624298, 0.3504696488380432, 0.3698812425136566, 0.38929283618927, 0.4087044298648834, 0.4281160235404968, 0.44752761721611023, 0.46693921089172363, 0.48635080456733704, 0.5057623982429504, 0.5251740217208862, 0.5445855855941772, 0.5639971494674683, 0.583408772945404, 0.6028203964233398, 0.6222319602966309, 0.6416435241699219, 0.6610551476478577]}, "gradients/phi_x.nn_layers.2.weight": {"_type": "histogram", "values": [1.0, 0.0, 0.0, 0.0, 0.0, 0.0, 0.0, 0.0, 1.0, 2.0, 0.0, 0.0, 1.0, 0.0, 0.0, 1.0, 0.0, 1.0, 2.0, 1.0, 1.0, 3.0, 1.0, 3.0, 4.0, 4.0, 6.0, 9.0, 4.0, 3.0, 80.0, 25.0, 31.0, 30.0, 20.0, 22.0, 10.0, 10.0, 9.0, 8.0, 6.0, 2.0, 4.0, 2.0, 3.0, 0.0, 2.0, 2.0, 0.0, 1.0, 0.0, 0.0, 1.0, 1.0, 2.0, 0.0, 0.0, 0.0, 0.0, 0.0, 0.0, 0.0, 0.0, 1.0], "bins": [-0.7572313547134399, -0.7320223450660706, -0.7068132758140564, -0.681604266166687, -0.6563952565193176, -0.6311861872673035, -0.6059771776199341, -0.5807681679725647, -0.5555591583251953, -0.5303500890731812, -0.5051410794258118, -0.47993203997612, -0.4547230005264282, -0.42951399087905884, -0.40430495142936707, -0.3790959417819977, -0.3538869023323059, -0.32867786288261414, -0.30346885323524475, -0.278259813785553, -0.2530508041381836, -0.22784176468849182, -0.20263272523880005, -0.17742370069026947, -0.1522146761417389, -0.1270056515932083, -0.10179661959409714, -0.07658758759498596, -0.05137856304645538, -0.026169534772634506, -0.0009605064988136292, 0.024248521775007248, 0.0494576096534729, 0.07466663420200348, 0.09987566620111465, 0.12508469820022583, 0.1502937227487564, 0.175502747297287, 0.20071178674697876, 0.22592081129550934, 0.2511298358440399, 0.2763388752937317, 0.3015478849411011, 0.32675692439079285, 0.3519659638404846, 0.377174973487854, 0.4023840129375458, 0.42759302258491516, 0.45280206203460693, 0.4780111014842987, 0.5032201409339905, 0.5284291505813599, 0.5536381602287292, 0.5788472294807434, 0.6040562391281128, 0.6292652487754822, 0.6544742584228516, 0.6796833276748657, 0.7048923373222351, 0.7301013469696045, 0.7553104162216187, 0.780519425868988, 0.8057284355163574, 0.8309375047683716, 0.856146514415741]}, "gradients/phi_x.nn_layers.1.bias": {"_type": "histogram", "values": [1.0, 0.0, 0.0, 0.0, 0.0, 0.0, 0.0, 0.0, 0.0, 0.0, 0.0, 1.0, 0.0, 0.0, 0.0, 0.0, 1.0, 0.0, 0.0, 1.0, 0.0, 0.0, 0.0, 0.0, 1.0, 0.0, 2.0, 0.0, 0.0, 0.0, 2.0, 0.0, 0.0, 0.0, 1.0, 0.0, 0.0, 0.0, 1.0, 0.0, 0.0, 0.0, 0.0, 0.0, 0.0, 1.0, 1.0, 0.0, 0.0, 0.0, 1.0, 0.0, 1.0, 0.0, 0.0, 0.0, 0.0, 0.0, 4.0, 0.0, 0.0, 0.0, 0.0, 1.0], "bins": [-0.6011477708816528, -0.5909300446510315, -0.5807122588157654, -0.570494532585144, -0.5602768063545227, -0.5500590205192566, -0.5398412942886353, -0.5296235680580139, -0.5194058418273926, -0.5091880559921265, -0.4989703297615051, -0.4887525737285614, -0.4785348176956177, -0.46831709146499634, -0.4580993354320526, -0.4478816092014313, -0.43766385316848755, -0.4274460971355438, -0.4172283709049225, -0.40701061487197876, -0.3967928886413574, -0.3865751326084137, -0.37635737657546997, -0.36613965034484863, -0.3559218943119049, -0.3457041382789612, -0.33548641204833984, -0.3252686560153961, -0.3150508999824524, -0.30483317375183105, -0.29461541771888733, -0.284397691488266, -0.27417993545532227, -0.26396217942237854, -0.2537444233894348, -0.24352669715881348, -0.23330894112586975, -0.22309119999408722, -0.2128734588623047, -0.20265570282936096, -0.19243796169757843, -0.1822202205657959, -0.17200247943401337, -0.16178473830223083, -0.1515669822692871, -0.14134924113750458, -0.13113150000572205, -0.12091375142335892, -0.11069600284099579, -0.10047826170921326, -0.09026052057743073, -0.0800427719950676, -0.06982502341270447, -0.059607282280921936, -0.049389537423849106, -0.039171792566776276, -0.028954047709703445, -0.018736302852630615, -0.008518557995557785, 0.0016991868615150452, 0.011916931718587875, 0.022134676575660706, 0.032352421432733536, 0.042570166289806366, 0.052787911146879196]}, "gradients/phi_x.nn_layers.1.weight": {"_type": "histogram", "values": [1.0, 2.0, 0.0, 0.0, 0.0, 0.0, 0.0, 0.0, 0.0, 0.0, 0.0, 1.0, 1.0, 2.0, 0.0, 0.0, 2.0, 1.0, 2.0, 1.0, 1.0, 2.0, 1.0, 1.0, 2.0, 1.0, 7.0, 3.0, 2.0, 0.0, 5.0, 6.0, 1.0, 6.0, 2.0, 4.0, 6.0, 6.0, 4.0, 6.0, 3.0, 2.0, 7.0, 3.0, 4.0, 6.0, 6.0, 5.0, 6.0, 6.0, 9.0, 9.0, 9.0, 8.0, 9.0, 3.0, 8.0, 206.0, 2.0, 0.0, 4.0, 2.0, 1.0, 3.0], "bins": [-0.4711165726184845, -0.4629238545894623, -0.45473113656044006, -0.44653841853141785, -0.43834570050239563, -0.4301529824733734, -0.4219602644443512, -0.413767546415329, -0.40557485818862915, -0.39738214015960693, -0.3891894221305847, -0.3809967041015625, -0.3728039860725403, -0.36461126804351807, -0.35641855001449585, -0.34822583198547363, -0.3400331139564514, -0.3318403959274292, -0.323647677898407, -0.31545495986938477, -0.30726224184036255, -0.29906952381134033, -0.2908768057823181, -0.2826840877532959, -0.2744913697242737, -0.26629868149757385, -0.25810596346855164, -0.24991323053836823, -0.2417205274105072, -0.23352780938148499, -0.22533509135246277, -0.21714237332344055, -0.20894967019557953, -0.2007569521665573, -0.1925642341375351, -0.18437151610851288, -0.17617881298065186, -0.16798609495162964, -0.15979337692260742, -0.1516006588935852, -0.143407940864563, -0.13521522283554077, -0.12702250480651855, -0.11882979422807693, -0.11063707619905472, -0.1024443581700325, -0.09425164759159088, -0.08605892956256866, -0.07786621153354645, -0.06967349350452423, -0.06148077920079231, -0.053288064897060394, -0.04509534686803818, -0.03690262883901596, -0.028709914535284042, -0.020517198368906975, -0.012324482202529907, -0.00413176603615284, 0.004060950130224228, 0.012253666296601295, 0.020446382462978363, 0.02863909862935543, 0.0368318147957325, 0.045024529099464417, 0.05321724712848663]}, "gradients/phi_x.nn_layers.0.bias": {"_type": "histogram", "values": [1.0, 0.0, 0.0, 0.0, 0.0, 0.0, 0.0, 0.0, 0.0, 0.0, 0.0, 0.0, 0.0, 0.0, 0.0, 0.0, 1.0, 1.0, 0.0, 0.0, 0.0, 0.0, 1.0, 0.0, 2.0, 1.0, 1.0, 0.0, 0.0, 0.0, 0.0, 0.0, 0.0, 0.0, 0.0, 1.0, 0.0, 0.0, 0.0, 0.0, 0.0, 0.0, 0.0, 0.0, 0.0, 0.0, 0.0, 0.0, 0.0, 0.0, 0.0, 0.0, 0.0, 0.0, 1.0, 0.0, 0.0, 0.0, 1.0, 0.0, 1.0, 1.0, 0.0, 7.0], "bins": [-0.6609455943107605, -0.650618314743042, -0.6402910351753235, -0.629963755607605, -0.6196364760398865, -0.609309196472168, -0.5989819169044495, -0.5886546969413757, -0.5783274173736572, -0.5680001378059387, -0.5576728582382202, -0.5473455786705017, -0.5370182991027832, -0.5266910195350647, -0.5163637399673462, -0.5060364603996277, -0.4957091808319092, -0.48538193106651306, -0.47505465149879456, -0.46472737193107605, -0.45440009236335754, -0.44407281279563904, -0.43374553322792053, -0.4234182834625244, -0.4130910038948059, -0.4027637243270874, -0.3924364447593689, -0.3821091651916504, -0.3717818856239319, -0.36145463585853577, -0.35112735629081726, -0.34080007672309875, -0.33047279715538025, -0.32014551758766174, -0.30981823801994324, -0.29949095845222473, -0.2891637086868286, -0.2788364291191101, -0.2685091495513916, -0.2581818699836731, -0.2478545904159546, -0.23752732574939728, -0.22720004618167877, -0.21687276661396027, -0.20654550194740295, -0.19621822237968445, -0.18589094281196594, -0.17556367814540863, -0.16523639857769012, -0.15490911900997162, -0.1445818543434143, -0.1342545747756958, -0.1239272952079773, -0.11360002309083939, -0.10327275097370148, -0.09294547140598297, -0.08261819928884506, -0.07229092717170715, -0.06196364760398865, -0.05163637548685074, -0.04130909964442253, -0.030981823801994324, -0.020654549822211266, -0.010327274911105633, 0.0]}, "gradients/phi_x.nn_layers.0.weight": {"_type": "histogram", "values": [1.0, 0.0, 0.0, 0.0, 0.0, 0.0, 0.0, 0.0, 1.0, 0.0, 0.0, 0.0, 0.0, 0.0, 1.0, 0.0, 0.0, 0.0, 1.0, 0.0, 0.0, 0.0, 1.0, 3.0, 0.0, 3.0, 1.0, 2.0, 1.0, 2.0, 1.0, 1.0, 0.0, 3.0, 2.0, 1.0, 0.0, 2.0, 1.0, 3.0, 3.0, 3.0, 4.0, 2.0, 3.0, 4.0, 1.0, 1.0, 1.0, 2.0, 1.0, 2.0, 3.0, 3.0, 8.0, 5.0, 4.0, 2.0, 2.0, 5.0, 1.0, 10.0, 9.0, 70.0], "bins": [-0.5560880899429321, -0.5473992228507996, -0.538710355758667, -0.5300214886665344, -0.5213325619697571, -0.5126436948776245, -0.5039548277854919, -0.4952659606933594, -0.4865770936012268, -0.47788819670677185, -0.4691993296146393, -0.4605104625225067, -0.45182156562805176, -0.4431326985359192, -0.4344438314437866, -0.42575493454933167, -0.4170660674571991, -0.40837720036506653, -0.3996883034706116, -0.390999436378479, -0.38231056928634644, -0.3736216723918915, -0.3649328052997589, -0.35624393820762634, -0.3475550413131714, -0.3388661742210388, -0.33017730712890625, -0.3214884400367737, -0.3127995431423187, -0.30411067605018616, -0.2954218089580536, -0.28673291206359863, -0.27804404497146606, -0.2693551778793335, -0.26066628098487854, -0.25197741389274597, -0.2432885468006134, -0.23459966480731964, -0.22591078281402588, -0.2172219157218933, -0.20853303372859955, -0.1998441517353058, -0.19115528464317322, -0.18246640264987946, -0.1737775206565857, -0.16508865356445312, -0.15639977157115936, -0.1477109044790268, -0.13902202248573303, -0.13033314049243927, -0.1216442734003067, -0.11295539140701294, -0.10426651686429977, -0.09557764232158661, -0.08688876032829285, -0.07819988578557968, -0.06951101124286652, -0.06082213670015335, -0.05213325843214989, -0.04344438016414642, -0.03475550562143326, -0.026066629216074944, -0.01737775281071663, -0.008688876405358315, 0.0]}, "gradients/prior.nn_layers.2.bias": {"_type": "histogram", "values": [1.0, 0.0, 0.0, 0.0, 0.0, 0.0, 0.0, 0.0, 0.0, 0.0, 0.0, 0.0, 0.0, 0.0, 0.0, 0.0, 0.0, 0.0, 0.0, 0.0, 0.0, 0.0, 0.0, 0.0, 0.0, 0.0, 0.0, 0.0, 0.0, 0.0, 0.0, 0.0, 0.0, 0.0, 0.0, 0.0, 0.0, 0.0, 0.0, 0.0, 0.0, 0.0, 0.0, 0.0, 0.0, 0.0, 0.0, 0.0, 0.0, 0.0, 0.0, 0.0, 0.0, 0.0, 0.0, 1.0, 0.0, 0.0, 1.0, 0.0, 0.0, 1.0, 1.0, 5.0], "bins": [-57.843238830566406, -56.80680465698242, -55.77036666870117, -54.73393249511719, -53.6974983215332, -52.66106033325195, -51.62462615966797, -50.588191986083984, -49.5517578125, -48.51531982421875, -47.478885650634766, -46.44245147705078, -45.40601348876953, -44.36957931518555, -43.33314514160156, -42.29670715332031, -41.26027297973633, -40.223838806152344, -39.187400817871094, -38.15096664428711, -37.114532470703125, -36.078094482421875, -35.04166030883789, -34.005226135253906, -32.968788146972656, -31.932353973388672, -30.895919799804688, -29.85948371887207, -28.823047637939453, -27.78661346435547, -26.75017738342285, -25.713743209838867, -24.677309036254883, -23.640872955322266, -22.60443878173828, -21.568002700805664, -20.531566619873047, -19.495132446289062, -18.458696365356445, -17.42226219177246, -16.385826110839844, -15.349390983581543, -14.312955856323242, -13.276519775390625, -12.240084648132324, -11.203649520874023, -10.167213439941406, -9.130778312683105, -8.094343185424805, -7.057908058166504, -6.021472454071045, -4.985036849975586, -3.948601722717285, -2.9121663570404053, -1.8757309913635254, -0.8392956256866455, 0.19713973999023438, 1.2335751056671143, 2.270010471343994, 3.306445837020874, 4.342881202697754, 5.379316329956055, 6.415751934051514, 7.452187538146973, 8.488622665405273]}, "gradients/prior.nn_layers.2.weight": {"_type": "histogram", "values": [1.0, 0.0, 0.0, 1.0, 0.0, 0.0, 0.0, 0.0, 0.0, 0.0, 0.0, 0.0, 0.0, 0.0, 1.0, 1.0, 0.0, 1.0, 1.0, 0.0, 0.0, 0.0, 1.0, 0.0, 0.0, 1.0, 0.0, 1.0, 0.0, 0.0, 1.0, 0.0, 0.0, 0.0, 0.0, 0.0, 0.0, 0.0, 1.0, 0.0, 0.0, 0.0, 0.0, 0.0, 0.0, 0.0, 0.0, 0.0, 0.0, 0.0, 0.0, 0.0, 0.0, 0.0, 0.0, 90.0, 15.0, 7.0, 9.0, 13.0, 20.0, 21.0, 4.0, 10.0], "bins": [-296.7439270019531, -291.43731689453125, -286.1307067871094, -280.8240966796875, -275.5174865722656, -270.21087646484375, -264.9042663574219, -259.59765625, -254.2910614013672, -248.9844512939453, -243.67784118652344, -238.37123107910156, -233.0646209716797, -227.7580108642578, -222.45140075683594, -217.14479064941406, -211.83819580078125, -206.53158569335938, -201.2249755859375, -195.91836547851562, -190.61175537109375, -185.30514526367188, -179.99853515625, -174.69192504882812, -169.38531494140625, -164.07870483398438, -158.7720947265625, -153.4654998779297, -148.1588897705078, -142.85227966308594, -137.54566955566406, -132.2390594482422, -126.93246459960938, -121.6258544921875, -116.31924438476562, -111.01263427734375, -105.70602416992188, -100.3994140625, -95.09281158447266, -89.78620147705078, -84.4795913696289, -79.17298126220703, -73.86637115478516, -68.55976867675781, -63.25315856933594, -57.94654846191406, -52.63993835449219, -47.33333206176758, -42.0267219543457, -36.72011184692383, -31.41350555419922, -26.106895446777344, -20.8002872467041, -15.49367904663086, -10.1870698928833, -4.8804612159729, 0.4261474609375, 5.7327561378479, 11.0393648147583, 16.34597396850586, 21.6525821685791, 26.959190368652344, 32.26580047607422, 37.57240676879883, 42.8790168762207]}, "gradients/prior.nn_layers.1.bias": {"_type": "histogram", "values": [1.0, 0.0, 0.0, 0.0, 0.0, 0.0, 0.0, 0.0, 0.0, 0.0, 1.0, 0.0, 0.0, 0.0, 0.0, 0.0, 0.0, 0.0, 0.0, 0.0, 0.0, 0.0, 1.0, 0.0, 1.0, 0.0, 0.0, 0.0, 1.0, 0.0, 0.0, 1.0, 0.0, 0.0, 0.0, 0.0, 1.0, 0.0, 0.0, 0.0, 0.0, 1.0, 0.0, 0.0, 0.0, 0.0, 0.0, 1.0, 0.0, 0.0, 0.0, 0.0, 0.0, 1.0, 0.0, 0.0, 0.0, 0.0, 0.0, 0.0, 1.0, 1.0, 0.0, 8.0], "bins": [-23.09914779663086, -22.738224029541016, -22.377300262451172, -22.016374588012695, -21.65545082092285, -21.294527053833008, -20.933603286743164, -20.572677612304688, -20.211753845214844, -19.850830078125, -19.489906311035156, -19.128982543945312, -18.768056869506836, -18.407133102416992, -18.04620933532715, -17.685285568237305, -17.324359893798828, -16.963436126708984, -16.60251235961914, -16.241588592529297, -15.880663871765137, -15.519740104675293, -15.158815383911133, -14.797891616821289, -14.436967849731445, -14.076043128967285, -13.715119361877441, -13.354194641113281, -12.993270874023438, -12.632346153259277, -12.271422386169434, -11.910497665405273, -11.54957389831543, -11.188650131225586, -10.827725410461426, -10.466801643371582, -10.105876922607422, -9.744953155517578, -9.384028434753418, -9.023104667663574, -8.662179946899414, -8.30125617980957, -7.940331935882568, -7.579407691955566, -7.218483924865723, -6.857559680938721, -6.496635437011719, -6.135711193084717, -5.774786949157715, -5.413862705230713, -5.052938461303711, -4.692014217376709, -4.331089973449707, -3.970165967941284, -3.6092419624328613, -3.2483177185058594, -2.8873934745788574, -2.5264692306518555, -2.1655449867248535, -1.8046209812164307, -1.4436967372894287, -1.0827724933624268, -0.7218483686447144, -0.3609241843223572, 0.0]}, "gradients/prior.nn_layers.1.weight": {"_type": "histogram", "values": [1.0, 0.0, 0.0, 0.0, 0.0, 0.0, 0.0, 1.0, 1.0, 0.0, 1.0, 0.0, 0.0, 1.0, 0.0, 0.0, 1.0, 0.0, 2.0, 0.0, 0.0, 1.0, 0.0, 2.0, 0.0, 1.0, 0.0, 0.0, 4.0, 2.0, 2.0, 1.0, 3.0, 1.0, 2.0, 3.0, 4.0, 1.0, 2.0, 2.0, 0.0, 7.0, 4.0, 3.0, 2.0, 5.0, 3.0, 5.0, 2.0, 8.0, 3.0, 5.0, 7.0, 1.0, 5.0, 4.0, 5.0, 3.0, 7.0, 4.0, 3.0, 4.0, 6.0, 265.0], "bins": [-72.18354034423828, -71.05567169189453, -69.92780303955078, -68.79993438720703, -67.67206573486328, -66.54420471191406, -65.41633605957031, -64.28846740722656, -63.16059875488281, -62.03273010253906, -60.90486145019531, -59.77699279785156, -58.64912796020508, -57.52125930786133, -56.39339065551758, -55.26552200317383, -54.137657165527344, -53.009788513183594, -51.881919860839844, -50.754051208496094, -49.626182556152344, -48.49831771850586, -47.37044906616211, -46.24258041381836, -45.11471176147461, -43.98684310913086, -42.858978271484375, -41.731109619140625, -40.603240966796875, -39.475372314453125, -38.34750747680664, -37.21963882446289, -36.09177017211914, -34.96390151977539, -33.83603286743164, -32.708168029785156, -31.580299377441406, -30.452430725097656, -29.32456398010254, -28.19669532775879, -27.068828582763672, -25.940959930419922, -24.813091278076172, -23.685224533081055, -22.557355880737305, -21.429489135742188, -20.301620483398438, -19.17375373840332, -18.04588508605957, -16.91801643371582, -15.790149688720703, -14.66228199005127, -13.534414291381836, -12.406545639038086, -11.278677940368652, -10.150810241699219, -9.022942543029785, -7.895074844360352, -6.767207145690918, -5.639338970184326, -4.511471271514893, -3.383603572845459, -2.2557356357574463, -1.1278678178787231, 0.0]}, "gradients/prior.nn_layers.0.bias": {"_type": "histogram", "values": [3.0, 0.0, 0.0, 0.0, 0.0, 0.0, 0.0, 1.0, 0.0, 0.0, 0.0, 1.0, 0.0, 0.0, 1.0, 2.0, 0.0, 0.0, 0.0, 1.0, 1.0, 0.0, 0.0, 0.0, 0.0, 1.0, 0.0, 0.0, 0.0, 0.0, 0.0, 0.0, 0.0, 0.0, 0.0, 0.0, 0.0, 0.0, 0.0, 0.0, 0.0, 0.0, 0.0, 0.0, 0.0, 0.0, 0.0, 0.0, 0.0, 1.0, 0.0, 0.0, 0.0, 0.0, 1.0, 0.0, 0.0, 0.0, 0.0, 0.0, 0.0, 0.0, 1.0, 6.0], "bins": [-23.47754669189453, -23.11071014404297, -22.743873596191406, -22.377037048339844, -22.01020050048828, -21.64336395263672, -21.276527404785156, -20.909690856933594, -20.54285430908203, -20.176015853881836, -19.809179306030273, -19.44234275817871, -19.07550621032715, -18.708669662475586, -18.341833114624023, -17.97499656677246, -17.6081600189209, -17.241323471069336, -16.874486923217773, -16.50765037536621, -16.14081382751465, -15.77397632598877, -15.407139778137207, -15.040303230285645, -14.673466682434082, -14.30663013458252, -13.939793586730957, -13.572957038879395, -13.206119537353516, -12.839282989501953, -12.47244644165039, -12.105609893798828, -11.738773345947266, -11.371936798095703, -11.00510025024414, -10.638263702392578, -10.271427154541016, -9.904589653015137, -9.537753105163574, -9.170916557312012, -8.80408000946045, -8.437243461608887, -8.070406913757324, -7.7035698890686035, -7.336733341217041, -6.9698967933654785, -6.603059768676758, -6.236223220825195, -5.869386672973633, -5.50255012512207, -5.135713577270508, -4.768876552581787, -4.402040004730225, -4.035203456878662, -3.6683666706085205, -3.301529884338379, -2.9346933364868164, -2.567856788635254, -2.2010200023651123, -1.8341833353042603, -1.4673466682434082, -1.1005100011825562, -0.7336733341217041, -0.36683666706085205, 0.0]}, "gradients/prior.nn_layers.0.weight": {"_type": "histogram", "values": [15.0, 6.0, 3.0, 5.0, 2.0, 6.0, 2.0, 9.0, 12.0, 7.0, 11.0, 2.0, 3.0, 4.0, 1.0, 0.0, 0.0, 0.0, 0.0, 0.0, 0.0, 0.0, 0.0, 0.0, 8.0, 0.0, 0.0, 8.0, 0.0, 0.0, 0.0, 112.0, 0.0, 0.0, 0.0, 0.0, 8.0, 0.0, 1.0, 7.0, 0.0, 0.0, 0.0, 0.0, 0.0, 0.0, 0.0, 0.0, 1.0, 0.0, 2.0, 7.0, 0.0, 10.0, 7.0, 9.0, 13.0, 1.0, 7.0, 1.0, 9.0, 0.0, 0.0, 21.0], "bins": [-21.590167999267578, -20.9151611328125, -20.240156173706055, -19.565149307250977, -18.89014434814453, -18.215137481689453, -17.540130615234375, -16.86512565612793, -16.19011878967285, -15.51511287689209, -14.840106964111328, -14.16510009765625, -13.490094184875488, -12.815088272094727, -12.140081405639648, -11.465075492858887, -10.790069580078125, -10.115063667297363, -9.440057754516602, -8.765050888061523, -8.090044975280762, -7.4150390625, -6.74003267288208, -6.06502628326416, -5.390020370483398, -4.715014457702637, -4.040008068084717, -3.365001916885376, -2.689995765686035, -2.0149896144866943, -1.3399834632873535, -0.6649773120880127, 0.010028839111328125, 0.685034990310669, 1.3600411415100098, 2.0350472927093506, 2.7100534439086914, 3.3850595951080322, 4.060065746307373, 4.735072135925293, 5.410078048706055, 6.085083961486816, 6.760090351104736, 7.435096740722656, 8.110102653503418, 8.78510856628418, 9.460115432739258, 10.13512134552002, 10.810127258300781, 11.485133171081543, 12.160139083862305, 12.835145950317383, 13.510151863098145, 14.185157775878906, 14.860164642333984, 15.535170555114746, 16.210176467895508, 16.885183334350586, 17.56018829345703, 18.23519515991211, 18.910202026367188, 19.585206985473633, 20.26021385192871, 20.935218811035156, 21.610225677490234]}, "gradients/decoder.fc_out.bias": {"_type": "histogram", "values": [1.0, 1.0, 0.0, 0.0, 0.0, 0.0, 0.0, 1.0, 0.0, 0.0, 1.0, 0.0, 0.0, 0.0, 0.0, 0.0, 0.0, 0.0, 1.0, 1.0, 3.0, 0.0, 2.0, 1.0, 0.0, 0.0, 1.0, 0.0, 1.0, 1.0, 0.0, 0.0, 0.0, 0.0, 0.0, 0.0, 0.0, 0.0, 0.0, 0.0, 0.0, 0.0, 1.0, 0.0, 0.0, 0.0, 0.0, 0.0, 0.0, 0.0, 0.0, 0.0, 0.0, 0.0, 0.0, 0.0, 0.0, 0.0, 0.0, 0.0, 0.0, 1.0, 0.0, 1.0], "bins": [-10.27670955657959, -9.741090774536133, -9.20547103881836, -8.669852256774902, -8.134233474731445, -7.598613739013672, -7.062994956970215, -6.5273756980896, -5.991756439208984, -5.456137180328369, -4.920517921447754, -4.384899139404297, -3.8492798805236816, -3.3136606216430664, -2.7780416011810303, -2.242422580718994, -1.706803321838379, -1.1711841821670532, -0.6355650424957275, -0.09994590282440186, 0.43567323684692383, 0.9712923765182495, 1.5069115161895752, 2.0425305366516113, 2.5781497955322266, 3.113769054412842, 3.649388074874878, 4.185007095336914, 4.720626354217529, 5.2562456130981445, 5.791864395141602, 6.327483654022217, 6.863103866577148, 7.398723125457764, 7.934342384338379, 8.469961166381836, 9.00558090209961, 9.541199684143066, 10.076818466186523, 10.612438201904297, 11.148056983947754, 11.683675765991211, 12.219295501708984, 12.754914283752441, 13.290533065795898, 13.826152801513672, 14.361771583557129, 14.897391319274902, 15.43301010131836, 15.968628883361816, 16.504247665405273, 17.039867401123047, 17.57548713684082, 18.11110496520996, 18.646724700927734, 19.182344436645508, 19.71796417236328, 20.253582000732422, 20.789201736450195, 21.32482147216797, 21.86043930053711, 22.396059036254883, 22.931678771972656, 23.467296600341797, 24.00291633605957]}, "gradients/decoder.fc_out.weight": {"_type": "histogram", "values": [2.0, 0.0, 0.0, 0.0, 1.0, 1.0, 2.0, 3.0, 0.0, 0.0, 2.0, 4.0, 2.0, 1.0, 4.0, 2.0, 1.0, 1.0, 4.0, 4.0, 6.0, 8.0, 6.0, 5.0, 15.0, 22.0, 18.0, 37.0, 82.0, 122.0, 72.0, 33.0, 23.0, 19.0, 4.0, 7.0, 5.0, 5.0, 6.0, 6.0, 6.0, 6.0, 0.0, 7.0, 3.0, 2.0, 2.0, 0.0, 3.0, 4.0, 0.0, 2.0, 2.0, 0.0, 1.0, 0.0, 0.0, 1.0, 1.0, 0.0, 0.0, 0.0, 0.0, 1.0], "bins": [-53.772090911865234, -51.93724060058594, -50.10239028930664, -48.267539978027344, -46.43268966674805, -44.59783935546875, -42.76299285888672, -40.92814254760742, -39.093292236328125, -37.25844192504883, -35.42359161376953, -33.588741302490234, -31.753890991210938, -29.91904067993164, -28.084192276000977, -26.24934196472168, -24.414491653442383, -22.579641342163086, -20.74479103088379, -18.909942626953125, -17.075092315673828, -15.240242004394531, -13.405391693115234, -11.570542335510254, -9.735692024230957, -7.900842189788818, -6.06599235534668, -4.231142044067383, -2.396292209625244, -0.5614422559738159, 1.2734076976776123, 3.10825777053833, 4.943107604980469, 6.777957439422607, 8.612807273864746, 10.447657585144043, 12.282506942749023, 14.11735725402832, 15.952207565307617, 17.787057876586914, 19.621906280517578, 21.456756591796875, 23.291606903076172, 25.12645721435547, 26.961307525634766, 28.796157836914062, 30.631006240844727, 32.465858459472656, 34.30070495605469, 36.135555267333984, 37.97040557861328, 39.80525588989258, 41.640106201171875, 43.47495651245117, 45.30980682373047, 47.144657135009766, 48.97950744628906, 50.81435775756836, 52.649208068847656, 54.48405456542969, 56.318904876708984, 58.15375518798828, 59.98860549926758, 61.823455810546875, 63.65830612182617]}, "gradients/decoder.lstm_cell.bias_ih": {"_type": "histogram", "values": [1.0, 0.0, 0.0, 0.0, 0.0, 0.0, 0.0, 0.0, 0.0, 1.0, 0.0, 0.0, 0.0, 1.0, 0.0, 2.0, 0.0, 1.0, 0.0, 1.0, 1.0, 1.0, 2.0, 2.0, 6.0, 3.0, 3.0, 3.0, 4.0, 5.0, 13.0, 13.0, 22.0, 12.0, 7.0, 3.0, 3.0, 4.0, 1.0, 1.0, 2.0, 3.0, 2.0, 0.0, 0.0, 0.0, 0.0, 0.0, 1.0, 0.0, 0.0, 1.0, 0.0, 0.0, 0.0, 0.0, 0.0, 1.0, 0.0, 0.0, 0.0, 0.0, 0.0, 2.0], "bins": [-4.287731170654297, -4.157916069030762, -4.028100967407227, -3.8982856273651123, -3.768470525741577, -3.638655424118042, -3.5088400840759277, -3.3790249824523926, -3.2492098808288574, -3.1193947792053223, -2.989579677581787, -2.859764337539673, -2.7299492359161377, -2.6001341342926025, -2.4703187942504883, -2.340503692626953, -2.210688591003418, -2.080873489379883, -1.951058268547058, -1.8212430477142334, -1.6914279460906982, -1.561612844467163, -1.4317976236343384, -1.3019824028015137, -1.1721673011779785, -1.0423521995544434, -0.9125369787216187, -0.7827218174934387, -0.6529066562652588, -0.5230914950370789, -0.3932763338088989, -0.263461172580719, -0.13364648818969727, -0.003831326961517334, 0.1259838342666626, 0.25579899549484253, 0.38561415672302246, 0.5154293179512024, 0.6452444791793823, 0.7750596404075623, 0.9048748016357422, 1.0346899032592773, 1.164505124092102, 1.2943203449249268, 1.424135446548462, 1.553950548171997, 1.6837657690048218, 1.8135809898376465, 1.9433960914611816, 2.073211193084717, 2.203026294708252, 2.332841634750366, 2.4626567363739014, 2.5924718379974365, 2.722287178039551, 2.852102279663086, 2.981917381286621, 3.1117324829101562, 3.2415475845336914, 3.3713629245758057, 3.501178026199341, 3.630993127822876, 3.7608084678649902, 3.8906235694885254, 4.0204386711120605]}, "gradients/decoder.lstm_cell.bias_hh": {"_type": "histogram", "values": [1.0, 0.0, 0.0, 0.0, 0.0, 0.0, 0.0, 0.0, 0.0, 1.0, 0.0, 0.0, 0.0, 1.0, 0.0, 2.0, 0.0, 1.0, 0.0, 1.0, 1.0, 1.0, 2.0, 2.0, 6.0, 3.0, 3.0, 3.0, 4.0, 5.0, 13.0, 13.0, 22.0, 12.0, 7.0, 3.0, 3.0, 4.0, 1.0, 1.0, 2.0, 3.0, 2.0, 0.0, 0.0, 0.0, 0.0, 0.0, 1.0, 0.0, 0.0, 1.0, 0.0, 0.0, 0.0, 0.0, 0.0, 1.0, 0.0, 0.0, 0.0, 0.0, 0.0, 2.0], "bins": [-4.287731170654297, -4.157916069030762, -4.028100967407227, -3.8982856273651123, -3.768470525741577, -3.638655424118042, -3.5088400840759277, -3.3790249824523926, -3.2492098808288574, -3.1193947792053223, -2.989579677581787, -2.859764337539673, -2.7299492359161377, -2.6001341342926025, -2.4703187942504883, -2.340503692626953, -2.210688591003418, -2.080873489379883, -1.951058268547058, -1.8212430477142334, -1.6914279460906982, -1.561612844467163, -1.4317976236343384, -1.3019824028015137, -1.1721673011779785, -1.0423521995544434, -0.9125369787216187, -0.7827218174934387, -0.6529066562652588, -0.5230914950370789, -0.3932763338088989, -0.263461172580719, -0.13364648818969727, -0.003831326961517334, 0.1259838342666626, 0.25579899549484253, 0.38561415672302246, 0.5154293179512024, 0.6452444791793823, 0.7750596404075623, 0.9048748016357422, 1.0346899032592773, 1.164505124092102, 1.2943203449249268, 1.424135446548462, 1.553950548171997, 1.6837657690048218, 1.8135809898376465, 1.9433960914611816, 2.073211193084717, 2.203026294708252, 2.332841634750366, 2.4626567363739014, 2.5924718379974365, 2.722287178039551, 2.852102279663086, 2.981917381286621, 3.1117324829101562, 3.2415475845336914, 3.3713629245758057, 3.501178026199341, 3.630993127822876, 3.7608084678649902, 3.8906235694885254, 4.0204386711120605]}, "gradients/decoder.lstm_cell.weight_hh": {"_type": "histogram", "values": [1.0, 1.0, 0.0, 3.0, 0.0, 1.0, 3.0, 2.0, 1.0, 2.0, 0.0, 0.0, 4.0, 5.0, 5.0, 15.0, 11.0, 6.0, 17.0, 7.0, 14.0, 16.0, 36.0, 40.0, 49.0, 64.0, 68.0, 102.0, 155.0, 250.0, 328.0, 784.0, 846.0, 396.0, 244.0, 164.0, 107.0, 72.0, 48.0, 50.0, 32.0, 21.0, 22.0, 10.0, 8.0, 13.0, 22.0, 6.0, 10.0, 9.0, 9.0, 2.0, 1.0, 3.0, 0.0, 1.0, 2.0, 0.0, 2.0, 2.0, 1.0, 1.0, 1.0, 1.0], "bins": [-3.3584346771240234, -3.253746509552002, -3.1490583419799805, -3.044370174407959, -2.9396820068359375, -2.834993839263916, -2.7303056716918945, -2.625617504119873, -2.5209293365478516, -2.416240930557251, -2.3115527629852295, -2.206864595413208, -2.1021764278411865, -1.997488260269165, -1.8928000926971436, -1.788111925125122, -1.6834237575531006, -1.578735589981079, -1.4740474224090576, -1.3693592548370361, -1.2646710872650146, -1.1599828004837036, -1.0552946329116821, -0.9506064653396606, -0.8459182977676392, -0.7412301301956177, -0.6365419626235962, -0.5318537354469299, -0.42716556787490845, -0.32247740030288696, -0.2177892029285431, -0.11310102045536041, -0.008412837982177734, 0.09627534449100494, 0.20096352696418762, 0.3056517243385315, 0.410339891910553, 0.5150280594825745, 0.6197162866592407, 0.7244044542312622, 0.8290926218032837, 0.9337807893753052, 1.0384689569473267, 1.1431571245193481, 1.2478454113006592, 1.3525335788726807, 1.4572217464447021, 1.5619099140167236, 1.6665980815887451, 1.7712862491607666, 1.875974416732788, 1.9806625843048096, 2.085350751876831, 2.1900389194488525, 2.294727087020874, 2.3994152545928955, 2.504103660583496, 2.6087918281555176, 2.713479995727539, 2.8181681632995605, 2.922856330871582, 3.0275444984436035, 3.132232666015625, 3.2369208335876465, 3.341609001159668]}, "gradients/decoder.lstm_cell.weight_ih": {"_type": "histogram", "values": [1.0, 1.0, 0.0, 0.0, 1.0, 1.0, 1.0, 0.0, 0.0, 2.0, 2.0, 0.0, 2.0, 4.0, 2.0, 0.0, 1.0, 1.0, 2.0, 3.0, 3.0, 3.0, 3.0, 4.0, 9.0, 13.0, 13.0, 30.0, 33.0, 62.0, 80.0, 178.0, 1164.0, 330.0, 80.0, 44.0, 43.0, 36.0, 41.0, 21.0, 21.0, 11.0, 9.0, 9.0, 5.0, 7.0, 3.0, 7.0, 2.0, 3.0, 4.0, 0.0, 1.0, 2.0, 3.0, 0.0, 0.0, 1.0, 0.0, 0.0, 0.0, 0.0, 1.0, 1.0], "bins": [-17.59333610534668, -17.055246353149414, -16.51715660095215, -15.979065895080566, -15.4409761428833, -14.902886390686035, -14.364795684814453, -13.826705932617188, -13.288616180419922, -12.750526428222656, -12.21243667602539, -11.674345970153809, -11.136256217956543, -10.598166465759277, -10.060075759887695, -9.52198600769043, -8.983896255493164, -8.445806503295898, -7.907716274261475, -7.369626045227051, -6.831536293029785, -6.2934465408325195, -5.755356311798096, -5.217266082763672, -4.679176330566406, -4.141086578369141, -3.602996349334717, -3.064906358718872, -2.5268163681030273, -1.9887263774871826, -1.450636386871338, -0.9125463962554932, -0.3744544982910156, 0.1636354923248291, 0.7017254829406738, 1.2398154735565186, 1.7779054641723633, 2.315995454788208, 2.8540854454040527, 3.3921754360198975, 3.930265426635742, 4.468355178833008, 5.006445407867432, 5.5445356369018555, 6.082625389099121, 6.620715141296387, 7.1588053703308105, 7.696895599365234, 8.2349853515625, 8.773075103759766, 9.311164855957031, 9.849255561828613, 10.387345314025879, 10.925435066223145, 11.463525772094727, 12.001615524291992, 12.539705276489258, 13.077795028686523, 13.615884780883789, 14.153975486755371, 14.692065238952637, 15.230154991149902, 15.768245697021484, 16.30633544921875, 16.844425201416016]}, "gradients/phi_z.nn_layers.2.bias": {"_type": "histogram", "values": [1.0, 1.0, 0.0, 0.0, 0.0, 0.0, 1.0, 0.0, 3.0, 0.0, 1.0, 0.0, 0.0, 0.0, 0.0, 0.0, 0.0, 0.0, 1.0, 0.0, 0.0, 0.0, 0.0, 0.0, 0.0, 0.0, 0.0, 0.0, 0.0, 2.0, 0.0, 1.0, 2.0, 1.0, 0.0, 0.0, 0.0, 0.0, 0.0, 0.0, 0.0, 0.0, 0.0, 0.0, 0.0, 0.0, 0.0, 0.0, 0.0, 0.0, 1.0, 0.0, 0.0, 0.0, 0.0, 0.0, 0.0, 0.0, 0.0, 0.0, 0.0, 0.0, 0.0, 1.0], "bins": [-0.8906964659690857, -0.8531761169433594, -0.8156557083129883, -0.778135359287262, -0.7406149506568909, -0.7030946016311646, -0.6655741930007935, -0.6280538439750671, -0.5905334949493408, -0.5530130863189697, -0.5154927372932434, -0.4779723286628723, -0.440451979637146, -0.4029316008090973, -0.3654112219810486, -0.3278908431529999, -0.29037046432495117, -0.25285008549690247, -0.21532970666885376, -0.17780934274196625, -0.14028896391391754, -0.10276858508586884, -0.06524821370840073, -0.02772783860564232, 0.009792536497116089, 0.047312911599874496, 0.0848332867026329, 0.12235365808010101, 0.15987403690814972, 0.19739441573619843, 0.23491477966308594, 0.27243515849113464, 0.3099555969238281, 0.34747597575187683, 0.38499635457992554, 0.42251673340797424, 0.46003711223602295, 0.49755746126174927, 0.5350778698921204, 0.5725982189178467, 0.6101186275482178, 0.6476389765739441, 0.6851593255996704, 0.7226797342300415, 0.7602000832557678, 0.7977204918861389, 0.8352408409118652, 0.8727612495422363, 0.9102815985679626, 0.947801947593689, 0.9853223562240601, 1.0228427648544312, 1.0603630542755127, 1.0978834629058838, 1.1354038715362549, 1.172924280166626, 1.2104445695877075, 1.2479649782180786, 1.2854853868484497, 1.3230056762695312, 1.3605260848999023, 1.3980464935302734, 1.4355669021606445, 1.473087191581726, 1.5106076002120972]}, "gradients/phi_z.nn_layers.2.weight": {"_type": "histogram", "values": [2.0, 2.0, 1.0, 1.0, 2.0, 1.0, 3.0, 5.0, 6.0, 5.0, 6.0, 2.0, 9.0, 7.0, 9.0, 7.0, 7.0, 8.0, 3.0, 7.0, 5.0, 9.0, 16.0, 74.0, 14.0, 5.0, 9.0, 18.0, 15.0, 15.0, 12.0, 3.0, 1.0, 5.0, 0.0, 0.0, 0.0, 1.0, 1.0, 0.0, 1.0, 0.0, 4.0, 2.0, 0.0, 0.0, 2.0, 2.0, 2.0, 0.0, 0.0, 0.0, 1.0, 3.0, 2.0, 1.0, 0.0, 1.0, 1.0, 0.0, 0.0, 1.0, 0.0, 1.0], "bins": [-0.9778132438659668, -0.9361135363578796, -0.8944137692451477, -0.8527140617370605, -0.8110142946243286, -0.7693145871162415, -0.7276148200035095, -0.6859151124954224, -0.6442153453826904, -0.6025156378746033, -0.5608159303665161, -0.5191161632537842, -0.477416455745697, -0.4357167184352875, -0.39401698112487793, -0.3523172438144684, -0.31061750650405884, -0.2689177691936493, -0.22721803188323975, -0.1855183094739914, -0.14381857216358185, -0.1021188348531723, -0.06041910499334335, -0.018719371408224106, 0.02298036217689514, 0.06468009948730469, 0.10637982934713364, 0.14807955920696259, 0.18977929651737213, 0.23147903382778168, 0.27317875623703003, 0.3148784935474396, 0.3565782308578491, 0.39827796816825867, 0.4399777054786682, 0.48167744278907776, 0.5233771800994873, 0.5650768876075745, 0.6067766547203064, 0.6484763622283936, 0.6901761293411255, 0.7318758368492126, 0.7735755443572998, 0.8152753114700317, 0.8569750189781189, 0.8986747860908508, 0.940374493598938, 0.9820742607116699, 1.0237739086151123, 1.0654736757278442, 1.1071734428405762, 1.148873209953308, 1.1905728578567505, 1.2322726249694824, 1.2739723920822144, 1.3156721591949463, 1.3573718070983887, 1.3990715742111206, 1.4407713413238525, 1.482470989227295, 1.5241707563400269, 1.5658705234527588, 1.6075702905654907, 1.649269938468933, 1.690969705581665]}, "gradients/phi_z.nn_layers.1.bias": {"_type": "histogram", "values": [1.0, 0.0, 0.0, 0.0, 0.0, 1.0, 0.0, 0.0, 0.0, 0.0, 0.0, 0.0, 0.0, 0.0, 0.0, 1.0, 0.0, 1.0, 0.0, 0.0, 0.0, 1.0, 1.0, 0.0, 0.0, 0.0, 1.0, 0.0, 0.0, 1.0, 0.0, 0.0, 1.0, 0.0, 0.0, 0.0, 1.0, 0.0, 1.0, 1.0, 0.0, 0.0, 1.0, 0.0, 1.0, 0.0, 0.0, 0.0, 0.0, 0.0, 0.0, 1.0, 0.0, 0.0, 0.0, 0.0, 0.0, 0.0, 2.0, 1.0, 0.0, 0.0, 1.0, 1.0], "bins": [-1.4606146812438965, -1.4359042644500732, -1.41119384765625, -1.3864835500717163, -1.361773133277893, -1.3370627164840698, -1.3123522996902466, -1.2876418828964233, -1.2629314661026, -1.2382211685180664, -1.2135107517242432, -1.18880033493042, -1.1640899181365967, -1.1393795013427734, -1.1146690845489502, -1.0899587869644165, -1.0652483701705933, -1.04053795337677, -1.0158275365829468, -0.9911171793937683, -0.9664067625999451, -0.9416963458061218, -0.9169859886169434, -0.8922755718231201, -0.8675651550292969, -0.8428547978401184, -0.8181443810462952, -0.7934339642524719, -0.7687236070632935, -0.7440131902694702, -0.719302773475647, -0.6945924162864685, -0.66988205909729, -0.6451716423034668, -0.6204612255096436, -0.5957508683204651, -0.5710404515266418, -0.5463300347328186, -0.5216196775436401, -0.4969092607498169, -0.47219884395599365, -0.4474884569644928, -0.42277806997299194, -0.3980676829814911, -0.37335726618766785, -0.348646879196167, -0.32393649220466614, -0.2992260754108429, -0.27451568841934204, -0.24980528652668, -0.22509489953517914, -0.2003844976425171, -0.17567411065101624, -0.1509637087583542, -0.12625330686569214, -0.10154291242361069, -0.07683251798152924, -0.052122123539447784, -0.027411725372076035, -0.002701329067349434, 0.022009067237377167, 0.04671946167945862, 0.07142986357212067, 0.09614025801420212, 0.12085065245628357]}, "gradients/phi_z.nn_layers.1.weight": {"_type": "histogram", "values": [1.0, 0.0, 0.0, 0.0, 0.0, 0.0, 0.0, 0.0, 1.0, 0.0, 0.0, 1.0, 1.0, 0.0, 1.0, 1.0, 1.0, 0.0, 0.0, 2.0, 2.0, 1.0, 0.0, 0.0, 1.0, 1.0, 3.0, 3.0, 1.0, 5.0, 2.0, 2.0, 7.0, 2.0, 3.0, 3.0, 6.0, 6.0, 10.0, 8.0, 6.0, 8.0, 10.0, 6.0, 10.0, 9.0, 7.0, 13.0, 13.0, 17.0, 14.0, 11.0, 14.0, 11.0, 10.0, 15.0, 93.0, 33.0, 13.0, 7.0, 2.0, 2.0, 0.0, 1.0], "bins": [-1.4445995092391968, -1.4191843271255493, -1.3937691450119019, -1.3683539628982544, -1.3429386615753174, -1.31752347946167, -1.2921082973480225, -1.266693115234375, -1.2412779331207275, -1.21586275100708, -1.190447449684143, -1.1650322675704956, -1.1396170854568481, -1.1142019033432007, -1.0887867212295532, -1.0633715391159058, -1.0379562377929688, -1.0125410556793213, -0.9871258735656738, -0.9617106914520264, -0.9362955093383789, -0.9108802676200867, -0.8854650855064392, -0.8600499033927917, -0.8346346616744995, -0.809219479560852, -0.7838042974472046, -0.7583891153335571, -0.7329738736152649, -0.7075586915016174, -0.68214350938797, -0.6567282676696777, -0.6313130855560303, -0.605897843837738, -0.5804826617240906, -0.5550674796104431, -0.5296522378921509, -0.5042370557785034, -0.47882184386253357, -0.4534066617488861, -0.42799144983291626, -0.4025762379169464, -0.37716105580329895, -0.3517458438873291, -0.32633066177368164, -0.3009154498577118, -0.27550023794174194, -0.2500850558280945, -0.22466984391212463, -0.19925464689731598, -0.17383944988250732, -0.14842423796653748, -0.12300904095172882, -0.09759384393692017, -0.07217863947153091, -0.04676343873143196, -0.021348237991333008, 0.0040669627487659454, 0.0294821634888649, 0.05489736422896385, 0.0803125649690628, 0.10572776198387146, 0.1311429738998413, 0.15655817091464996, 0.18197336792945862]}, "gradients/phi_z.nn_layers.0.bias": {"_type": "histogram", "values": [1.0, 0.0, 1.0, 0.0, 0.0, 0.0, 0.0, 0.0, 0.0, 1.0, 0.0, 1.0, 0.0, 0.0, 0.0, 0.0, 2.0, 0.0, 0.0, 0.0, 0.0, 2.0, 0.0, 1.0, 0.0, 1.0, 1.0, 0.0, 0.0, 0.0, 0.0, 0.0, 0.0, 0.0, 1.0, 0.0, 1.0, 0.0, 1.0, 0.0, 0.0, 1.0, 1.0, 0.0, 0.0, 0.0, 0.0, 1.0, 0.0, 0.0, 0.0, 0.0, 0.0, 0.0, 0.0, 0.0, 1.0, 1.0, 0.0, 0.0, 0.0, 0.0, 0.0, 1.0], "bins": [-1.195075511932373, -1.1741068363189697, -1.1531380414962769, -1.1321693658828735, -1.1112005710601807, -1.0902318954467773, -1.0692631006240845, -1.0482944250106812, -1.0273256301879883, -1.006356954574585, -0.9853881597518921, -0.964419424533844, -0.9434506893157959, -0.9224819540977478, -0.9015132188796997, -0.8805444836616516, -0.8595757484436035, -0.8386070728302002, -0.8176383376121521, -0.796669602394104, -0.7757008671760559, -0.7547321319580078, -0.7337633967399597, -0.7127946615219116, -0.6918259263038635, -0.6708571910858154, -0.6498884558677673, -0.6289197206497192, -0.6079509854316711, -0.586982250213623, -0.566013514995575, -0.5450447797775269, -0.5240760445594788, -0.5031073093414307, -0.48213860392570496, -0.46116986870765686, -0.44020113348960876, -0.41923239827156067, -0.3982636630535126, -0.3772949278354645, -0.3563261926174164, -0.3353574573993683, -0.3143887221813202, -0.2934199869632721, -0.272451251745224, -0.2514825165271759, -0.230513796210289, -0.2095450609922409, -0.1885763257741928, -0.16760759055614471, -0.14663885533809662, -0.12567012012004852, -0.10470139235258102, -0.08373265713453293, -0.06276392936706543, -0.041795194149017334, -0.02082645893096924, 0.0001422744244337082, 0.021111007779836655, 0.04207973927259445, 0.06304847449064255, 0.08401720970869064, 0.10498593747615814, 0.12595467269420624, 0.14692340791225433]}, "gradients/phi_z.nn_layers.0.weight": {"_type": "histogram", "values": [1.0, 0.0, 1.0, 1.0, 1.0, 1.0, 0.0, 5.0, 1.0, 0.0, 2.0, 2.0, 2.0, 0.0, 7.0, 3.0, 3.0, 5.0, 3.0, 3.0, 7.0, 11.0, 4.0, 9.0, 8.0, 7.0, 3.0, 7.0, 6.0, 10.0, 15.0, 11.0, 15.0, 13.0, 12.0, 11.0, 14.0, 16.0, 29.0, 19.0, 10.0, 5.0, 4.0, 10.0, 3.0, 0.0, 2.0, 3.0, 4.0, 0.0, 1.0, 0.0, 0.0, 2.0, 2.0, 2.0, 0.0, 1.0, 1.0, 0.0, 0.0, 1.0, 0.0, 1.0], "bins": [-1.09286630153656, -1.0647388696670532, -1.0366113185882568, -1.00848388671875, -0.9803563356399536, -0.952228844165802, -0.9241013526916504, -0.8959738612174988, -0.8678463697433472, -0.8397188782691956, -0.811591386795044, -0.7834638953208923, -0.7553364038467407, -0.7272089123725891, -0.6990814208984375, -0.6709539294242859, -0.6428264379501343, -0.6146990060806274, -0.5865715146064758, -0.5584440231323242, -0.5303165316581726, -0.502189040184021, -0.474061518907547, -0.4459340274333954, -0.41780656576156616, -0.38967907428741455, -0.36155158281326294, -0.33342409133911133, -0.3052965998649597, -0.2771691083908081, -0.2490416169166565, -0.22091412544250488, -0.19278663396835327, -0.16465914249420166, -0.13653165102005005, -0.10840416699647903, -0.08027667552232742, -0.05214918404817581, -0.0240216962993145, 0.004105793312191963, 0.032233282923698425, 0.06036077439785004, 0.08848826587200165, 0.11661574989557266, 0.14474323391914368, 0.1728707253932953, 0.2009982168674469, 0.2291257083415985, 0.2572531998157501, 0.28538069128990173, 0.31350818276405334, 0.34163567423820496, 0.36976316571235657, 0.3978906571865082, 0.4260181486606598, 0.4541456401348114, 0.4822731018066406, 0.5104005932807922, 0.5385280847549438, 0.5666555762290955, 0.5947830677032471, 0.6229105591773987, 0.6510380506515503, 0.6791655421257019, 0.7072930335998535]}, "gradients/c_means": {"_type": "histogram", "values": [1.0, 0.0, 0.0, 0.0, 0.0, 0.0, 0.0, 1.0, 0.0, 0.0, 0.0, 2.0, 0.0, 1.0, 1.0, 1.0, 0.0, 0.0, 1.0, 0.0, 1.0, 1.0, 0.0, 1.0, 1.0, 0.0, 1.0, 1.0, 0.0, 1.0, 1.0, 1.0, 1.0, 1.0, 3.0, 0.0, 2.0, 3.0, 2.0, 3.0, 1.0, 3.0, 4.0, 5.0, 5.0, 2.0, 7.0, 4.0, 7.0, 17.0, 13.0, 12.0, 8.0, 11.0, 12.0, 8.0, 3.0, 2.0, 0.0, 1.0, 0.0, 1.0, 1.0, 1.0], "bins": [-0.5558810234069824, -0.5459352731704712, -0.53598952293396, -0.5260438323020935, -0.5160980820655823, -0.506152331829071, -0.4962066113948822, -0.48626086115837097, -0.47631514072418213, -0.4663693904876709, -0.45642364025115967, -0.4464779198169708, -0.4365321695804596, -0.42658644914627075, -0.4166406989097595, -0.4066949784755707, -0.39674922823905945, -0.3868034780025482, -0.3768577575683594, -0.36691200733184814, -0.3569662868976593, -0.34702053666114807, -0.33707481622695923, -0.327129065990448, -0.31718331575393677, -0.3072375953197479, -0.2972918450832367, -0.28734612464904785, -0.2774003744125366, -0.2674546539783478, -0.25750890374183655, -0.2475631684064865, -0.2376174032688141, -0.22767166793346405, -0.217725932598114, -0.20778019726276398, -0.19783446192741394, -0.1878887116909027, -0.17794297635555267, -0.16799724102020264, -0.1580515056848526, -0.14810577034950256, -0.13816003501415253, -0.1282142996788025, -0.11826855689287186, -0.10832282155752182, -0.09837707877159119, -0.08843134343624115, -0.07848560810089111, -0.06853987276554108, -0.05859413370490074, -0.048648394644260406, -0.03870265930891037, -0.028756922110915184, -0.018811184912919998, -0.008865447714924812, 0.0010802894830703735, 0.01102602668106556, 0.020971763879060745, 0.03091750107705593, 0.04086323827505112, 0.050808973610401154, 0.06075471267104149, 0.07070045173168182, 0.08064618706703186]}, "gradients/log_c_vars": {"_type": "histogram", "values": [1.0, 0.0, 0.0, 0.0, 0.0, 1.0, 0.0, 0.0, 1.0, 0.0, 0.0, 2.0, 0.0, 1.0, 1.0, 0.0, 0.0, 0.0, 0.0, 0.0, 0.0, 0.0, 0.0, 0.0, 0.0, 0.0, 0.0, 0.0, 0.0, 0.0, 0.0, 0.0, 0.0, 0.0, 0.0, 0.0, 0.0, 1.0, 0.0, 0.0, 0.0, 0.0, 0.0, 0.0, 0.0, 0.0, 0.0, 0.0, 1.0, 0.0, 0.0, 0.0, 0.0, 0.0, 0.0, 0.0, 0.0, 0.0, 0.0, 0.0, 0.0, 0.0, 0.0, 1.0], "bins": [-0.15387022495269775, -0.14315252006053925, -0.13243481516838074, -0.12171711027622223, -0.11099940538406372, -0.10028170049190521, -0.0895639955997467, -0.0788462907075882, -0.06812858581542969, -0.05741088092327118, -0.04669317603111267, -0.03597547113895416, -0.025257766246795654, -0.014540061354637146, -0.0038223564624786377, 0.006895348429679871, 0.01761305332183838, 0.028330758213996887, 0.039048463106155396, 0.049766167998313904, 0.06048387289047241, 0.07120157778263092, 0.08191928267478943, 0.09263698756694794, 0.10335469245910645, 0.11407239735126495, 0.12479010224342346, 0.13550780713558197, 0.14622551202774048, 0.156943216919899, 0.1676609218120575, 0.178378626704216, 0.1890963315963745, 0.19981403648853302, 0.21053174138069153, 0.22124944627285004, 0.23196715116500854, 0.24268485605716705, 0.25340256094932556, 0.26412028074264526, 0.2748379707336426, 0.2855556607246399, 0.2962733805179596, 0.3069911003112793, 0.3177087903022766, 0.3284264802932739, 0.33914420008659363, 0.34986191987991333, 0.36057960987091064, 0.37129729986190796, 0.38201501965522766, 0.39273273944854736, 0.4034504294395447, 0.414168119430542, 0.4248858392238617, 0.4356035590171814, 0.4463212490081787, 0.457038938999176, 0.4677566587924957, 0.47847437858581543, 0.48919206857681274, 0.49990975856781006, 0.5106275081634521, 0.5213451981544495, 0.5320628881454468]}, "train/epoch": 6, "train/loss": -6581.8380126953125, "train/loglik": 636.631103515625, "train/kldiv": -1539.8056640625, "train/out_l": 52.52753829956055, "_runtime": 9.38392972946167, "_step": 10, "val/epoch": 6, "val/loss": -606.7012329101562, "val/loglik": 43.35725021362305, "val/kldiv": -157.56675720214844, "val/out_l": 3.929246187210083, "test/epoch": "evaluation", "test/loss": -606.4199829101562, "test/loglik": 43.081748962402344, "test/kldiv": -157.50177001953125, "test/out_l": 4.669483661651611, "_wandb": {"runtime": 8}}