{"gradients/predictor.nn_layers.2.bias": {"_type": "histogram", "values": [1.0, 0.0, 0.0, 0.0, 0.0, 0.0, 0.0, 0.0, 0.0, 0.0, 0.0, 0.0, 0.0, 0.0, 0.0, 0.0, 0.0, 0.0, 0.0, 0.0, 0.0, 0.0, 0.0, 0.0, 0.0, 0.0, 0.0, 0.0, 0.0, 0.0, 0.0, 0.0, 0.0, 0.0, 1.0, 1.0, 0.0, 0.0, 0.0, 0.0, 0.0, 0.0, 0.0, 0.0, 0.0, 0.0, 0.0, 0.0, 0.0, 0.0, 0.0, 0.0, 0.0, 0.0, 0.0, 0.0, 0.0, 0.0, 0.0, 0.0, 0.0, 0.0, 0.0, 1.0], "bins": [-0.18011489510536194, -0.17472851276397705, -0.16934214532375336, -0.16395577788352966, -0.15856939554214478, -0.1531830132007599, -0.1477966457605362, -0.1424102783203125, -0.1370238959789276, -0.13163751363754272, -0.12625114619731903, -0.12086477130651474, -0.11547839641571045, -0.11009202152490616, -0.10470564663410187, -0.09931927174329758, -0.09393289685249329, -0.088546521961689, -0.0831601470708847, -0.07777377218008041, -0.07238739728927612, -0.06700102239847183, -0.06161464750766754, -0.05622827261686325, -0.05084189772605896, -0.04545552283525467, -0.04006914794445038, -0.03468277305364609, -0.029296398162841797, -0.023910023272037506, -0.018523648381233215, -0.013137273490428925, -0.007750913500785828, -0.002364538609981537, 0.003021836280822754, 0.008408211171627045, 0.013794586062431335, 0.019180960953235626, 0.024567335844039917, 0.029953710734844208, 0.0353400856256485, 0.04072646051645279, 0.04611283540725708, 0.05149921029806137, 0.05688558518886566, 0.06227196007966995, 0.06765833497047424, 0.07304470986127853, 0.07843108475208282, 0.08381745964288712, 0.0892038345336914, 0.0945902094244957, 0.09997658431529999, 0.10536295920610428, 0.11074933409690857, 0.11613570898771286, 0.12152208387851715, 0.12690845131874084, 0.13229483366012573, 0.13768121600151062, 0.14306758344173431, 0.148453950881958, 0.1538403332233429, 0.15922671556472778, 0.16461308300495148]}, "_timestamp": 1686707077.3160403, "gradients/predictor.nn_layers.2.weight": {"_type": "histogram", "values": [1.0, 0.0, 0.0, 0.0, 2.0, 0.0, 1.0, 1.0, 0.0, 1.0, 1.0, 0.0, 2.0, 0.0, 2.0, 1.0, 0.0, 2.0, 0.0, 0.0, 1.0, 0.0, 0.0, 0.0, 0.0, 0.0, 0.0, 0.0, 0.0, 0.0, 0.0, 0.0, 20.0, 30.0, 0.0, 0.0, 0.0, 0.0, 0.0, 0.0, 0.0, 0.0, 0.0, 0.0, 1.0, 0.0, 0.0, 2.0, 1.0, 1.0, 1.0, 0.0, 2.0, 1.0, 1.0, 0.0, 1.0, 1.0, 0.0, 2.0, 0.0, 0.0, 0.0, 1.0], "bins": [-0.9989263415336609, -0.9685037732124329, -0.9380812048912048, -0.9076586365699768, -0.8772360682487488, -0.8468134999275208, -0.8163909316062927, -0.7859683632850647, -0.7555457949638367, -0.7251232266426086, -0.6947006583213806, -0.6642780900001526, -0.6338555216789246, -0.6034329533576965, -0.5730103850364685, -0.5425878167152405, -0.5121653079986572, -0.4817427396774292, -0.45132017135620117, -0.42089760303497314, -0.3904750347137451, -0.3600524663925171, -0.32962989807128906, -0.29920732975006104, -0.268784761428833, -0.23836219310760498, -0.20793962478637695, -0.17751705646514893, -0.1470944881439209, -0.11667193472385406, -0.08624936640262604, -0.05582679808139801, -0.02540421485900879, 0.005018351599574089, 0.03544091805815697, 0.0658634826540947, 0.09628605097532272, 0.12670861184597015, 0.15713118016719818, 0.1875537484884262, 0.21797633171081543, 0.24839890003204346, 0.2788214683532715, 0.3092440366744995, 0.33966660499572754, 0.37008917331695557, 0.4005117416381836, 0.4309343099594116, 0.46135684847831726, 0.4917794167995453, 0.5222019553184509, 0.552624523639679, 0.583047091960907, 0.613469660282135, 0.643892228603363, 0.6743147969245911, 0.7047373652458191, 0.7351599335670471, 0.7655825018882751, 0.7960050702095032, 0.8264276385307312, 0.8568502068519592, 0.8872727751731873, 0.9176953434944153, 0.9481179118156433]}, "gradients/predictor.nn_layers.1.bias": {"_type": "histogram", "values": [1.0, 0.0, 0.0, 0.0, 0.0, 0.0, 0.0, 0.0, 0.0, 1.0, 0.0, 0.0, 0.0, 0.0, 0.0, 0.0, 0.0, 0.0, 0.0, 0.0, 0.0, 0.0, 0.0, 1.0, 0.0, 0.0, 0.0, 0.0, 0.0, 0.0, 0.0, 0.0, 1.0, 2.0, 0.0, 0.0, 1.0, 1.0, 0.0, 0.0, 1.0, 1.0, 0.0, 0.0, 0.0, 0.0, 0.0, 6.0, 0.0, 0.0, 0.0, 1.0, 0.0, 0.0, 1.0, 0.0, 0.0, 0.0, 0.0, 0.0, 0.0, 1.0, 0.0, 1.0], "bins": [-0.08436975628137589, -0.08260916918516159, -0.0808485895395279, -0.0790880024433136, -0.0773274153470993, -0.0755668357014656, -0.07380624860525131, -0.07204566895961761, -0.07028508186340332, -0.06852449476718903, -0.06676391512155533, -0.06500332802534103, -0.06324274092912674, -0.06148216128349304, -0.05972157418727875, -0.05796099081635475, -0.056200407445430756, -0.05443982407450676, -0.052679236978292465, -0.05091865360736847, -0.04915807023644447, -0.04739748686552048, -0.04563689976930618, -0.04387631639838219, -0.04211572930216789, -0.040355145931243896, -0.0385945588350296, -0.036833975464105606, -0.03507339209318161, -0.033312804996967316, -0.03155222162604332, -0.029791638255119324, -0.028031054884195328, -0.026270469650626183, -0.024509886279702187, -0.02274930104613304, -0.020988717675209045, -0.0192281324416399, -0.017467547208070755, -0.01570696383714676, -0.013946380466222763, -0.012185796163976192, -0.010425211861729622, -0.008664626628160477, -0.006904042791575193, -0.0051434580236673355, -0.003382873721420765, -0.0016222894191741943, 0.00013829581439495087, 0.0018988802330568433, 0.0036594646517187357, 0.00542004918679595, 0.0071806334890425205, 0.008941218256950378, 0.010701802559196949, 0.01246238686144352, 0.01422297116369009, 0.01598355546593666, 0.017744140699505806, 0.019504724070429802, 0.021265309303998947, 0.023025892674922943, 0.02478647790849209, 0.026547063142061234, 0.02830764651298523]}, "gradients/predictor.nn_layers.1.weight": {"_type": "histogram", "values": [1.0, 0.0, 1.0, 0.0, 0.0, 2.0, 0.0, 0.0, 2.0, 3.0, 2.0, 1.0, 0.0, 2.0, 0.0, 1.0, 3.0, 2.0, 1.0, 0.0, 2.0, 1.0, 0.0, 1.0, 2.0, 5.0, 1.0, 0.0, 5.0, 1.0, 0.0, 4.0, 5.0, 10.0, 8.0, 9.0, 11.0, 13.0, 10.0, 10.0, 12.0, 16.0, 20.0, 24.0, 21.0, 116.0, 13.0, 10.0, 1.0, 9.0, 5.0, 3.0, 5.0, 3.0, 4.0, 1.0, 4.0, 0.0, 5.0, 3.0, 3.0, 1.0, 1.0, 1.0], "bins": [-0.15159480273723602, -0.14822891354560852, -0.1448630392551422, -0.1414971500635147, -0.1381312608718872, -0.1347653865814209, -0.1313994973897934, -0.1280336081981659, -0.12466773390769958, -0.12130185216665268, -0.11793596297502518, -0.11457008123397827, -0.11120419949293137, -0.10783831775188446, -0.10447242856025696, -0.10110654681921005, -0.09774065762758255, -0.09437477588653564, -0.09100888669490814, -0.08764300495386124, -0.08427712321281433, -0.08091123402118683, -0.07754535228013992, -0.07417947053909302, -0.07081358134746552, -0.06744769960641861, -0.06408181041479111, -0.0607159286737442, -0.057350046932697296, -0.05398416146636009, -0.05061827600002289, -0.04725239425897598, -0.04388650506734848, -0.040520619601011276, -0.03715473785996437, -0.03378885239362717, -0.030422968789935112, -0.027057085186243057, -0.023691199719905853, -0.0203253161162138, -0.016959436237812042, -0.013593552634119987, -0.010227668099105358, -0.006861783564090729, -0.003495899960398674, -0.00013001635670661926, 0.0032358691096305847, 0.0066017527133226395, 0.009967640042304993, 0.013333523645997047, 0.016699407249689102, 0.020065292716026306, 0.02343117631971836, 0.026797059923410416, 0.03016294538974762, 0.033528827130794525, 0.03689471259713173, 0.04026059806346893, 0.04362647980451584, 0.04699236527085304, 0.05035825073719025, 0.05372413247823715, 0.057090017944574356, 0.06045590341091156, 0.06382178515195847]}, "gradients/predictor.nn_layers.0.bias": {"_type": "histogram", "values": [2.0, 0.0, 0.0, 0.0, 0.0, 0.0, 0.0, 0.0, 1.0, 0.0, 0.0, 0.0, 2.0, 0.0, 0.0, 0.0, 0.0, 1.0, 0.0, 0.0, 2.0, 0.0, 1.0, 0.0, 0.0, 1.0, 0.0, 0.0, 1.0, 1.0, 0.0, 0.0, 0.0, 0.0, 0.0, 0.0, 0.0, 0.0, 1.0, 1.0, 0.0, 1.0, 0.0, 0.0, 0.0, 0.0, 0.0, 0.0, 0.0, 0.0, 0.0, 1.0, 0.0, 0.0, 0.0, 0.0, 2.0, 0.0, 1.0, 0.0, 0.0, 0.0, 0.0, 1.0], "bins": [-0.07210232317447662, -0.07098181545734406, -0.06986130028963089, -0.06874078512191772, -0.06762027740478516, -0.06649976968765259, -0.06537925451993942, -0.06425873935222626, -0.06313823163509369, -0.06201772019267082, -0.060897208750247955, -0.05977669730782509, -0.05865618586540222, -0.057535674422979355, -0.05641516298055649, -0.05529465153813362, -0.054174140095710754, -0.05305362865328789, -0.05193311721086502, -0.050812605768442154, -0.04969209432601929, -0.04857158288359642, -0.04745107144117355, -0.04633055999875069, -0.04521004855632782, -0.04408953711390495, -0.042969025671482086, -0.04184851422905922, -0.04072800278663635, -0.039607491344213486, -0.03848697990179062, -0.03736646845936775, -0.036245957016944885, -0.03512544557452202, -0.03400493413209915, -0.032884422689676285, -0.03176391124725342, -0.03064339980483055, -0.029522888362407684, -0.028402376919984818, -0.0272818636149168, -0.026161352172493935, -0.025040840730071068, -0.0239203292876482, -0.022799817845225334, -0.021679306402802467, -0.0205587949603796, -0.019438283517956734, -0.018317772075533867, -0.017197260633111, -0.016076749190688133, -0.014956237748265266, -0.0138357263058424, -0.012715214863419533, -0.011594703420996666, -0.0104741919785738, -0.009353681467473507, -0.00823317002505064, -0.007112658582627773, -0.0059921471402049065, -0.00487163569778204, -0.003751124255359173, -0.002630612812936306, -0.0015101013705134392, -0.0003895896370522678]}, "gradients/predictor.nn_layers.0.weight": {"_type": "histogram", "values": [3.0, 0.0, 0.0, 0.0, 1.0, 1.0, 0.0, 2.0, 0.0, 2.0, 1.0, 1.0, 7.0, 3.0, 3.0, 4.0, 3.0, 5.0, 5.0, 5.0, 3.0, 6.0, 5.0, 4.0, 11.0, 3.0, 6.0, 4.0, 7.0, 14.0, 8.0, 17.0, 17.0, 13.0, 8.0, 13.0, 12.0, 11.0, 9.0, 17.0, 16.0, 10.0, 3.0, 7.0, 5.0, 6.0, 2.0, 2.0, 1.0, 4.0, 5.0, 3.0, 6.0, 1.0, 3.0, 4.0, 2.0, 2.0, 1.0, 0.0, 0.0, 2.0, 0.0, 1.0], "bins": [-0.09667272865772247, -0.09423710405826569, -0.0918014869093895, -0.08936586230993271, -0.08693024516105652, -0.08449462056159973, -0.08205900341272354, -0.07962337881326675, -0.07718776166439056, -0.07475213706493378, -0.07231651991605759, -0.0698808953166008, -0.06744527816772461, -0.06500965356826782, -0.06257403641939163, -0.060138411819934845, -0.05770278722047806, -0.05526716634631157, -0.05283154547214508, -0.05039592459797859, -0.0479603037238121, -0.045524679124355316, -0.04308905825018883, -0.04065343737602234, -0.03821781650185585, -0.03578219562768936, -0.03334657475352287, -0.030910952016711235, -0.028475331142544746, -0.026039710268378258, -0.02360408753156662, -0.02116846665740013, -0.01873285323381424, -0.01629723235964775, -0.013861610554158688, -0.011425988748669624, -0.008990367874503136, -0.006554747000336647, -0.004119125194847584, -0.0016835033893585205, 0.0007521174848079681, 0.003187738824635744, 0.00562336016446352, 0.008058981969952583, 0.010494602844119072, 0.01293022371828556, 0.015365845523774624, 0.017801467329263687, 0.020237088203430176, 0.022672709077596664, 0.025108329951763153, 0.02754395268857479, 0.02997957356274128, 0.03241519629955292, 0.034850817173719406, 0.037286438047885895, 0.03972205892205238, 0.04215767979621887, 0.04459330067038536, 0.04702892154455185, 0.049464546144008636, 0.05190016329288483, 0.054335787892341614, 0.0567714087665081, 0.05920702964067459]}, "gradients/cell_update.nn_layers.2.bias": {"_type": "histogram", "values": [1.0, 0.0, 0.0, 0.0, 0.0, 0.0, 0.0, 0.0, 0.0, 0.0, 0.0, 0.0, 0.0, 0.0, 0.0, 0.0, 0.0, 0.0, 0.0, 0.0, 0.0, 0.0, 0.0, 0.0, 0.0, 0.0, 0.0, 0.0, 0.0, 0.0, 0.0, 0.0, 1.0, 0.0, 0.0, 0.0, 0.0, 0.0, 0.0, 0.0, 1.0, 0.0, 0.0, 0.0, 0.0, 1.0, 0.0, 0.0, 0.0, 0.0, 0.0, 0.0, 6.0, 3.0, 1.0, 0.0, 0.0, 0.0, 0.0, 0.0, 0.0, 1.0, 0.0, 1.0], "bins": [-0.0009842829313129187, -0.0009656780166551471, -0.0009470731019973755, -0.0009284681873396039, -0.0009098632726818323, -0.0008912584162317216, -0.00087265350157395, -0.0008540485869161785, -0.0008354436722584069, -0.0008168387576006353, -0.0007982338429428637, -0.0007796289282850921, -0.0007610240718349814, -0.0007424191571772099, -0.0007238142425194383, -0.0007052093278616667, -0.0006866044132038951, -0.0006679994985461235, -0.0006493945838883519, -0.0006307896692305803, -0.0006121847545728087, -0.0005935798981226981, -0.0005749749834649265, -0.0005563700688071549, -0.0005377651541493833, -0.0005191602394916117, -0.0005005553248338401, -0.000481950439279899, -0.0004633455246221274, -0.0004447406099643558, -0.0004261357244104147, -0.0004075308097526431, -0.000388925924198702, -0.0003703210095409304, -0.00035171612398698926, -0.00033311120932921767, -0.0003145062946714461, -0.0002959013800136745, -0.0002772964653559029, -0.0002586915798019618, -0.0002400866651441902, -0.0002214817504864186, -0.00020287685038056225, -0.0001842719502747059, -0.0001656670356169343, -0.0001470621209591627, -0.00012845722085330635, -0.00010985232074745, -9.12474060896784e-05, -7.264249870786443e-05, -5.403759132605046e-05, -3.543268394423649e-05, -1.6827776562422514e-05, 1.7771308193914592e-06, 2.0382038201205432e-05, 3.898693830706179e-05, 5.759185296483338e-05, 7.619676034664735e-05, 9.480166772846133e-05, 0.0001134065751102753, 0.00013201148249208927, 0.00015061639714986086, 0.00016922129725571722, 0.00018782619736157358, 0.00020643111201934516]}, "gradients/cell_update.nn_layers.2.weight": {"_type": "histogram", "values": [1.0, 0.0, 0.0, 0.0, 0.0, 0.0, 0.0, 0.0, 0.0, 0.0, 0.0, 0.0, 0.0, 0.0, 0.0, 1.0, 2.0, 0.0, 0.0, 0.0, 0.0, 0.0, 0.0, 0.0, 0.0, 0.0, 0.0, 0.0, 0.0, 0.0, 1.0, 0.0, 0.0, 1.0, 2.0, 1.0, 0.0, 0.0, 0.0, 4.0, 0.0, 0.0, 3.0, 0.0, 3.0, 3.0, 6.0, 1.0, 3.0, 0.0, 271.0, 1.0, 3.0, 1.0, 3.0, 4.0, 0.0, 0.0, 1.0, 3.0, 0.0, 0.0, 0.0, 1.0], "bins": [-0.012587243691086769, -0.01233606692403555, -0.01208489015698433, -0.01183371338993311, -0.01158253662288189, -0.01133135985583067, -0.01108018308877945, -0.01082900632172823, -0.01057782955467701, -0.01032665278762579, -0.01007547602057457, -0.00982429925352335, -0.00957312248647213, -0.00932194571942091, -0.00907076895236969, -0.00881959218531847, -0.00856841541826725, -0.00831723865121603, -0.00806606188416481, -0.00781488511711359, -0.00756370835006237, -0.00731253158301115, -0.00706135481595993, -0.0068101780489087105, -0.0065590012818574905, -0.006307824514806271, -0.006056647747755051, -0.005805470980703831, -0.005554294213652611, -0.005303117446601391, -0.005051940679550171, -0.004800763912498951, -0.004549588076770306, -0.004298411309719086, -0.004047234542667866, -0.003796057775616646, -0.003544881008565426, -0.003293704241514206, -0.003042527474462986, -0.002791350707411766, -0.0025401737075299025, -0.0022889969404786825, -0.0020378201734274626, -0.0017866434063762426, -0.0015354666393250227, -0.0012842898722738028, -0.0010331131052225828, -0.0007819363381713629, -0.0005307595711201429, -0.000279582804068923, -2.8406037017703056e-05, 0.00022277073003351688, 0.0004739474970847368, 0.0007251242641359568, 0.0009763010311871767, 0.0012274777982383966, 0.0014786545652896166, 0.0017298313323408365, 0.0019810080993920565, 0.0022321848664432764, 0.0024833616334944963, 0.0027345384005457163, 0.0029857151675969362, 0.003236891934648156, 0.003488068701699376]}, "gradients/cell_update.nn_layers.1.bias": {"_type": "histogram", "values": [1.0, 0.0, 0.0, 0.0, 0.0, 0.0, 0.0, 1.0, 0.0, 0.0, 0.0, 0.0, 1.0, 0.0, 0.0, 0.0, 0.0, 0.0, 0.0, 0.0, 0.0, 0.0, 0.0, 0.0, 0.0, 0.0, 1.0, 0.0, 0.0, 0.0, 1.0, 0.0, 0.0, 1.0, 0.0, 12.0, 0.0, 0.0, 0.0, 0.0, 0.0, 0.0, 0.0, 0.0, 0.0, 0.0, 0.0, 0.0, 0.0, 0.0, 0.0, 0.0, 0.0, 0.0, 0.0, 0.0, 0.0, 1.0, 0.0, 0.0, 0.0, 0.0, 0.0, 1.0], "bins": [-0.0001639424153836444, -0.00015927315689623356, -0.00015460391296073794, -0.0001499346544733271, -0.00014526539598591626, -0.0001405961374985054, -0.00013592687901109457, -0.00013125763507559896, -0.0001265883765881881, -0.00012191911810077727, -0.00011724986688932404, -0.00011258061567787081, -0.00010791135719045997, -0.00010324209870304912, -9.85728474915959e-05, -9.390359628014266e-05, -8.923433779273182e-05, -8.456507930532098e-05, -7.989582809386775e-05, -7.522657688241452e-05, -7.055731839500368e-05, -6.588805990759283e-05, -6.12188086961396e-05, -5.654955384670757e-05, -5.188029899727553e-05, -4.7211044147843495e-05, -4.254178929841146e-05, -3.787253444897942e-05, -3.3203279599547386e-05, -2.853402475011535e-05, -2.3864769900683314e-05, -1.9195515051251277e-05, -1.4526260201819241e-05, -9.857005352387205e-06, -5.1877505029551685e-06, -5.184956535231322e-07, 4.150759195908904e-06, 8.82001404534094e-06, 1.3489268894772977e-05, 1.8158523744205013e-05, 2.282777859363705e-05, 2.7497033443069085e-05, 3.216628829250112e-05, 3.683554314193316e-05, 4.1504797991365194e-05, 4.617405284079723e-05, 5.084330769022927e-05, 5.55125625396613e-05, 6.018181738909334e-05, 6.485107587650418e-05, 6.952032708795741e-05, 7.418957829941064e-05, 7.885883678682148e-05, 8.352809527423233e-05, 8.819734648568556e-05, 9.286659769713879e-05, 9.753585618454963e-05, 0.00010220511467196047, 0.0001068743658834137, 0.00011154361709486693, 0.00011621287558227777, 0.00012088213406968862, 0.00012555139255709946, 0.00013022063649259508, 0.00013488989498000592]}, "gradients/cell_update.nn_layers.1.weight": {"_type": "histogram", "values": [2.0, 1.0, 1.0, 1.0, 1.0, 1.0, 2.0, 1.0, 3.0, 1.0, 5.0, 4.0, 2.0, 5.0, 3.0, 1.0, 2.0, 0.0, 0.0, 0.0, 0.0, 0.0, 0.0, 0.0, 0.0, 2.0, 8.0, 2.0, 4.0, 8.0, 312.0, 4.0, 0.0, 0.0, 0.0, 0.0, 0.0, 0.0, 0.0, 0.0, 0.0, 0.0, 0.0, 0.0, 0.0, 0.0, 1.0, 0.0, 0.0, 3.0, 2.0, 0.0, 1.0, 3.0, 4.0, 1.0, 1.0, 2.0, 2.0, 0.0, 2.0, 1.0, 0.0, 1.0], "bins": [-0.0007197845261543989, -0.0006962899933569133, -0.0006727954605594277, -0.0006493009277619421, -0.0006258063949644566, -0.000602311862166971, -0.0005788173293694854, -0.0005553227965719998, -0.0005318282637745142, -0.0005083337309770286, -0.000484839198179543, -0.00046134466538205743, -0.00043785013258457184, -0.00041435559978708625, -0.00039086106698960066, -0.00036736653419211507, -0.000343871972290799, -0.00032037743949331343, -0.00029688290669582784, -0.00027338837389834225, -0.00024989384110085666, -0.00022639930830337107, -0.00020290476095397025, -0.00017941022815648466, -0.00015591568080708385, -0.00013242114800959826, -0.00010892661521211267, -8.543207513866946e-05, -6.193754234118387e-05, -3.844300954369828e-05, -1.4948469470255077e-05, 8.546063327230513e-06, 3.2040581572800875e-05, 5.5535114370286465e-05, 7.902964716777205e-05, 0.00010252418724121526, 0.00012601871276274323, 0.00014951324556022882, 0.00017300779290962964, 0.00019650232570711523, 0.0002199968439526856, 0.00024349137675017118, 0.0002669859095476568, 0.00029048044234514236, 0.00031397497514262795, 0.00033746950794011354, 0.00036096404073759913, 0.0003844585735350847, 0.00040795313543640077, 0.00043144766823388636, 0.00045494220103137195, 0.00047843673382885754, 0.0005019312957301736, 0.0005254258285276592, 0.0005489203613251448, 0.0005724148941226304, 0.000595909426920116, 0.0006194039597176015, 0.0006428984925150871, 0.0006663930253125727, 0.0006898875581100583, 0.0007133820909075439, 0.0007368766237050295, 0.0007603711565025151, 0.0007838656893000007]}, "gradients/cell_update.nn_layers.0.bias": {"_type": "histogram", "values": [1.0, 0.0, 0.0, 0.0, 0.0, 0.0, 0.0, 0.0, 0.0, 0.0, 0.0, 0.0, 0.0, 0.0, 0.0, 0.0, 0.0, 0.0, 0.0, 0.0, 0.0, 2.0, 0.0, 0.0, 0.0, 0.0, 1.0, 0.0, 0.0, 0.0, 0.0, 0.0, 1.0, 1.0, 10.0, 0.0, 1.0, 0.0, 0.0, 0.0, 0.0, 0.0, 1.0, 1.0, 0.0, 0.0, 0.0, 0.0, 0.0, 0.0, 0.0, 0.0, 0.0, 0.0, 0.0, 0.0, 0.0, 0.0, 0.0, 0.0, 0.0, 0.0, 0.0, 1.0], "bins": [-7.449629629263654e-05, -7.233777432702482e-05, -7.017925236141309e-05, -6.802072311984375e-05, -6.586220115423203e-05, -6.37036791886203e-05, -6.154515722300857e-05, -5.938663525739685e-05, -5.7228109653806314e-05, -5.506958768819459e-05, -5.2911062084604055e-05, -5.075254011899233e-05, -4.85940181533806e-05, -4.643549254979007e-05, -4.4276970584178343e-05, -4.211844498058781e-05, -3.9959923014976084e-05, -3.780140104936436e-05, -3.5642875445773825e-05, -3.34843534801621e-05, -3.1325827876571566e-05, -2.916730591095984e-05, -2.7008783945348114e-05, -2.4850260160746984e-05, -2.2691736376145855e-05, -2.0533212591544725e-05, -1.8374688806943595e-05, -1.621616684133187e-05, -1.405764305673074e-05, -1.189911927212961e-05, -9.740596397023182e-06, -7.5820735219167545e-06, -5.423542461358011e-06, -3.265019131504232e-06, -1.1064958016504534e-06, 1.0520275282033253e-06, 3.210550858057104e-06, 5.369074642658234e-06, 7.5275975177646615e-06, 9.68612039287109e-06, 1.1844644177472219e-05, 1.4003167962073348e-05, 1.6161691746674478e-05, 1.8320213712286204e-05, 2.0478737496887334e-05, 2.2637261281488463e-05, 2.479578324710019e-05, 2.695430703170132e-05, 2.911283081630245e-05, 3.1271352781914175e-05, 3.342987838550471e-05, 3.5588400351116434e-05, 3.774692595470697e-05, 3.990544792031869e-05, 4.206396988593042e-05, 4.4222491851542145e-05, 4.638101745513268e-05, 4.8539539420744404e-05, 5.069806502433494e-05, 5.285658698994666e-05, 5.501510895555839e-05, 5.717363455914892e-05, 5.933215652476065e-05, 6.149068212835118e-05, 6.364920409396291e-05]}, "gradients/cell_update.nn_layers.0.weight": {"_type": "histogram", "values": [8.0, 0.0, 6.0, 0.0, 2.0, 0.0, 6.0, 3.0, 3.0, 5.0, 1.0, 8.0, 0.0, 2.0, 9.0, 17.0, 0.0, 0.0, 8.0, 2.0, 18.0, 32.0, 12.0, 23.0, 13.0, 14.0, 18.0, 12.0, 8.0, 14.0, 30.0, 27.0, 406.0, 25.0, 12.0, 9.0, 8.0, 23.0, 17.0, 13.0, 21.0, 8.0, 28.0, 9.0, 1.0, 11.0, 0.0, 2.0, 18.0, 8.0, 2.0, 0.0, 8.0, 1.0, 5.0, 0.0, 2.0, 6.0, 0.0, 0.0, 2.0, 6.0, 0.0, 8.0], "bins": [-8.071743650361896e-05, -7.819501479389146e-05, -7.567260036012158e-05, -7.315017865039408e-05, -7.06277642166242e-05, -6.81053425068967e-05, -6.558292079716921e-05, -6.306050636339933e-05, -6.053808465367183e-05, -5.801566658192314e-05, -5.549324851017445e-05, -5.297082680044696e-05, -5.044840872869827e-05, -4.792599065694958e-05, -4.540357258520089e-05, -4.28811545134522e-05, -4.035873644170351e-05, -3.7836318369954824e-05, -3.5313900298206136e-05, -3.279148222645745e-05, -3.026906051672995e-05, -2.7746642444981262e-05, -2.5224224373232573e-05, -2.270180448249448e-05, -2.0179388229735196e-05, -1.7656970157986507e-05, -1.5134550267248414e-05, -1.2612132195499726e-05, -1.0089713214256335e-05, -7.5672942330129445e-06, -5.044876161264256e-06, -2.5224562705261633e-06, -3.637978807091713e-11, 2.5223823740816442e-06, 5.044801127951359e-06, 7.567219654447399e-06, 1.008963863569079e-05, 1.261205761693418e-05, 1.5134475688682869e-05, 1.765689557942096e-05, 2.0179315470159054e-05, 2.2701733541907743e-05, 2.5224153432645835e-05, 2.7746571504394524e-05, 3.0268991395132616e-05, 3.2791409466881305e-05, 3.5313827538629994e-05, 3.783624561037868e-05, 4.035866368212737e-05, 4.288108175387606e-05, 4.540349982562475e-05, 4.792591789737344e-05, 5.0448339607100934e-05, 5.297075767884962e-05, 5.549317575059831e-05, 5.801559746032581e-05, 6.053801189409569e-05, 6.306043360382318e-05, 6.558284803759307e-05, 6.810526974732056e-05, 7.062768418109044e-05, 7.315010589081794e-05, 7.567252032458782e-05, 7.819494203431532e-05, 8.071736374404281e-05]}, "gradients/encoder.nn_layers.2.bias": {"_type": "histogram", "values": [1.0, 0.0, 0.0, 0.0, 0.0, 0.0, 0.0, 0.0, 0.0, 0.0, 0.0, 0.0, 0.0, 0.0, 0.0, 0.0, 0.0, 0.0, 0.0, 0.0, 0.0, 0.0, 0.0, 0.0, 0.0, 0.0, 0.0, 0.0, 0.0, 0.0, 0.0, 0.0, 1.0, 0.0, 0.0, 0.0, 0.0, 0.0, 0.0, 0.0, 1.0, 1.0, 0.0, 0.0, 0.0, 0.0, 0.0, 0.0, 0.0, 0.0, 1.0, 0.0, 1.0, 0.0, 0.0, 1.0, 0.0, 0.0, 1.0, 1.0, 0.0, 0.0, 0.0, 1.0], "bins": [-0.44238585233688354, -0.43268296122550964, -0.42298007011413574, -0.41327714920043945, -0.40357425808906555, -0.39387136697769165, -0.38416847586631775, -0.37446558475494385, -0.36476266384124756, -0.35505977272987366, -0.34535688161849976, -0.33565396070480347, -0.32595106959342957, -0.31624817848205566, -0.30654528737068176, -0.29684239625930786, -0.2871394753456116, -0.27743658423423767, -0.26773369312286377, -0.2580307722091675, -0.24832788109779358, -0.23862498998641968, -0.22892209887504578, -0.21921919286251068, -0.20951631665229797, -0.19981342554092407, -0.19011051952838898, -0.18040762841701508, -0.17070472240447998, -0.16100183129310608, -0.15129894018173218, -0.14159603416919708, -0.131893128156662, -0.12219022959470749, -0.11248733103275299, -0.10278443992137909, -0.093081533908844, -0.08337864279747009, -0.0736757442355156, -0.0639728456735611, -0.054269939661026, -0.0445670410990715, -0.034864142537117004, -0.025161247700452805, -0.015458349138498306, -0.005755450576543808, 0.003947444260120392, 0.01365034282207489, 0.02335323393344879, 0.03305613249540329, 0.04275903105735779, 0.05246192589402199, 0.062164824455976486, 0.07186771929264069, 0.08157061785459518, 0.09127351641654968, 0.10097641497850418, 0.11067931354045868, 0.12038221210241318, 0.13008511066436768, 0.13978800177574158, 0.14949090778827667, 0.15919379889965057, 0.16889670491218567, 0.17859959602355957]}, "gradients/encoder.nn_layers.2.weight": {"_type": "histogram", "values": [1.0, 0.0, 0.0, 0.0, 1.0, 0.0, 0.0, 0.0, 1.0, 0.0, 0.0, 1.0, 0.0, 0.0, 0.0, 0.0, 0.0, 0.0, 0.0, 0.0, 0.0, 0.0, 1.0, 0.0, 0.0, 0.0, 0.0, 1.0, 2.0, 2.0, 1.0, 0.0, 0.0, 2.0, 4.0, 4.0, 7.0, 5.0, 13.0, 100.0, 14.0, 5.0, 9.0, 5.0, 2.0, 1.0, 3.0, 3.0, 3.0, 2.0, 0.0, 2.0, 1.0, 0.0, 0.0, 1.0, 0.0, 0.0, 1.0, 0.0, 0.0, 0.0, 1.0, 1.0], "bins": [-0.5659356117248535, -0.5515889525413513, -0.5372422933578491, -0.5228956341743469, -0.5085489749908447, -0.49420231580734253, -0.4798556864261627, -0.4655090272426605, -0.4511623680591583, -0.43681570887565613, -0.42246904969215393, -0.40812239050865173, -0.3937757611274719, -0.3794291019439697, -0.36508244276046753, -0.35073578357696533, -0.33638912439346313, -0.32204246520996094, -0.30769580602645874, -0.29334914684295654, -0.27900248765945435, -0.26465582847595215, -0.25030919909477234, -0.23596253991127014, -0.22161588072776794, -0.20726922154426575, -0.19292256236076355, -0.17857591807842255, -0.16422925889492035, -0.14988259971141815, -0.13553595542907715, -0.12118929624557495, -0.10684266686439514, -0.09249600768089294, -0.07814935594797134, -0.06380270421504974, -0.049456045031547546, -0.03510938584804535, -0.02076273411512375, -0.0064160823822021484, 0.007930576801300049, 0.022277232259511948, 0.036623887717723846, 0.050970543175935745, 0.06531719863414764, 0.07966385781764984, 0.09401050955057144, 0.10835716128349304, 0.12270382046699524, 0.13705047965049744, 0.15139713883399963, 0.16574378311634064, 0.18009044229984283, 0.19443710148334503, 0.20878374576568604, 0.22313040494918823, 0.23747706413269043, 0.2518237233161926, 0.2661703824996948, 0.280517041683197, 0.2948637008666992, 0.3092103600502014, 0.3235569894313812, 0.3379036486148834, 0.3522503077983856]}, "gradients/encoder.nn_layers.1.bias": {"_type": "histogram", "values": [2.0, 0.0, 0.0, 0.0, 0.0, 0.0, 0.0, 0.0, 0.0, 0.0, 0.0, 0.0, 0.0, 0.0, 1.0, 0.0, 0.0, 0.0, 1.0, 0.0, 1.0, 0.0, 0.0, 0.0, 0.0, 0.0, 1.0, 0.0, 1.0, 0.0, 0.0, 0.0, 0.0, 0.0, 0.0, 0.0, 0.0, 0.0, 10.0, 0.0, 0.0, 0.0, 0.0, 1.0, 0.0, 0.0, 0.0, 0.0, 0.0, 0.0, 0.0, 0.0, 0.0, 0.0, 0.0, 0.0, 0.0, 0.0, 0.0, 0.0, 0.0, 0.0, 1.0, 1.0], "bins": [-0.1272580623626709, -0.12395600229501724, -0.12065394222736359, -0.11735188961029053, -0.11404982954263687, -0.11074776947498322, -0.10744570940732956, -0.1041436493396759, -0.10084158927202225, -0.09753952920436859, -0.09423746913671494, -0.09093540906906128, -0.08763335645198822, -0.08433129638433456, -0.08102923631668091, -0.07772717624902725, -0.0744251161813736, -0.07112305611371994, -0.06782099604606628, -0.06451894342899323, -0.06121687963604927, -0.05791482329368591, -0.05461276322603226, -0.0513107031583786, -0.04800865054130554, -0.044706590473651886, -0.04140453413128853, -0.03810247406363487, -0.034800413995981216, -0.03149835765361786, -0.028196297585964203, -0.024894237518310547, -0.02159217745065689, -0.018290119245648384, -0.014988059177994728, -0.011686000972986221, -0.00838394183665514, -0.0050818827003240585, -0.0017798244953155518, 0.0015222355723381042, 0.00482429563999176, 0.008126354776322842, 0.011428413912653923, 0.01473047211766243, 0.018032532185316086, 0.021334590390324593, 0.0246366485953331, 0.027938708662986755, 0.031240765005350113, 0.03454282507300377, 0.037844881415367126, 0.04114694148302078, 0.04444900155067444, 0.047751061618328094, 0.05105311796069145, 0.05435517802834511, 0.057657234370708466, 0.06095929443836212, 0.06426135450601578, 0.06756341457366943, 0.07086546719074249, 0.07416752725839615, 0.0774695873260498, 0.08077164739370346, 0.08407370746135712]}, "gradients/encoder.nn_layers.1.weight": {"_type": "histogram", "values": [1.0, 0.0, 0.0, 1.0, 0.0, 1.0, 1.0, 1.0, 1.0, 2.0, 0.0, 1.0, 0.0, 0.0, 3.0, 0.0, 2.0, 0.0, 0.0, 0.0, 0.0, 4.0, 1.0, 4.0, 1.0, 2.0, 0.0, 1.0, 2.0, 3.0, 3.0, 2.0, 3.0, 4.0, 3.0, 9.0, 0.0, 4.0, 310.0, 6.0, 1.0, 0.0, 2.0, 0.0, 2.0, 1.0, 2.0, 1.0, 2.0, 3.0, 1.0, 0.0, 0.0, 2.0, 1.0, 0.0, 1.0, 1.0, 1.0, 0.0, 1.0, 1.0, 0.0, 1.0], "bins": [-0.23597706854343414, -0.22990159690380096, -0.22382612526416779, -0.2177506685256958, -0.21167519688606262, -0.20559972524642944, -0.19952425360679626, -0.19344878196716309, -0.1873733103275299, -0.18129783868789673, -0.17522236704826355, -0.16914689540863037, -0.1630714386701584, -0.1569959670305252, -0.15092049539089203, -0.14484502375125885, -0.13876956701278687, -0.1326940953731537, -0.1266186237335205, -0.12054315954446793, -0.11446769535541534, -0.10839222371578217, -0.10231675207614899, -0.09624128043651581, -0.09016580879688263, -0.08409033715724945, -0.07801487296819687, -0.07193940132856369, -0.06586393713951111, -0.05978846549987793, -0.05371299386024475, -0.04763752594590187, -0.04156208038330078, -0.0354866124689579, -0.02941114269196987, -0.023335672914981842, -0.017260205000638962, -0.011184737086296082, -0.005109265446662903, 0.0009662024676799774, 0.007041662931442261, 0.013117131777107716, 0.01919260062277317, 0.0252680703997612, 0.03134353831410408, 0.03741900622844696, 0.04349447786808014, 0.04956994578242302, 0.0556454211473465, 0.06172088906168938, 0.06779635697603226, 0.07387182861566544, 0.07994729280471802, 0.0860227644443512, 0.09209823608398438, 0.09817370772361755, 0.10424917191267014, 0.11032464355230331, 0.1164001077413559, 0.12247557938098907, 0.12855105102062225, 0.13462650775909424, 0.14070197939872742, 0.1467774510383606, 0.15285292267799377]}, "gradients/encoder.nn_layers.0.bias": {"_type": "histogram", "values": [1.0, 0.0, 0.0, 0.0, 0.0, 0.0, 0.0, 0.0, 0.0, 0.0, 0.0, 0.0, 1.0, 0.0, 0.0, 0.0, 0.0, 0.0, 1.0, 0.0, 0.0, 0.0, 0.0, 0.0, 0.0, 0.0, 1.0, 0.0, 0.0, 0.0, 0.0, 0.0, 0.0, 0.0, 0.0, 1.0, 1.0, 1.0, 0.0, 0.0, 0.0, 0.0, 0.0, 0.0, 0.0, 0.0, 1.0, 0.0, 0.0, 0.0, 0.0, 0.0, 11.0, 0.0, 0.0, 0.0, 0.0, 0.0, 0.0, 0.0, 0.0, 0.0, 0.0, 1.0], "bins": [-0.09165476262569427, -0.08991233259439468, -0.08816991001367569, -0.0864274799823761, -0.0846850574016571, -0.08294262737035751, -0.08120019733905792, -0.07945777475833893, -0.07771534472703934, -0.07597291469573975, -0.07423049211502075, -0.07248806208372116, -0.07074563205242157, -0.06900320947170258, -0.06726077944040298, -0.06551835685968399, -0.0637759268283844, -0.06203350052237511, -0.060291074216365814, -0.05854864418506622, -0.05680621787905693, -0.05506379157304764, -0.05332136154174805, -0.051578935235738754, -0.04983650892972946, -0.04809408262372017, -0.046351656317710876, -0.044609226286411285, -0.04286679998040199, -0.0411243736743927, -0.03938194364309311, -0.037639517337083817, -0.03589709475636482, -0.03415466845035553, -0.03241223841905594, -0.030669812113046646, -0.028927385807037354, -0.02718495950102806, -0.02544253133237362, -0.023700103163719177, -0.021957676857709885, -0.020215250551700592, -0.01847282238304615, -0.01673039421439171, -0.014987967908382416, -0.013245540671050549, -0.011503113433718681, -0.009760686196386814, -0.008018258959054947, -0.00627583172172308, -0.0045334044843912125, -0.0027909772470593452, -0.001048550009727478, 0.0006938772276043892, 0.0024363044649362564, 0.004178731702268124, 0.005921158939599991, 0.007663586176931858, 0.009406013414263725, 0.011148440651595592, 0.01289086788892746, 0.014633295126259327, 0.016375722363591194, 0.018118150532245636, 0.01986057683825493]}, "gradients/encoder.nn_layers.0.weight": {"_type": "histogram", "values": [2.0, 0.0, 0.0, 0.0, 0.0, 0.0, 0.0, 2.0, 0.0, 0.0, 1.0, 2.0, 0.0, 0.0, 8.0, 11.0, 0.0, 0.0, 1.0, 8.0, 9.0, 4.0, 2.0, 8.0, 18.0, 5.0, 0.0, 19.0, 0.0, 1.0, 0.0, 368.0, 0.0, 2.0, 11.0, 16.0, 4.0, 9.0, 5.0, 14.0, 18.0, 17.0, 9.0, 1.0, 0.0, 2.0, 10.0, 9.0, 10.0, 1.0, 3.0, 4.0, 4.0, 2.0, 5.0, 4.0, 0.0, 0.0, 1.0, 0.0, 0.0, 4.0, 2.0, 4.0], "bins": [-0.08310450613498688, -0.08044718205928802, -0.07778985053300858, -0.07513252645730972, -0.07247519493103027, -0.06981787085533142, -0.06716053932905197, -0.06450321525335312, -0.06184588372707367, -0.05918855592608452, -0.05653122812509537, -0.053873900324106216, -0.051216572523117065, -0.048559244722127914, -0.04590191692113876, -0.04324459284543991, -0.04058726504445076, -0.03792993724346161, -0.03527260944247246, -0.03261528164148331, -0.029957953840494156, -0.027300626039505005, -0.024643300101161003, -0.021985972300171852, -0.01932864636182785, -0.0166713185608387, -0.014013990759849548, -0.011356663890182972, -0.008699336089193821, -0.00604200828820467, -0.0033846814185380936, -0.0007273536175489426, 0.0019299760460853577, 0.004587303847074509, 0.007244631182402372, 0.009901958517730236, 0.012559286318719387, 0.015216614119708538, 0.017873940989375114, 0.020531268790364265, 0.023188598453998566, 0.025845926254987717, 0.028503254055976868, 0.03116058185696602, 0.03381790965795517, 0.03647523745894432, 0.03913256525993347, 0.041789889335632324, 0.044447217136621475, 0.047104544937610626, 0.04976187273859978, 0.05241920053958893, 0.05507652834057808, 0.05773385614156723, 0.06039118021726608, 0.06304851174354553, 0.06570583581924438, 0.06836315989494324, 0.07102049142122269, 0.07367781549692154, 0.07633514702320099, 0.07899247109889984, 0.08164980262517929, 0.08430712670087814, 0.08696445822715759]}, "gradients/phi_x.nn_layers.2.bias": {"_type": "histogram", "values": [1.0, 0.0, 1.0, 0.0, 0.0, 0.0, 0.0, 0.0, 0.0, 0.0, 0.0, 0.0, 0.0, 0.0, 0.0, 2.0, 0.0, 0.0, 0.0, 0.0, 0.0, 0.0, 0.0, 0.0, 0.0, 2.0, 2.0, 0.0, 1.0, 1.0, 0.0, 1.0, 2.0, 0.0, 0.0, 0.0, 0.0, 0.0, 0.0, 0.0, 0.0, 0.0, 0.0, 0.0, 0.0, 0.0, 2.0, 0.0, 0.0, 0.0, 0.0, 0.0, 0.0, 0.0, 0.0, 0.0, 0.0, 0.0, 0.0, 0.0, 0.0, 0.0, 0.0, 1.0], "bins": [-0.006920492276549339, -0.006555546075105667, -0.006190599873661995, -0.005825653672218323, -0.005460707470774651, -0.005095761269330978, -0.0047308155335485935, -0.004365869332104921, -0.004000923130661249, -0.003635976929217577, -0.003271030727773905, -0.0029060847591608763, -0.002541138557717204, -0.002176192356273532, -0.0018112463876605034, -0.0014463001862168312, -0.001081353984773159, -0.0007164078415371478, -0.0003514616983011365, 1.348438672721386e-05, 0.00037843058817088604, 0.0007433767896145582, 0.0011083227582275867, 0.001473268959671259, 0.0018382146954536438, 0.002203160896897316, 0.002568107098340988, 0.0029330530669540167, 0.003297999268397689, 0.003662945469841361, 0.00402789143845439, 0.004392837639898062, 0.004757784307003021, 0.005122730508446693, 0.005487676709890366, 0.005852622911334038, 0.00621756911277771, 0.006582515314221382, 0.006947461050003767, 0.007312407251447439, 0.007677353918552399, 0.00804230011999607, 0.008407246321439743, 0.008772192522883415, 0.009137138724327087, 0.00950208492577076, 0.009867031127214432, 0.010231977328658104, 0.010596922598779202, 0.010961868800222874, 0.011326815001666546, 0.011691761203110218, 0.01205670740455389, 0.012421653605997562, 0.01278659887611866, 0.013151545077562332, 0.013516491279006004, 0.013881437480449677, 0.014246383681893349, 0.014611329883337021, 0.014976276084780693, 0.015341222286224365, 0.015706168487668037, 0.01607111468911171, 0.016436060890555382]}, "gradients/phi_x.nn_layers.2.weight": {"_type": "histogram", "values": [1.0, 2.0, 0.0, 1.0, 1.0, 2.0, 2.0, 1.0, 3.0, 5.0, 3.0, 3.0, 5.0, 3.0, 4.0, 10.0, 17.0, 65.0, 0.0, 14.0, 26.0, 33.0, 22.0, 15.0, 16.0, 7.0, 9.0, 7.0, 3.0, 6.0, 5.0, 2.0, 2.0, 5.0, 1.0, 1.0, 4.0, 1.0, 0.0, 0.0, 3.0, 2.0, 0.0, 1.0, 2.0, 1.0, 0.0, 0.0, 0.0, 0.0, 1.0, 0.0, 1.0, 0.0, 0.0, 0.0, 1.0, 0.0, 0.0, 0.0, 0.0, 0.0, 0.0, 1.0], "bins": [-0.008629625663161278, -0.008144604042172432, -0.007659581955522299, -0.007174559868872166, -0.00668953824788332, -0.006204516161233187, -0.005719494074583054, -0.005234472453594208, -0.004749450832605362, -0.004264428745955229, -0.003779407124966383, -0.00329438503831625, -0.002809363417327404, -0.002324341330677271, -0.0018393194768577814, -0.001354297623038292, -0.0008692755363881588, -0.00038425365346483886, 0.00010076822945848107, 0.0005857901414856315, 0.001070811995305121, 0.0015558339655399323, 0.0020408558193594217, 0.002525877673178911, 0.0030108997598290443, 0.003495921613648534, 0.003980943467468023, 0.004465965554118156, 0.004950987175107002, 0.005436009261757135, 0.0059210313484072685, 0.006406052969396114, 0.00689107459038496, 0.007376096677035093, 0.007861118763685226, 0.008346140384674072, 0.008831162005662918, 0.009316183626651764, 0.009801206178963184, 0.01028622779995203, 0.010771249420940876, 0.011256271041929722, 0.011741293594241142, 0.012226315215229988, 0.012711336836218834, 0.01319635845720768, 0.0136813810095191, 0.014166402630507946, 0.014651425182819366, 0.015136446803808212, 0.015621469356119633, 0.016106490045785904, 0.0165915135294199, 0.017076535150408745, 0.01756155677139759, 0.018046578392386436, 0.018531600013375282, 0.019016621634364128, 0.019501643255352974, 0.01998666487634182, 0.020471688359975815, 0.02095670998096466, 0.021441731601953506, 0.021926753222942352, 0.022411774843931198]}, "gradients/phi_x.nn_layers.1.bias": {"_type": "histogram", "values": [1.0, 0.0, 0.0, 1.0, 0.0, 0.0, 0.0, 0.0, 1.0, 0.0, 0.0, 0.0, 0.0, 0.0, 0.0, 1.0, 1.0, 0.0, 0.0, 0.0, 0.0, 0.0, 0.0, 0.0, 0.0, 1.0, 0.0, 0.0, 0.0, 1.0, 1.0, 1.0, 0.0, 0.0, 3.0, 0.0, 0.0, 1.0, 0.0, 1.0, 0.0, 0.0, 1.0, 1.0, 0.0, 0.0, 0.0, 0.0, 0.0, 0.0, 0.0, 0.0, 0.0, 0.0, 0.0, 0.0, 0.0, 0.0, 0.0, 0.0, 0.0, 0.0, 0.0, 4.0], "bins": [-0.01182932872325182, -0.011644495651125908, -0.011459662578999996, -0.01127482857555151, -0.011089995503425598, -0.010905162431299686, -0.010720329359173775, -0.010535496287047863, -0.010350662283599377, -0.010165829211473465, -0.009980996139347553, -0.009796162135899067, -0.009611329063773155, -0.009426495991647243, -0.009241662919521332, -0.00905682984739542, -0.008871996775269508, -0.008687163703143597, -0.008502330631017685, -0.008317496627569199, -0.008132663555443287, -0.007947830483317375, -0.0077629974111914635, -0.0075781638734042645, -0.007393330335617065, -0.007208497263491154, -0.007023663725703955, -0.006838830653578043, -0.006653997115790844, -0.006469164043664932, -0.0062843309715390205, -0.0060994974337518215, -0.00591466436162591, -0.005729831289499998, -0.005544997751712799, -0.005360164679586887, -0.005175331141799688, -0.004990498069673777, -0.004805664531886578, -0.004620831459760666, -0.004435998387634754, -0.0042511653155088425, -0.0040663317777216434, -0.0038814987055957317, -0.0036966654006391764, -0.003511832095682621, -0.0033269987907260656, -0.0031421654857695103, -0.002957332180812955, -0.0027724988758563995, -0.002587665570899844, -0.002402832265943289, -0.002217999193817377, -0.0020331658888608217, -0.0018483325839042664, -0.0016634993953630328, -0.0014786660904064775, -0.001293832785449922, -0.0011089995969086885, -0.0009241662919521332, -0.0007393330452032387, -0.0005544997984543443, -0.0003696664934977889, -0.00018483330495655537, 0.0]}, "gradients/phi_x.nn_layers.1.weight": {"_type": "histogram", "values": [1.0, 0.0, 0.0, 1.0, 0.0, 0.0, 0.0, 1.0, 2.0, 1.0, 1.0, 0.0, 0.0, 1.0, 1.0, 3.0, 1.0, 1.0, 1.0, 2.0, 2.0, 0.0, 2.0, 3.0, 3.0, 0.0, 3.0, 2.0, 2.0, 3.0, 5.0, 3.0, 0.0, 3.0, 4.0, 7.0, 4.0, 5.0, 4.0, 3.0, 8.0, 6.0, 6.0, 9.0, 10.0, 7.0, 10.0, 2.0, 10.0, 3.0, 6.0, 8.0, 2.0, 5.0, 7.0, 3.0, 4.0, 7.0, 5.0, 9.0, 5.0, 1.0, 0.0, 192.0], "bins": [-0.00900108553469181, -0.00885890331119299, -0.008716721087694168, -0.008574537932872772, -0.008432355709373951, -0.00829017348587513, -0.008147991262376308, -0.008005808107554913, -0.007863625884056091, -0.00772144366055727, -0.0075792609713971615, -0.00743707874789834, -0.007294896058738232, -0.00715271383523941, -0.007010531146079302, -0.006868348922580481, -0.006726166233420372, -0.006583984009921551, -0.006441801320761442, -0.006299619097262621, -0.006157436408102512, -0.006015254184603691, -0.0058730714954435825, -0.005730889271944761, -0.00558870704844594, -0.005446524824947119, -0.00530434213578701, -0.005162159912288189, -0.00501997722312808, -0.004877794999629259, -0.0047356123104691505, -0.004593430086970329, -0.004451247397810221, -0.0043090651743113995, -0.004166882485151291, -0.00402470026165247, -0.003882517572492361, -0.003740335116162896, -0.0035981526598334312, -0.00345597043633461, -0.0033137875143438578, -0.003171605058014393, -0.003029422601684928, -0.002887240145355463, -0.002745057689025998, -0.002602875232696533, -0.002460693009197712, -0.0023185103200376034, -0.002176328096538782, -0.002034145640209317, -0.0018919631838798523, -0.0017497807275503874, -0.0016075982712209225, -0.0014654158148914576, -0.0013232334749773145, -0.0011810510186478496, -0.0010388685623183846, -0.0008966861059889197, -0.0007545036496594548, -0.0006123212515376508, -0.0004701387952081859, -0.000327956338878721, -0.000185773940756917, -4.359148442745209e-05, 9.859094279818237e-05]}, "gradients/phi_x.nn_layers.0.bias": {"_type": "histogram", "values": [2.0, 0.0, 0.0, 0.0, 0.0, 0.0, 0.0, 0.0, 0.0, 0.0, 0.0, 0.0, 2.0, 0.0, 0.0, 0.0, 1.0, 1.0, 0.0, 0.0, 0.0, 0.0, 2.0, 0.0, 1.0, 0.0, 0.0, 0.0, 0.0, 0.0, 0.0, 0.0, 0.0, 0.0, 1.0, 1.0, 0.0, 0.0, 0.0, 1.0, 0.0, 0.0, 0.0, 0.0, 1.0, 0.0, 0.0, 0.0, 0.0, 0.0, 0.0, 0.0, 0.0, 0.0, 0.0, 0.0, 0.0, 0.0, 0.0, 0.0, 1.0, 0.0, 0.0, 6.0], "bins": [-0.015483004972338676, -0.01524108275771141, -0.01499916147440672, -0.014757239259779453, -0.014515317045152187, -0.014273394830524921, -0.01403147354722023, -0.013789551332592964, -0.013547629117965698, -0.013305706903338432, -0.013063785620033741, -0.012821863405406475, -0.01257994119077921, -0.012338018976151943, -0.012096097692847252, -0.011854175478219986, -0.01161225326359272, -0.011370331048965454, -0.011128409765660763, -0.010886487551033497, -0.010644565336406231, -0.010402643121778965, -0.010160721838474274, -0.009918799623847008, -0.009676878340542316, -0.00943495612591505, -0.00919303484261036, -0.008951112627983093, -0.008709190413355827, -0.008467268198728561, -0.00822534691542387, -0.007983424700796604, -0.007741502486169338, -0.00749958073720336, -0.007257658522576094, -0.007015736773610115, -0.006773814558982849, -0.0065318928100168705, -0.006289971061050892, -0.006048048846423626, -0.00580612663179636, -0.005564204882830381, -0.0053222826682031155, -0.005080360919237137, -0.004838438704609871, -0.004596516955643892, -0.004354595206677914, -0.004112672992050648, -0.003870751243084669, -0.003628829261288047, -0.0033869072794914246, -0.003144985530525446, -0.00290306331589818, -0.0026611415669322014, -0.002419219585135579, -0.002177297603338957, -0.0019353756215423346, -0.0016934536397457123, -0.00145153165794909, -0.0012096097925677896, -0.0009676878107711673, -0.000725765828974545, -0.00048384396359324455, -0.00024192198179662228, 0.0]}, "gradients/phi_x.nn_layers.0.weight": {"_type": "histogram", "values": [1.0, 1.0, 0.0, 0.0, 0.0, 1.0, 0.0, 0.0, 0.0, 0.0, 0.0, 1.0, 2.0, 0.0, 0.0, 0.0, 1.0, 2.0, 2.0, 2.0, 0.0, 1.0, 1.0, 1.0, 3.0, 1.0, 1.0, 3.0, 0.0, 1.0, 3.0, 1.0, 1.0, 5.0, 3.0, 2.0, 3.0, 2.0, 4.0, 1.0, 3.0, 4.0, 2.0, 4.0, 2.0, 5.0, 3.0, 4.0, 4.0, 4.0, 5.0, 2.0, 3.0, 2.0, 3.0, 3.0, 1.0, 0.0, 1.0, 2.0, 3.0, 55.0, 8.0, 7.0], "bins": [-0.011003286577761173, -0.010823945514857769, -0.01064460352063179, -0.010465262457728386, -0.010285921394824982, -0.010106580331921577, -0.009927238337695599, -0.009747897274792194, -0.00956855621188879, -0.009389215148985386, -0.009209873154759407, -0.009030532091856003, -0.008851191028952599, -0.008671849966049194, -0.008492507971823215, -0.008313166908919811, -0.008133825846016407, -0.007954484783113003, -0.007775143254548311, -0.00759580172598362, -0.0074164606630802155, -0.007237119134515524, -0.00705777807161212, -0.006878436543047428, -0.006699095014482737, -0.006519753485918045, -0.006340412423014641, -0.006161070894449949, -0.005981729831546545, -0.0058023883029818535, -0.005623047240078449, -0.005443705711513758, -0.0052643646486103535, -0.005085023120045662, -0.004905682057142258, -0.004726340528577566, -0.004546999465674162, -0.00436765793710947, -0.004188316874206066, -0.004008975345641375, -0.0038296342827379704, -0.0036502929870039225, -0.0034709516912698746, -0.0032916103955358267, -0.003112269099801779, -0.002932927804067731, -0.002753586508333683, -0.0025742449797689915, -0.0023949036840349436, -0.0022155623883008957, -0.002036221092566848, -0.0018568797968328, -0.001677538501098752, -0.0014981972053647041, -0.0013188557932153344, -0.0011395144974812865, -0.0009601732017472386, -0.0007808319060131907, -0.0006014906102791429, -0.00042214925633743405, -0.00024280796060338616, -6.346666486933827e-05, 0.00011587468907237053, 0.0002952159848064184, 0.0004745572805404663]}, "gradients/prior.nn_layers.2.bias": {"_type": "histogram", "values": [1.0, 0.0, 0.0, 0.0, 0.0, 0.0, 0.0, 0.0, 0.0, 0.0, 0.0, 0.0, 0.0, 0.0, 0.0, 0.0, 0.0, 0.0, 0.0, 0.0, 0.0, 0.0, 0.0, 0.0, 0.0, 0.0, 0.0, 0.0, 0.0, 0.0, 0.0, 0.0, 0.0, 0.0, 0.0, 0.0, 0.0, 0.0, 0.0, 0.0, 0.0, 0.0, 0.0, 0.0, 0.0, 0.0, 0.0, 0.0, 0.0, 0.0, 0.0, 0.0, 0.0, 0.0, 0.0, 0.0, 0.0, 0.0, 0.0, 0.0, 0.0, 0.0, 1.0, 8.0], "bins": [-8.487308502197266, -8.33907699584961, -8.190845489501953, -8.042613983154297, -7.894381999969482, -7.746150493621826, -7.597918510437012, -7.4496870040893555, -7.301455497741699, -7.153223991394043, -7.0049920082092285, -6.856760501861572, -6.708528995513916, -6.56029748916626, -6.412065505981445, -6.263833999633789, -6.115602493286133, -5.967370986938477, -5.819139003753662, -5.670907497406006, -5.52267599105835, -5.374444484710693, -5.226212501525879, -5.077980995178223, -4.929749011993408, -4.781517505645752, -4.6332855224609375, -4.485054016113281, -4.336822509765625, -4.188591003417969, -4.040359020233154, -3.892127513885498, -3.7438955307006836, -3.5956637859344482, -3.447432279586792, -3.2992005348205566, -3.1509690284729004, -3.002737283706665, -2.8545055389404297, -2.7062740325927734, -2.558042526245117, -2.409810781478882, -2.2615792751312256, -2.1133475303649902, -1.965116024017334, -1.8168842792510986, -1.6686526536941528, -1.520421028137207, -1.3721894025802612, -1.2239577770233154, -1.0757261514663696, -0.927494466304779, -0.7792628407478333, -0.6310312151908875, -0.4827995300292969, -0.3345679044723511, -0.18633627891540527, -0.03810463845729828, 0.11012700200080872, 0.2583586573600769, 0.4065902829170227, 0.5548219084739685, 0.7030535936355591, 0.8512852191925049, 0.9995168447494507]}, "gradients/prior.nn_layers.2.weight": {"_type": "histogram", "values": [3.0, 0.0, 0.0, 0.0, 1.0, 0.0, 1.0, 1.0, 0.0, 1.0, 0.0, 0.0, 0.0, 0.0, 1.0, 0.0, 1.0, 0.0, 0.0, 0.0, 0.0, 0.0, 0.0, 0.0, 0.0, 0.0, 0.0, 0.0, 0.0, 0.0, 0.0, 1.0, 1.0, 1.0, 0.0, 0.0, 0.0, 0.0, 0.0, 0.0, 0.0, 0.0, 0.0, 0.0, 0.0, 0.0, 0.0, 0.0, 0.0, 0.0, 0.0, 0.0, 0.0, 0.0, 0.0, 0.0, 80.0, 0.0, 0.0, 26.0, 2.0, 22.0, 36.0, 22.0], "bins": [-10.233956336975098, -10.05398178100586, -9.874007225036621, -9.694032669067383, -9.514058113098145, -9.334083557128906, -9.154109954833984, -8.97413444519043, -8.794160842895508, -8.61418628692627, -8.434211730957031, -8.254237174987793, -8.074262619018555, -7.894288539886475, -7.714313983917236, -7.534339427947998, -7.354364395141602, -7.174389839172363, -6.994415283203125, -6.814440727233887, -6.634466648101807, -6.454492092132568, -6.27451753616333, -6.094542980194092, -5.914568901062012, -5.734594345092773, -5.554619789123535, -5.374645233154297, -5.194671154022217, -5.0146965980529785, -4.83472204208374, -4.654747486114502, -4.4747724533081055, -4.294797897338867, -4.114823341369629, -3.9348490238189697, -3.7548744678497314, -3.5749001502990723, -3.394925594329834, -3.2149510383605957, -3.0349764823913574, -2.855001926422119, -2.67502760887146, -2.4950530529022217, -2.3150784969329834, -2.135104179382324, -1.955129623413086, -1.7751550674438477, -1.595180869102478, -1.4152064323425293, -1.235231876373291, -1.0552574396133423, -0.8752829432487488, -0.6953084468841553, -0.5153340101242065, -0.33535945415496826, -0.15538501739501953, 0.02458946406841278, 0.2045639455318451, 0.3845384120941162, 0.5645129084587097, 0.7444874048233032, 0.924461841583252, 1.1044363975524902, 1.284410834312439]}, "gradients/prior.nn_layers.1.bias": {"_type": "histogram", "values": [1.0, 0.0, 0.0, 0.0, 1.0, 0.0, 0.0, 0.0, 0.0, 1.0, 0.0, 0.0, 0.0, 0.0, 0.0, 0.0, 1.0, 0.0, 0.0, 0.0, 0.0, 1.0, 1.0, 0.0, 0.0, 1.0, 0.0, 0.0, 1.0, 0.0, 1.0, 0.0, 0.0, 0.0, 1.0, 0.0, 0.0, 0.0, 0.0, 0.0, 0.0, 0.0, 0.0, 0.0, 1.0, 0.0, 0.0, 0.0, 0.0, 1.0, 0.0, 0.0, 0.0, 0.0, 0.0, 0.0, 0.0, 0.0, 0.0, 0.0, 0.0, 0.0, 0.0, 8.0], "bins": [-4.529783725738525, -4.459005832672119, -4.388227939605713, -4.317450046539307, -4.2466721534729, -4.175894260406494, -4.105116367340088, -4.034338474273682, -3.9635608196258545, -3.8927829265594482, -3.822005033493042, -3.7512271404266357, -3.6804492473602295, -3.6096715927124023, -3.538893699645996, -3.46811580657959, -3.3973379135131836, -3.3265600204467773, -3.255782127380371, -3.185004234313965, -3.1142263412475586, -3.0434484481811523, -2.972670555114746, -2.901892900466919, -2.8311147689819336, -2.7603368759155273, -2.689558982849121, -2.618781089782715, -2.5480031967163086, -2.4772253036499023, -2.406447410583496, -2.335669755935669, -2.2648918628692627, -2.1941139698028564, -2.12333607673645, -2.052558183670044, -1.9817804098129272, -1.911002516746521, -1.8402246236801147, -1.7694467306137085, -1.6986689567565918, -1.6278910636901855, -1.5571131706237793, -1.486335277557373, -1.4155575037002563, -1.34477961063385, -1.2740017175674438, -1.2032238245010376, -1.1324459314346313, -1.061668038368225, -0.9908902049064636, -0.9201123118400574, -0.8493344783782959, -0.7785565853118896, -0.7077786922454834, -0.6370007991790771, -0.5662229657173157, -0.4954451024532318, -0.42466723918914795, -0.3538893461227417, -0.28311148285865784, -0.21233361959457397, -0.14155572652816772, -0.07077786326408386, 0.0]}, "gradients/prior.nn_layers.1.weight": {"_type": "histogram", "values": [2.0, 0.0, 0.0, 2.0, 1.0, 0.0, 0.0, 1.0, 2.0, 0.0, 0.0, 1.0, 0.0, 0.0, 0.0, 2.0, 1.0, 1.0, 2.0, 1.0, 3.0, 2.0, 2.0, 2.0, 3.0, 3.0, 3.0, 3.0, 3.0, 6.0, 3.0, 2.0, 3.0, 5.0, 5.0, 5.0, 2.0, 6.0, 5.0, 4.0, 4.0, 10.0, 4.0, 4.0, 3.0, 9.0, 3.0, 1.0, 4.0, 5.0, 4.0, 1.0, 3.0, 4.0, 5.0, 5.0, 3.0, 5.0, 3.0, 0.0, 0.0, 2.0, 14.0, 218.0], "bins": [-1.9846361875534058, -1.953373908996582, -1.9221116304397583, -1.8908493518829346, -1.8595870733261108, -1.828324794769287, -1.7970625162124634, -1.7658002376556396, -1.734537959098816, -1.7032756805419922, -1.6720134019851685, -1.6407511234283447, -1.609488844871521, -1.5782265663146973, -1.5469642877578735, -1.5157020092010498, -1.484439730644226, -1.4531774520874023, -1.4219151735305786, -1.3906528949737549, -1.3593906164169312, -1.3281283378601074, -1.2968660593032837, -1.26560378074646, -1.2343415021896362, -1.2030792236328125, -1.1718169450759888, -1.140554666519165, -1.1092923879623413, -1.0780301094055176, -1.0467678308486938, -1.0155055522918701, -0.9842432737350464, -0.9529809951782227, -0.9217187166213989, -0.8904564380645752, -0.8591941595077515, -0.8279318809509277, -0.796669602394104, -0.7654073238372803, -0.7341450452804565, -0.7028827667236328, -0.6716204881668091, -0.6403582096099854, -0.6090959310531616, -0.5778336524963379, -0.5465713739395142, -0.5153090953826904, -0.4840467870235443, -0.4527845084667206, -0.42152222990989685, -0.3902599513530731, -0.3589976727962494, -0.32773539423942566, -0.29647311568260193, -0.2652108371257782, -0.23394855856895447, -0.20268628001213074, -0.171424001455307, -0.14016172289848328, -0.10889944434165955, -0.07763716578483582, -0.046374887228012085, -0.015112608671188354, 0.01614966243505478]}, "gradients/prior.nn_layers.0.bias": {"_type": "histogram", "values": [1.0, 0.0, 0.0, 1.0, 0.0, 0.0, 0.0, 0.0, 1.0, 1.0, 0.0, 0.0, 1.0, 0.0, 0.0, 0.0, 0.0, 2.0, 1.0, 0.0, 2.0, 1.0, 1.0, 0.0, 0.0, 0.0, 0.0, 0.0, 0.0, 0.0, 0.0, 0.0, 0.0, 1.0, 0.0, 0.0, 0.0, 0.0, 0.0, 0.0, 1.0, 0.0, 0.0, 0.0, 0.0, 0.0, 0.0, 0.0, 0.0, 0.0, 0.0, 0.0, 0.0, 0.0, 0.0, 0.0, 0.0, 0.0, 0.0, 0.0, 0.0, 0.0, 0.0, 6.0], "bins": [-8.292889595031738, -8.163312911987305, -8.033737182617188, -7.904160499572754, -7.77458381652832, -7.645007610321045, -7.5154314041137695, -7.385854721069336, -7.2562785148620605, -7.126702308654785, -6.997125625610352, -6.867549419403076, -6.737972736358643, -6.608396530151367, -6.478819847106934, -6.349243640899658, -6.219667434692383, -6.090091228485107, -5.960514545440674, -5.830938339233398, -5.701361656188965, -5.5717854499816895, -5.442209243774414, -5.3126325607299805, -5.183055877685547, -5.0534796714782715, -4.923902988433838, -4.7943267822265625, -4.664750099182129, -4.5351738929748535, -4.405597686767578, -4.2760210037231445, -4.146444797515869, -4.016868591308594, -3.88729190826416, -3.7577157020568848, -3.6281392574310303, -3.498562812805176, -3.3689863681793213, -3.239409923553467, -3.1098337173461914, -2.980257272720337, -2.8506808280944824, -2.721104621887207, -2.5915281772613525, -2.461951732635498, -2.3323752880096436, -2.202798843383789, -2.0732223987579346, -1.94364595413208, -1.8140696287155151, -1.6844931840896606, -1.5549168586730957, -1.4253404140472412, -1.2957639694213867, -1.1661875247955322, -1.0366111993789673, -0.9070348143577576, -0.7774584293365479, -0.6478819847106934, -0.5183055996894836, -0.3887292146682739, -0.25915277004241943, -0.12957638502120972, 0.0]}, "gradients/prior.nn_layers.0.weight": {"_type": "histogram", "values": [8.0, 0.0, 8.0, 0.0, 8.0, 8.0, 8.0, 0.0, 24.0, 8.0, 8.0, 8.0, 0.0, 0.0, 0.0, 8.0, 16.0, 8.0, 0.0, 0.0, 0.0, 0.0, 0.0, 0.0, 0.0, 0.0, 0.0, 0.0, 0.0, 0.0, 0.0, 80.0, 0.0, 0.0, 0.0, 0.0, 0.0, 0.0, 0.0, 0.0, 0.0, 0.0, 0.0, 0.0, 0.0, 0.0, 8.0, 16.0, 8.0, 0.0, 0.0, 0.0, 9.0, 7.0, 8.0, 24.0, 0.0, 8.0, 8.0, 8.0, 0.0, 8.0, 0.0, 8.0], "bins": [-0.030522791668772697, -0.029568949714303017, -0.028615105897188187, -0.027661263942718506, -0.026707421988248825, -0.025753580033779144, -0.024799738079309464, -0.023845894262194633, -0.022892052307724953, -0.021938210353255272, -0.020984366536140442, -0.02003052458167076, -0.01907668262720108, -0.0181228406727314, -0.01716899871826172, -0.01621515490114689, -0.015261312946677208, -0.014307470992207527, -0.013353628106415272, -0.012399785220623016, -0.011445943266153336, -0.010492101311683655, -0.0095382584258914, -0.008584415540099144, -0.007630573585629463, -0.006676731165498495, -0.005722888745367527, -0.004769046325236559, -0.003815203905105591, -0.0028613614849746227, -0.0019075190648436546, -0.0009536766447126865, 1.6391277313232422e-07, 0.0009540063329041004, 0.0019078487530350685, 0.0028616911731660366, 0.0038155335932970047, 0.004769376013427973, 0.005723218433558941, 0.006677060853689909, 0.007630903273820877, 0.008584745228290558, 0.009538588114082813, 0.010492430999875069, 0.01144627295434475, 0.01240011490881443, 0.013353957794606686, 0.014307800680398941, 0.015261642634868622, 0.016215484589338303, 0.017169326543807983, 0.018123170360922813, 0.019077012315392494, 0.020030854269862175, 0.020984698086977005, 0.021938540041446686, 0.022892381995916367, 0.023846223950386047, 0.024800065904855728, 0.025753909721970558, 0.02670775167644024, 0.02766159363090992, 0.02861543744802475, 0.02956927940249443, 0.03052312135696411]}, "gradients/decoder.fc_out.bias": {"_type": "histogram", "values": [1.0, 0.0, 0.0, 0.0, 0.0, 0.0, 0.0, 0.0, 0.0, 0.0, 0.0, 0.0, 0.0, 0.0, 0.0, 0.0, 0.0, 0.0, 0.0, 0.0, 0.0, 0.0, 0.0, 1.0, 0.0, 1.0, 0.0, 0.0, 0.0, 1.0, 1.0, 1.0, 2.0, 0.0, 1.0, 1.0, 1.0, 1.0, 2.0, 1.0, 2.0, 0.0, 0.0, 0.0, 0.0, 0.0, 0.0, 0.0, 0.0, 0.0, 0.0, 0.0, 0.0, 0.0, 0.0, 0.0, 0.0, 0.0, 0.0, 0.0, 0.0, 0.0, 0.0, 1.0], "bins": [-11.601282119750977, -11.24190616607666, -10.882530212402344, -10.523155212402344, -10.163779258728027, -9.804403305053711, -9.445028305053711, -9.085652351379395, -8.726276397705078, -8.366900444030762, -8.007524490356445, -7.648149490356445, -7.288773536682129, -6.9293975830078125, -6.570022106170654, -6.210646629333496, -5.85127067565918, -5.491894721984863, -5.132519245147705, -4.773143768310547, -4.4137678146362305, -4.054391860961914, -3.695016384124756, -3.3356406688690186, -2.9762649536132812, -2.616889238357544, -2.2575135231018066, -1.8981378078460693, -1.538762092590332, -1.1793863773345947, -0.8200106620788574, -0.4606349468231201, -0.10126018524169922, 0.2581155300140381, 0.6174912452697754, 0.9768669605255127, 1.33624267578125, 1.6956183910369873, 2.0549941062927246, 2.414369821548462, 2.773745536804199, 3.1331212520599365, 3.492496967315674, 3.851872682571411, 4.211248397827148, 4.570624351501465, 4.929999828338623, 5.289375305175781, 5.648751258850098, 6.008127212524414, 6.367502689361572, 6.7268781661987305, 7.086254119873047, 7.445630073547363, 7.8050055503845215, 8.16438102722168, 8.523756980895996, 8.883132934570312, 9.242507934570312, 9.601883888244629, 9.961259841918945, 10.320635795593262, 10.680011749267578, 11.039386749267578, 11.398762702941895]}, "gradients/decoder.fc_out.weight": {"_type": "histogram", "values": [2.0, 1.0, 0.0, 1.0, 2.0, 1.0, 1.0, 0.0, 0.0, 1.0, 2.0, 2.0, 2.0, 0.0, 1.0, 1.0, 2.0, 0.0, 1.0, 1.0, 2.0, 0.0, 0.0, 7.0, 5.0, 12.0, 28.0, 31.0, 39.0, 78.0, 110.0, 65.0, 58.0, 33.0, 31.0, 20.0, 8.0, 4.0, 2.0, 0.0, 2.0, 1.0, 0.0, 0.0, 1.0, 1.0, 1.0, 2.0, 1.0, 2.0, 2.0, 1.0, 0.0, 1.0, 0.0, 2.0, 2.0, 0.0, 0.0, 1.0, 1.0, 0.0, 0.0, 1.0], "bins": [-28.15090560913086, -27.229854583740234, -26.308805465698242, -25.387754440307617, -24.466705322265625, -23.545654296875, -22.624603271484375, -21.70355224609375, -20.782503128051758, -19.861452102661133, -18.94040298461914, -18.019351959228516, -17.09830093383789, -16.1772518157959, -15.256200790405273, -14.335150718688965, -13.414100646972656, -12.493050575256348, -11.572000503540039, -10.650949478149414, -9.729899406433105, -8.808849334716797, -7.88779878616333, -6.966748237609863, -6.045698165893555, -5.124648094177246, -4.203597545623779, -3.2825472354888916, -2.361496925354004, -1.4404468536376953, -0.5193963050842285, 0.4016542434692383, 1.322702407836914, 2.2437527179718018, 3.1648030281066895, 4.085853576660156, 5.006903648376465, 5.927953720092773, 6.84900426864624, 7.770054817199707, 8.691104888916016, 9.612154960632324, 10.533205032348633, 11.454256057739258, 12.375306129455566, 13.296356201171875, 14.2174072265625, 15.138457298278809, 16.059507369995117, 16.980558395385742, 17.901607513427734, 18.82265853881836, 19.743709564208984, 20.664758682250977, 21.5858097076416, 22.506858825683594, 23.42790985107422, 24.348960876464844, 25.270009994506836, 26.19106101989746, 27.112110137939453, 28.033161163330078, 28.954212188720703, 29.875263214111328, 30.79631233215332]}, "gradients/decoder.lstm_cell.bias_hh": {"_type": "histogram", "values": [1.0, 1.0, 0.0, 0.0, 0.0, 0.0, 0.0, 0.0, 0.0, 1.0, 0.0, 0.0, 0.0, 2.0, 0.0, 0.0, 1.0, 6.0, 1.0, 3.0, 5.0, 4.0, 7.0, 12.0, 18.0, 21.0, 11.0, 10.0, 3.0, 2.0, 2.0, 1.0, 2.0, 0.0, 1.0, 3.0, 1.0, 0.0, 2.0, 1.0, 0.0, 0.0, 2.0, 0.0, 1.0, 1.0, 0.0, 0.0, 0.0, 0.0, 1.0, 0.0, 0.0, 0.0, 0.0, 0.0, 0.0, 0.0, 0.0, 0.0, 0.0, 0.0, 0.0, 1.0], "bins": [-2.1013834476470947, -2.0197908878326416, -1.9381983280181885, -1.8566057682037354, -1.7750132083892822, -1.693420648574829, -1.611828088760376, -1.5302355289459229, -1.4486429691314697, -1.3670504093170166, -1.2854578495025635, -1.2038652896881104, -1.1222727298736572, -1.040680170059204, -0.9590876698493958, -0.8774951100349426, -0.7959026098251343, -0.7143100500106812, -0.632717490196228, -0.5511249303817749, -0.46953240036964417, -0.38793984055519104, -0.3063473105430603, -0.22475475072860718, -0.14316225051879883, -0.0615696981549263, 0.020022854208946228, 0.10161539912223816, 0.18320795893669128, 0.2648005187511444, 0.34639304876327515, 0.42798560857772827, 0.5095782279968262, 0.5911707878112793, 0.6727633476257324, 0.7543559074401855, 0.8359484672546387, 0.9175410270690918, 0.9991335272789001, 1.080726146697998, 1.1623187065124512, 1.2439112663269043, 1.3255038261413574, 1.4070963859558105, 1.4886889457702637, 1.5702815055847168, 1.65187406539917, 1.733466625213623, 1.8150590658187866, 1.8966516256332397, 1.9782441854476929, 2.0598366260528564, 2.1414291858673096, 2.2230217456817627, 2.304614305496216, 2.386206865310669, 2.467799425125122, 2.549391984939575, 2.6309845447540283, 2.7125771045684814, 2.7941696643829346, 2.8757622241973877, 2.957354784011841, 3.038947343826294, 3.120539903640747]}, "gradients/decoder.lstm_cell.weight_hh": {"_type": "histogram", "values": [2.0, 0.0, 0.0, 0.0, 1.0, 0.0, 0.0, 0.0, 0.0, 1.0, 2.0, 1.0, 0.0, 3.0, 5.0, 2.0, 5.0, 7.0, 7.0, 8.0, 9.0, 19.0, 24.0, 42.0, 35.0, 54.0, 50.0, 103.0, 141.0, 274.0, 574.0, 925.0, 722.0, 419.0, 206.0, 102.0, 81.0, 49.0, 54.0, 37.0, 41.0, 22.0, 21.0, 5.0, 6.0, 6.0, 8.0, 3.0, 5.0, 4.0, 2.0, 3.0, 1.0, 3.0, 0.0, 0.0, 0.0, 0.0, 0.0, 1.0, 0.0, 0.0, 0.0, 1.0], "bins": [-2.5570685863494873, -2.4766273498535156, -2.396186113357544, -2.315744638442993, -2.2353034019470215, -2.15486216545105, -2.074420928955078, -1.993979573249817, -1.9135382175445557, -1.833096981048584, -1.7526556253433228, -1.672214388847351, -1.5917730331420898, -1.5113317966461182, -1.4308905601501465, -1.3504492044448853, -1.2700079679489136, -1.189566731452942, -1.1091253757476807, -1.028684139251709, -0.9482427835464478, -0.8678015470504761, -0.7873602509498596, -0.7069189548492432, -0.6264777183532715, -0.546036422252655, -0.4655951261520386, -0.3851538598537445, -0.30471256375312805, -0.2242712676525116, -0.14383000135421753, -0.06338870525360107, 0.017052650451660156, 0.09749393910169601, 0.17793522775173187, 0.25837650895118713, 0.3388178050518036, 0.41925910115242004, 0.4997003674507141, 0.5801416635513306, 0.6605830192565918, 0.7410243153572083, 0.8214656114578247, 0.9019068479537964, 0.9823482036590576, 1.0627894401550293, 1.143230676651001, 1.2236720323562622, 1.3041132688522339, 1.3845545053482056, 1.4649958610534668, 1.5454370975494385, 1.6258784532546997, 1.7063196897506714, 1.7867610454559326, 1.8672022819519043, 1.947643518447876, 2.0280847549438477, 2.1085259914398193, 2.18896746635437, 2.269408702850342, 2.3498499393463135, 2.430291175842285, 2.510732650756836, 2.5911738872528076]}, "gradients/decoder.lstm_cell.bias_ih": {"_type": "histogram", "values": [1.0, 1.0, 0.0, 0.0, 0.0, 0.0, 0.0, 0.0, 0.0, 1.0, 0.0, 0.0, 0.0, 2.0, 0.0, 0.0, 1.0, 6.0, 1.0, 3.0, 5.0, 4.0, 7.0, 12.0, 18.0, 21.0, 11.0, 10.0, 3.0, 2.0, 2.0, 1.0, 2.0, 0.0, 1.0, 3.0, 1.0, 0.0, 2.0, 1.0, 0.0, 0.0, 2.0, 0.0, 1.0, 1.0, 0.0, 0.0, 0.0, 0.0, 1.0, 0.0, 0.0, 0.0, 0.0, 0.0, 0.0, 0.0, 0.0, 0.0, 0.0, 0.0, 0.0, 1.0], "bins": [-2.1013834476470947, -2.0197908878326416, -1.9381983280181885, -1.8566057682037354, -1.7750132083892822, -1.693420648574829, -1.611828088760376, -1.5302355289459229, -1.4486429691314697, -1.3670504093170166, -1.2854578495025635, -1.2038652896881104, -1.1222727298736572, -1.040680170059204, -0.9590876698493958, -0.8774951100349426, -0.7959026098251343, -0.7143100500106812, -0.632717490196228, -0.5511249303817749, -0.46953240036964417, -0.38793984055519104, -0.3063473105430603, -0.22475475072860718, -0.14316225051879883, -0.0615696981549263, 0.020022854208946228, 0.10161539912223816, 0.18320795893669128, 0.2648005187511444, 0.34639304876327515, 0.42798560857772827, 0.5095782279968262, 0.5911707878112793, 0.6727633476257324, 0.7543559074401855, 0.8359484672546387, 0.9175410270690918, 0.9991335272789001, 1.080726146697998, 1.1623187065124512, 1.2439112663269043, 1.3255038261413574, 1.4070963859558105, 1.4886889457702637, 1.5702815055847168, 1.65187406539917, 1.733466625213623, 1.8150590658187866, 1.8966516256332397, 1.9782441854476929, 2.0598366260528564, 2.1414291858673096, 2.2230217456817627, 2.304614305496216, 2.386206865310669, 2.467799425125122, 2.549391984939575, 2.6309845447540283, 2.7125771045684814, 2.7941696643829346, 2.8757622241973877, 2.957354784011841, 3.038947343826294, 3.120539903640747]}, "gradients/decoder.lstm_cell.weight_ih": {"_type": "histogram", "values": [1.0, 0.0, 0.0, 1.0, 1.0, 0.0, 1.0, 0.0, 0.0, 0.0, 0.0, 1.0, 1.0, 1.0, 1.0, 0.0, 3.0, 2.0, 3.0, 2.0, 2.0, 1.0, 4.0, 6.0, 5.0, 8.0, 9.0, 7.0, 7.0, 14.0, 10.0, 11.0, 16.0, 31.0, 34.0, 54.0, 113.0, 1298.0, 334.0, 91.0, 67.0, 43.0, 34.0, 23.0, 17.0, 11.0, 8.0, 4.0, 6.0, 2.0, 0.0, 0.0, 2.0, 1.0, 2.0, 3.0, 0.0, 0.0, 1.0, 1.0, 1.0, 3.0, 0.0, 2.0], "bins": [-13.433186531066895, -13.077362060546875, -12.721538543701172, -12.365714073181152, -12.009889602661133, -11.654065132141113, -11.298240661621094, -10.94241714477539, -10.586592674255371, -10.230768203735352, -9.874944686889648, -9.519120216369629, -9.16329574584961, -8.80747127532959, -8.45164680480957, -8.095823287963867, -7.739998817443848, -7.384174346923828, -7.028350353240967, -6.6725263595581055, -6.316701889038086, -5.960877418518066, -5.605053424835205, -5.249229431152344, -4.893404960632324, -4.537580490112305, -4.181756496429443, -3.825932264328003, -3.4701080322265625, -3.114283800125122, -2.7584595680236816, -2.402635335922241, -2.046811103820801, -1.6909868717193604, -1.33516263961792, -0.9793384075164795, -0.6235141754150391, -0.26768994331359863, 0.0881342887878418, 0.4439585208892822, 0.7997827529907227, 1.155606985092163, 1.5114312171936035, 1.867255449295044, 2.2230796813964844, 2.578903913497925, 2.9347281455993652, 3.2905523777008057, 3.646376609802246, 4.002201080322266, 4.358025074005127, 4.713849067687988, 5.069673538208008, 5.425498008728027, 5.781322002410889, 6.13714599609375, 6.4929704666137695, 6.848794937133789, 7.20461893081665, 7.560442924499512, 7.916267395019531, 8.27209186553955, 8.62791633605957, 8.983739852905273, 9.339564323425293]}, "gradients/phi_z.nn_layers.2.bias": {"_type": "histogram", "values": [1.0, 0.0, 0.0, 0.0, 0.0, 0.0, 0.0, 0.0, 0.0, 0.0, 0.0, 0.0, 0.0, 0.0, 0.0, 0.0, 0.0, 0.0, 0.0, 0.0, 0.0, 0.0, 0.0, 0.0, 0.0, 0.0, 0.0, 0.0, 0.0, 1.0, 0.0, 1.0, 0.0, 1.0, 0.0, 1.0, 0.0, 0.0, 1.0, 2.0, 0.0, 0.0, 0.0, 0.0, 0.0, 1.0, 0.0, 2.0, 0.0, 1.0, 2.0, 0.0, 0.0, 1.0, 0.0, 0.0, 0.0, 0.0, 0.0, 0.0, 0.0, 0.0, 0.0, 1.0], "bins": [-0.40335607528686523, -0.39370158314704895, -0.38404712080955505, -0.37439262866973877, -0.3647381365299225, -0.3550836443901062, -0.3454291820526123, -0.335774689912796, -0.32612019777297974, -0.31646570563316345, -0.30681124329566956, -0.29715675115585327, -0.287502259016037, -0.2778477668762207, -0.2681933045387268, -0.2585388123989105, -0.24888435006141663, -0.23922987282276154, -0.22957538068294525, -0.21992090344429016, -0.21026641130447388, -0.2006119340658188, -0.1909574568271637, -0.1813029646873474, -0.17164848744869232, -0.16199401021003723, -0.15233951807022095, -0.14268504083156586, -0.13303056359291077, -0.12337607145309448, -0.11372159421443939, -0.1040671095252037, -0.09441262483596802, -0.08475814014673233, -0.07510365545749664, -0.06544917821884155, -0.055794693529605865, -0.04614020884037018, -0.03648572787642479, -0.0268312469124794, -0.017176762223243713, -0.007522279396653175, 0.0021322034299373627, 0.0117866862565279, 0.02144116908311844, 0.031095653772354126, 0.040750134736299515, 0.050404615700244904, 0.06005910038948059, 0.06971358507871628, 0.07936806976795197, 0.08902254700660706, 0.09867703169584274, 0.10833151638507843, 0.11798599362373352, 0.1276404857635498, 0.1372949630022049, 0.14694944024085999, 0.15660393238067627, 0.16625840961933136, 0.17591288685798645, 0.18556737899780273, 0.19522185623645782, 0.20487633347511292, 0.2145308256149292]}, "gradients/phi_z.nn_layers.2.weight": {"_type": "histogram", "values": [2.0, 0.0, 0.0, 0.0, 1.0, 0.0, 0.0, 1.0, 1.0, 2.0, 0.0, 0.0, 0.0, 1.0, 2.0, 0.0, 1.0, 0.0, 1.0, 0.0, 1.0, 0.0, 0.0, 0.0, 0.0, 0.0, 0.0, 0.0, 0.0, 0.0, 0.0, 2.0, 2.0, 4.0, 3.0, 8.0, 6.0, 10.0, 11.0, 7.0, 2.0, 17.0, 24.0, 94.0, 11.0, 5.0, 17.0, 16.0, 18.0, 9.0, 9.0, 5.0, 3.0, 6.0, 2.0, 1.0, 5.0, 2.0, 4.0, 2.0, 1.0, 0.0, 0.0, 1.0], "bins": [-0.5748119950294495, -0.5616613626480103, -0.5485106706619263, -0.5353600382804871, -0.5222094058990479, -0.5090587735176086, -0.49590811133384705, -0.48275744915008545, -0.46960681676864624, -0.45645618438720703, -0.44330552220344543, -0.43015486001968384, -0.41700422763824463, -0.4038535952568054, -0.3907029330730438, -0.3775522708892822, -0.364401638507843, -0.3512510061264038, -0.3381003439426422, -0.3249496817588806, -0.3117990493774414, -0.2986484169960022, -0.2854977548122406, -0.272347092628479, -0.2591964602470398, -0.2460458129644394, -0.232895165681839, -0.2197445183992386, -0.20659387111663818, -0.19344322383403778, -0.18029257655143738, -0.16714192926883698, -0.15399125218391418, -0.14084060490131378, -0.12768995761871338, -0.11453931033611298, -0.10138866305351257, -0.08823801577091217, -0.07508736848831177, -0.061936721205711365, -0.04878607392311096, -0.03563542664051056, -0.022484779357910156, -0.009334132075309753, 0.0038165152072906494, 0.016967162489891052, 0.030117809772491455, 0.04326845705509186, 0.05641910433769226, 0.06956975162029266, 0.08272039890289307, 0.09587104618549347, 0.10902169346809387, 0.12217234075069427, 0.13532298803329468, 0.14847363531589508, 0.16162428259849548, 0.1747749298810959, 0.1879255771636963, 0.2010762244462967, 0.2142268717288971, 0.2273775190114975, 0.2405281662940979, 0.2536787986755371, 0.2668294608592987]}, "gradients/phi_z.nn_layers.1.bias": {"_type": "histogram", "values": [1.0, 0.0, 0.0, 0.0, 0.0, 0.0, 0.0, 0.0, 0.0, 1.0, 0.0, 0.0, 0.0, 0.0, 0.0, 0.0, 0.0, 0.0, 0.0, 0.0, 0.0, 1.0, 1.0, 0.0, 0.0, 1.0, 0.0, 0.0, 0.0, 0.0, 0.0, 0.0, 0.0, 0.0, 1.0, 0.0, 2.0, 0.0, 0.0, 1.0, 0.0, 1.0, 2.0, 0.0, 0.0, 0.0, 0.0, 1.0, 0.0, 0.0, 0.0, 0.0, 1.0, 0.0, 0.0, 0.0, 0.0, 1.0, 0.0, 0.0, 0.0, 0.0, 3.0, 2.0], "bins": [-0.29700300097465515, -0.29227691888809204, -0.28755083680152893, -0.2828247845172882, -0.2780987024307251, -0.273372620344162, -0.2686465382575989, -0.26392045617103577, -0.25919437408447266, -0.25446829199790955, -0.24974222481250763, -0.24501614272594452, -0.2402900755405426, -0.2355639934539795, -0.23083791136741638, -0.22611182928085327, -0.22138577699661255, -0.21665969491004944, -0.21193362772464752, -0.2072075456380844, -0.2024814784526825, -0.19775539636611938, -0.19302931427955627, -0.18830323219299316, -0.18357716500759125, -0.17885108292102814, -0.17412501573562622, -0.1693989336490631, -0.1646728515625, -0.15994678437709808, -0.15522070229053497, -0.15049463510513306, -0.14576855301856995, -0.14104247093200684, -0.13631640374660492, -0.1315903216600418, -0.1268642544746399, -0.12213817238807678, -0.11741209030151367, -0.11268601566553116, -0.10795994848012924, -0.10323387384414673, -0.09850779175758362, -0.0937817171216011, -0.08905564248561859, -0.08432956784963608, -0.07960349321365356, -0.07487741112709045, -0.07015133649110794, -0.06542526185512543, -0.060699183493852615, -0.0559731051325798, -0.05124703049659729, -0.04652095586061478, -0.041794877499341965, -0.03706879913806915, -0.03234272450208664, -0.027616648003458977, -0.022890571504831314, -0.01816449500620365, -0.013438418507575989, -0.008712342008948326, -0.0039862655103206635, 0.0007398128509521484, 0.005465887486934662]}, "gradients/phi_z.nn_layers.1.weight": {"_type": "histogram", "values": [1.0, 0.0, 1.0, 1.0, 0.0, 1.0, 0.0, 0.0, 0.0, 0.0, 1.0, 0.0, 2.0, 0.0, 0.0, 2.0, 1.0, 0.0, 3.0, 1.0, 1.0, 2.0, 1.0, 5.0, 3.0, 1.0, 0.0, 1.0, 1.0, 3.0, 1.0, 2.0, 6.0, 5.0, 4.0, 7.0, 5.0, 7.0, 7.0, 13.0, 4.0, 5.0, 8.0, 11.0, 8.0, 11.0, 9.0, 4.0, 14.0, 14.0, 8.0, 13.0, 12.0, 7.0, 6.0, 10.0, 9.0, 21.0, 114.0, 18.0, 4.0, 0.0, 0.0, 1.0], "bins": [-0.25935542583465576, -0.2549073398113251, -0.250459223985672, -0.2460111379623413, -0.24156303703784943, -0.23711493611335754, -0.23266685009002686, -0.22821874916553497, -0.2237706482410431, -0.2193225473165512, -0.21487446129322052, -0.21042636036872864, -0.20597825944423676, -0.20153015851974487, -0.19708207249641418, -0.1926339715719223, -0.18818587064743042, -0.18373776972293854, -0.17928968369960785, -0.17484158277511597, -0.17039348185062408, -0.1659453809261322, -0.1614972949028015, -0.15704919397830963, -0.15260110795497894, -0.14815300703048706, -0.14370492100715637, -0.1392568200826645, -0.1348087191581726, -0.13036061823368073, -0.12591253221035004, -0.12146443128585815, -0.11701631546020508, -0.11256822198629379, -0.10812012106180191, -0.10367202758789062, -0.09922392666339874, -0.09477583318948746, -0.09032773971557617, -0.08587963879108429, -0.08143153786659241, -0.07698344439268112, -0.07253534346818924, -0.06808724999427795, -0.06363914906978607, -0.059191055595874786, -0.0547429583966732, -0.05029486119747162, -0.04584677144885063, -0.04139867424964905, -0.036950577050447464, -0.03250247985124588, -0.028054384514689445, -0.02360628731548786, -0.019158191978931427, -0.014710094779729843, -0.01026199758052826, -0.005813900846987963, -0.0013658041134476662, 0.003082292154431343, 0.007530389353632927, 0.01197848655283451, 0.016426581889390945, 0.02087467908859253, 0.025322776287794113]}, "gradients/phi_z.nn_layers.0.bias": {"_type": "histogram", "values": [1.0, 0.0, 1.0, 0.0, 0.0, 0.0, 0.0, 0.0, 1.0, 1.0, 0.0, 1.0, 0.0, 0.0, 0.0, 0.0, 0.0, 1.0, 0.0, 0.0, 1.0, 0.0, 1.0, 1.0, 0.0, 1.0, 2.0, 0.0, 0.0, 1.0, 0.0, 0.0, 0.0, 0.0, 1.0, 0.0, 0.0, 0.0, 1.0, 1.0, 0.0, 1.0, 0.0, 0.0, 0.0, 0.0, 0.0, 0.0, 0.0, 0.0, 0.0, 0.0, 0.0, 0.0, 0.0, 0.0, 0.0, 0.0, 0.0, 0.0, 0.0, 0.0, 0.0, 3.0], "bins": [-0.284706711769104, -0.28024327754974365, -0.2757798433303833, -0.27131643891334534, -0.266853004693985, -0.26238957047462463, -0.2579261362552643, -0.25346270203590393, -0.24899928271770477, -0.24453584849834442, -0.24007242918014526, -0.2356089949607849, -0.23114556074142456, -0.2266821414232254, -0.22221870720386505, -0.2177552878856659, -0.21329185366630554, -0.2088284194469452, -0.20436500012874603, -0.19990156590938568, -0.19543814659118652, -0.19097471237182617, -0.18651127815246582, -0.18204785883426666, -0.1775844246149063, -0.17312099039554596, -0.1686575710773468, -0.16419413685798645, -0.1597307026386261, -0.15526728332042694, -0.1508038491010666, -0.14634042978286743, -0.14187699556350708, -0.13741356134414673, -0.13295014202594757, -0.12848670780658722, -0.12402328103780746, -0.11955985426902771, -0.11509642004966736, -0.1106329932808876, -0.10616955906152725, -0.1017061322927475, -0.09724269807338715, -0.09277927130460739, -0.08831584453582764, -0.08385241776704788, -0.07938899099826813, -0.07492555677890778, -0.07046213001012802, -0.06599870324134827, -0.061535272747278214, -0.05707184225320816, -0.052608415484428406, -0.04814498871564865, -0.0436815582215786, -0.039218127727508545, -0.03475470468401909, -0.030291276052594185, -0.02582784742116928, -0.021364418789744377, -0.016900990158319473, -0.01243756152689457, -0.007974132895469666, -0.0035107042640447617, 0.000952725880779326]}, "gradients/phi_z.nn_layers.0.weight": {"_type": "histogram", "values": [2.0, 0.0, 1.0, 0.0, 0.0, 1.0, 1.0, 0.0, 1.0, 1.0, 0.0, 1.0, 2.0, 2.0, 3.0, 2.0, 3.0, 2.0, 6.0, 4.0, 1.0, 3.0, 6.0, 5.0, 7.0, 11.0, 8.0, 11.0, 8.0, 11.0, 9.0, 4.0, 6.0, 5.0, 10.0, 6.0, 8.0, 14.0, 11.0, 10.0, 12.0, 46.0, 17.0, 10.0, 8.0, 3.0, 6.0, 3.0, 2.0, 7.0, 2.0, 2.0, 0.0, 1.0, 2.0, 2.0, 2.0, 1.0, 1.0, 3.0, 2.0, 0.0, 0.0, 2.0], "bins": [-0.3075104355812073, -0.30013376474380493, -0.2927570939064026, -0.28538042306900024, -0.2780037522315979, -0.27062711119651794, -0.2632504403591156, -0.25587376952171326, -0.2484970986843109, -0.24112042784690857, -0.23374375700950623, -0.22636710107326508, -0.21899043023586273, -0.2116137593984604, -0.20423710346221924, -0.1968604326248169, -0.18948376178741455, -0.1821070909500122, -0.17473042011260986, -0.1673537641763687, -0.15997709333896637, -0.15260042250156403, -0.14522376656532288, -0.13784709572792053, -0.1304704248905182, -0.12309375405311584, -0.1157170906662941, -0.10834042727947235, -0.10096375644207001, -0.09358708560466766, -0.08621042221784592, -0.07883375883102417, -0.07145707309246063, -0.06408040225505829, -0.05670373886823654, -0.049327071756124496, -0.04195040464401245, -0.034573737531900406, -0.02719707041978836, -0.019820403307676315, -0.01244373619556427, -0.005067069083452225, 0.0023095980286598206, 0.009686265140771866, 0.01706293225288391, 0.024439599364995956, 0.031816266477108, 0.03919293358922005, 0.04656960070133209, 0.05394626781344414, 0.06132293492555618, 0.06869959831237793, 0.07607626914978027, 0.08345293998718262, 0.09082960337400436, 0.09820626676082611, 0.10558293759822845, 0.1129596084356308, 0.12033627182245255, 0.1277129352092743, 0.13508960604667664, 0.14246627688407898, 0.14984294772148132, 0.15721960365772247, 0.16459627449512482]}, "gradients/c_means": {"_type": "histogram", "values": [1.0, 1.0, 0.0, 0.0, 0.0, 0.0, 0.0, 0.0, 0.0, 0.0, 0.0, 1.0, 1.0, 1.0, 0.0, 1.0, 0.0, 0.0, 0.0, 0.0, 1.0, 1.0, 1.0, 0.0, 0.0, 1.0, 1.0, 1.0, 2.0, 2.0, 1.0, 3.0, 3.0, 1.0, 3.0, 4.0, 3.0, 4.0, 3.0, 2.0, 2.0, 2.0, 3.0, 4.0, 7.0, 8.0, 8.0, 9.0, 11.0, 12.0, 9.0, 13.0, 7.0, 2.0, 3.0, 3.0, 2.0, 2.0, 2.0, 4.0, 1.0, 1.0, 1.0, 1.0], "bins": [-0.11713050305843353, -0.11524979770183563, -0.11336909234523773, -0.11148838698863983, -0.10960768163204193, -0.10772697627544403, -0.10584627091884613, -0.10396556556224823, -0.10208486020565033, -0.10020415484905243, -0.09832344949245453, -0.09644274413585663, -0.09456203877925873, -0.09268133342266083, -0.09080062806606293, -0.08891992270946503, -0.08703921735286713, -0.08515851199626923, -0.08327780663967133, -0.08139710128307343, -0.07951639592647552, -0.07763569056987762, -0.07575498521327972, -0.07387427985668182, -0.07199358195066452, -0.07011287659406662, -0.06823217123746872, -0.06635146588087082, -0.06447076052427292, -0.06259005516767502, -0.06070934981107712, -0.05882864445447922, -0.05694793537259102, -0.05506723001599312, -0.05318652465939522, -0.05130581930279732, -0.04942511394619942, -0.04754440858960152, -0.045663706958293915, -0.043783001601696014, -0.041902292519807816, -0.040021587163209915, -0.038140881806612015, -0.036260176450014114, -0.034379471093416214, -0.032498765736818314, -0.030618062242865562, -0.028737356886267662, -0.02685665339231491, -0.02497594803571701, -0.02309524267911911, -0.02121453732252121, -0.01933383196592331, -0.01745312660932541, -0.015572423115372658, -0.013691717758774757, -0.011811012402176857, -0.009930307045578957, -0.008049601688981056, -0.0061688972637057304, -0.00428819190710783, -0.0024074865505099297, -0.0005267821252346039, 0.0013539232313632965, 0.0032346281222999096]}, "gradients/log_c_vars": {"_type": "histogram", "values": [1.0, 1.0, 0.0, 0.0, 0.0, 1.0, 1.0, 0.0, 0.0, 0.0, 1.0, 0.0, 0.0, 1.0, 0.0, 0.0, 0.0, 1.0, 0.0, 0.0, 0.0, 1.0, 0.0, 0.0, 0.0, 0.0, 0.0, 0.0, 0.0, 0.0, 0.0, 1.0, 0.0, 0.0, 0.0, 0.0, 0.0, 0.0, 0.0, 0.0, 0.0, 0.0, 0.0, 0.0, 0.0, 0.0, 0.0, 0.0, 0.0, 0.0, 0.0, 0.0, 0.0, 0.0, 0.0, 0.0, 0.0, 0.0, 0.0, 0.0, 0.0, 0.0, 0.0, 1.0], "bins": [-0.04871935769915581, -0.04232063144445419, -0.03592190891504288, -0.029523184522986412, -0.023124460130929947, -0.01672573760151863, -0.010327011346817017, -0.003928285092115402, 0.0024704374372959137, 0.008869161829352379, 0.015267886221408844, 0.02166661061346531, 0.028065335005521774, 0.03446405753493309, 0.040862783789634705, 0.04726151004433632, 0.053660232573747635, 0.06005895882844925, 0.06645768135786057, 0.07285640388727188, 0.0792551338672638, 0.08565385639667511, 0.09205257892608643, 0.09845130145549774, 0.10485002398490906, 0.11124874651432037, 0.11764746904373169, 0.1240461990237236, 0.13044491410255432, 0.13684365153312683, 0.14324237406253815, 0.14964109659194946, 0.15603983402252197, 0.1624385565519333, 0.1688372790813446, 0.17523600161075592, 0.18163472414016724, 0.18803346157073975, 0.19443218410015106, 0.20083090662956238, 0.2072296291589737, 0.213628351688385, 0.22002707421779633, 0.22642579674720764, 0.23282453417778015, 0.23922324180603027, 0.24562197923660278, 0.2520207166671753, 0.2584194242954254, 0.2648181617259979, 0.27121686935424805, 0.27761560678482056, 0.2840143144130707, 0.2904130518436432, 0.2968117594718933, 0.3032104969024658, 0.30960923433303833, 0.31600797176361084, 0.32240667939186096, 0.32880541682243347, 0.3352041244506836, 0.3416028618812561, 0.3480015695095062, 0.35440030694007874, 0.36079901456832886]}, "_runtime": 66.88870525360107, "_step": 11, "train/epoch": 11, "train/loss": -16665.194213867188, "train/loglik": 783.4649047851562, "train/kldiv": -4687.22705078125, "train/out_l": 253.1182403564453, "1/epoch": 2, "1/loss": 74.6245346069336, "1/loglik": -25.61478614807129, "1/kldiv": -0.25361302495002747, "1/out_l": 1.458987832069397, "1/avg_clus_dist": 2.8717827796936035, "1/acc": 0.003335556946694851, "1/macro_f1": [NaN, 0.003335556946694851], "1/micro_f1": [NaN, 0.003335556946694851], "1/Precision_Recall_table": {"_type": "table-file", "sha256": "8a1459f5e829b29438886ce206bb30bb4872e79ea41e830fd3b31ccab1683fba", "size": 1678, "artifact_path": "wandb-client-artifact://kox3zqt2rc3a5guk9np42kkaxllzza7dudyacuw00uuixf5fee04ry40tber82asonc1339f01jjvf00xi2a0juu9xejhgaypueqajuwpk6un7sty9wgqa3oq79nn9pg:latest/1/Precision_Recall_table.table.json", "_latest_artifact_path": "wandb-client-artifact://kox3zqt2rc3a5guk9np42kkaxllzza7dudyacuw00uuixf5fee04ry40tber82asonc1339f01jjvf00xi2a0juu9xejhgaypueqajuwpk6un7sty9wgqa3oq79nn9pg:latest/1/Precision_Recall_table.table.json", "path": "media/table/1/Precision_Recall_table_2_8a1459f5e829b2943888.table.json", "ncols": 3, "nrows": 84}, "1/Receiver_Operating_Char_table": {"_type": "table-file", "sha256": "6d845ae9ccd453d45bca0366dfbffda5693a67c0ba97a15f75f1dec218533c66", "size": 75920, "artifact_path": "wandb-client-artifact://0uao639nnq9tfv7kqrwn34hxu533ct9574oo9q90a1lkfz8dd3vx3aselxiy03irh5xehl5l4fqwv6aezgk1rujs3igdq45rtkik3ef7lqgwu8bjrx96p6tf66n9493m:latest/1/Receiver_Operating_Char_table.table.json", "_latest_artifact_path": "wandb-client-artifact://0uao639nnq9tfv7kqrwn34hxu533ct9574oo9q90a1lkfz8dd3vx3aselxiy03irh5xehl5l4fqwv6aezgk1rujs3igdq45rtkik3ef7lqgwu8bjrx96p6tf66n9493m:latest/1/Receiver_Operating_Char_table.table.json", "path": "media/table/1/Receiver_Operating_Char_table_2_6d845ae9ccd453d45bca.table.json", "ncols": 3, "nrows": 3657}, "2/epoch": 3, "2/loss": 28.279420852661133, "2/loglik": -11.294624328613281, "2/kldiv": -1.3490873575210571, "2/out_l": 1.557191014289856, "2/avg_clus_dist": 2.87712025642395, "2/acc": 0.003335556946694851, "2/macro_f1": [NaN, 0.003335556946694851], "2/micro_f1": [NaN, 0.003335556946694851], "2/Receiver_Operating_Char_table": {"_type": "table-file", "sha256": "91ccfa5276f1f74740a92da03e649027474f8f41a38ff3d54c9f4f4c6f100a17", "size": 78805, "artifact_path": "wandb-client-artifact://j7y33c2u57um0v95eqnrp11a7588qfua1jfvwo4ujek4nzt04bxhrt9uxgatebaetm48gdlhw0abydgeo0gdmelw98kuimyn1r8ionqfvpjljcofabtka6o5df32vbu2:latest/2/Receiver_Operating_Char_table.table.json", "_latest_artifact_path": "wandb-client-artifact://j7y33c2u57um0v95eqnrp11a7588qfua1jfvwo4ujek4nzt04bxhrt9uxgatebaetm48gdlhw0abydgeo0gdmelw98kuimyn1r8ionqfvpjljcofabtka6o5df32vbu2:latest/2/Receiver_Operating_Char_table.table.json", "path": "media/table/2/Receiver_Operating_Char_table_3_91ccfa5276f1f74740a9.table.json", "ncols": 3, "nrows": 3793}, "2/Precision_Recall_table": {"_type": "table-file", "sha256": "084b364837b6fe20ebf9b537c56a778bdeda9e95e427904d5676f8dcbba28fba", "size": 1682, "artifact_path": "wandb-client-artifact://cr7ezh2ih02iw8zkybpiti9wu7pbd7bw9wctt5faigyyt0bsnl7iddx6ll1jn0pz36zc5h8t6sw6fvz94kl9u52zw558w7pxspgxtr8z9bkjkdsgeorkok3yk5oognzf:latest/2/Precision_Recall_table.table.json", "_latest_artifact_path": "wandb-client-artifact://cr7ezh2ih02iw8zkybpiti9wu7pbd7bw9wctt5faigyyt0bsnl7iddx6ll1jn0pz36zc5h8t6sw6fvz94kl9u52zw558w7pxspgxtr8z9bkjkdsgeorkok3yk5oognzf:latest/2/Precision_Recall_table.table.json", "path": "media/table/2/Precision_Recall_table_3_084b364837b6fe20ebf9.table.json", "ncols": 3, "nrows": 84}, "3/epoch": 4, "3/loss": -53.646785736083984, "3/loglik": 11.153840065002441, "3/kldiv": -6.119483470916748, "3/out_l": 1.8268122673034668, "3/avg_clus_dist": 2.8754727840423584, "3/acc": 0.003335556946694851, "3/macro_f1": [NaN, 0.003335556946694851], "3/micro_f1": [NaN, 0.003335556946694851], "3/Receiver_Operating_Char_table": {"_type": "table-file", "sha256": "915c01befbd0507cd28886143c1063a5ce906dc831c91aa605b2e0e2b92ad8de", "size": 75931, "artifact_path": "wandb-client-artifact://85yugla0y7uun0ecgiq3l42polkm47dxrrm8j5jmw3mdp9z5dxjxcdajp83o464koyw4qhbzf2evvls2suksw5iqpb5yw72igdc1rzht8f4em2kw5v5skko92y10rgi6:latest/3/Receiver_Operating_Char_table.table.json", "_latest_artifact_path": "wandb-client-artifact://85yugla0y7uun0ecgiq3l42polkm47dxrrm8j5jmw3mdp9z5dxjxcdajp83o464koyw4qhbzf2evvls2suksw5iqpb5yw72igdc1rzht8f4em2kw5v5skko92y10rgi6:latest/3/Receiver_Operating_Char_table.table.json", "path": "media/table/3/Receiver_Operating_Char_table_4_915c01befbd0507cd288.table.json", "ncols": 3, "nrows": 3655}, "3/Precision_Recall_table": {"_type": "table-file", "sha256": "aa6ab5eec1ed4409e53fe46536719fef1bd69a8466f3baaa2b1bb2e463c801fb", "size": 1681, "artifact_path": "wandb-client-artifact://q6dn63armt58h93pyksxbylf0dxp7qskckzm66ib2hwtfw5dsjg0ze3evt29iub13z0izl7cqdgf1fmzrsl6sg3sy4panhbgumaom184himm67y6lfdwvq73ywf29m6b:latest/3/Precision_Recall_table.table.json", "_latest_artifact_path": "wandb-client-artifact://q6dn63armt58h93pyksxbylf0dxp7qskckzm66ib2hwtfw5dsjg0ze3evt29iub13z0izl7cqdgf1fmzrsl6sg3sy4panhbgumaom184himm67y6lfdwvq73ywf29m6b:latest/3/Precision_Recall_table.table.json", "path": "media/table/3/Precision_Recall_table_4_aa6ab5eec1ed4409e53f.table.json", "ncols": 3, "nrows": 84}, "4/epoch": 5, "4/loss": -248.7652587890625, "4/loglik": 35.10103225708008, "4/kldiv": -47.0706787109375, "4/out_l": 2.250087022781372, "4/avg_clus_dist": 2.8728630542755127, "4/acc": 0.003335556946694851, "4/macro_f1": [NaN, 0.003335556946694851], "4/micro_f1": [NaN, 0.003335556946694851], "4/Receiver_Operating_Char_table": {"_type": "table-file", "sha256": "025cd5b1aa7ef6863c095cadcbf506edba63ace4570327b358d13a9dc71df0ca", "size": 76012, "artifact_path": "wandb-client-artifact://12kxv9n3oy3j625sj8nu91djs9kwocyvcb1h7bbhjlbthb052bdxj1agostgkpgqkaxpphbi7vci3h7oxa621780di8knsvnpyxl0m77y0kkk86ss736jy0bdi9u52uz:latest/4/Receiver_Operating_Char_table.table.json", "_latest_artifact_path": "wandb-client-artifact://12kxv9n3oy3j625sj8nu91djs9kwocyvcb1h7bbhjlbthb052bdxj1agostgkpgqkaxpphbi7vci3h7oxa621780di8knsvnpyxl0m77y0kkk86ss736jy0bdi9u52uz:latest/4/Receiver_Operating_Char_table.table.json", "path": "media/table/4/Receiver_Operating_Char_table_5_025cd5b1aa7ef6863c09.table.json", "ncols": 3, "nrows": 3659}, "4/Precision_Recall_table": {"_type": "table-file", "sha256": "6cf156b04f24363e934ea52c18dcecedff1447bad083ef18d8087e23b8a44c66", "size": 1679, "artifact_path": "wandb-client-artifact://cazpcej5cykms1g00c7kwwd85p2igbmj0wvpj5kzti2nktvh2xahkzbqa7uyaznw2lhf00w0pa2jg8c3mgwmwo0v8qvdhy2sl17pgtbrbrvt2o0xxlaiq694oe30x6w1:latest/4/Precision_Recall_table.table.json", "_latest_artifact_path": "wandb-client-artifact://cazpcej5cykms1g00c7kwwd85p2igbmj0wvpj5kzti2nktvh2xahkzbqa7uyaznw2lhf00w0pa2jg8c3mgwmwo0v8qvdhy2sl17pgtbrbrvt2o0xxlaiq694oe30x6w1:latest/4/Precision_Recall_table.table.json", "path": "media/table/4/Precision_Recall_table_5_6cf156b04f24363e934e.table.json", "ncols": 3, "nrows": 84}, "5/epoch": 6, "5/loss": -604.2899780273438, "5/loglik": 43.1643180847168, "5/kldiv": -157.04566955566406, "5/out_l": 3.659942865371704, "5/avg_clus_dist": 2.867386817932129, "5/acc": 0.003335556946694851, "5/macro_f1": [NaN, 0.003335556946694851], "5/micro_f1": [NaN, 0.003335556946694851], "5/Precision_Recall_table": {"_type": "table-file", "sha256": "6a2ef89bf85cda32f2e1e2dcd0f5d71045a5995f6fe6507fa2bac866dfa90e00", "size": 1667, "artifact_path": "wandb-client-artifact://waxs4v5b42djwg9d7w8z7n236jyansbou66cd6axd5h17k0knr5z8dc1ux0hpljuz5t3d7spd5t4j76d2o89i9r5rv5zi6ed5j9tcixeekh9qzsdmbd1qjseebtnxz5v:latest/5/Precision_Recall_table.table.json", "_latest_artifact_path": "wandb-client-artifact://waxs4v5b42djwg9d7w8z7n236jyansbou66cd6axd5h17k0knr5z8dc1ux0hpljuz5t3d7spd5t4j76d2o89i9r5rv5zi6ed5j9tcixeekh9qzsdmbd1qjseebtnxz5v:latest/5/Precision_Recall_table.table.json", "path": "media/table/5/Precision_Recall_table_6_6a2ef89bf85cda32f2e1.table.json", "ncols": 3, "nrows": 84}, "5/Receiver_Operating_Char_table": {"_type": "table-file", "sha256": "a85a8acbeabf57f0644d5584f20afd8620a7e39f1a9364ca37125beaba368fd7", "size": 77023, "artifact_path": "wandb-client-artifact://24on8vuopyk7mwvstyxwcel4ufdzn8hwviocaowk8b9lob4xmfmu9ovm3vqsyw97vygi5mjvhwmpoqc6isx7ljv2p7fiyucivrflfk0odc54254ip198jkrp0l3arfce:latest/5/Receiver_Operating_Char_table.table.json", "_latest_artifact_path": "wandb-client-artifact://24on8vuopyk7mwvstyxwcel4ufdzn8hwviocaowk8b9lob4xmfmu9ovm3vqsyw97vygi5mjvhwmpoqc6isx7ljv2p7fiyucivrflfk0odc54254ip198jkrp0l3arfce:latest/5/Receiver_Operating_Char_table.table.json", "path": "media/table/5/Receiver_Operating_Char_table_6_a85a8acbeabf57f0644d.table.json", "ncols": 3, "nrows": 3708}, "6/epoch": 7, "6/loss": -887.5917358398438, "6/loglik": 45.54103469848633, "6/kldiv": -247.9333953857422, "6/out_l": 7.168337345123291, "6/avg_clus_dist": 2.866569995880127, "6/acc": 0.003335556946694851, "6/macro_f1": [NaN, 0.003335556946694851], "6/micro_f1": [NaN, 0.003335556946694851], "6/Precision_Recall_table": {"_type": "table-file", "sha256": "afdf72133e734db344a30cdf727cb98cc85c33535fb02d64657a6146d7a88c0a", "size": 1672, "artifact_path": "wandb-client-artifact://hwf6wgatb9dpia3921mqi4tvfktdbzmdkc3i5b8vep334adij849c134fuoa1g88h4dn25zb87x26f6gwaukzs536b5rs4y3mtv7y8xekpmi0pnnidutbjcxah4cf9s2:latest/6/Precision_Recall_table.table.json", "_latest_artifact_path": "wandb-client-artifact://hwf6wgatb9dpia3921mqi4tvfktdbzmdkc3i5b8vep334adij849c134fuoa1g88h4dn25zb87x26f6gwaukzs536b5rs4y3mtv7y8xekpmi0pnnidutbjcxah4cf9s2:latest/6/Precision_Recall_table.table.json", "path": "media/table/6/Precision_Recall_table_7_afdf72133e734db344a3.table.json", "ncols": 3, "nrows": 84}, "6/Receiver_Operating_Char_table": {"_type": "table-file", "sha256": "b2d0d9c7192b83d94f8792744ca2a86d835c78d8959efdc2a923a5141e6e986c", "size": 77706, "artifact_path": "wandb-client-artifact://03nk29vgg5rzaof3yqzzhpkfrva2tivkor4jpbzy8e2khjjbcnldllp0k7nb8b2cx4u8oz3lao4hspzh0m1yirfhndeh2p46x9suvjqz1rf96zh456t3xyssq81bwomt:latest/6/Receiver_Operating_Char_table.table.json", "_latest_artifact_path": "wandb-client-artifact://03nk29vgg5rzaof3yqzzhpkfrva2tivkor4jpbzy8e2khjjbcnldllp0k7nb8b2cx4u8oz3lao4hspzh0m1yirfhndeh2p46x9suvjqz1rf96zh456t3xyssq81bwomt:latest/6/Receiver_Operating_Char_table.table.json", "path": "media/table/6/Receiver_Operating_Char_table_7_b2d0d9c7192b83d94f87.table.json", "ncols": 3, "nrows": 3738}, "7/epoch": 8, "7/loss": -1000.9718017578125, "7/loglik": 47.27885818481445, "7/kldiv": -281.8736267089844, "7/out_l": 13.51430892944336, "7/avg_clus_dist": 2.866849422454834, "7/acc": 0.003335556946694851, "7/macro_f1": [NaN, 0.003335556946694851], "7/micro_f1": [NaN, 0.003335556946694851], "7/Precision_Recall_table": {"_type": "table-file", "sha256": "65efd4a15537cfb958c3dc00fdc1cee3d57dc440f2cf4a797e7b3c5c431b28fa", "size": 1683, "artifact_path": "wandb-client-artifact://q2wfku3u1jpt411kuxgxcj472sveauj5e8mn6727u3ow82lxvrlbiodvyv1y815ymp8c2mr1hfroqwlynwlopxwq46m7ox8u5sx72gcfmvu5d8vb0ld2r20w5qrnldrp:latest/7/Precision_Recall_table.table.json", "_latest_artifact_path": "wandb-client-artifact://q2wfku3u1jpt411kuxgxcj472sveauj5e8mn6727u3ow82lxvrlbiodvyv1y815ymp8c2mr1hfroqwlynwlopxwq46m7ox8u5sx72gcfmvu5d8vb0ld2r20w5qrnldrp:latest/7/Precision_Recall_table.table.json", "path": "media/table/7/Precision_Recall_table_8_65efd4a15537cfb958c3.table.json", "ncols": 3, "nrows": 84}, "7/Receiver_Operating_Char_table": {"_type": "table-file", "sha256": "b5b7d27eead7ff0f6c5081fefc52389a5eaade5d95fae4595f6387718c8452f3", "size": 77211, "artifact_path": "wandb-client-artifact://9lx463tizza61jacgefspbpnjb62xxvy4rsenzz88qwq7o9t32v2fxy08k7m3bkq5cxed78kf92ars8o9mxzrnyvq423v3a8ibvaon5huwohzaavwdhp4u6lnmh6x9e4:latest/7/Receiver_Operating_Char_table.table.json", "_latest_artifact_path": "wandb-client-artifact://9lx463tizza61jacgefspbpnjb62xxvy4rsenzz88qwq7o9t32v2fxy08k7m3bkq5cxed78kf92ars8o9mxzrnyvq423v3a8ibvaon5huwohzaavwdhp4u6lnmh6x9e4:latest/7/Receiver_Operating_Char_table.table.json", "path": "media/table/7/Receiver_Operating_Char_table_8_b5b7d27eead7ff0f6c50.table.json", "ncols": 3, "nrows": 3715}, "8/epoch": 9, "8/loss": -1029.3104248046875, "8/loglik": 48.12147903442383, "8/kldiv": -291.0826721191406, "8/out_l": 11.697903633117676, "8/avg_clus_dist": 2.8683550357818604, "8/acc": 0.003335556946694851, "8/macro_f1": [NaN, 0.003335556946694851], "8/micro_f1": [NaN, 0.003335556946694851], "8/Precision_Recall_table": {"_type": "table-file", "sha256": "26fa7abd2c54d7b138422dee6dbde9e84c08f2bd2336932d585602e8e6680bcd", "size": 1662, "artifact_path": "wandb-client-artifact://spckcqq55jgeasg63oi6h3fd1ujkh8rd6nzk29zur34trb43beaxdc1lf6z5qh76zbajg3cchebmwyiosdkp85no6ikelabmt4i1ff050qclb4i0l7x6s7oqyfrecit4:latest/8/Precision_Recall_table.table.json", "_latest_artifact_path": "wandb-client-artifact://spckcqq55jgeasg63oi6h3fd1ujkh8rd6nzk29zur34trb43beaxdc1lf6z5qh76zbajg3cchebmwyiosdkp85no6ikelabmt4i1ff050qclb4i0l7x6s7oqyfrecit4:latest/8/Precision_Recall_table.table.json", "path": "media/table/8/Precision_Recall_table_9_26fa7abd2c54d7b13842.table.json", "ncols": 3, "nrows": 84}, "8/Receiver_Operating_Char_table": {"_type": "table-file", "sha256": "d635488f796ee490b840503fe44330c6c9dde35748e9d0422df4a2db21b2b5f5", "size": 78156, "artifact_path": "wandb-client-artifact://zeuhfkeerl6omayq9xkazx7qus3okrpjj83faop7595c48dxf2jiytsoiok5ucjwom0cj6llmwv6qsg294py2bdrwccghjx2o55ioa30uwiazdpsn4wns61pow8som5d:latest/8/Receiver_Operating_Char_table.table.json", "_latest_artifact_path": "wandb-client-artifact://zeuhfkeerl6omayq9xkazx7qus3okrpjj83faop7595c48dxf2jiytsoiok5ucjwom0cj6llmwv6qsg294py2bdrwccghjx2o55ioa30uwiazdpsn4wns61pow8som5d:latest/8/Receiver_Operating_Char_table.table.json", "path": "media/table/8/Receiver_Operating_Char_table_9_d635488f796ee490b840.table.json", "ncols": 3, "nrows": 3764}, "9/epoch": 10, "9/loss": -1037.5338134765625, "9/loglik": 48.18800735473633, "9/kldiv": -292.4548034667969, "9/out_l": 15.605375289916992, "9/avg_clus_dist": 2.8678364753723145, "9/acc": 0.003335556946694851, "9/macro_f1": [NaN, 0.003335556946694851], "9/micro_f1": [NaN, 0.003335556946694851], "9/Receiver_Operating_Char_table": {"_type": "table-file", "sha256": "17560b6bf9019c63831aaeaff5b09bac96cffd6a751f5d82daeffc97ca89c3d3", "size": 76325, "artifact_path": "wandb-client-artifact://ry6t0hp8r9pgxx1oz335x17fggirldjpjuyofyi9trhws324ipooelxlnn3xvkcubww0xaf8svlppfccil3p8srvgex6ixfns1v95xv1l6k3c5cpm3y0c77h19o472ri:latest/9/Receiver_Operating_Char_table.table.json", "_latest_artifact_path": "wandb-client-artifact://ry6t0hp8r9pgxx1oz335x17fggirldjpjuyofyi9trhws324ipooelxlnn3xvkcubww0xaf8svlppfccil3p8srvgex6ixfns1v95xv1l6k3c5cpm3y0c77h19o472ri:latest/9/Receiver_Operating_Char_table.table.json", "path": "media/table/9/Receiver_Operating_Char_table_10_17560b6bf9019c63831a.table.json", "ncols": 3, "nrows": 3673}, "9/Precision_Recall_table": {"_type": "table-file", "sha256": "d0955d66895a9c90c9569a87c6cb9c67c25efd55e80bdc30d595aad5e9067a82", "size": 1678, "artifact_path": "wandb-client-artifact://aa2gnuks9toudt2i85a4ht4bdpbrxnoiehket5ol5bx6jmeb5t9qz1onztazlr9ng026w5xr27xrpg9z0p35uixegsxrejkvpwb76ut06xk4jyx1fyn4nu6w6dl8a7h8:latest/9/Precision_Recall_table.table.json", "_latest_artifact_path": "wandb-client-artifact://aa2gnuks9toudt2i85a4ht4bdpbrxnoiehket5ol5bx6jmeb5t9qz1onztazlr9ng026w5xr27xrpg9z0p35uixegsxrejkvpwb76ut06xk4jyx1fyn4nu6w6dl8a7h8:latest/9/Precision_Recall_table.table.json", "path": "media/table/9/Precision_Recall_table_10_d0955d66895a9c90c956.table.json", "ncols": 3, "nrows": 84}, "10/epoch": 11, "10/loss": -1044.3131103515625, "10/loglik": 49.262908935546875, "10/kldiv": -293.5232849121094, "10/out_l": 15.954558372497559, "10/avg_clus_dist": 2.867161273956299, "10/acc": 0.003335556946694851, "10/macro_f1": [NaN, 0.003335556946694851], "10/micro_f1": [NaN, 0.003335556946694851], "10/Receiver_Operating_Char_table": {"_type": "table-file", "sha256": "5746777e3e58e74cf84a9fc27e49ef49c01253e2f724d30e77fc250d67d4483b", "size": 77954, "artifact_path": "wandb-client-artifact://c6xjsdwxue7pw9mlyi2xbzhg0cmgzks2ny5e27itep7igvpa5qaf3wtnxubl2ngnv33kw2vb2l0z1m4tr0ehvvr6d1yc15q0eazdsllobenadv1zqf22z8hhezrziez8:latest/10/Receiver_Operating_Char_table.table.json", "_latest_artifact_path": "wandb-client-artifact://c6xjsdwxue7pw9mlyi2xbzhg0cmgzks2ny5e27itep7igvpa5qaf3wtnxubl2ngnv33kw2vb2l0z1m4tr0ehvvr6d1yc15q0eazdsllobenadv1zqf22z8hhezrziez8:latest/10/Receiver_Operating_Char_table.table.json", "path": "media/table/10/Receiver_Operating_Char_table_11_5746777e3e58e74cf84a.table.json", "ncols": 3, "nrows": 3764}, "10/Precision_Recall_table": {"_type": "table-file", "sha256": "d8987f17a6436b2746aed3a8b0f3f79c95b73ec2419dcc8d7f4177b5410dfdf0", "size": 1680, "artifact_path": "wandb-client-artifact://tlxkfcu8eo1k498hcyk915hcfq9od8niakt5q1na056h0i3eew7rhmamyilc8ohd4nxtnzf7fczz5okpmahuhu3v4sob6eqg7sn7qdff1zez3a3s7o7xwfi79txtwwff:latest/10/Precision_Recall_table.table.json", "_latest_artifact_path": "wandb-client-artifact://tlxkfcu8eo1k498hcyk915hcfq9od8niakt5q1na056h0i3eew7rhmamyilc8ohd4nxtnzf7fczz5okpmahuhu3v4sob6eqg7sn7qdff1zez3a3s7o7xwfi79txtwwff:latest/10/Precision_Recall_table.table.json", "path": "media/table/10/Precision_Recall_table_11_d8987f17a6436b2746ae.table.json", "ncols": 3, "nrows": 84}, "_wandb": {"runtime": 66}}