{"gradients/predictor.nn_layers.2.bias": {"_type": "histogram", "values": [1.0, 0.0, 0.0, 0.0, 0.0, 0.0, 0.0, 0.0, 0.0, 0.0, 0.0, 0.0, 0.0, 0.0, 0.0, 0.0, 0.0, 0.0, 0.0, 0.0, 0.0, 0.0, 0.0, 0.0, 0.0, 0.0, 0.0, 0.0, 0.0, 0.0, 0.0, 0.0, 2.0, 0.0, 0.0, 0.0, 0.0, 0.0, 0.0, 0.0, 0.0, 0.0, 0.0, 0.0, 0.0, 0.0, 0.0, 0.0, 0.0, 0.0, 0.0, 0.0, 0.0, 0.0, 0.0, 0.0, 0.0, 0.0, 0.0, 0.0, 0.0, 0.0, 0.0, 1.0], "bins": [-1.8776680121845857e-07, -1.8190810635587695e-07, -1.7604941149329534e-07, -1.70190702419859e-07, -1.643320075572774e-07, -1.5847331269469578e-07, -1.5261461783211416e-07, -1.4675592296953255e-07, -1.4089721389609622e-07, -1.350385190335146e-07, -1.29179824170933e-07, -1.2332111509749666e-07, -1.1746242023491504e-07, -1.1160372537233343e-07, -1.0574503050975181e-07, -9.98863356471702e-08, -9.402764078458858e-08, -8.816894592200697e-08, -8.2310243953998e-08, -7.645154909141638e-08, -7.059284712340741e-08, -6.47341522608258e-08, -5.887545739824418e-08, -5.3016758982948886e-08, -4.715806767308095e-08, -4.1299369257785656e-08, -3.544067084249036e-08, -2.9581975979908748e-08, -2.3723277564613454e-08, -1.786457914931816e-08, -1.2005884286736546e-08, -6.147185871441252e-09, -2.8846613986388547e-10, 5.5702313872529885e-09, 1.1428928914369862e-08, 1.7287625553308317e-08, 2.314632396860361e-08, 2.9005022383898904e-08, 3.486371724648052e-08, 4.072241566177581e-08, 4.6581121182498464e-08, 5.243981959779376e-08, 5.829851801308905e-08, 6.415721287567067e-08, 7.001591484367964e-08, 7.587460970626125e-08, 8.173330456884287e-08, 8.759199943142448e-08, 9.34506942940061e-08, 9.930938915658771e-08, 1.0516809112459669e-07, 1.110267859871783e-07, 1.1688548795518727e-07, 1.227441828177689e-07, 1.286028776803505e-07, 1.3446157254293212e-07, 1.4032028161636845e-07, 1.4617897647895006e-07, 1.5203767134153168e-07, 1.57896380414968e-07, 1.6375507527754962e-07, 1.6961377014013124e-07, 1.7547246500271285e-07, 1.8133115986529447e-07, 1.8718985472787608e-07]}, "_timestamp": 1686708930.1475744, "gradients/predictor.nn_layers.2.weight": {"_type": "histogram", "values": [2.0, 1.0, 1.0, 0.0, 2.0, 0.0, 0.0, 0.0, 1.0, 0.0, 2.0, 0.0, 1.0, 0.0, 1.0, 0.0, 1.0, 0.0, 0.0, 0.0, 1.0, 0.0, 0.0, 0.0, 0.0, 0.0, 0.0, 0.0, 0.0, 0.0, 0.0, 1.0, 53.0, 0.0, 0.0, 0.0, 0.0, 0.0, 0.0, 0.0, 0.0, 0.0, 0.0, 1.0, 0.0, 0.0, 0.0, 1.0, 0.0, 1.0, 0.0, 1.0, 0.0, 2.0, 0.0, 1.0, 0.0, 0.0, 0.0, 2.0, 0.0, 1.0, 1.0, 2.0], "bins": [-1.6556136870349292e-06, -1.603953478479525e-06, -1.552293269924121e-06, -1.5006331750555546e-06, -1.4489729665001505e-06, -1.3973127579447464e-06, -1.34565266307618e-06, -1.293992454520776e-06, -1.2423322459653718e-06, -1.1906720374099677e-06, -1.1390118288545636e-06, -1.0873517339859973e-06, -1.0356915254305932e-06, -9.84031316875189e-07, -9.323711651632038e-07, -8.807110134512186e-07, -8.290508048958145e-07, -7.773905963404104e-07, -7.257304446284252e-07, -6.740702929164399e-07, -6.224100843610358e-07, -5.707498758056317e-07, -5.190897240936465e-07, -4.6742954395995184e-07, -4.157693638262572e-07, -3.641091836925625e-07, -3.1244900355886784e-07, -2.607888234251732e-07, -2.091286432914785e-07, -1.5746846315778384e-07, -1.0580828302408918e-07, -5.414810289039451e-08, -2.487922756699845e-09, 4.917225737699482e-08, 1.0083243751068949e-07, 1.5249261764438415e-07, 2.0415279777807882e-07, 2.558129779117735e-07, 3.0747315804546815e-07, 3.591333381791628e-07, 4.107935183128575e-07, 4.6245369844655215e-07, 5.141138785802468e-07, 5.657740302922321e-07, 6.174342388476362e-07, 6.690944474030402e-07, 7.207545991150255e-07, 7.724147508270107e-07, 8.240749593824148e-07, 8.757351679378189e-07, 9.273953196498042e-07, 9.790554713617894e-07, 1.0307156799171935e-06, 1.0823758884725976e-06, 1.134035983341164e-06, 1.185696191896568e-06, 1.2373564004519721e-06, 1.2890166090073762e-06, 1.3406768175627803e-06, 1.3923369124313467e-06, 1.4439971209867508e-06, 1.495657329542155e-06, 1.5473174244107213e-06, 1.5989776329661254e-06, 1.6506378415215295e-06]}, "gradients/predictor.nn_layers.1.bias": {"_type": "histogram", "values": [1.0, 0.0, 1.0, 0.0, 0.0, 0.0, 1.0, 0.0, 0.0, 0.0, 0.0, 0.0, 1.0, 0.0, 0.0, 0.0, 1.0, 1.0, 0.0, 0.0, 1.0, 1.0, 0.0, 0.0, 0.0, 0.0, 0.0, 1.0, 0.0, 0.0, 0.0, 1.0, 0.0, 1.0, 0.0, 1.0, 0.0, 0.0, 0.0, 0.0, 0.0, 0.0, 0.0, 0.0, 0.0, 0.0, 0.0, 0.0, 0.0, 0.0, 0.0, 0.0, 0.0, 0.0, 1.0, 0.0, 0.0, 0.0, 6.0, 0.0, 0.0, 0.0, 0.0, 1.0], "bins": [-1.0823087848166324e-07, -1.0637845093697251e-07, -1.0452602339228179e-07, -1.0267359584759106e-07, -1.0082116830290033e-07, -9.89687407582096e-08, -9.711631321351888e-08, -9.526388566882815e-08, -9.341145812413743e-08, -9.15590305794467e-08, -8.970660303475597e-08, -8.785417549006524e-08, -8.600174794537452e-08, -8.414932040068379e-08, -8.229689285599306e-08, -8.044446531130234e-08, -7.859204487203897e-08, -7.673961732734824e-08, -7.488718978265752e-08, -7.303476223796679e-08, -7.118233469327606e-08, -6.932990714858533e-08, -6.747747960389461e-08, -6.562505205920388e-08, -6.377262451451315e-08, -6.192019696982243e-08, -6.00677694251317e-08, -5.8215341880440974e-08, -5.636291433575025e-08, -5.451048679105952e-08, -5.2658059246368794e-08, -5.0805635254391746e-08, -4.895320770970102e-08, -4.710078016501029e-08, -4.5248352620319565e-08, -4.339592507562884e-08, -4.154349753093811e-08, -3.9691073538961064e-08, -3.783864599427034e-08, -3.598621844957961e-08, -3.413379090488888e-08, -3.2281363360198156e-08, -3.042893581550743e-08, -2.8576508270816703e-08, -2.6724082502482815e-08, -2.487165495779209e-08, -2.3019227413101362e-08, -2.1166801644767474e-08, -1.9314372323719908e-08, -1.746194477902918e-08, -1.5609517234338455e-08, -1.3757090577826148e-08, -1.190466392131384e-08, -1.0052236376623114e-08, -8.199808831932387e-09, -6.34738217542008e-09, -4.494954630729353e-09, -2.642527530127836e-09, -7.901002074817143e-10, 1.0623271151644076e-09, 2.9147542157659245e-09, 4.7671813163674415e-09, 6.619608861058168e-09, 8.472035517570475e-09, 1.0324463062261202e-08]}, "gradients/predictor.nn_layers.1.weight": {"_type": "histogram", "values": [1.0, 0.0, 1.0, 0.0, 0.0, 0.0, 2.0, 1.0, 1.0, 1.0, 1.0, 1.0, 2.0, 2.0, 0.0, 2.0, 1.0, 2.0, 3.0, 3.0, 4.0, 4.0, 4.0, 4.0, 1.0, 6.0, 3.0, 10.0, 4.0, 10.0, 4.0, 8.0, 5.0, 7.0, 4.0, 9.0, 8.0, 12.0, 10.0, 5.0, 4.0, 7.0, 8.0, 5.0, 7.0, 8.0, 3.0, 1.0, 0.0, 2.0, 1.0, 0.0, 1.0, 2.0, 7.0, 9.0, 8.0, 13.0, 152.0, 0.0, 1.0, 7.0, 5.0, 3.0], "bins": [-4.6121388663777907e-07, -4.5331938736126176e-07, -4.454249165064539e-07, -4.375304172299366e-07, -4.296359463751287e-07, -4.217414470986114e-07, -4.138469762438035e-07, -4.059524769672862e-07, -3.980580061124783e-07, -3.90163506835961e-07, -3.8226903598115314e-07, -3.7437453670463583e-07, -3.6648006584982795e-07, -3.5858556657331064e-07, -3.5069109571850277e-07, -3.4279659644198546e-07, -3.3490209716546815e-07, -3.2700759788895084e-07, -3.1911312703414296e-07, -3.1121862775762565e-07, -3.033241569028178e-07, -2.9542965762630047e-07, -2.875351867714926e-07, -2.796406874949753e-07, -2.717462166401674e-07, -2.638517173636501e-07, -2.559572465088422e-07, -2.480627472323249e-07, -2.4016827637751703e-07, -2.3227379131185444e-07, -2.2437930624619185e-07, -2.1648480696967454e-07, -2.0859033611486666e-07, -2.0069585104920407e-07, -1.9280136598354147e-07, -1.8490688091787888e-07, -1.7701239585221629e-07, -1.691179107865537e-07, -1.612234257208911e-07, -1.533289264443738e-07, -1.4543445558956591e-07, -1.3753997052390332e-07, -1.2964548545824073e-07, -1.2175100039257813e-07, -1.1385651532691554e-07, -1.0596203026125295e-07, -9.8067538090163e-08, -9.01730530245004e-08, -8.227856795883781e-08, -7.438408289317522e-08, -6.648959782751263e-08, -5.8595109209136353e-08, -5.070062414347376e-08, -4.280613907781117e-08, -3.4911650459434895e-08, -2.7017165393772302e-08, -1.912268032810971e-08, -1.1228194374268696e-08, -3.3337084204276834e-09, 4.560778421591749e-09, 1.2455263487254342e-08, 2.0349748552916935e-08, 2.8244237171293207e-08, 3.61387222369558e-08, 4.4033207302618393e-08]}, "gradients/predictor.nn_layers.0.bias": {"_type": "histogram", "values": [1.0, 0.0, 0.0, 0.0, 0.0, 0.0, 1.0, 0.0, 0.0, 0.0, 0.0, 1.0, 0.0, 0.0, 1.0, 0.0, 0.0, 0.0, 0.0, 1.0, 0.0, 1.0, 1.0, 1.0, 1.0, 1.0, 0.0, 1.0, 3.0, 0.0, 0.0, 0.0, 1.0, 0.0, 1.0, 0.0, 0.0, 0.0, 0.0, 0.0, 0.0, 0.0, 1.0, 0.0, 0.0, 0.0, 0.0, 0.0, 1.0, 0.0, 0.0, 0.0, 0.0, 0.0, 0.0, 0.0, 0.0, 0.0, 0.0, 0.0, 0.0, 0.0, 0.0, 2.0], "bins": [-1.9963368913522572e-07, -1.9651440652523888e-07, -1.9339513812610676e-07, -1.9027585551611992e-07, -1.871565871169878e-07, -1.8403730450700095e-07, -1.8091803610786883e-07, -1.77798753497882e-07, -1.7467948509874986e-07, -1.7156020248876303e-07, -1.684409340896309e-07, -1.6532165147964406e-07, -1.6220238308051194e-07, -1.590831004705251e-07, -1.5596383207139297e-07, -1.5284454946140613e-07, -1.497252668514193e-07, -1.4660598424143245e-07, -1.4348671584230033e-07, -1.403674332323135e-07, -1.3724816483318136e-07, -1.3412888222319452e-07, -1.310096138240624e-07, -1.2789033121407556e-07, -1.2477104860408872e-07, -1.2165176599410188e-07, -1.1853249759496975e-07, -1.1541322209041027e-07, -1.1229394658585079e-07, -1.0917466397586395e-07, -1.0605538847130447e-07, -1.0293611296674499e-07, -9.981684456761286e-08, -9.669756906305338e-08, -9.35782935584939e-08, -9.045901805393441e-08, -8.733974254937493e-08, -8.422045993938809e-08, -8.110118443482861e-08, -7.798190893026913e-08, -7.486263342570965e-08, -7.174335792115016e-08, -6.862408241659068e-08, -6.55048069120312e-08, -6.238552430204436e-08, -5.9266252350198556e-08, -5.6146973292925395e-08, -5.302769778836591e-08, -4.990842228380643e-08, -4.678914677924695e-08, -4.3669871274687466e-08, -4.0550592217414305e-08, -3.743131671285482e-08, -3.431204120829534e-08, -3.119276215102218e-08, -2.8073486646462698e-08, -2.4954211141903215e-08, -2.1834935637343733e-08, -1.871565835642741e-08, -1.559638107551109e-08, -1.2477105570951608e-08, -9.357830066392125e-09, -6.238552785475804e-09, -3.1192755045594822e-09, 0.0]}, "gradients/predictor.nn_layers.0.weight": {"_type": "histogram", "values": [1.0, 0.0, 0.0, 1.0, 0.0, 0.0, 1.0, 1.0, 2.0, 0.0, 3.0, 4.0, 5.0, 8.0, 3.0, 13.0, 10.0, 10.0, 16.0, 23.0, 24.0, 30.0, 33.0, 31.0, 42.0, 31.0, 30.0, 33.0, 30.0, 33.0, 54.0, 51.0, 64.0, 89.0, 89.0, 58.0, 177.0, 19.0, 37.0, 32.0, 29.0, 17.0, 26.0, 25.0, 17.0, 25.0, 15.0, 7.0, 5.0, 6.0, 3.0, 6.0, 2.0, 2.0, 2.0, 1.0, 0.0, 1.0, 0.0, 1.0, 1.0, 0.0, 0.0, 1.0], "bins": [-4.394558743570087e-07, -4.2732582983262546e-07, -4.151957853082422e-07, -4.0306574078385893e-07, -3.9093569625947566e-07, -3.788056517350924e-07, -3.666755787889997e-07, -3.5454553426461644e-07, -3.4241548974023317e-07, -3.302854452158499e-07, -3.1815540069146664e-07, -3.0602535616708337e-07, -2.938953116427001e-07, -2.8176526711831684e-07, -2.696352225939336e-07, -2.575051780695503e-07, -2.4537513354516705e-07, -2.3324508902078378e-07, -2.2111504449640051e-07, -2.0898499997201725e-07, -1.9685495544763398e-07, -1.8472491092325072e-07, -1.7259485218801274e-07, -1.6046480766362947e-07, -1.483347489283915e-07, -1.3620470440400823e-07, -1.2407465987962496e-07, -1.1194460824981434e-07, -9.981456372543107e-08, -8.76845192010478e-08, -7.555446757123718e-08, -6.342442304685392e-08, -5.12944211550348e-08, -3.916437663065153e-08, -2.7034328553554587e-08, -1.4904280476457643e-08, -2.7742359520743776e-09, 9.355808572308888e-09, 2.148586020211951e-08, 3.3615904726502777e-08, 4.574593504003133e-08, 5.787597956441459e-08, 7.000602408879786e-08, 8.213607571860848e-08, 9.426612024299175e-08, 1.0639616476737501e-07, 1.1852621639718564e-07, 1.306562609215689e-07, 1.4278631965680688e-07, 1.5491636418119015e-07, 1.670464087055734e-07, 1.7917645322995668e-07, 1.9130649775433994e-07, 2.034365422787232e-07, 2.155666010139612e-07, 2.2769664553834446e-07, 2.3982670427358244e-07, 2.519567487979657e-07, 2.6408679332234897e-07, 2.7621683784673223e-07, 2.883468823711155e-07, 3.0047692689549876e-07, 3.1260697141988203e-07, 3.247370159442653e-07, 3.3686706046864856e-07]}, "gradients/cell_update.nn_layers.2.bias": {"_type": "histogram", "values": [1.0, 0.0, 0.0, 0.0, 0.0, 0.0, 0.0, 0.0, 0.0, 0.0, 0.0, 0.0, 1.0, 0.0, 0.0, 0.0, 0.0, 0.0, 0.0, 0.0, 0.0, 0.0, 0.0, 1.0, 55.0, 3.0, 1.0, 0.0, 0.0, 0.0, 0.0, 0.0, 0.0, 0.0, 0.0, 0.0, 0.0, 0.0, 0.0, 0.0, 0.0, 0.0, 0.0, 0.0, 0.0, 0.0, 0.0, 0.0, 0.0, 0.0, 0.0, 0.0, 0.0, 0.0, 0.0, 0.0, 1.0, 0.0, 0.0, 0.0, 0.0, 0.0, 0.0, 1.0], "bins": [-0.0008667283109389246, -0.0008316317107528448, -0.0007965351105667651, -0.0007614385103806853, -0.0007263419101946056, -0.0006912453100085258, -0.000656148768030107, -0.0006210521096363664, -0.0005859555676579475, -0.0005508589674718678, -0.0005157623672857881, -0.0004806657670997083, -0.0004455691669136286, -0.00041047256672754884, -0.00037537599564529955, -0.0003402793954592198, -0.0003051827661693096, -0.0002700861659832299, -0.00023498956579715014, -0.00019989298016298562, -0.00016479637997690588, -0.00012969977979082614, -9.460319415666163e-05, -5.950659397058189e-05, -2.4410022888332605e-05, 1.0686573659768328e-05, 4.578317020786926e-05, 8.087976311799139e-05, 0.00011597636330407113, 0.00015107296349015087, 0.00018616954912431538, 0.00022126614931039512, 0.0002563627203926444, 0.00029145932057872415, 0.0003265559207648039, 0.0003616525209508836, 0.00039674912113696337, 0.0004318457213230431, 0.0004669422924052924, 0.0005020388634875417, 0.0005371355218812823, 0.0005722321220673621, 0.0006073287222534418, 0.0006424253224395216, 0.0006775219226256013, 0.000712618522811681, 0.0007477151229977608, 0.0007828116649761796, 0.0008179082651622593, 0.0008530048653483391, 0.0008881014655344188, 0.0009231980657204986, 0.0009582946659065783, 0.000993391266092658, 0.0010284878080710769, 0.0010635844664648175, 0.0010986810084432364, 0.0011337775504216552, 0.0011688742088153958, 0.0012039707507938147, 0.0012390674091875553, 0.0012741639511659741, 0.0013092606095597148, 0.0013443571515381336, 0.0013794538099318743]}, "gradients/cell_update.nn_layers.2.weight": {"_type": "histogram", "values": [1.0, 0.0, 0.0, 1.0, 0.0, 0.0, 0.0, 2.0, 1.0, 1.0, 3.0, 1.0, 0.0, 1.0, 0.0, 3.0, 5.0, 0.0, 0.0, 1.0, 0.0, 0.0, 2.0, 1196.0, 38.0, 4.0, 0.0, 0.0, 0.0, 0.0, 0.0, 0.0, 1.0, 0.0, 0.0, 0.0, 1.0, 0.0, 0.0, 0.0, 3.0, 1.0, 1.0, 2.0, 0.0, 0.0, 2.0, 2.0, 1.0, 1.0, 1.0, 1.0, 1.0, 0.0, 0.0, 0.0, 0.0, 1.0, 0.0, 0.0, 0.0, 0.0, 0.0, 1.0], "bins": [-0.013966633938252926, -0.01338062435388565, -0.012794614769518375, -0.0122086051851511, -0.01162259466946125, -0.011036585085093975, -0.0104505755007267, -0.00986456498503685, -0.00927855633199215, -0.008692546747624874, -0.008106537163257599, -0.007520527113229036, -0.006934517063200474, -0.0063485074788331985, -0.005762497894465923, -0.005176487844437361, -0.004590477794408798, -0.004004468210041523, -0.0034184581600129604, -0.002832448575645685, -0.0022464387584477663, -0.0016604289412498474, -0.0010744193568825722, -0.0004884093068540096, 9.75998118519783e-05, 0.0006836095708422363, 0.0012696193298324943, 0.0018556290306150913, 0.00244163884781301, 0.003027648665010929, 0.0036136582493782043, 0.004199668299406767, 0.004785679280757904, 0.005371688865125179, 0.005957698915153742, 0.006543708499521017, 0.00712971854954958, 0.007715728133916855, 0.00830173771828413, 0.008887747302651405, 0.009473757818341255, 0.01005976740270853, 0.010645776987075806, 0.011231787502765656, 0.01181779708713293, 0.012403806671500206, 0.012989816255867481, 0.013575825840234756, 0.014161835424602032, 0.014747845008969307, 0.015333854593336582, 0.015919864177703857, 0.016505874693393707, 0.017091885209083557, 0.017677893862128258, 0.018263904377818108, 0.018849913030862808, 0.019435923546552658, 0.02002193219959736, 0.02060794271528721, 0.02119395136833191, 0.02177996188402176, 0.02236597239971161, 0.02295198105275631, 0.02353799156844616]}, "gradients/cell_update.nn_layers.1.bias": {"_type": "histogram", "values": [1.0, 0.0, 0.0, 0.0, 0.0, 0.0, 0.0, 0.0, 0.0, 0.0, 0.0, 0.0, 0.0, 0.0, 0.0, 0.0, 0.0, 0.0, 0.0, 0.0, 1.0, 0.0, 0.0, 0.0, 1.0, 0.0, 0.0, 0.0, 0.0, 1.0, 0.0, 0.0, 0.0, 0.0, 0.0, 0.0, 0.0, 0.0, 10.0, 0.0, 0.0, 1.0, 0.0, 0.0, 0.0, 0.0, 0.0, 0.0, 1.0, 0.0, 0.0, 0.0, 0.0, 0.0, 1.0, 0.0, 2.0, 0.0, 0.0, 0.0, 0.0, 0.0, 0.0, 1.0], "bins": [-0.00033494678791612387, -0.0003262729733251035, -0.0003175991296302527, -0.0003089253150392324, -0.00030025147134438157, -0.0002915776567533612, -0.0002829038421623409, -0.0002742299984674901, -0.00026555618387646973, -0.0002568823692854494, -0.0002482085255905986, -0.00023953471099957824, -0.00023086088185664266, -0.0002221870527137071, -0.00021351322357077152, -0.00020483939442783594, -0.00019616556528490037, -0.0001874917361419648, -0.00017881790699902922, -0.00017014407785609365, -0.0001614702632650733, -0.00015279643412213773, -0.00014412260497920215, -0.00013544877583626658, -0.000126774946693331, -0.00011810111755039543, -0.00010942729568341747, -0.0001007534665404819, -9.207964467350394e-05, -8.340581553056836e-05, -7.473198638763279e-05, -6.605815724469721e-05, -5.738432810176164e-05, -4.871050259680487e-05, -4.0036677091848105e-05, -3.136284794891253e-05, -2.2689022443955764e-05, -1.4015196938998997e-05, -5.341367796063423e-06, 3.332457708893344e-06, 1.2006275937892497e-05, 2.0680101442849264e-05, 2.9353928766795434e-05, 3.8027756090741605e-05, 4.670158159569837e-05, 5.537540710065514e-05, 6.404923624359071e-05, 7.272306538652629e-05, 8.139689452946186e-05, 9.007072367239743e-05, 9.87445455393754e-05, 0.00010741837468231097, 0.00011609219654928893, 0.0001247660256922245, 0.00013343985483516008, 0.00014211368397809565, 0.000150787498569116, 0.00015946132771205157, 0.00016813515685498714, 0.0001768089714460075, 0.00018548280058894306, 0.00019415662973187864, 0.0002028304588748142, 0.00021150428801774979, 0.00022017811716068536]}, "gradients/cell_update.nn_layers.1.weight": {"_type": "histogram", "values": [1.0, 0.0, 0.0, 1.0, 0.0, 2.0, 2.0, 1.0, 1.0, 0.0, 1.0, 0.0, 0.0, 1.0, 0.0, 0.0, 0.0, 0.0, 0.0, 0.0, 0.0, 0.0, 0.0, 1.0, 2.0, 5.0, 5.0, 4.0, 3.0, 1.0, 1.0, 3.0, 5.0, 1.0, 0.0, 2.0, 0.0, 1.0, 0.0, 290.0, 1.0, 1.0, 2.0, 8.0, 3.0, 2.0, 1.0, 6.0, 1.0, 2.0, 1.0, 5.0, 5.0, 4.0, 7.0, 5.0, 2.0, 2.0, 1.0, 2.0, 3.0, 1.0, 0.0, 1.0], "bins": [-0.003817066317424178, -0.003720138454809785, -0.003623210359364748, -0.0035262824967503548, -0.003429354401305318, -0.0033324265386909246, -0.0032354984432458878, -0.0031385705806314945, -0.0030416427180171013, -0.002944714855402708, -0.002847786759957671, -0.002750858897343278, -0.002653930801898241, -0.002557002939283848, -0.0024600750766694546, -0.0023631469812244177, -0.002266218885779381, -0.0021692910231649876, -0.0020723629277199507, -0.0019754350651055574, -0.0018785069696605206, -0.0017815791070461273, -0.0016846511280164123, -0.0015877231489866972, -0.001490795286372304, -0.001393867307342589, -0.0012969393283128738, -0.0012000114656984806, -0.0011030833702534437, -0.0010061555076390505, -0.0009092275286093354, -0.0008122995495796204, -0.0007153716869652271, -0.0006184437079355121, -0.000521515728905797, -0.00042458780808374286, -0.0003276598290540278, -0.00023073185002431273, -0.0001338039292022586, -3.6875950172543526e-05, 6.005214527249336e-05, 0.0001569801097502932, 0.00025390807422809303, 0.00035083602415397763, 0.0004477640031836927, 0.0005446919822134078, 0.0006416199030354619, 0.000738547882065177, 0.0008354757446795702, 0.0009324037237092853, 0.0010293317027390003, 0.0011262595653533936, 0.0012231876607984304, 0.0013201155234128237, 0.0014170435024425387, 0.0015139714814722538, 0.0016108994605019689, 0.001707827439531684, 0.001804755418561399, 0.001901683397591114, 0.0019986112602055073, 0.002095539355650544, 0.0021924672182649374, 0.0022893953137099743, 0.0023863231763243675]}, "gradients/cell_update.nn_layers.0.bias": {"_type": "histogram", "values": [1.0, 0.0, 0.0, 0.0, 9.0, 0.0, 1.0, 1.0, 0.0, 0.0, 1.0, 1.0, 0.0, 1.0, 0.0, 0.0, 0.0, 0.0, 0.0, 0.0, 0.0, 0.0, 0.0, 0.0, 0.0, 1.0, 0.0, 0.0, 0.0, 0.0, 2.0, 0.0, 0.0, 0.0, 0.0, 0.0, 0.0, 0.0, 0.0, 0.0, 0.0, 0.0, 0.0, 0.0, 0.0, 0.0, 1.0, 0.0, 0.0, 0.0, 0.0, 0.0, 0.0, 0.0, 0.0, 0.0, 0.0, 0.0, 0.0, 0.0, 0.0, 0.0, 0.0, 1.0], "bins": [-9.271136150346138e-06, -7.0117002906044945e-06, -4.752264885610202e-06, -2.49282948061591e-06, -2.3339362087426707e-07, 2.026042238867376e-06, 4.285477189114317e-06, 6.54491304885596e-06, 8.804348908597603e-06, 1.1063784768339247e-05, 1.332322062808089e-05, 1.5582656487822533e-05, 1.7842092347564176e-05, 2.010152820730582e-05, 2.236096224805806e-05, 2.46203981077997e-05, 2.6879833967541344e-05, 2.9139269827282988e-05, 3.139870386803523e-05, 3.365813972777687e-05, 3.591757558751851e-05, 3.8177011447260156e-05, 4.04364473070018e-05, 4.269588316674344e-05, 4.4955319026485085e-05, 4.721475488622673e-05, 4.947419074596837e-05, 5.1733626605710015e-05, 5.399306246545166e-05, 5.62524983251933e-05, 5.8511934184934944e-05, 6.077136640669778e-05, 6.303079862846062e-05, 6.529023085022345e-05, 6.75496703479439e-05, 6.980910256970674e-05, 7.206854206742719e-05, 7.432797428919002e-05, 7.658741378691047e-05, 7.884684600867331e-05, 8.110628550639376e-05, 8.33657177281566e-05, 8.562515722587705e-05, 8.788458944763988e-05, 9.014402894536033e-05, 9.240346116712317e-05, 9.466290066484362e-05, 9.692233288660645e-05, 9.918176510836929e-05, 0.00010144119733013213, 0.00010370063682785258, 0.00010596006904961541, 0.00010821950854733586, 0.0001104789407690987, 0.00011273838026681915, 0.00011499781248858199, 0.00011725725198630244, 0.00011951668420806527, 0.00012177612370578572, 0.00012403556320350617, 0.000126294995425269, 0.00012855442764703184, 0.00013081385986879468, 0.00013307330664247274, 0.00013533273886423558]}, "gradients/cell_update.nn_layers.0.weight": {"_type": "histogram", "values": [39.0, 4.0, 2.0, 4.0, 3.0, 4.0, 1.0, 1.0, 0.0, 46.0, 12.0, 10.0, 7.0, 7.0, 4.0, 4.0, 5.0, 72.0, 30.0, 12.0, 65.0, 11.0, 25.0, 14.0, 11.0, 31.0, 37.0, 77.0, 130.0, 78.0, 202.0, 76.0, 1796.0, 201.0, 84.0, 131.0, 83.0, 33.0, 28.0, 23.0, 23.0, 24.0, 23.0, 56.0, 22.0, 34.0, 82.0, 3.0, 2.0, 5.0, 7.0, 7.0, 13.0, 16.0, 50.0, 2.0, 3.0, 6.0, 4.0, 1.0, 5.0, 5.0, 3.0, 41.0], "bins": [-0.00013489334378391504, -0.0001306779304286465, -0.00012646251707337797, -0.0001222470891661942, -0.00011803167581092566, -0.00011381626245565712, -0.00010960084182443097, -0.00010538542119320482, -0.00010117000783793628, -9.695459448266774e-05, -9.273917385144159e-05, -8.852375322021544e-05, -8.43083398649469e-05, -8.009292650967836e-05, -7.587750587845221e-05, -7.166208524722606e-05, -6.744667189195752e-05, -6.323125853668898e-05, -5.901583790546283e-05, -5.4800420912215486e-05, -5.058500391896814e-05, -4.6369586925720796e-05, -4.215416993247345e-05, -3.7938752939226106e-05, -3.372333594597876e-05, -2.9507918952731416e-05, -2.529250195948407e-05, -2.1077084966236725e-05, -1.686166797298938e-05, -1.2646250979742035e-05, -8.43083398649469e-06, -4.215416993247345e-06, 0.0, 4.215416993247345e-06, 8.43083398649469e-06, 1.2646250979742035e-05, 1.686166797298938e-05, 2.1077084966236725e-05, 2.529250195948407e-05, 2.9507918952731416e-05, 3.372333594597876e-05, 3.7938752939226106e-05, 4.215416993247345e-05, 4.6369586925720796e-05, 5.058500391896814e-05, 5.4800420912215486e-05, 5.901583790546283e-05, 6.323125853668898e-05, 6.744667189195752e-05, 7.166208524722606e-05, 7.587750587845221e-05, 8.009292650967836e-05, 8.43083398649469e-05, 8.852375322021544e-05, 9.273917385144159e-05, 9.695459448266774e-05, 0.00010117000783793628, 0.00010538542119320482, 0.00010960084182443097, 0.00011381626245565712, 0.00011803167581092566, 0.0001222470891661942, 0.00012646251707337797, 0.0001306779304286465, 0.00013489334378391504]}, "gradients/encoder.nn_layers.2.bias": {"_type": "histogram", "values": [1.0, 0.0, 0.0, 1.0, 0.0, 0.0, 0.0, 0.0, 0.0, 0.0, 0.0, 3.0, 0.0, 0.0, 1.0, 1.0, 0.0, 0.0, 0.0, 0.0, 0.0, 0.0, 0.0, 0.0, 0.0, 0.0, 1.0, 0.0, 0.0, 0.0, 0.0, 0.0, 0.0, 0.0, 0.0, 0.0, 1.0, 0.0, 0.0, 0.0, 0.0, 0.0, 0.0, 0.0, 0.0, 0.0, 0.0, 0.0, 0.0, 0.0, 0.0, 0.0, 0.0, 0.0, 0.0, 0.0, 0.0, 0.0, 0.0, 0.0, 0.0, 0.0, 0.0, 1.0], "bins": [-0.03303110599517822, -0.031347546726465225, -0.029663989320397377, -0.02798043005168438, -0.02629687264561653, -0.024613313376903534, -0.022929754108190536, -0.02124619483947754, -0.01956263743340969, -0.017879078164696693, -0.016195520758628845, -0.014511961489915848, -0.012828403152525425, -0.011144844815135002, -0.009461285546422005, -0.007777727209031582, -0.006094168871641159, -0.004410610534250736, -0.002727051731199026, -0.001043492928147316, 0.0006400654092431068, 0.0023236237466335297, 0.004007183015346527, 0.00569074135273695, 0.007374301552772522, 0.009057859890162945, 0.010741418227553368, 0.012424977496266365, 0.014108535833656788, 0.01579209417104721, 0.017475653439760208, 0.019159212708473206, 0.020842768251895905, 0.022526327520608902, 0.02420988492667675, 0.025893444195389748, 0.027577001601457596, 0.029260560870170593, 0.03094412013888359, 0.03262767940759659, 0.03431123495101929, 0.035994794219732285, 0.03767835348844528, 0.03936190903186798, 0.04104546830058098, 0.042729027569293976, 0.04441258683800697, 0.04609614610671997, 0.04777970537543297, 0.049463264644145966, 0.05114682391285896, 0.05283038318157196, 0.05451393872499466, 0.05619749799370766, 0.057881057262420654, 0.05956461653113365, 0.06124817579984665, 0.06293173134326935, 0.06461529433727264, 0.06629884988069534, 0.06798241287469864, 0.06966596841812134, 0.07134953141212463, 0.07303308695554733, 0.07471664249897003]}, "gradients/encoder.nn_layers.2.weight": {"_type": "histogram", "values": [1.0, 0.0, 0.0, 1.0, 0.0, 0.0, 0.0, 0.0, 0.0, 0.0, 2.0, 3.0, 1.0, 2.0, 4.0, 6.0, 5.0, 15.0, 113.0, 28.0, 3.0, 3.0, 3.0, 0.0, 1.0, 3.0, 0.0, 0.0, 0.0, 1.0, 0.0, 1.0, 0.0, 0.0, 1.0, 1.0, 0.0, 1.0, 0.0, 0.0, 0.0, 0.0, 0.0, 0.0, 0.0, 0.0, 0.0, 0.0, 0.0, 0.0, 0.0, 0.0, 0.0, 0.0, 0.0, 0.0, 0.0, 0.0, 0.0, 0.0, 0.0, 0.0, 0.0, 1.0], "bins": [-0.10483886301517487, -0.09931213408708572, -0.09378540515899658, -0.08825867623090744, -0.0827319473028183, -0.07720521837472916, -0.07167848944664001, -0.06615176051855087, -0.06062503159046173, -0.05509830266237259, -0.04957157373428345, -0.044044844806194305, -0.038518115878105164, -0.03299138695001602, -0.02746465802192688, -0.021937929093837738, -0.016411200165748596, -0.010884471237659454, -0.0053577423095703125, 0.00016898661851882935, 0.005695715546607971, 0.011222444474697113, 0.016749173402786255, 0.022275902330875397, 0.02780263125896454, 0.03332936018705368, 0.03885608911514282, 0.044382818043231964, 0.049909546971321106, 0.05543627589941025, 0.06096300482749939, 0.06648973375558853, 0.07201644778251648, 0.07754317671060562, 0.08306990563869476, 0.0885966345667839, 0.09412336349487305, 0.09965009242296219, 0.10517682135105133, 0.11070355027914047, 0.11623027920722961, 0.12175700813531876, 0.1272837370634079, 0.13281047344207764, 0.13833719491958618, 0.14386391639709473, 0.14939065277576447, 0.1549173891544342, 0.16044411063194275, 0.1659708321094513, 0.17149756848812103, 0.17702430486679077, 0.18255102634429932, 0.18807774782180786, 0.1936044842004776, 0.19913122057914734, 0.20465794205665588, 0.21018466353416443, 0.21571139991283417, 0.2212381362915039, 0.22676485776901245, 0.232291579246521, 0.23781831562519073, 0.24334505200386047, 0.24887177348136902]}, "gradients/encoder.nn_layers.1.bias": {"_type": "histogram", "values": [1.0, 0.0, 0.0, 1.0, 0.0, 0.0, 0.0, 0.0, 1.0, 0.0, 0.0, 0.0, 0.0, 0.0, 0.0, 1.0, 1.0, 0.0, 0.0, 9.0, 0.0, 0.0, 0.0, 0.0, 0.0, 0.0, 0.0, 0.0, 0.0, 1.0, 0.0, 0.0, 0.0, 0.0, 0.0, 0.0, 0.0, 0.0, 1.0, 1.0, 0.0, 0.0, 0.0, 0.0, 0.0, 0.0, 1.0, 0.0, 0.0, 0.0, 1.0, 0.0, 0.0, 0.0, 0.0, 0.0, 0.0, 0.0, 0.0, 0.0, 0.0, 0.0, 0.0, 1.0], "bins": [-0.009616727009415627, -0.00911929551512003, -0.008621864020824432, -0.008124432526528835, -0.0076270014978945255, -0.0071295700035989285, -0.006632138974964619, -0.006134707480669022, -0.0056372759863734245, -0.0051398444920778275, -0.00464241299778223, -0.004144981969147921, -0.0036475504748523235, -0.0031501189805567265, -0.002652687719091773, -0.0021552564576268196, -0.0016578249633312225, -0.0011603935854509473, -0.000662962207570672, -0.00016553082969039679, 0.00033190054818987846, 0.0008293320424854755, 0.001326763303950429, 0.0018241945654153824, 0.0023216260597109795, 0.0028190575540065765, 0.00331648881547153, 0.0038139200769364834, 0.0043113515712320805, 0.0048087830655276775, 0.005306214094161987, 0.005803645588457584, 0.006301075220108032, 0.006798506714403629, 0.007295938208699226, 0.007793369237333536, 0.00829080119729042, 0.008788231760263443, 0.00928566325455904, 0.009783094748854637, 0.010280526243150234, 0.010777957737445831, 0.011275389231741428, 0.011772820726037025, 0.012270251289010048, 0.01276768371462822, 0.013265114277601242, 0.01376254577189684, 0.014259977266192436, 0.014757408760488033, 0.01525484025478363, 0.015752270817756653, 0.016249703243374825, 0.016747133806347847, 0.01724456623196602, 0.01774199679493904, 0.018239427357912064, 0.018736857920885086, 0.019234290346503258, 0.01973172090947628, 0.020229153335094452, 0.020726583898067474, 0.021224016323685646, 0.02172144688665867, 0.02221887931227684]}, "gradients/encoder.nn_layers.1.weight": {"_type": "histogram", "values": [1.0, 0.0, 1.0, 0.0, 0.0, 0.0, 1.0, 0.0, 0.0, 0.0, 1.0, 0.0, 1.0, 2.0, 1.0, 3.0, 3.0, 5.0, 4.0, 2.0, 350.0, 1.0, 3.0, 1.0, 1.0, 1.0, 1.0, 0.0, 1.0, 1.0, 0.0, 0.0, 0.0, 1.0, 0.0, 1.0, 0.0, 1.0, 0.0, 2.0, 1.0, 2.0, 0.0, 0.0, 0.0, 1.0, 1.0, 0.0, 0.0, 2.0, 0.0, 1.0, 0.0, 0.0, 0.0, 0.0, 0.0, 1.0, 0.0, 0.0, 0.0, 0.0, 0.0, 1.0], "bins": [-0.04416542500257492, -0.04196054860949516, -0.039755672216415405, -0.03755079209804535, -0.03534591570496559, -0.033141039311885834, -0.030936161056160927, -0.02873128280043602, -0.026526406407356262, -0.024321530014276505, -0.022116651758551598, -0.01991177350282669, -0.017706897109746933, -0.0155020197853446, -0.013297142460942268, -0.011092265136539936, -0.008887387812137604, -0.0066825104877352715, -0.004477633163332939, -0.002272755838930607, -6.787851452827454e-05, 0.0021369988098740578, 0.00434187613427639, 0.006546753458678722, 0.008751630783081055, 0.010956508107483387, 0.01316138543188572, 0.015366262756288052, 0.017571140080690384, 0.01977601647377014, 0.02198089472949505, 0.024185772985219955, 0.026390649378299713, 0.02859552577137947, 0.030800404027104378, 0.033005282282829285, 0.03521015867590904, 0.0374150350689888, 0.039619915187358856, 0.041824791580438614, 0.04402966797351837, 0.04623454436659813, 0.04843942075967789, 0.05064430087804794, 0.0528491772711277, 0.05505405366420746, 0.057258933782577515, 0.05946381017565727, 0.06166868656873703, 0.06387356668710709, 0.06607843935489655, 0.0682833194732666, 0.07048819959163666, 0.07269307225942612, 0.07489795237779617, 0.07710282504558563, 0.07930770516395569, 0.08151258528232574, 0.0837174579501152, 0.08592233806848526, 0.08812721073627472, 0.09033209085464478, 0.09253697097301483, 0.09474184364080429, 0.09694672375917435]}, "gradients/encoder.nn_layers.0.bias": {"_type": "histogram", "values": [1.0, 0.0, 0.0, 0.0, 0.0, 0.0, 0.0, 0.0, 0.0, 0.0, 0.0, 0.0, 0.0, 0.0, 15.0, 0.0, 0.0, 0.0, 0.0, 0.0, 0.0, 0.0, 0.0, 0.0, 0.0, 0.0, 0.0, 1.0, 0.0, 0.0, 0.0, 0.0, 0.0, 0.0, 0.0, 0.0, 0.0, 1.0, 0.0, 0.0, 0.0, 0.0, 0.0, 0.0, 0.0, 0.0, 0.0, 0.0, 1.0, 0.0, 0.0, 0.0, 0.0, 0.0, 0.0, 0.0, 0.0, 0.0, 0.0, 0.0, 0.0, 0.0, 0.0, 1.0], "bins": [-0.0040985275991261005, -0.003805886022746563, -0.003513244679197669, -0.003220603335648775, -0.0029279617592692375, -0.0026353201828897, -0.002342678839340806, -0.002050037495791912, -0.0017573959194123745, -0.0014647544594481587, -0.001172112999483943, -0.0008794715395197272, -0.0005868300795555115, -0.0002941886195912957, -1.5471596270799637e-06, 0.00029109418392181396, 0.0005837357603013515, 0.0008763772202655673, 0.001169018680229783, 0.0014616601401939988, 0.0017543016001582146, 0.002046943176537752, 0.002339584520086646, 0.00263222586363554, 0.0029248674400150776, 0.003217509016394615, 0.003510150359943509, 0.003802791703492403, 0.004095433279871941, 0.004388074856251478, 0.004680716432631016, 0.004973357543349266, 0.005265999585390091, 0.0055586411617696285, 0.005851282738149166, 0.006143923848867416, 0.006436565425246954, 0.0067292070016264915, 0.007021848112344742, 0.007314489688724279, 0.007607131265103817, 0.007899772375822067, 0.008192414417862892, 0.008485055528581142, 0.008777696639299393, 0.009070338681340218, 0.009362979792058468, 0.009655620902776718, 0.009948262944817543, 0.010240904055535793, 0.010533546097576618, 0.010826187208294868, 0.011118829250335693, 0.011411470361053944, 0.011704111471772194, 0.011996753513813019, 0.012289394624531269, 0.01258203573524952, 0.012874677777290344, 0.013167318888008595, 0.013459959998726845, 0.01375260204076767, 0.01404524315148592, 0.01433788426220417, 0.014630526304244995]}, "gradients/encoder.nn_layers.0.weight": {"_type": "histogram", "values": [29.0, 2.0, 2.0, 2.0, 5.0, 5.0, 2.0, 2.0, 2.0, 0.0, 33.0, 2.0, 4.0, 35.0, 5.0, 31.0, 2.0, 5.0, 7.0, 8.0, 6.0, 3.0, 1.0, 20.0, 23.0, 7.0, 7.0, 7.0, 2.0, 2.0, 0.0, 0.0, 1984.0, 0.0, 3.0, 0.0, 6.0, 7.0, 15.0, 16.0, 26.0, 5.0, 7.0, 3.0, 5.0, 14.0, 10.0, 4.0, 36.0, 2.0, 41.0, 8.0, 8.0, 41.0, 0.0, 1.0, 2.0, 0.0, 2.0, 3.0, 4.0, 4.0, 7.0, 35.0], "bins": [-0.014787680469453335, -0.014325565658509731, -0.013863450847566128, -0.01340133510529995, -0.012939220294356346, -0.012477105483412743, -0.012014990672469139, -0.011552875861525536, -0.011090760119259357, -0.010628645308315754, -0.01016653049737215, -0.009704414755105972, -0.009242299944162369, -0.008780185133218765, -0.008318070322275162, -0.007855955511331558, -0.007393840234726667, -0.006931725423783064, -0.006469610147178173, -0.0060074953362345695, -0.005545380059629679, -0.005083265248686075, -0.004621149972081184, -0.004159035161137581, -0.0036969203501939774, -0.00323480530641973, -0.002772690262645483, -0.0023105754517018795, -0.0018484602915123105, -0.0013863453641533852, -0.000924230320379138, -0.0004621152766048908, 0.0, 0.0004621150146704167, 0.0009242300293408334, 0.0013863450149074197, 0.0018484600586816669, 0.002310574986040592, 0.0027726900298148394, 0.0032348050735890865, 0.0036969203501939774, 0.004159035161137581, 0.004621150437742472, 0.005083265248686075, 0.005545380525290966, 0.0060074953362345695, 0.006469610147178173, 0.006931725423783064, 0.007393840234726667, 0.007855955511331558, 0.008318070322275162, 0.008780185133218765, 0.009242299944162369, 0.009704414755105972, 0.01016653049737215, 0.010628645308315754, 0.011090760119259357, 0.011552874930202961, 0.012014989741146564, 0.012477105483412743, 0.012939220294356346, 0.01340133510529995, 0.013863449916243553, 0.014325564727187157, 0.014787680469453335]}, "gradients/phi_x.nn_layers.2.bias": {"_type": "histogram", "values": [1.0, 0.0, 0.0, 0.0, 0.0, 0.0, 0.0, 0.0, 1.0, 1.0, 0.0, 0.0, 0.0, 0.0, 0.0, 1.0, 0.0, 0.0, 0.0, 0.0, 0.0, 0.0, 1.0, 0.0, 2.0, 2.0, 3.0, 1.0, 0.0, 2.0, 1.0, 2.0, 2.0, 4.0, 8.0, 5.0, 6.0, 7.0, 1.0, 4.0, 1.0, 1.0, 2.0, 0.0, 1.0, 0.0, 1.0, 1.0, 1.0, 0.0, 0.0, 0.0, 0.0, 0.0, 0.0, 0.0, 0.0, 0.0, 0.0, 0.0, 0.0, 0.0, 0.0, 1.0], "bins": [-0.002109540393576026, -0.0020477089565247297, -0.001985877752304077, -0.001924046315252781, -0.0018622149946168065, -0.001800383673980832, -0.0017385523533448577, -0.0016767210327088833, -0.001614889595657587, -0.0015530582750216126, -0.0014912269543856382, -0.001429395517334342, -0.0013675641966983676, -0.0013057328760623932, -0.0012439015554264188, -0.0011820702347904444, -0.00112023891415447, -0.0010584075935184956, -0.0009965762728825212, -0.0009347448940388858, -0.0008729135151952505, -0.0008110821945592761, -0.0007492508739233017, -0.0006874195532873273, -0.0006255882326513529, -0.0005637569120153785, -0.0005019255331717432, -0.00044009421253576875, -0.0003782628627959639, -0.000316431513056159, -0.0002546001924201846, -0.00019276884268037975, -0.00013093731831759214, -6.91059758537449e-05, -7.2746333898976445e-06, 5.455670179799199e-05, 0.00011638805153779685, 0.00017821940127760172, 0.00024005072191357613, 0.000301882071653381, 0.00036371347960084677, 0.00042554482934065163, 0.0004873761790804565, 0.0005492074997164309, 0.0006110388785600662, 0.0006728701991960406, 0.000734701519832015, 0.0007965328404679894, 0.0008583641611039639, 0.0009201954817399383, 0.0009820268023759127, 0.001043858239427209, 0.0011056895600631833, 0.0011675208806991577, 0.0012293522013351321, 0.0012911835219711065, 0.0013530149590224028, 0.0014148462796583772, 0.0014766776002943516, 0.0015385090373456478, 0.0016003403579816222, 0.0016621716786175966, 0.001724002999253571, 0.0017858343198895454, 0.0018476656405255198]}, "gradients/phi_x.nn_layers.2.weight": {"_type": "histogram", "values": [2.0, 0.0, 0.0, 0.0, 0.0, 1.0, 0.0, 0.0, 2.0, 1.0, 1.0, 3.0, 0.0, 0.0, 2.0, 2.0, 3.0, 1.0, 5.0, 1.0, 3.0, 5.0, 1.0, 3.0, 5.0, 6.0, 4.0, 8.0, 12.0, 18.0, 30.0, 29.0, 26.0, 36.0, 78.0, 579.0, 123.0, 104.0, 52.0, 37.0, 18.0, 17.0, 11.0, 12.0, 8.0, 7.0, 5.0, 4.0, 3.0, 0.0, 2.0, 2.0, 0.0, 0.0, 2.0, 3.0, 0.0, 0.0, 1.0, 0.0, 0.0, 0.0, 1.0, 1.0], "bins": [-0.0034845764748752117, -0.0033865126315504313, -0.003288448788225651, -0.003190385177731514, -0.0030923213344067335, -0.002994257491081953, -0.0028961938805878162, -0.0027981300372630358, -0.0027000661939382553, -0.002602002350613475, -0.0025039385072886944, -0.0024058748967945576, -0.002307811053469777, -0.0022097472101449966, -0.00211168359965086, -0.0020136197563260794, -0.001915555913001299, -0.0018174920696765184, -0.0017194283427670598, -0.0016213646158576012, -0.0015233007725328207, -0.0014252369292080402, -0.0013271732022985816, -0.001229109475389123, -0.0011310456320643425, -0.001032981788739562, -0.0009349180618301034, -0.0008368542767129838, -0.0007387904915958643, -0.0006407267064787447, -0.0005426629213616252, -0.00044459913624450564, -0.0003465353511273861, -0.00024847156601026654, -0.000150407780893147, -5.234399577602744e-05, 4.571978934109211e-05, 0.00014378357445821166, 0.0002418473595753312, 0.00033991114469245076, 0.0004379749298095703, 0.0005360387149266899, 0.0006341025000438094, 0.000732166285160929, 0.0008302300702780485, 0.0009282938553951681, 0.0010263576405122876, 0.0011244213674217463, 0.0012224852107465267, 0.0013205490540713072, 0.0014186127809807658, 0.0015166765078902245, 0.001614740351215005, 0.0017128041945397854, 0.001810867921449244, 0.0019089316483587027, 0.002006995491683483, 0.0021050593350082636, 0.002203123178333044, 0.002301186788827181, 0.0023992506321519613, 0.002497314475476742, 0.0025953780859708786, 0.002693441929295659, 0.0027915057726204395]}, "gradients/phi_x.nn_layers.1.bias": {"_type": "histogram", "values": [1.0, 0.0, 0.0, 0.0, 0.0, 1.0, 1.0, 2.0, 0.0, 0.0, 0.0, 0.0, 1.0, 0.0, 0.0, 7.0, 0.0, 0.0, 0.0, 0.0, 1.0, 0.0, 2.0, 0.0, 0.0, 0.0, 1.0, 0.0, 0.0, 0.0, 1.0, 0.0, 0.0, 1.0, 0.0, 0.0, 0.0, 0.0, 0.0, 0.0, 0.0, 0.0, 0.0, 0.0, 0.0, 0.0, 0.0, 0.0, 0.0, 0.0, 0.0, 0.0, 0.0, 0.0, 0.0, 0.0, 0.0, 0.0, 0.0, 0.0, 0.0, 0.0, 0.0, 1.0], "bins": [-0.0011674744309857488, -0.0010917945764958858, -0.001016114605590701, -0.0009404347511008382, -0.0008647548966109753, -0.0007890749839134514, -0.0007133950712159276, -0.0006377152167260647, -0.0005620353040285408, -0.0004863554204348475, -0.0004106755368411541, -0.00033499562414363027, -0.0002593157405499369, -0.00018363585695624352, -0.00010795594425871968, -3.2276089768856764e-05, 4.340382292866707e-05, 0.00011908371379831806, 0.00019476360466796905, 0.00027044350281357765, 0.00034612338640727103, 0.0004218032700009644, 0.0004974831826984882, 0.0005731630371883512, 0.0006488430080935359, 0.0007245229207910597, 0.0008002027752809227, 0.0008758826879784465, 0.0009515625424683094, 0.0010272425133734941, 0.001102922367863357, 0.00117860222235322, 0.0012542821932584047, 0.0013299620477482677, 0.0014056420186534524, 0.0014813218731433153, 0.0015570017276331782, 0.0016326815821230412, 0.001708361553028226, 0.0017840414075180888, 0.0018597212620079517, 0.0019354011164978147, 0.0020110809709876776, 0.0020867609418928623, 0.002162440912798047, 0.002238120650872588, 0.002313800621777773, 0.002389480359852314, 0.0024651605635881424, 0.002540840534493327, 0.0026165202725678682, 0.002692200243473053, 0.0027678802143782377, 0.002843559952452779, 0.0029192399233579636, 0.0029949196614325047, 0.0030705996323376894, 0.003146279603242874, 0.0032219593413174152, 0.0032976393122226, 0.0033733192831277847, 0.003448999021202326, 0.0035246789921075106, 0.0036003589630126953, 0.0036760387010872364]}, "gradients/phi_x.nn_layers.1.weight": {"_type": "histogram", "values": [2.0, 0.0, 1.0, 3.0, 5.0, 7.0, 13.0, 16.0, 15.0, 17.0, 222.0, 9.0, 9.0, 9.0, 10.0, 14.0, 7.0, 4.0, 8.0, 7.0, 4.0, 1.0, 1.0, 2.0, 1.0, 0.0, 2.0, 1.0, 1.0, 0.0, 0.0, 1.0, 1.0, 0.0, 1.0, 0.0, 0.0, 0.0, 0.0, 1.0, 1.0, 1.0, 1.0, 0.0, 0.0, 0.0, 0.0, 1.0, 0.0, 0.0, 0.0, 0.0, 0.0, 0.0, 0.0, 0.0, 0.0, 0.0, 0.0, 0.0, 0.0, 0.0, 0.0, 1.0], "bins": [-0.0011440567905083299, -0.001035032793879509, -0.0009260087972506881, -0.0008169848588295281, -0.0007079608622007072, -0.0005989368655718863, -0.0004899129271507263, -0.0003808889305219054, -0.0002718649338930845, -0.00016284095181617886, -5.381696973927319e-05, 5.520699778571725e-05, 0.00016423099441453815, 0.00027325499104335904, 0.000382278929464519, 0.0004913029260933399, 0.0006003269227221608, 0.0007093509193509817, 0.0008183749159798026, 0.0009273988544009626, 0.0010364227928221226, 0.0011454469058662653, 0.0012544707860797644, 0.0013634947827085853, 0.0014725186629220843, 0.0015815426595509052, 0.0016905666561797261, 0.001799590652808547, 0.001908614533022046, 0.002017638646066189, 0.002126662526279688, 0.002235686406493187, 0.0023447107523679733, 0.0024537346325814724, 0.002562758745625615, 0.002671782625839114, 0.002780806738883257, 0.002889830619096756, 0.002998854499310255, 0.0031078786123543978, 0.0032169027253985405, 0.0033259266056120396, 0.0034349507186561823, 0.0035439745988696814, 0.003652998711913824, 0.003762022592127323, 0.0038710464723408222, 0.003980070352554321, 0.004089094698429108, 0.004198118578642607, 0.004307142458856106, 0.004416166804730892, 0.004525190684944391, 0.00463421456515789, 0.004743238445371389, 0.0048522623255848885, 0.0049612862057983875, 0.005070310086011887, 0.005179333966225386, 0.005288358312100172, 0.005397382192313671, 0.00550640607252717, 0.005615429952740669, 0.005724454298615456, 0.005833478178828955]}, "gradients/phi_x.nn_layers.0.bias": {"_type": "histogram", "values": [1.0, 0.0, 1.0, 0.0, 0.0, 0.0, 0.0, 0.0, 0.0, 1.0, 1.0, 0.0, 1.0, 0.0, 0.0, 0.0, 1.0, 0.0, 0.0, 0.0, 0.0, 0.0, 0.0, 3.0, 0.0, 2.0, 1.0, 1.0, 0.0, 0.0, 0.0, 0.0, 0.0, 0.0, 0.0, 1.0, 0.0, 1.0, 0.0, 0.0, 0.0, 0.0, 0.0, 0.0, 0.0, 0.0, 2.0, 0.0, 0.0, 0.0, 0.0, 0.0, 0.0, 0.0, 0.0, 0.0, 0.0, 0.0, 0.0, 0.0, 1.0, 1.0, 0.0, 1.0], "bins": [-0.0011731358245015144, -0.0011238299775868654, -0.0010745241306722164, -0.0010252182837575674, -0.0009759124950505793, -0.0009266066481359303, -0.0008773008594289422, -0.0008279950125142932, -0.0007786891655996442, -0.0007293833186849952, -0.0006800774717703462, -0.0006307716830633581, -0.0005814658361487091, -0.00053215998923406, -0.0004828541714232415, -0.00043354835361242294, -0.00038424250669777393, -0.0003349366597831249, -0.00028563084197230637, -0.0002363250096095726, -0.0001870191772468388, -0.0001377133303321898, -8.840751252137125e-05, -3.910169471055269e-05, 1.0204152204096317e-05, 5.95099845668301e-05, 0.00010881581692956388, 0.00015812164929229766, 0.00020742748165503144, 0.00025673332856968045, 0.000306039146380499, 0.00035534496419131756, 0.00040465081110596657, 0.0004539566580206156, 0.0005032625049352646, 0.0005525682936422527, 0.0006018741405569017, 0.0006511799874715507, 0.0007004857761785388, 0.0007497916230931878, 0.0007990974700078368, 0.0008484033169224858, 0.0008977091638371348, 0.0009470149525441229, 0.000996320741251111, 0.00104562658816576, 0.001094932435080409, 0.001144238281995058, 0.001193544128909707, 0.001242849975824356, 0.001292155822739005, 0.001341461669653654, 0.001390767516568303, 0.0014400733634829521, 0.0014893790939822793, 0.0015386849408969283, 0.0015879907878115773, 0.0016372966347262263, 0.0016866024816408753, 0.0017359083285555243, 0.0017852140590548515, 0.0018345199059695005, 0.0018838257528841496, 0.0019331315997987986, 0.0019824374467134476]}, "gradients/phi_x.nn_layers.0.weight": {"_type": "histogram", "values": [1.0, 2.0, 1.0, 0.0, 0.0, 0.0, 6.0, 1.0, 1.0, 4.0, 5.0, 4.0, 2.0, 7.0, 9.0, 6.0, 4.0, 46.0, 6.0, 13.0, 5.0, 1.0, 2.0, 5.0, 2.0, 4.0, 2.0, 6.0, 2.0, 3.0, 4.0, 0.0, 0.0, 2.0, 1.0, 3.0, 0.0, 1.0, 1.0, 1.0, 2.0, 2.0, 1.0, 1.0, 0.0, 0.0, 1.0, 1.0, 0.0, 1.0, 1.0, 0.0, 0.0, 1.0, 0.0, 1.0, 1.0, 0.0, 0.0, 1.0, 0.0, 0.0, 0.0, 3.0], "bins": [-0.001128566451370716, -0.0010626597795635462, -0.0009967531077563763, -0.0009308463777415454, -0.0008649397059343755, -0.0007990330341272056, -0.0007331263041123748, -0.0006672196323052049, -0.000601312960498035, -0.000535406288690865, -0.00046949958777986467, -0.0004035928868688643, -0.0003376862150616944, -0.00027177954325452447, -0.0002058728423435241, -0.00013996614143252373, -7.405946962535381e-05, -8.15278326626867e-06, 5.775390309281647e-05, 0.00012366058945190161, 0.00018956727581098676, 0.00025547394761815667, 0.00032138064852915704, 0.0003872873494401574, 0.00045319402124732733, 0.0005191006930544972, 0.0005850073648616672, 0.000650914094876498, 0.0007168207666836679, 0.0007827274384908378, 0.0008486341685056686, 0.0009145408403128386, 0.0009804477449506521, 0.001046354416757822, 0.001112261088564992, 0.0011781677603721619, 0.0012440744321793318, 0.0013099811039865017, 0.0013758878922089934, 0.0014417945640161633, 0.0015077012358233333, 0.0015736079076305032, 0.001639514579437673, 0.001705421251244843, 0.0017713280394673347, 0.0018372347112745047, 0.0019031413830816746, 0.0019690480548888445, 0.0020349547266960144, 0.0021008613985031843, 0.0021667680703103542, 0.002232674742117524, 0.002298581413924694, 0.002364488085731864, 0.002430394757539034, 0.0024963016621768475, 0.0025622081011533737, 0.0026281147729605436, 0.0026940214447677135, 0.0027599281165748835, 0.0028258347883820534, 0.0028917414601892233, 0.002957648131996393, 0.0030235550366342068, 0.0030894617084413767]}, "gradients/prior.nn_layers.2.bias": {"_type": "histogram", "values": [1.0, 0.0, 0.0, 0.0, 0.0, 0.0, 0.0, 0.0, 0.0, 0.0, 0.0, 0.0, 0.0, 0.0, 0.0, 0.0, 0.0, 0.0, 0.0, 0.0, 0.0, 0.0, 0.0, 0.0, 0.0, 0.0, 0.0, 0.0, 0.0, 0.0, 0.0, 0.0, 0.0, 0.0, 0.0, 0.0, 0.0, 6.0, 0.0, 1.0, 0.0, 0.0, 0.0, 0.0, 0.0, 1.0, 0.0, 0.0, 0.0, 0.0, 0.0, 0.0, 0.0, 0.0, 0.0, 0.0, 0.0, 0.0, 0.0, 0.0, 0.0, 0.0, 0.0, 1.0], "bins": [-0.05292552709579468, -0.051506415009498596, -0.050087299197912216, -0.048668187111616135, -0.047249071300029755, -0.04582995921373367, -0.04441084712743759, -0.04299173504114151, -0.04157261922955513, -0.04015350714325905, -0.03873439133167267, -0.03731527924537659, -0.035896167159080505, -0.034477051347494125, -0.033057939261198044, -0.031638823449611664, -0.030219711363315582, -0.02880059741437435, -0.02738148346543312, -0.02596237137913704, -0.02454325743019581, -0.023124143481254578, -0.021705031394958496, -0.020285917446017265, -0.018866803497076035, -0.017447689548134804, -0.016028575599193573, -0.014609463512897491, -0.01319034956395626, -0.01177123561501503, -0.010352122597396374, -0.008933009579777718, -0.007513891905546188, -0.006094778422266245, -0.004675664938986301, -0.003256551455706358, -0.0018374379724264145, -0.000418324489146471, 0.0010007889941334724, 0.0024199020117521286, 0.0038390159606933594, 0.005258129443973303, 0.006677242927253246, 0.008096355944871902, 0.009515469893813133, 0.010934583842754364, 0.01235369686037302, 0.013772809877991676, 0.015191923826932907, 0.016611037775874138, 0.01803015172481537, 0.01944926381111145, 0.02086837776005268, 0.022287491708993912, 0.023706603795289993, 0.025125717744231224, 0.026544831693172455, 0.027963945642113686, 0.029383059591054916, 0.030802171677350998, 0.03222128748893738, 0.03364039957523346, 0.03505951166152954, 0.03647862374782562, 0.037897739559412]}, "gradients/prior.nn_layers.2.weight": {"_type": "histogram", "values": [1.0, 0.0, 0.0, 0.0, 1.0, 1.0, 0.0, 3.0, 0.0, 0.0, 0.0, 0.0, 2.0, 1.0, 2.0, 0.0, 0.0, 0.0, 0.0, 0.0, 0.0, 0.0, 0.0, 1.0, 0.0, 0.0, 0.0, 0.0, 0.0, 0.0, 0.0, 0.0, 0.0, 0.0, 0.0, 0.0, 0.0, 152.0, 6.0, 6.0, 1.0, 0.0, 5.0, 3.0, 2.0, 1.0, 0.0, 1.0, 0.0, 0.0, 0.0, 0.0, 0.0, 2.0, 2.0, 1.0, 0.0, 0.0, 3.0, 1.0, 1.0, 0.0, 0.0, 1.0], "bins": [-0.24726177752017975, -0.2406318485736847, -0.23400191962718964, -0.22737199068069458, -0.22074206173419952, -0.21411213278770447, -0.2074822038412094, -0.20085227489471436, -0.1942223459482193, -0.18759241700172424, -0.1809624880552292, -0.17433255910873413, -0.16770263016223907, -0.16107270121574402, -0.15444277226924896, -0.1478128433227539, -0.14118291437625885, -0.1345529854297638, -0.12792305648326874, -0.12129312753677368, -0.11466319859027863, -0.10803326964378357, -0.10140334069728851, -0.09477341175079346, -0.0881434828042984, -0.08151355385780334, -0.07488362491130829, -0.06825369596481323, -0.061623767018318176, -0.05499383807182312, -0.048363909125328064, -0.04173398017883301, -0.03510403633117676, -0.0284741073846817, -0.021844178438186646, -0.01521424949169159, -0.008584320545196533, -0.001954391598701477, 0.004675537347793579, 0.011305466294288635, 0.01793539524078369, 0.024565324187278748, 0.031195253133773804, 0.03782518208026886, 0.044455111026763916, 0.05108503997325897, 0.05771496891975403, 0.06434489786624908, 0.07097482681274414, 0.0776047557592392, 0.08423468470573425, 0.09086461365222931, 0.09749454259872437, 0.10412447154521942, 0.11075440049171448, 0.11738432943820953, 0.12401425838470459, 0.13064418733119965, 0.1372741162776947, 0.14390404522418976, 0.15053397417068481, 0.15716390311717987, 0.16379383206367493, 0.17042376101016998, 0.17705368995666504]}, "gradients/prior.nn_layers.1.bias": {"_type": "histogram", "values": [1.0, 0.0, 0.0, 0.0, 0.0, 0.0, 0.0, 0.0, 0.0, 0.0, 0.0, 0.0, 0.0, 0.0, 0.0, 0.0, 0.0, 0.0, 0.0, 0.0, 0.0, 0.0, 0.0, 0.0, 0.0, 0.0, 0.0, 0.0, 0.0, 0.0, 0.0, 0.0, 0.0, 0.0, 0.0, 0.0, 0.0, 0.0, 0.0, 0.0, 2.0, 0.0, 0.0, 0.0, 0.0, 1.0, 0.0, 0.0, 0.0, 0.0, 0.0, 3.0, 1.0, 0.0, 0.0, 1.0, 0.0, 1.0, 0.0, 0.0, 2.0, 0.0, 0.0, 8.0], "bins": [-0.07507303357124329, -0.0739000141620636, -0.07272700220346451, -0.07155398279428482, -0.07038097083568573, -0.06920795142650604, -0.06803493946790695, -0.06686192005872726, -0.06568890810012817, -0.06451588869094849, -0.0633428767323494, -0.06216986104846001, -0.06099684536457062, -0.05982382595539093, -0.05865081027150154, -0.05747779458761215, -0.056304775178432465, -0.055131759494543076, -0.053958743810653687, -0.0527857281267643, -0.05161271244287491, -0.05043969303369522, -0.04926667734980583, -0.04809366166591644, -0.046920645982027054, -0.045747630298137665, -0.044574614614248276, -0.04340159893035889, -0.0422285795211792, -0.04105556383728981, -0.03988254815340042, -0.03870953246951103, -0.03753651678562164, -0.036363501101732254, -0.035190485417842865, -0.034017469733953476, -0.03284445405006409, -0.0316714346408844, -0.03049841895699501, -0.02932540327310562, -0.028152387589216232, -0.026979371905326843, -0.025806356221437454, -0.024633338674902916, -0.023460322991013527, -0.022287307307124138, -0.0211142897605896, -0.01994127407670021, -0.01876825839281082, -0.017595242708921432, -0.016422227025032043, -0.015249209478497505, -0.014076193794608116, -0.012903178110718727, -0.011730161495506763, -0.0105571448802948, -0.00938412919640541, -0.008211113512516022, -0.007038096897304058, -0.005865080747753382, -0.004692064598202705, -0.003519048448652029, -0.0023460322991013527, -0.001173015683889389, 1.6359563949117035e-28]}, "gradients/prior.nn_layers.1.weight": {"_type": "histogram", "values": [1.0, 0.0, 0.0, 0.0, 0.0, 0.0, 1.0, 1.0, 0.0, 1.0, 0.0, 0.0, 0.0, 0.0, 0.0, 0.0, 0.0, 0.0, 0.0, 1.0, 0.0, 1.0, 0.0, 0.0, 0.0, 1.0, 0.0, 0.0, 0.0, 1.0, 1.0, 1.0, 1.0, 1.0, 0.0, 0.0, 0.0, 0.0, 0.0, 0.0, 2.0, 0.0, 2.0, 4.0, 0.0, 1.0, 0.0, 3.0, 4.0, 2.0, 0.0, 9.0, 13.0, 5.0, 5.0, 9.0, 8.0, 16.0, 12.0, 6.0, 14.0, 7.0, 10.0, 256.0], "bins": [-0.06744663417339325, -0.06639277935028076, -0.06533892452716827, -0.06428506970405579, -0.0632312223315239, -0.06217736750841141, -0.06112351268529892, -0.06006965786218643, -0.059015803039073944, -0.057961948215961456, -0.05690809711813927, -0.05585424229502678, -0.05480038747191429, -0.0537465363740921, -0.052692681550979614, -0.051638826727867126, -0.05058497563004494, -0.04953112080693245, -0.04847726970911026, -0.04742341488599777, -0.046369560062885284, -0.0453157052397728, -0.04426185414195061, -0.04320799931883812, -0.04215414822101593, -0.04110029339790344, -0.04004644230008125, -0.038992587476968765, -0.03793873265385628, -0.03688488155603409, -0.0358310267329216, -0.03477717190980911, -0.033723317086696625, -0.03266946226358414, -0.03161561116576195, -0.03056175634264946, -0.029507901519536972, -0.028454048559069633, -0.027400195598602295, -0.026346340775489807, -0.02529248781502247, -0.02423863485455513, -0.023184780031442642, -0.022130927070975304, -0.021077074110507965, -0.020023219287395477, -0.01896936632692814, -0.0179155133664608, -0.016861658543348312, -0.015807805582880974, -0.014753950759768486, -0.013700097799301147, -0.012646243907511234, -0.011592390015721321, -0.010538537055253983, -0.00948468316346407, -0.008430829271674156, -0.007376975379884243, -0.006323121953755617, -0.005269268527626991, -0.004215414635837078, -0.003161560744047165, -0.002107707317918539, -0.0010538538917899132, 1.76423695516225e-27]}, "gradients/prior.nn_layers.0.bias": {"_type": "histogram", "values": [1.0, 0.0, 0.0, 0.0, 0.0, 0.0, 1.0, 0.0, 1.0, 1.0, 0.0, 0.0, 0.0, 0.0, 0.0, 0.0, 0.0, 0.0, 0.0, 0.0, 0.0, 0.0, 0.0, 0.0, 0.0, 0.0, 0.0, 0.0, 0.0, 0.0, 0.0, 0.0, 0.0, 0.0, 0.0, 0.0, 0.0, 1.0, 0.0, 0.0, 0.0, 0.0, 1.0, 0.0, 1.0, 0.0, 1.0, 2.0, 0.0, 0.0, 1.0, 1.0, 0.0, 0.0, 0.0, 0.0, 0.0, 0.0, 0.0, 0.0, 0.0, 0.0, 0.0, 8.0], "bins": [-0.19226804375648499, -0.18926385045051575, -0.1862596720457077, -0.18325547873973846, -0.18025128543376923, -0.17724710702896118, -0.17424291372299194, -0.1712387204170227, -0.16823454201221466, -0.16523034870624542, -0.16222617030143738, -0.15922197699546814, -0.1562177836894989, -0.15321360528469086, -0.15020941197872162, -0.14720521867275238, -0.14420104026794434, -0.1411968469619751, -0.13819266855716705, -0.13518847525119781, -0.13218428194522858, -0.12918010354042053, -0.1261759102344513, -0.12317172437906265, -0.12016752362251282, -0.11716333776712418, -0.11415914446115494, -0.1111549586057663, -0.10815077275037766, -0.10514658689498901, -0.10214239358901978, -0.09913820773363113, -0.09613402187824249, -0.09312983602285385, -0.09012564271688461, -0.08712145686149597, -0.08411727100610733, -0.08111308515071869, -0.07810889184474945, -0.07510470598936081, -0.07210052013397217, -0.06909633427858353, -0.06609214097261429, -0.06308795511722565, -0.060083769261837006, -0.057079579681158066, -0.054075390100479126, -0.051071204245090485, -0.048067010939121246, -0.045062821358442307, -0.042058635503053665, -0.039054445922374725, -0.036050260066986084, -0.033046070486307144, -0.030041880905628204, -0.027037693187594414, -0.024033505469560623, -0.021029317751526833, -0.018025130033493042, -0.015020940452814102, -0.012016752734780312, -0.009012565016746521, -0.006008375436067581, -0.0030041877180337906, 0.0]}, "gradients/prior.nn_layers.0.weight": {"_type": "histogram", "values": [35.0, 0.0, 35.0, 0.0, 0.0, 35.0, 35.0, 0.0, 0.0, 0.0, 0.0, 0.0, 35.0, 35.0, 0.0, 0.0, 0.0, 0.0, 0.0, 29.0, 0.0, 0.0, 0.0, 0.0, 0.0, 0.0, 0.0, 35.0, 35.0, 0.0, 0.0, 0.0, 704.0, 0.0, 0.0, 29.0, 29.0, 0.0, 0.0, 0.0, 0.0, 0.0, 0.0, 0.0, 35.0, 0.0, 0.0, 0.0, 0.0, 0.0, 29.0, 29.0, 0.0, 0.0, 0.0, 0.0, 0.0, 29.0, 29.0, 0.0, 0.0, 29.0, 0.0, 29.0], "bins": [-2.647566264899411e-28, -2.564829758935994e-28, -2.4820932529725765e-28, -2.399356987750402e-28, -2.316620481786985e-28, -2.2338839758235674e-28, -2.151147710601393e-28, -2.0684112046379758e-28, -1.9856746986745584e-28, -1.902938192711141e-28, -1.8202018071183452e-28, -1.7374654215255494e-28, -1.654728915562132e-28, -1.5719924095987146e-28, -1.4892560240059188e-28, -1.406519638413123e-28, -1.3237831324497056e-28, -1.2410466264862882e-28, -1.1583102408934924e-28, -1.0755738553006966e-28, -9.928373493372792e-29, -9.101009035591726e-29, -8.27364457781066e-29, -7.446280120029594e-29, -6.618915662248528e-29, -5.791551204467462e-29, -4.964186746686396e-29, -4.13682228890533e-29, -3.309457831124264e-29, -2.482093373343198e-29, -1.654728915562132e-29, -8.27364457781066e-30, -2.407412430484045e-35, 8.273620503686355e-30, 1.6547265081497015e-29, 2.4820909659307675e-29, 3.3094554237118335e-29, 4.1368198814928995e-29, 4.9641843392739655e-29, 5.791548797055031e-29, 6.618913254836097e-29, 7.446277712617163e-29, 8.27364217039823e-29, 9.101006628179295e-29, 9.928371085960361e-29, 1.0755736145594535e-28, 1.1583100001522493e-28, 1.2410463857450452e-28, 1.3237828917084625e-28, 1.40651939767188e-28, 1.4892557832646757e-28, 1.5719921688574716e-28, 1.654728674820889e-28, 1.7374651807843063e-28, 1.8202015663771021e-28, 1.902937951969898e-28, 1.9856744579333153e-28, 2.0684109638967327e-28, 2.151147229118907e-28, 2.2338837350823244e-28, 2.3166202410457417e-28, 2.399356747009159e-28, 2.4820932529725765e-28, 2.564829518194751e-28, 2.647566024158168e-28]}, "gradients/decoder.fc_out.bias": {"_type": "histogram", "values": [1.0, 1.0, 0.0, 0.0, 0.0, 0.0, 0.0, 0.0, 1.0, 0.0, 0.0, 0.0, 0.0, 0.0, 0.0, 0.0, 0.0, 0.0, 0.0, 1.0, 0.0, 0.0, 0.0, 0.0, 0.0, 0.0, 0.0, 1.0, 0.0, 0.0, 2.0, 1.0, 1.0, 4.0, 0.0, 3.0, 0.0, 0.0, 0.0, 0.0, 0.0, 0.0, 0.0, 0.0, 0.0, 0.0, 0.0, 0.0, 0.0, 0.0, 1.0, 0.0, 0.0, 0.0, 0.0, 0.0, 0.0, 0.0, 0.0, 0.0, 0.0, 0.0, 0.0, 1.0], "bins": [-34.409786224365234, -33.38697052001953, -32.36415100097656, -31.341333389282227, -30.31851577758789, -29.295698165893555, -28.27288055419922, -27.250064849853516, -26.227245330810547, -25.20442771911621, -24.181610107421875, -23.15879249572754, -22.135974884033203, -21.113157272338867, -20.09033966064453, -19.067523956298828, -18.044706344604492, -17.021888732910156, -15.99907112121582, -14.976253509521484, -13.953435897827148, -12.930618286132812, -11.907801628112793, -10.884984016418457, -9.862167358398438, -8.839349746704102, -7.816532135009766, -6.793715000152588, -5.770897388458252, -4.748079776763916, -3.7252626419067383, -2.7024450302124023, -1.67962646484375, -0.6568089723587036, 0.3660085201263428, 1.3888258934020996, 2.4116435050964355, 3.4344611167907715, 4.457278251647949, 5.480095863342285, 6.5029144287109375, 7.525732040405273, 8.54854965209961, 9.571367263793945, 10.594184875488281, 11.617002487182617, 12.639819145202637, 13.662636756896973, 14.685453414916992, 15.708271026611328, 16.731088638305664, 17.75390625, 18.776723861694336, 19.799541473388672, 20.822357177734375, 21.845176696777344, 22.867992401123047, 23.890810012817383, 24.91362762451172, 25.936445236206055, 26.95926284790039, 27.982080459594727, 29.004898071289062, 30.027713775634766, 31.050533294677734]}, "gradients/decoder.fc_out.weight": {"_type": "histogram", "values": [1.0, 0.0, 0.0, 1.0, 0.0, 1.0, 2.0, 1.0, 1.0, 4.0, 3.0, 5.0, 9.0, 4.0, 8.0, 9.0, 9.0, 12.0, 10.0, 19.0, 20.0, 32.0, 23.0, 27.0, 29.0, 61.0, 116.0, 323.0, 993.0, 235.0, 75.0, 43.0, 31.0, 33.0, 25.0, 18.0, 15.0, 22.0, 11.0, 16.0, 12.0, 7.0, 4.0, 5.0, 6.0, 3.0, 4.0, 3.0, 3.0, 0.0, 1.0, 1.0, 2.0, 2.0, 1.0, 0.0, 0.0, 0.0, 1.0, 0.0, 1.0, 0.0, 0.0, 1.0], "bins": [-67.39519500732422, -65.01600646972656, -62.63681411743164, -60.25762176513672, -57.87843322753906, -55.49924087524414, -53.12004852294922, -50.74085998535156, -48.36166763305664, -45.98247528076172, -43.60328674316406, -41.22409439086914, -38.84490203857422, -36.46571350097656, -34.08652114868164, -31.70733070373535, -29.328140258789062, -26.948949813842773, -24.569759368896484, -22.190567016601562, -19.811376571655273, -17.432186126708984, -15.052994728088379, -12.673803329467773, -10.294612884521484, -7.915421962738037, -5.53623104095459, -3.1570401191711426, -0.7778491973876953, 1.6013412475585938, 3.980532646179199, 6.359724044799805, 8.738914489746094, 11.118104934692383, 13.497296333312988, 15.876487731933594, 18.255678176879883, 20.634868621826172, 23.014060974121094, 25.393251419067383, 27.772441864013672, 30.15163230895996, 32.53082275390625, 34.91001510620117, 37.289207458496094, 39.66839599609375, 42.04758834838867, 44.426780700683594, 46.80596923828125, 49.18516159057617, 51.56435012817383, 53.94354248046875, 56.322731018066406, 58.70192337036133, 61.08111572265625, 63.460304260253906, 65.83949279785156, 68.21868133544922, 70.5978775024414, 72.97706604003906, 75.35625457763672, 77.73544311523438, 80.11463928222656, 82.49382781982422, 84.8730239868164]}, "gradients/decoder.lstm_cell.bias_hh": {"_type": "histogram", "values": [1.0, 0.0, 0.0, 1.0, 0.0, 2.0, 0.0, 2.0, 2.0, 1.0, 4.0, 1.0, 1.0, 1.0, 2.0, 4.0, 4.0, 5.0, 11.0, 4.0, 10.0, 13.0, 14.0, 27.0, 47.0, 125.0, 107.0, 28.0, 17.0, 13.0, 14.0, 12.0, 9.0, 5.0, 3.0, 3.0, 9.0, 1.0, 2.0, 2.0, 1.0, 2.0, 0.0, 0.0, 1.0, 0.0, 0.0, 0.0, 0.0, 0.0, 0.0, 0.0, 0.0, 0.0, 0.0, 0.0, 0.0, 0.0, 0.0, 0.0, 0.0, 0.0, 0.0, 1.0], "bins": [-2.679973840713501, -2.576465606689453, -2.472957134246826, -2.3694489002227783, -2.2659406661987305, -2.1624321937561035, -2.0589239597320557, -1.9554156064987183, -1.8519072532653809, -1.7483989000320435, -1.644890546798706, -1.5413823127746582, -1.4378739595413208, -1.3343656063079834, -1.2308573722839355, -1.1273490190505981, -1.0238406658172607, -0.9203323125839233, -0.8168240189552307, -0.7133157253265381, -0.6098073720932007, -0.5062990188598633, -0.40279072523117065, -0.299282431602478, -0.19577407836914062, -0.09226575493812561, 0.011242568492889404, 0.11475089192390442, 0.21825921535491943, 0.32176756858825684, 0.42527586221694946, 0.5287841558456421, 0.6322927474975586, 0.735801100730896, 0.8393093943595886, 0.9428176879882812, 1.0463260412216187, 1.149834394454956, 1.253342628479004, 1.3568509817123413, 1.4603593349456787, 1.5638676881790161, 1.6673760414123535, 1.7708842754364014, 1.8743926286697388, 1.9779009819030762, 2.081409215927124, 2.184917449951172, 2.288425922393799, 2.3919341564178467, 2.4954426288604736, 2.5989508628845215, 2.7024593353271484, 2.8059675693511963, 2.909475803375244, 3.012984275817871, 3.116492509841919, 3.220000743865967, 3.3235092163085938, 3.4270174503326416, 3.5305256843566895, 3.6340341567993164, 3.7375423908233643, 3.841050624847412, 3.944559097290039]}, "gradients/decoder.lstm_cell.weight_hh": {"_type": "histogram", "values": [2.0, 1.0, 0.0, 1.0, 0.0, 0.0, 0.0, 0.0, 0.0, 1.0, 0.0, 1.0, 2.0, 7.0, 3.0, 16.0, 14.0, 12.0, 30.0, 40.0, 60.0, 75.0, 122.0, 127.0, 171.0, 211.0, 304.0, 424.0, 586.0, 901.0, 1479.0, 2531.0, 4162.0, 9508.0, 28265.0, 6781.0, 3522.0, 2191.0, 1217.0, 811.0, 543.0, 417.0, 238.0, 198.0, 144.0, 98.0, 65.0, 66.0, 53.0, 27.0, 25.0, 20.0, 20.0, 9.0, 10.0, 8.0, 4.0, 3.0, 1.0, 1.0, 2.0, 3.0, 1.0, 2.0], "bins": [-2.089061737060547, -2.0282742977142334, -1.9674869775772095, -1.906699538230896, -1.8459120988845825, -1.7851247787475586, -1.7243373394012451, -1.6635499000549316, -1.6027624607086182, -1.5419750213623047, -1.4811877012252808, -1.4204002618789673, -1.3596128225326538, -1.2988255023956299, -1.2380380630493164, -1.177250623703003, -1.1164631843566895, -1.055675745010376, -0.9948883652687073, -0.9341009855270386, -0.8733135461807251, -0.8125261664390564, -0.7517387866973877, -0.6909513473510742, -0.6301640272140503, -0.5693766474723816, -0.5085892081260681, -0.4478018283843994, -0.38701438903808594, -0.32622700929641724, -0.26543959975242615, -0.20465219020843506, -0.14386475086212158, -0.0830773413181305, -0.02228993922472, 0.03849746286869049, 0.09928487241268158, 0.16007226705551147, 0.22085967659950256, 0.28164708614349365, 0.34243452548980713, 0.4032219350337982, 0.4640093445777893, 0.524796724319458, 0.5855841636657715, 0.6463715434074402, 0.7071589231491089, 0.7679463624954224, 0.8287337422370911, 0.8895211219787598, 0.9503085613250732, 1.0110960006713867, 1.0718833208084106, 1.1326707601547241, 1.1934581995010376, 1.2542455196380615, 1.315032958984375, 1.3758203983306885, 1.4366077184677124, 1.4973951578140259, 1.5581825971603394, 1.6189699172973633, 1.6797573566436768, 1.7405447959899902, 1.8013322353363037]}, "gradients/decoder.lstm_cell.bias_ih": {"_type": "histogram", "values": [1.0, 0.0, 0.0, 1.0, 0.0, 2.0, 0.0, 2.0, 2.0, 1.0, 4.0, 1.0, 1.0, 1.0, 2.0, 4.0, 4.0, 5.0, 11.0, 4.0, 10.0, 13.0, 14.0, 27.0, 47.0, 125.0, 107.0, 28.0, 17.0, 13.0, 14.0, 12.0, 9.0, 5.0, 3.0, 3.0, 9.0, 1.0, 2.0, 2.0, 1.0, 2.0, 0.0, 0.0, 1.0, 0.0, 0.0, 0.0, 0.0, 0.0, 0.0, 0.0, 0.0, 0.0, 0.0, 0.0, 0.0, 0.0, 0.0, 0.0, 0.0, 0.0, 0.0, 1.0], "bins": [-2.679973840713501, -2.576465606689453, -2.472957134246826, -2.3694489002227783, -2.2659406661987305, -2.1624321937561035, -2.0589239597320557, -1.9554156064987183, -1.8519072532653809, -1.7483989000320435, -1.644890546798706, -1.5413823127746582, -1.4378739595413208, -1.3343656063079834, -1.2308573722839355, -1.1273490190505981, -1.0238406658172607, -0.9203323125839233, -0.8168240189552307, -0.7133157253265381, -0.6098073720932007, -0.5062990188598633, -0.40279072523117065, -0.299282431602478, -0.19577407836914062, -0.09226575493812561, 0.011242568492889404, 0.11475089192390442, 0.21825921535491943, 0.32176756858825684, 0.42527586221694946, 0.5287841558456421, 0.6322927474975586, 0.735801100730896, 0.8393093943595886, 0.9428176879882812, 1.0463260412216187, 1.149834394454956, 1.253342628479004, 1.3568509817123413, 1.4603593349456787, 1.5638676881790161, 1.6673760414123535, 1.7708842754364014, 1.8743926286697388, 1.9779009819030762, 2.081409215927124, 2.184917449951172, 2.288425922393799, 2.3919341564178467, 2.4954426288604736, 2.5989508628845215, 2.7024593353271484, 2.8059675693511963, 2.909475803375244, 3.012984275817871, 3.116492509841919, 3.220000743865967, 3.3235092163085938, 3.4270174503326416, 3.5305256843566895, 3.6340341567993164, 3.7375423908233643, 3.841050624847412, 3.944559097290039]}, "gradients/decoder.lstm_cell.weight_ih": {"_type": "histogram", "values": [1.0, 1.0, 0.0, 1.0, 0.0, 1.0, 0.0, 0.0, 0.0, 1.0, 0.0, 0.0, 1.0, 0.0, 1.0, 1.0, 0.0, 0.0, 0.0, 0.0, 2.0, 1.0, 1.0, 0.0, 1.0, 1.0, 4.0, 9.0, 5.0, 13.0, 26.0, 21.0, 45.0, 44.0, 58.0, 69.0, 106.0, 171.0, 304.0, 915.0, 5972.0, 615.0, 254.0, 147.0, 107.0, 80.0, 60.0, 40.0, 33.0, 17.0, 16.0, 17.0, 11.0, 7.0, 7.0, 10.0, 7.0, 3.0, 1.0, 2.0, 1.0, 3.0, 0.0, 2.0], "bins": [-20.075368881225586, -19.577547073364258, -19.079727172851562, -18.581905364990234, -18.08408546447754, -17.58626365661621, -17.088443756103516, -16.590621948242188, -16.092802047729492, -15.59498119354248, -15.097160339355469, -14.599339485168457, -14.101518630981445, -13.603696823120117, -13.105876922607422, -12.608055114746094, -12.110233306884766, -11.612412452697754, -11.114591598510742, -10.61677074432373, -10.118949890136719, -9.62112808227539, -9.123308181762695, -8.625486373901367, -8.127666473388672, -7.62984561920166, -7.132024765014648, -6.634203910827637, -6.136382579803467, -5.638561725616455, -5.140740871429443, -4.642919540405273, -4.145098686218262, -3.64727783203125, -3.149456739425659, -2.6516358852386475, -2.1538147926330566, -1.655993938446045, -1.1581730842590332, -0.6603519916534424, -0.16253089904785156, 0.3352900445461273, 0.8331109881401062, 1.3309319019317627, 1.828752875328064, 2.3265738487243652, 2.824394702911377, 3.3222157955169678, 3.8200364112854004, 4.317857265472412, 4.815678119659424, 5.313499450683594, 5.8113203048706055, 6.309141159057617, 6.806962013244629, 7.304782867431641, 7.802603721618652, 8.300424575805664, 8.798245429992676, 9.296066284179688, 9.7938871383667, 10.291707992553711, 10.789529800415039, 11.28735065460205, 11.785171508789062]}, "gradients/phi_z.nn_layers.2.bias": {"_type": "histogram", "values": [1.0, 0.0, 0.0, 0.0, 0.0, 0.0, 0.0, 0.0, 0.0, 0.0, 0.0, 0.0, 0.0, 0.0, 0.0, 0.0, 0.0, 0.0, 0.0, 0.0, 0.0, 0.0, 1.0, 0.0, 1.0, 0.0, 0.0, 1.0, 0.0, 1.0, 1.0, 2.0, 0.0, 2.0, 1.0, 1.0, 1.0, 0.0, 2.0, 3.0, 2.0, 0.0, 4.0, 9.0, 9.0, 3.0, 5.0, 4.0, 1.0, 1.0, 2.0, 1.0, 0.0, 0.0, 1.0, 1.0, 1.0, 1.0, 0.0, 0.0, 0.0, 0.0, 0.0, 1.0], "bins": [-0.8658653497695923, -0.846213698387146, -0.8265620470046997, -0.8069103360176086, -0.7872586846351624, -0.7676070332527161, -0.747955322265625, -0.7283036708831787, -0.7086520195007324, -0.6890003681182861, -0.6693487167358398, -0.6496970057487488, -0.6300453543663025, -0.6103937029838562, -0.5907419919967651, -0.5710903406143188, -0.5514386892318726, -0.5317870378494263, -0.51213538646698, -0.4924836754798889, -0.4728320240974426, -0.45318037271499634, -0.43352869153022766, -0.413877010345459, -0.3942253589630127, -0.3745737075805664, -0.35492202639579773, -0.33527034521102905, -0.31561869382858276, -0.2959670424461365, -0.2763153612613678, -0.2566636800765991, -0.23701196908950806, -0.21736030280590057, -0.1977086365222931, -0.1780569702386856, -0.15840530395507812, -0.13875363767147064, -0.11910197138786316, -0.09945030510425568, -0.0797986388206482, -0.06014697253704071, -0.04049530625343323, -0.020843639969825745, -0.0011919736862182617, 0.01845969259738922, 0.038111358880996704, 0.05776302516460419, 0.07741469144821167, 0.09706635773181915, 0.11671802401542664, 0.13636969029903412, 0.1560213565826416, 0.17567302286624908, 0.19532468914985657, 0.21497635543346405, 0.23462802171707153, 0.2542796730995178, 0.2739313542842865, 0.2935830354690552, 0.31323468685150146, 0.33288633823394775, 0.35253801941871643, 0.3721897006034851, 0.3918413519859314]}, "gradients/phi_z.nn_layers.2.weight": {"_type": "histogram", "values": [1.0, 0.0, 0.0, 0.0, 0.0, 0.0, 1.0, 0.0, 0.0, 0.0, 0.0, 1.0, 0.0, 0.0, 0.0, 0.0, 0.0, 0.0, 3.0, 1.0, 2.0, 1.0, 1.0, 1.0, 2.0, 0.0, 5.0, 0.0, 4.0, 6.0, 8.0, 11.0, 8.0, 20.0, 19.0, 29.0, 42.0, 37.0, 55.0, 770.0, 91.0, 64.0, 34.0, 18.0, 8.0, 10.0, 3.0, 5.0, 5.0, 3.0, 2.0, 4.0, 1.0, 1.0, 0.0, 1.0, 0.0, 0.0, 0.0, 0.0, 0.0, 1.0, 0.0, 1.0], "bins": [-3.062310218811035, -2.984985113143921, -2.9076602458953857, -2.8303351402282715, -2.7530102729797363, -2.675685167312622, -2.598360300064087, -2.5210351943969727, -2.4437103271484375, -2.3663852214813232, -2.289060354232788, -2.211735248565674, -2.1344103813171387, -2.0570852756500244, -1.9797602891921997, -1.902435302734375, -1.8251101970672607, -1.747785210609436, -1.6704602241516113, -1.5931352376937866, -1.515810251235962, -1.4384851455688477, -1.361160159111023, -1.2838351726531982, -1.2065101861953735, -1.1291851997375488, -1.0518602132797241, -0.9745351672172546, -0.8972101807594299, -0.8198851943016052, -0.7425601482391357, -0.665235161781311, -0.5879099369049072, -0.5105849504470825, -0.4332599341869354, -0.35593491792678833, -0.2786099314689636, -0.20128494501113892, -0.12395992875099182, -0.04663491249084473, 0.03069007396697998, 0.10801507532596588, 0.18534007668495178, 0.2626650929450989, 0.3399900794029236, 0.4173150658607483, 0.4946400821208954, 0.5719650983810425, 0.6492900848388672, 0.7266150712966919, 0.8039400577545166, 0.8812651038169861, 0.9585900902748108, 1.0359151363372803, 1.113240122795105, 1.1905651092529297, 1.2678900957107544, 1.345215082168579, 1.4225400686264038, 1.4998650550842285, 1.5771901607513428, 1.654515027999878, 1.7318401336669922, 1.809165120124817, 1.8864901065826416]}, "gradients/phi_z.nn_layers.1.bias": {"_type": "histogram", "values": [1.0, 0.0, 0.0, 0.0, 0.0, 0.0, 0.0, 0.0, 0.0, 0.0, 1.0, 0.0, 0.0, 0.0, 1.0, 0.0, 0.0, 0.0, 0.0, 0.0, 0.0, 0.0, 1.0, 0.0, 7.0, 1.0, 0.0, 0.0, 1.0, 1.0, 0.0, 0.0, 0.0, 1.0, 0.0, 0.0, 0.0, 1.0, 0.0, 0.0, 0.0, 0.0, 1.0, 0.0, 0.0, 0.0, 0.0, 1.0, 1.0, 0.0, 0.0, 0.0, 0.0, 0.0, 0.0, 0.0, 0.0, 0.0, 0.0, 0.0, 0.0, 0.0, 0.0, 1.0], "bins": [-0.18797321617603302, -0.1801726073026657, -0.1723719984292984, -0.1645713895559311, -0.1567707657814026, -0.14897015690803528, -0.14116954803466797, -0.13336893916130066, -0.12556833028793335, -0.11776772141456604, -0.10996711254119873, -0.10216649621725082, -0.09436588734388351, -0.0865652784705162, -0.0787646621465683, -0.07096405327320099, -0.06316344439983368, -0.05536283552646637, -0.04756222292780876, -0.039761610329151154, -0.031961001455783844, -0.024160392582416534, -0.016359779983758926, -0.008559167385101318, -0.0007585585117340088, 0.00704205222427845, 0.014842662960290909, 0.022643273696303368, 0.030443884432315826, 0.038244493305683136, 0.046045105904340744, 0.05384571850299835, 0.061646342277526855, 0.06944695115089417, 0.07724756002426147, 0.08504817634820938, 0.09284878522157669, 0.100649394094944, 0.1084500104188919, 0.11625061929225922, 0.12405122816562653, 0.13185183703899384, 0.13965244591236115, 0.14745305478572845, 0.15525367856025696, 0.16305428743362427, 0.17085489630699158, 0.1786555051803589, 0.1864561140537262, 0.1942567229270935, 0.20205733180046082, 0.20985794067382812, 0.21765854954719543, 0.22545915842056274, 0.23325978219509125, 0.24106039106845856, 0.24886099994182587, 0.25666162371635437, 0.2644622325897217, 0.272262841463089, 0.2800634503364563, 0.2878640592098236, 0.2956646680831909, 0.3034652769565582, 0.31126588582992554]}, "gradients/phi_z.nn_layers.1.weight": {"_type": "histogram", "values": [1.0, 0.0, 0.0, 1.0, 0.0, 2.0, 0.0, 1.0, 0.0, 0.0, 1.0, 1.0, 1.0, 2.0, 2.0, 3.0, 1.0, 2.0, 1.0, 4.0, 6.0, 5.0, 6.0, 2.0, 8.0, 13.0, 177.0, 18.0, 18.0, 17.0, 13.0, 8.0, 11.0, 4.0, 11.0, 5.0, 5.0, 3.0, 8.0, 2.0, 3.0, 4.0, 2.0, 3.0, 1.0, 5.0, 1.0, 7.0, 1.0, 1.0, 1.0, 0.0, 3.0, 0.0, 0.0, 1.0, 0.0, 1.0, 0.0, 1.0, 0.0, 0.0, 0.0, 2.0], "bins": [-0.5819528698921204, -0.5601774454116821, -0.5384020805358887, -0.5166266560554504, -0.4948512315750122, -0.473075807094574, -0.45130041241645813, -0.4295250177383423, -0.40774959325790405, -0.3859741687774658, -0.36419877409935, -0.34242337942123413, -0.3206479549407959, -0.29887253046035767, -0.2770971357822418, -0.255321741104126, -0.23354631662368774, -0.2117709070444107, -0.18999549746513367, -0.16822008788585663, -0.1464446783065796, -0.12466926872730255, -0.10289385914802551, -0.08111844956874847, -0.059343039989471436, -0.0375676304101944, -0.01579222083091736, 0.00598318874835968, 0.02775859832763672, 0.04953400790691376, 0.0713094174861908, 0.09308482706546783, 0.11486029624938965, 0.1366357058286667, 0.15841111540794373, 0.18018652498722076, 0.2019619345664978, 0.22373734414577484, 0.24551275372505188, 0.2672881484031677, 0.28906357288360596, 0.3108389973640442, 0.33261439204216003, 0.3543897867202759, 0.3761652112007141, 0.39794063568115234, 0.4197160303592682, 0.44149142503738403, 0.46326684951782227, 0.4850422739982605, 0.5068176984786987, 0.5285930633544922, 0.5503684878349304, 0.5721439123153687, 0.5939192771911621, 0.6156947016716003, 0.6374701261520386, 0.6592455506324768, 0.681020975112915, 0.7027963399887085, 0.7245717644691467, 0.746347188949585, 0.7681225538253784, 0.7898979783058167, 0.8116734027862549]}, "gradients/phi_z.nn_layers.0.bias": {"_type": "histogram", "values": [2.0, 0.0, 0.0, 0.0, 0.0, 0.0, 0.0, 0.0, 0.0, 0.0, 0.0, 0.0, 2.0, 0.0, 0.0, 1.0, 1.0, 0.0, 0.0, 0.0, 1.0, 1.0, 0.0, 0.0, 0.0, 0.0, 0.0, 1.0, 0.0, 1.0, 0.0, 0.0, 0.0, 0.0, 1.0, 0.0, 0.0, 2.0, 0.0, 0.0, 0.0, 0.0, 0.0, 0.0, 0.0, 0.0, 1.0, 0.0, 0.0, 1.0, 0.0, 1.0, 1.0, 0.0, 0.0, 1.0, 0.0, 0.0, 0.0, 1.0, 0.0, 0.0, 0.0, 1.0], "bins": [-0.04157004505395889, -0.038899097591638565, -0.03622815012931824, -0.03355720266699791, -0.030886255204677582, -0.028215307742357254, -0.025544360280036926, -0.0228734128177166, -0.02020246535539627, -0.017531517893075943, -0.014860570430755615, -0.012189622968435287, -0.00951867550611496, -0.006847728043794632, -0.004176780581474304, -0.0015058331191539764, 0.0011651143431663513, 0.003836061805486679, 0.006507009267807007, 0.009177956730127335, 0.011848904192447662, 0.01451985165476799, 0.017190799117088318, 0.019861746579408646, 0.022532694041728973, 0.0252036415040493, 0.02787458896636963, 0.030545536428689957, 0.033216483891010284, 0.03588743135333061, 0.03855837881565094, 0.04122932627797127, 0.043900266289711, 0.046571213752031326, 0.049242161214351654, 0.05191310867667198, 0.05458405613899231, 0.05725500360131264, 0.059925951063632965, 0.06259690225124359, 0.06526784598827362, 0.06793878972530365, 0.07060974091291428, 0.0732806921005249, 0.07595163583755493, 0.07862257957458496, 0.08129353076219559, 0.08396448194980621, 0.08663542568683624, 0.08930636942386627, 0.0919773206114769, 0.09464827179908752, 0.09731921553611755, 0.09999015927314758, 0.10266111046075821, 0.10533206164836884, 0.10800300538539886, 0.1106739491224289, 0.11334490031003952, 0.11601585149765015, 0.11868679523468018, 0.1213577389717102, 0.12402869015932083, 0.12669964134693146, 0.1293705850839615]}, "gradients/phi_z.nn_layers.0.weight": {"_type": "histogram", "values": [2.0, 0.0, 1.0, 0.0, 0.0, 0.0, 2.0, 2.0, 5.0, 2.0, 6.0, 7.0, 11.0, 14.0, 18.0, 22.0, 25.0, 42.0, 54.0, 64.0, 62.0, 133.0, 62.0, 67.0, 74.0, 62.0, 56.0, 53.0, 58.0, 52.0, 55.0, 32.0, 33.0, 39.0, 23.0, 24.0, 36.0, 18.0, 14.0, 14.0, 6.0, 7.0, 1.0, 3.0, 1.0, 2.0, 2.0, 1.0, 1.0, 4.0, 1.0, 2.0, 0.0, 0.0, 1.0, 1.0, 0.0, 0.0, 0.0, 2.0, 0.0, 0.0, 0.0, 1.0], "bins": [-0.1320493370294571, -0.12579302489757538, -0.11953671276569366, -0.11328040063381195, -0.10702408850193024, -0.10076777637004852, -0.0945114716887474, -0.08825515955686569, -0.08199884742498398, -0.07574253529310226, -0.06948622316122055, -0.06322991847991943, -0.05697360262274742, -0.05071729049086571, -0.04446098208427429, -0.03820466995239258, -0.031948357820510864, -0.02569204568862915, -0.019435735419392586, -0.013179425150156021, -0.006923113018274307, -0.0006668008863925934, 0.005589507520198822, 0.011845819652080536, 0.018102124333381653, 0.024358436465263367, 0.03061474673449993, 0.036871057003736496, 0.04312736913561821, 0.049383681267499924, 0.05563998967409134, 0.06189630180597305, 0.06815263628959656, 0.07440894842147827, 0.08066526055335999, 0.0869215726852417, 0.09317788481712341, 0.09943419694900513, 0.10569050163030624, 0.11194681376218796, 0.11820313334465027, 0.12445944547653198, 0.1307157576084137, 0.1369720697402954, 0.14322838187217712, 0.14948469400405884, 0.15574100613594055, 0.16199731826782227, 0.16825361549854279, 0.1745099276304245, 0.1807662397623062, 0.18702255189418793, 0.19327886402606964, 0.19953517615795135, 0.20579147338867188, 0.2120477855205536, 0.2183040976524353, 0.22456040978431702, 0.23081672191619873, 0.23707303404808044, 0.24332934617996216, 0.24958565831184387, 0.2558419704437256, 0.2620982825756073, 0.268354594707489]}, "gradients/c_means": {"_type": "histogram", "values": [1.0, 0.0, 0.0, 0.0, 1.0, 0.0, 1.0, 2.0, 2.0, 2.0, 2.0, 0.0, 2.0, 2.0, 5.0, 4.0, 9.0, 6.0, 13.0, 11.0, 14.0, 14.0, 21.0, 13.0, 21.0, 24.0, 31.0, 36.0, 32.0, 36.0, 34.0, 38.0, 28.0, 20.0, 22.0, 32.0, 17.0, 25.0, 13.0, 10.0, 13.0, 12.0, 8.0, 4.0, 13.0, 5.0, 8.0, 5.0, 4.0, 5.0, 4.0, 0.0, 3.0, 3.0, 2.0, 2.0, 2.0, 0.0, 1.0, 1.0, 0.0, 0.0, 0.0, 1.0], "bins": [-0.006487343460321426, -0.006164296064525843, -0.005841248203068972, -0.005518200807273388, -0.005195152945816517, -0.004872105550020933, -0.004549058154225349, -0.004226010292768478, -0.0039029628969728947, -0.0035799152683466673, -0.00325686763972044, -0.002933820243924856, -0.002610772615298629, -0.0022877249866724014, -0.0019646775908768177, -0.0016416299622505903, -0.001318582333624363, -0.0009955347049981356, -0.00067248719278723, -0.00034943962236866355, -2.6392051950097084e-05, 0.0002966555766761303, 0.0006197030888870358, 0.0009427506010979414, 0.0012657982297241688, 0.0015888458583503962, 0.0019118933705613017, 0.0022349408827722073, 0.0025579885113984346, 0.002881036140024662, 0.0032040835358202457, 0.003527131164446473, 0.0038501787930727005, 0.004173226188868284, 0.004496274050325155, 0.004819321446120739, 0.00514236930757761, 0.005465416703373194, 0.0057884640991687775, 0.0061115119606256485, 0.006434559356421232, 0.006757606752216816, 0.007080654613673687, 0.007403702009469271, 0.007726749405264854, 0.008049797266721725, 0.008372845128178596, 0.008695892058312893, 0.009018939919769764, 0.009341987781226635, 0.009665034711360931, 0.009988082572817802, 0.010311130434274673, 0.010634178295731544, 0.010957225225865841, 0.011280273087322712, 0.011603320017457008, 0.01192636787891388, 0.012249414809048176, 0.012572462670505047, 0.012895510531961918, 0.013218557462096214, 0.013541605323553085, 0.013864653185009956, 0.014187701046466827]}, "gradients/log_c_vars": {"_type": "histogram", "values": [1.0, 0.0, 0.0, 0.0, 0.0, 0.0, 0.0, 1.0, 0.0, 0.0, 0.0, 0.0, 0.0, 1.0, 1.0, 0.0, 0.0, 0.0, 0.0, 0.0, 0.0, 1.0, 0.0, 0.0, 0.0, 0.0, 0.0, 0.0, 0.0, 0.0, 0.0, 0.0, 0.0, 0.0, 0.0, 0.0, 0.0, 0.0, 1.0, 0.0, 0.0, 0.0, 0.0, 0.0, 1.0, 0.0, 0.0, 1.0, 0.0, 0.0, 0.0, 0.0, 0.0, 0.0, 0.0, 0.0, 0.0, 1.0, 0.0, 0.0, 0.0, 0.0, 0.0, 1.0], "bins": [-0.03491608425974846, -0.033801961690187454, -0.03268783912062645, -0.03157372027635574, -0.03045959770679474, -0.029345475137233734, -0.02823135256767273, -0.027117231860756874, -0.02600311115384102, -0.024888988584280014, -0.02377486787736416, -0.022660745307803154, -0.0215466246008873, -0.020432502031326294, -0.01931837946176529, -0.018204258754849434, -0.01709013618528843, -0.015976013615727425, -0.01486189290881157, -0.013747770339250565, -0.01263364963233471, -0.011519527062773705, -0.010405405424535275, -0.009291283786296844, -0.00817716121673584, -0.00706303957849741, -0.00594891794025898, -0.0048347958363592625, -0.0037206741981208324, -0.0026065525598824024, -0.001492430455982685, -0.00037830881774425507, 0.0007358118891716003, 0.0018499336438253522, 0.002964055398479104, 0.004078177269548178, 0.005192298907786608, 0.006306420546025038, 0.007420542649924755, 0.008534664288163185, 0.00964878499507904, 0.01076290663331747, 0.0118770282715559, 0.012991150841116905, 0.01410527154803276, 0.015219394117593765, 0.01633351668715477, 0.017447637394070625, 0.01856175996363163, 0.019675882533192635, 0.02079000324010849, 0.021904125809669495, 0.02301824651658535, 0.024132369086146355, 0.02524648979306221, 0.026360612362623215, 0.02747473493218422, 0.028588857501745224, 0.02970297820866108, 0.030817100778222084, 0.03193122148513794, 0.033045344054698944, 0.03415946662425995, 0.03527358919382095, 0.03638770803809166]}, "_runtime": 392.95540046691895, "_step": 31, "train/epoch": 31, "train/loss": -36627.7705078125, "train/loglik": 1693.5008544921875, "train/kldiv": -10319.859375, "train/out_l": 587.6943359375, "val/epoch": 31, "val/loss": -1143.945556640625, "val/loglik": 52.69881820678711, "val/kldiv": -322.4966125488281, "val/out_l": 18.359237670898438, "val/avg_clus_dist": 10.582152366638184, "val/acc": 0.003335556946694851, "val/macro_f1": [NaN, 0.003335556946694851], "val/micro_f1": [NaN, 0.003335556946694851], "val/Precision_Recall_table": {"_type": "table-file", "sha256": "6bed4f83d0f89ccfa8aa3e6d3aaff13aae765b21bc8d70d5fc0f936e7f4f767a", "size": 1679, "artifact_path": "wandb-client-artifact://radx0qlohgvdcx0xg3ett012cqeatt9h53z146zxytktd30rodldbqjeu565isovsvs4zmbimy5m60olil5ymbmlsuajbnubgibmj1znaelldogfxxkfqmm983jm8tes:latest/val/Precision_Recall_table.table.json", "_latest_artifact_path": "wandb-client-artifact://radx0qlohgvdcx0xg3ett012cqeatt9h53z146zxytktd30rodldbqjeu565isovsvs4zmbimy5m60olil5ymbmlsuajbnubgibmj1znaelldogfxxkfqmm983jm8tes:latest/val/Precision_Recall_table.table.json", "path": "media/table/val/Precision_Recall_table_31_6bed4f83d0f89ccfa8aa.table.json", "ncols": 3, "nrows": 84}, "val/Receiver_Operating_Char_table": {"_type": "table-file", "sha256": "fd4fe176e880e7ad426575a5429691c1eb7af1c4228962e8bb1a31d6bdebbef8", "size": 75349, "artifact_path": "wandb-client-artifact://pyou6pp3b1xifhg6iyttbcvshjp8rh3qsmmzob6ygfzwcleuisr6jeatdbnp4wkxv9ut4tro0kp4eyaurkuw87dc0z4lcpzurkhkzi0iergq3zuoinfvomnhx8v30ydv:latest/val/Receiver_Operating_Char_table.table.json", "_latest_artifact_path": "wandb-client-artifact://pyou6pp3b1xifhg6iyttbcvshjp8rh3qsmmzob6ygfzwcleuisr6jeatdbnp4wkxv9ut4tro0kp4eyaurkuw87dc0z4lcpzurkhkzi0iergq3zuoinfvomnhx8v30ydv:latest/val/Receiver_Operating_Char_table.table.json", "path": "media/table/val/Receiver_Operating_Char_table_31_fd4fe176e880e7ad4265.table.json", "ncols": 3, "nrows": 3625}, "": "", "_wandb": {"runtime": 391}}