{"gradients/predictor.nn_layers.2.bias": {"_type": "histogram", "values": [1.0, 0.0, 0.0, 0.0, 0.0, 0.0, 0.0, 0.0, 0.0, 0.0, 0.0, 0.0, 0.0, 0.0, 0.0, 0.0, 0.0, 0.0, 0.0, 0.0, 0.0, 0.0, 0.0, 0.0, 1.0, 0.0, 0.0, 0.0, 0.0, 0.0, 0.0, 0.0, 0.0, 0.0, 0.0, 0.0, 0.0, 0.0, 0.0, 0.0, 0.0, 0.0, 0.0, 0.0, 0.0, 0.0, 0.0, 0.0, 0.0, 1.0, 0.0, 0.0, 0.0, 0.0, 0.0, 0.0, 0.0, 0.0, 0.0, 0.0, 0.0, 0.0, 0.0, 1.0], "bins": [-0.6292452812194824, -0.611029863357544, -0.5928145051002502, -0.5745991468429565, -0.5563837289810181, -0.5381683111190796, -0.5199529528617859, -0.5017375946044922, -0.4835221767425537, -0.4653067886829376, -0.44709140062332153, -0.42887601256370544, -0.41066062450408936, -0.39244523644447327, -0.3742298483848572, -0.3560144603252411, -0.337799072265625, -0.3195836842060089, -0.3013682961463928, -0.28315290808677673, -0.26493752002716064, -0.24672213196754456, -0.22850674390792847, -0.21029135584831238, -0.1920759677886963, -0.1738605797290802, -0.1556451916694641, -0.13742980360984802, -0.11921441555023193, -0.10099902749061584, -0.08278363943099976, -0.06456825137138367, -0.0463528037071228, -0.028137415647506714, -0.009922027587890625, 0.008293360471725464, 0.026508748531341553, 0.04472413659095764, 0.06293952465057373, 0.08115491271018982, 0.09937030076980591, 0.117585688829422, 0.13580107688903809, 0.15401646494865417, 0.17223185300827026, 0.19044724106788635, 0.20866262912750244, 0.22687801718711853, 0.24509340524673462, 0.2633087933063507, 0.2815241813659668, 0.2997395694255829, 0.317954957485199, 0.33617034554481506, 0.35438573360443115, 0.37260112166404724, 0.39081650972366333, 0.4090318977832794, 0.4272472858428955, 0.4454626739025116, 0.4636780619621277, 0.4818934500217438, 0.5001088380813599, 0.5183242559432983, 0.536539614200592]}, "_timestamp": 1686659664.420497, "gradients/predictor.nn_layers.2.weight": {"_type": "histogram", "values": [2.0, 0.0, 0.0, 1.0, 0.0, 1.0, 1.0, 0.0, 1.0, 0.0, 0.0, 0.0, 0.0, 0.0, 1.0, 2.0, 0.0, 0.0, 0.0, 0.0, 0.0, 0.0, 1.0, 0.0, 2.0, 1.0, 3.0, 2.0, 5.0, 0.0, 0.0, 3.0, 4.0, 2.0, 13.0, 1.0, 4.0, 5.0, 1.0, 1.0, 2.0, 2.0, 0.0, 2.0, 2.0, 0.0, 0.0, 3.0, 1.0, 0.0, 2.0, 2.0, 1.0, 0.0, 0.0, 0.0, 1.0, 0.0, 1.0, 1.0, 0.0, 1.0, 0.0, 2.0], "bins": [-1.2070989608764648, -1.1724082231521606, -1.1377174854278564, -1.1030267477035522, -1.0683358907699585, -1.0336451530456543, -0.9989544153213501, -0.9642636775970459, -0.9295729398727417, -0.8948821425437927, -0.8601914048194885, -0.8255006670951843, -0.7908098697662354, -0.7561191320419312, -0.721428394317627, -0.686737596988678, -0.6520468592643738, -0.6173561215400696, -0.5826653242111206, -0.5479745864868164, -0.5132838487625122, -0.4785930812358856, -0.44390231370925903, -0.40921157598495483, -0.37452080845832825, -0.33983004093170166, -0.30513930320739746, -0.2704485356807709, -0.23575778305530548, -0.2010670304298401, -0.1663762629032135, -0.1316855102777481, -0.09699475765228271, -0.06230400130152702, -0.027613244950771332, 0.00707751139998436, 0.04176826775074005, 0.07645902037620544, 0.11114978045225143, 0.14584054052829742, 0.18053129315376282, 0.2152220457792282, 0.2499127984046936, 0.2846035659313202, 0.3192943334579468, 0.353985071182251, 0.38867583870887756, 0.42336657643318176, 0.45805734395980835, 0.49274811148643494, 0.5274388790130615, 0.5621296167373657, 0.5968203544616699, 0.6315111517906189, 0.6662018895149231, 0.7008926272392273, 0.7355834245681763, 0.7702741622924805, 0.8049649000167847, 0.8396556377410889, 0.8743464350700378, 0.909037172794342, 0.9437279105186462, 0.9784187078475952, 1.0131094455718994]}, "gradients/predictor.nn_layers.1.bias": {"_type": "histogram", "values": [1.0, 0.0, 0.0, 0.0, 1.0, 0.0, 0.0, 0.0, 0.0, 0.0, 1.0, 0.0, 0.0, 0.0, 1.0, 0.0, 1.0, 0.0, 0.0, 0.0, 0.0, 0.0, 0.0, 0.0, 0.0, 0.0, 1.0, 1.0, 0.0, 0.0, 0.0, 1.0, 0.0, 2.0, 0.0, 0.0, 1.0, 0.0, 0.0, 0.0, 1.0, 1.0, 0.0, 0.0, 0.0, 0.0, 0.0, 1.0, 0.0, 0.0, 0.0, 1.0, 0.0, 0.0, 0.0, 1.0, 0.0, 0.0, 0.0, 1.0, 0.0, 0.0, 0.0, 3.0], "bins": [-0.45447540283203125, -0.4473221004009247, -0.4401687979698181, -0.43301549553871155, -0.425862193107605, -0.4187088906764984, -0.41155558824539185, -0.4044022560119629, -0.3972489535808563, -0.39009565114974976, -0.3829423487186432, -0.3757890462875366, -0.36863574385643005, -0.3614824414253235, -0.3543291389942169, -0.34717583656311035, -0.3400225341320038, -0.3328692317008972, -0.32571592926979065, -0.3185626268386841, -0.3114092946052551, -0.30425599217414856, -0.297102689743042, -0.2899493873119354, -0.28279608488082886, -0.2756427824497223, -0.2684894800186157, -0.26133617758750916, -0.2541828751564026, -0.24702955782413483, -0.23987625539302826, -0.2327229529619217, -0.22556965053081512, -0.21841634809970856, -0.2112630307674408, -0.20410972833633423, -0.19695642590522766, -0.1898031234741211, -0.18264982104301453, -0.17549651861190796, -0.1683432161808014, -0.16118989884853363, -0.15403659641742706, -0.1468832939863205, -0.13972999155521393, -0.13257668912410736, -0.1254233866930008, -0.11827007681131363, -0.11111677438020706, -0.1039634644985199, -0.09681016206741333, -0.08965685963630676, -0.0825035497546196, -0.07535024732351303, -0.06819694489240646, -0.0610436387360096, -0.05389033257961273, -0.046737026423215866, -0.0395837239921093, -0.03243041783571243, -0.025277113541960716, -0.018123809248209, -0.010970504023134708, -0.003817199496552348, 0.003336105262860656]}, "gradients/predictor.nn_layers.1.weight": {"_type": "histogram", "values": [1.0, 0.0, 0.0, 0.0, 1.0, 0.0, 0.0, 0.0, 0.0, 0.0, 1.0, 0.0, 0.0, 0.0, 1.0, 0.0, 1.0, 0.0, 0.0, 0.0, 1.0, 2.0, 1.0, 1.0, 3.0, 2.0, 2.0, 4.0, 2.0, 2.0, 3.0, 4.0, 5.0, 5.0, 1.0, 1.0, 2.0, 0.0, 2.0, 6.0, 5.0, 4.0, 7.0, 9.0, 9.0, 5.0, 5.0, 7.0, 7.0, 10.0, 8.0, 6.0, 16.0, 11.0, 6.0, 9.0, 16.0, 14.0, 14.0, 17.0, 26.0, 25.0, 24.0, 86.0], "bins": [-0.7237756252288818, -0.712372362613678, -0.7009690999984741, -0.6895658373832703, -0.6781626343727112, -0.6667593717575073, -0.6553561091423035, -0.6439528465270996, -0.6325495839118958, -0.6211463212966919, -0.6097431182861328, -0.598339855670929, -0.5869365930557251, -0.5755333304405212, -0.5641300678253174, -0.5527268052101135, -0.5413235425949097, -0.5299203395843506, -0.5185170769691467, -0.5071138143539429, -0.495710551738739, -0.48430731892585754, -0.4729040563106537, -0.46150079369544983, -0.45009756088256836, -0.4386942982673645, -0.42729103565216064, -0.4158877730369568, -0.4044845402240753, -0.39308127760887146, -0.3816780149936676, -0.37027478218078613, -0.3588715195655823, -0.3474682569503784, -0.33606499433517456, -0.3246617615222931, -0.31325849890708923, -0.3018552362918854, -0.2904520034790039, -0.27904874086380005, -0.2676454782485962, -0.2562422454357147, -0.24483898282051086, -0.2334357351064682, -0.22203247249126434, -0.21062922477722168, -0.19922596216201782, -0.18782271444797516, -0.1764194667339325, -0.16501620411872864, -0.15361295640468597, -0.1422097086906433, -0.13080644607543945, -0.11940319836139679, -0.10799994319677353, -0.09659668803215027, -0.0851934403181076, -0.07379018515348434, -0.062386929988861084, -0.050983674824237823, -0.03958042338490486, -0.02817717008292675, -0.01677391678094864, -0.005370663478970528, 0.006032589823007584]}, "gradients/predictor.nn_layers.0.bias": {"_type": "histogram", "values": [1.0, 0.0, 0.0, 1.0, 1.0, 0.0, 0.0, 0.0, 0.0, 1.0, 0.0, 0.0, 0.0, 0.0, 0.0, 0.0, 0.0, 1.0, 2.0, 0.0, 2.0, 0.0, 1.0, 0.0, 0.0, 0.0, 0.0, 0.0, 1.0, 0.0, 0.0, 0.0, 0.0, 0.0, 1.0, 0.0, 1.0, 0.0, 0.0, 0.0, 0.0, 0.0, 1.0, 1.0, 0.0, 0.0, 1.0, 0.0, 0.0, 0.0, 0.0, 0.0, 0.0, 0.0, 0.0, 0.0, 1.0, 0.0, 0.0, 0.0, 0.0, 0.0, 1.0, 2.0], "bins": [-0.4533796012401581, -0.44652655720710754, -0.4396734833717346, -0.4328204393386841, -0.42596739530563354, -0.419114351272583, -0.4122612774372101, -0.40540823340415955, -0.398555189371109, -0.3917021155357361, -0.38484907150268555, -0.377996027469635, -0.3711429834365845, -0.36428990960121155, -0.357436865568161, -0.3505838215351105, -0.34373074769973755, -0.336877703666687, -0.3300246596336365, -0.32317161560058594, -0.316318541765213, -0.3094654977321625, -0.30261245369911194, -0.2957594096660614, -0.2889063358306885, -0.28205329179763794, -0.2752002477645874, -0.2683471739292145, -0.26149412989616394, -0.2546410858631134, -0.24778802692890167, -0.24093498289585114, -0.2340819239616394, -0.22722886502742767, -0.22037580609321594, -0.2135227620601654, -0.20666970312595367, -0.19981665909290314, -0.1929636001586914, -0.18611055612564087, -0.17925749719142914, -0.1724044382572174, -0.16555139422416687, -0.15869833528995514, -0.1518452912569046, -0.14499223232269287, -0.13813918828964233, -0.1312861293554306, -0.12443307787179947, -0.11758002638816833, -0.1107269749045372, -0.10387392342090607, -0.09702087193727493, -0.0901678204536438, -0.08331476151943207, -0.07646171003580093, -0.0696086585521698, -0.06275560706853867, -0.05590255558490753, -0.0490495041012764, -0.042196448892354965, -0.03534339740872383, -0.028490345925092697, -0.021637292578816414, -0.014784240163862705]}, "gradients/predictor.nn_layers.0.weight": {"_type": "histogram", "values": [1.0, 0.0, 0.0, 0.0, 0.0, 0.0, 1.0, 0.0, 0.0, 1.0, 1.0, 0.0, 1.0, 1.0, 0.0, 0.0, 0.0, 2.0, 3.0, 2.0, 0.0, 3.0, 2.0, 6.0, 2.0, 2.0, 2.0, 5.0, 2.0, 6.0, 3.0, 4.0, 2.0, 2.0, 4.0, 4.0, 8.0, 5.0, 5.0, 5.0, 5.0, 8.0, 4.0, 6.0, 10.0, 6.0, 8.0, 11.0, 8.0, 10.0, 12.0, 15.0, 10.0, 14.0, 32.0, 19.0, 17.0, 12.0, 7.0, 6.0, 7.0, 1.0, 4.0, 3.0], "bins": [-0.8938866853713989, -0.8777884840965271, -0.8616902828216553, -0.8455921411514282, -0.8294939398765564, -0.8133957386016846, -0.7972975969314575, -0.7811993956565857, -0.7651011943817139, -0.749002993106842, -0.7329047918319702, -0.7168066501617432, -0.7007084488868713, -0.6846102476119995, -0.6685121059417725, -0.6524139046669006, -0.6363157033920288, -0.620217502117157, -0.6041193008422852, -0.5880211591720581, -0.5719229578971863, -0.5558247566223145, -0.5397266149520874, -0.5236284136772156, -0.5075302124023438, -0.4914320111274719, -0.4753338396549225, -0.45923566818237305, -0.4431374669075012, -0.4270392656326294, -0.41094109416007996, -0.3948429226875305, -0.3787447214126587, -0.36264652013778687, -0.3465483486652374, -0.330450177192688, -0.31435197591781616, -0.29825377464294434, -0.2821556031703949, -0.26605743169784546, -0.24995923042297363, -0.233861044049263, -0.21776285767555237, -0.20166467130184174, -0.1855664849281311, -0.16946829855442047, -0.15337011218070984, -0.1372719258069992, -0.12117373943328857, -0.10507555305957794, -0.08897736668586731, -0.07287918031215668, -0.056780993938446045, -0.04068280756473541, -0.02458462119102478, -0.008486434817314148, 0.007611751556396484, 0.023709937930107117, 0.03980812430381775, 0.05590631067752838, 0.07200449705123901, 0.08810268342494965, 0.10420086979866028, 0.12029905617237091, 0.13639724254608154]}, "gradients/cell_update.nn_layers.2.bias": {"_type": "histogram", "values": [1.0, 0.0, 0.0, 0.0, 0.0, 0.0, 0.0, 0.0, 0.0, 0.0, 0.0, 0.0, 0.0, 0.0, 0.0, 0.0, 0.0, 0.0, 0.0, 0.0, 0.0, 0.0, 0.0, 0.0, 0.0, 0.0, 0.0, 0.0, 0.0, 0.0, 0.0, 0.0, 0.0, 0.0, 0.0, 0.0, 0.0, 0.0, 1.0, 1.0, 3.0, 1.0, 3.0, 0.0, 1.0, 0.0, 0.0, 1.0, 1.0, 1.0, 0.0, 0.0, 0.0, 0.0, 0.0, 0.0, 0.0, 0.0, 0.0, 0.0, 1.0, 0.0, 0.0, 1.0], "bins": [-2.9899022579193115, -2.9177424907684326, -2.845582962036133, -2.773423194885254, -2.701263427734375, -2.629103899002075, -2.5569441318511963, -2.4847846031188965, -2.4126248359680176, -2.3404650688171387, -2.268305540084839, -2.19614577293396, -2.12398624420166, -2.0518264770507812, -1.9796667098999023, -1.907507061958313, -1.8353474140167236, -1.7631877660751343, -1.691028118133545, -1.618868350982666, -1.5467087030410767, -1.4745490550994873, -1.4023892879486084, -1.330229640007019, -1.2580699920654297, -1.1859103441238403, -1.113750696182251, -1.041590929031372, -0.9694312810897827, -0.8972716331481934, -0.8251119256019592, -0.7529522180557251, -0.6807923316955566, -0.6086326837539673, -0.5364729762077332, -0.4643132984638214, -0.39215362071990967, -0.3199939429759979, -0.24783426523208618, -0.17567458748817444, -0.1035149097442627, -0.03135523200035095, 0.04080444574356079, 0.11296412348747253, 0.18512380123138428, 0.257283478975296, 0.32944315671920776, 0.4016028344631195, 0.47376251220703125, 0.5459221601486206, 0.6180818676948547, 0.6902415752410889, 0.7624012231826782, 0.8345608711242676, 0.9067205786705017, 0.9788802862167358, 1.0510399341583252, 1.1231995820999146, 1.195359230041504, 1.2675189971923828, 1.3396786451339722, 1.4118382930755615, 1.4839980602264404, 1.5561577081680298, 1.6283173561096191]}, "gradients/cell_update.nn_layers.2.weight": {"_type": "histogram", "values": [1.0, 0.0, 1.0, 0.0, 1.0, 0.0, 0.0, 0.0, 1.0, 0.0, 0.0, 1.0, 0.0, 0.0, 0.0, 0.0, 0.0, 0.0, 1.0, 1.0, 0.0, 0.0, 0.0, 0.0, 0.0, 0.0, 1.0, 1.0, 0.0, 1.0, 0.0, 0.0, 1.0, 0.0, 1.0, 1.0, 0.0, 0.0, 0.0, 4.0, 8.0, 45.0, 174.0, 17.0, 13.0, 6.0, 9.0, 6.0, 7.0, 3.0, 1.0, 1.0, 1.0, 1.0, 1.0, 1.0, 1.0, 1.0, 1.0, 2.0, 1.0, 1.0, 0.0, 2.0], "bins": [-14.814384460449219, -14.462821960449219, -14.111258506774902, -13.759696006774902, -13.408132553100586, -13.056570053100586, -12.705007553100586, -12.35344409942627, -12.00188159942627, -11.65031909942627, -11.298755645751953, -10.947193145751953, -10.595630645751953, -10.244067192077637, -9.892504692077637, -9.54094123840332, -9.18937873840332, -8.83781623840332, -8.486252784729004, -8.134690284729004, -7.783127307891846, -7.4315643310546875, -7.0800018310546875, -6.728438854217529, -6.376875877380371, -6.025312900543213, -5.673749923706055, -5.322187423706055, -4.9706244468688965, -4.619061470031738, -4.267498970031738, -3.91593599319458, -3.564373016357422, -3.2128100395202637, -2.8612473011016846, -2.5096845626831055, -2.1581215858459473, -1.8065587282180786, -1.45499587059021, -1.1034330129623413, -0.7518701553344727, -0.400307297706604, -0.04874444007873535, 0.3028184175491333, 0.654381275177002, 1.0059441328048706, 1.3575069904327393, 1.709069848060608, 2.0606327056884766, 2.4121956825256348, 2.763758420944214, 3.115321159362793, 3.466884136199951, 3.8184471130371094, 4.170009613037109, 4.521572589874268, 4.873135566711426, 5.224698543548584, 5.576261520385742, 5.927824020385742, 6.2793869972229, 6.630949974060059, 6.982512474060059, 7.334075450897217, 7.685638427734375]}, "gradients/cell_update.nn_layers.1.bias": {"_type": "histogram", "values": [1.0, 0.0, 0.0, 0.0, 0.0, 0.0, 0.0, 0.0, 0.0, 0.0, 1.0, 0.0, 0.0, 0.0, 0.0, 0.0, 0.0, 0.0, 0.0, 0.0, 0.0, 0.0, 0.0, 0.0, 0.0, 0.0, 0.0, 0.0, 0.0, 0.0, 1.0, 0.0, 1.0, 0.0, 0.0, 1.0, 0.0, 0.0, 0.0, 0.0, 0.0, 1.0, 0.0, 0.0, 1.0, 0.0, 0.0, 1.0, 0.0, 0.0, 1.0, 0.0, 1.0, 0.0, 0.0, 0.0, 0.0, 0.0, 2.0, 7.0, 0.0, 0.0, 0.0, 1.0], "bins": [-1.2592411041259766, -1.2381991147994995, -1.217157244682312, -1.196115255355835, -1.1750733852386475, -1.1540313959121704, -1.1329894065856934, -1.1119475364685059, -1.0909055471420288, -1.0698635578155518, -1.0488216876983643, -1.0277796983718872, -1.0067377090454102, -0.9856958389282227, -0.9646538496017456, -0.9436119198799133, -0.922569990158081, -0.9015280604362488, -0.8804861307144165, -0.8594441413879395, -0.8384022116661072, -0.8173602819442749, -0.7963182926177979, -0.7752763628959656, -0.7542344331741333, -0.733192503452301, -0.7121505737304688, -0.6911085844039917, -0.6700666546821594, -0.6490247249603271, -0.6279827356338501, -0.6069408059120178, -0.5858989357948303, -0.564857006072998, -0.543815016746521, -0.5227730870246887, -0.5017311573028564, -0.48068922758102417, -0.4596472680568695, -0.43860530853271484, -0.41756337881088257, -0.3965214490890503, -0.37547948956489563, -0.35443753004074097, -0.3333956003189087, -0.3123536705970764, -0.29131171107292175, -0.2702697515487671, -0.24922782182693481, -0.22818587720394135, -0.20714393258094788, -0.1861019879579544, -0.16506004333496094, -0.14401809871196747, -0.122976154088974, -0.10193420946598053, -0.08089226484298706, -0.05985032021999359, -0.03880837559700012, -0.017766430974006653, 0.0032755136489868164, 0.024317458271980286, 0.045359402894973755, 0.06640134751796722, 0.0874432921409607]}, "gradients/cell_update.nn_layers.1.weight": {"_type": "histogram", "values": [1.0, 0.0, 0.0, 0.0, 1.0, 0.0, 2.0, 0.0, 0.0, 1.0, 1.0, 0.0, 1.0, 2.0, 1.0, 2.0, 0.0, 0.0, 1.0, 0.0, 1.0, 1.0, 1.0, 0.0, 1.0, 0.0, 0.0, 0.0, 0.0, 2.0, 0.0, 2.0, 3.0, 2.0, 2.0, 3.0, 4.0, 3.0, 2.0, 3.0, 1.0, 1.0, 2.0, 4.0, 1.0, 3.0, 5.0, 6.0, 5.0, 5.0, 2.0, 6.0, 4.0, 6.0, 5.0, 6.0, 4.0, 10.0, 270.0, 1.0, 1.0, 1.0, 1.0, 7.0], "bins": [-4.639084339141846, -4.560024738311768, -4.4809651374816895, -4.401905059814453, -4.322845458984375, -4.243785858154297, -4.164726257324219, -4.085666656494141, -4.0066070556640625, -3.9275472164154053, -3.848487615585327, -3.76942777633667, -3.690368175506592, -3.6113085746765137, -3.5322487354278564, -3.4531891345977783, -3.374129295349121, -3.295069694519043, -3.216010093688965, -3.1369502544403076, -3.0578906536102295, -2.9788310527801514, -2.899771213531494, -2.820711612701416, -2.741652011871338, -2.6625921726226807, -2.5835325717926025, -2.5044729709625244, -2.425413131713867, -2.346353530883789, -2.267293930053711, -2.1882340908050537, -2.1091744899749756, -2.0301148891448975, -1.9510551691055298, -1.871995449066162, -1.792935848236084, -1.7138761281967163, -1.6348164081573486, -1.555756688117981, -1.4766970872879028, -1.3976373672485352, -1.3185776472091675, -1.2395180463790894, -1.1604583263397217, -1.081398606300354, -1.0023390054702759, -0.9232792854309082, -0.8442195653915405, -0.7651599049568176, -0.6861002445220947, -0.607040524482727, -0.5279808640480042, -0.44892117381095886, -0.3698614835739136, -0.2908018231391907, -0.21174213290214539, -0.1326824426651001, -0.053622767329216, 0.025436915457248688, 0.10449659824371338, 0.18355628848075867, 0.26261597871780396, 0.34167563915252686, 0.42073532938957214]}, "gradients/cell_update.nn_layers.0.bias": {"_type": "histogram", "values": [1.0, 0.0, 0.0, 0.0, 0.0, 0.0, 0.0, 0.0, 0.0, 0.0, 0.0, 0.0, 0.0, 0.0, 0.0, 0.0, 0.0, 0.0, 0.0, 0.0, 0.0, 0.0, 0.0, 0.0, 0.0, 0.0, 1.0, 1.0, 0.0, 0.0, 0.0, 2.0, 0.0, 0.0, 1.0, 1.0, 0.0, 0.0, 0.0, 0.0, 0.0, 1.0, 0.0, 0.0, 1.0, 0.0, 0.0, 1.0, 0.0, 0.0, 0.0, 1.0, 0.0, 0.0, 0.0, 0.0, 0.0, 0.0, 0.0, 0.0, 0.0, 0.0, 0.0, 9.0], "bins": [-1.0459637641906738, -1.0296205282211304, -1.0132774114608765, -0.9969342350959778, -0.9805910587310791, -0.9642478227615356, -0.947904646396637, -0.9315614700317383, -0.9152182936668396, -0.8988751173019409, -0.8825319409370422, -0.8661887645721436, -0.8498455286026001, -0.8335023522377014, -0.8171591758728027, -0.800815999507904, -0.7844728231430054, -0.7681296467781067, -0.751786470413208, -0.7354432940483093, -0.7191001176834106, -0.7027568817138672, -0.6864137053489685, -0.6700705289840698, -0.6537273526191711, -0.6373841762542725, -0.6210409998893738, -0.6046978235244751, -0.5883545875549316, -0.572011411190033, -0.5556682348251343, -0.5393250584602356, -0.5229818820953369, -0.5066387057304382, -0.49029552936553955, -0.4739523231983185, -0.4576091468334198, -0.4412659704685211, -0.42492276430130005, -0.40857958793640137, -0.3922364115715027, -0.375893235206604, -0.3595500588417053, -0.34320685267448425, -0.32686367630958557, -0.3105204999446869, -0.2941772937774658, -0.27783411741256714, -0.26149094104766846, -0.24514776468276978, -0.2288045734167099, -0.21246138215065002, -0.19611820578575134, -0.17977502942085266, -0.16343183815479279, -0.1470886468887329, -0.13074547052383423, -0.11440228670835495, -0.09805910289287567, -0.08171591907739639, -0.06537273526191711, -0.049029551446437836, -0.03268636763095856, -0.01634318381547928, 0.0]}, "gradients/cell_update.nn_layers.0.weight": {"_type": "histogram", "values": [2.0, 2.0, 1.0, 1.0, 1.0, 1.0, 2.0, 3.0, 1.0, 6.0, 0.0, 0.0, 1.0, 6.0, 4.0, 6.0, 13.0, 17.0, 15.0, 13.0, 32.0, 19.0, 20.0, 16.0, 24.0, 18.0, 21.0, 16.0, 12.0, 9.0, 14.0, 1.0, 432.0, 9.0, 4.0, 5.0, 16.0, 25.0, 13.0, 16.0, 12.0, 25.0, 25.0, 31.0, 4.0, 6.0, 7.0, 5.0, 4.0, 5.0, 3.0, 1.0, 0.0, 2.0, 8.0, 0.0, 0.0, 0.0, 1.0, 0.0, 1.0, 1.0, 1.0, 1.0], "bins": [-1.0223349332809448, -0.9904279112815857, -0.9585208892822266, -0.9266138672828674, -0.8947068452835083, -0.8627997636795044, -0.8308927416801453, -0.7989857196807861, -0.767078697681427, -0.7351716756820679, -0.7032646536827087, -0.6713576316833496, -0.6394505500793457, -0.6075435280799866, -0.5756365060806274, -0.5437294840812683, -0.5118224620819092, -0.47991544008255005, -0.4480084180831909, -0.4161013662815094, -0.38419434428215027, -0.35228732228279114, -0.3203802704811096, -0.2884732484817505, -0.25656622648239136, -0.22465920448303223, -0.1927521675825119, -0.16084513068199158, -0.12893810868263245, -0.09703107923269272, -0.06512404978275299, -0.03321702033281326, -0.001310110092163086, 0.030596919357776642, 0.06250394880771637, 0.0944109782576561, 0.12631800770759583, 0.15822502970695496, 0.19013206660747528, 0.2220391035079956, 0.25394612550735474, 0.28585314750671387, 0.317760169506073, 0.3496672213077545, 0.38157424330711365, 0.4134812653064728, 0.4453883171081543, 0.4772953391075134, 0.5092023611068726, 0.5411093831062317, 0.5730164051055908, 0.60492342710495, 0.6368304491043091, 0.668737530708313, 0.7006445527076721, 0.7325515747070312, 0.7644585967063904, 0.7963656187057495, 0.8282726407051086, 0.8601796627044678, 0.8920867443084717, 0.9239937663078308, 0.9559007883071899, 0.9878078103065491, 1.0197148323059082]}, "gradients/encoder.nn_layers.2.bias": {"_type": "histogram", "values": [1.0, 0.0, 0.0, 0.0, 0.0, 0.0, 0.0, 0.0, 0.0, 0.0, 0.0, 0.0, 0.0, 0.0, 0.0, 0.0, 0.0, 0.0, 0.0, 0.0, 1.0, 0.0, 0.0, 0.0, 1.0, 0.0, 0.0, 1.0, 1.0, 1.0, 0.0, 0.0, 1.0, 0.0, 0.0, 0.0, 0.0, 0.0, 0.0, 1.0, 0.0, 0.0, 0.0, 0.0, 0.0, 0.0, 0.0, 0.0, 0.0, 1.0, 0.0, 0.0, 0.0, 0.0, 0.0, 0.0, 0.0, 0.0, 0.0, 0.0, 0.0, 0.0, 0.0, 1.0], "bins": [-3.888570785522461, -3.765331506729126, -3.642092227935791, -3.518852949142456, -3.395613670349121, -3.272374391555786, -3.149135112762451, -3.025895833969116, -2.9026565551757812, -2.779417037963867, -2.6561777591705322, -2.5329384803771973, -2.4096992015838623, -2.2864599227905273, -2.1632206439971924, -2.0399813652038574, -1.9167420864105225, -1.7935028076171875, -1.6702635288238525, -1.5470242500305176, -1.4237849712371826, -1.300545573234558, -1.1773062944412231, -1.0540670156478882, -0.9308277368545532, -0.8075884580612183, -0.6843491792678833, -0.5611098408699036, -0.4378705620765686, -0.31463128328323364, -0.1913919746875763, -0.06815268099308014, 0.05508685111999512, 0.17832614481449127, 0.3015654385089874, 0.4248047471046448, 0.5480440258979797, 0.6712833046913147, 0.7945226430892944, 0.9177619218826294, 1.0410012006759644, 1.1642404794692993, 1.2874797582626343, 1.4107190370559692, 1.5339584350585938, 1.6571977138519287, 1.7804369926452637, 1.9036762714385986, 2.0269155502319336, 2.1501548290252686, 2.2733941078186035, 2.3966333866119385, 2.5198726654052734, 2.6431119441986084, 2.7663512229919434, 2.8895905017852783, 3.0128297805786133, 3.1360692977905273, 3.2593085765838623, 3.3825478553771973, 3.5057871341705322, 3.629026412963867, 3.752265691757202, 3.875504970550537, 3.998744249343872]}, "gradients/encoder.nn_layers.2.weight": {"_type": "histogram", "values": [1.0, 1.0, 0.0, 0.0, 0.0, 1.0, 0.0, 0.0, 0.0, 0.0, 0.0, 0.0, 0.0, 0.0, 1.0, 1.0, 0.0, 0.0, 1.0, 1.0, 0.0, 1.0, 2.0, 1.0, 0.0, 1.0, 4.0, 2.0, 1.0, 11.0, 10.0, 14.0, 109.0, 8.0, 2.0, 2.0, 3.0, 3.0, 0.0, 3.0, 1.0, 3.0, 2.0, 0.0, 1.0, 0.0, 1.0, 0.0, 1.0, 1.0, 3.0, 0.0, 0.0, 0.0, 0.0, 0.0, 0.0, 0.0, 0.0, 1.0, 0.0, 0.0, 1.0, 1.0], "bins": [-5.008185863494873, -4.854794025421143, -4.701402187347412, -4.548009872436523, -4.394618034362793, -4.2412261962890625, -4.087834358215332, -3.9344422817230225, -3.781050443649292, -3.6276586055755615, -3.474266529083252, -3.3208746910095215, -3.167482852935791, -3.0140907764434814, -2.860698938369751, -2.7073068618774414, -2.553915023803711, -2.4005231857299805, -2.247131109237671, -2.0937392711639404, -1.9403473138809204, -1.7869553565979004, -1.63356351852417, -1.48017156124115, -1.3267796039581299, -1.1733876466751099, -1.0199956893920898, -0.8666038513183594, -0.7132118940353394, -0.5598199367523193, -0.4064280390739441, -0.25303611159324646, -0.09964418411254883, 0.053747743368148804, 0.20713967084884644, 0.36053159832954407, 0.5139235258102417, 0.6673154830932617, 0.820707380771637, 0.9740992784500122, 1.1274912357330322, 1.2808831930160522, 1.4342751502990723, 1.5876669883728027, 1.7410589456558228, 1.8944509029388428, 2.0478427410125732, 2.201234817504883, 2.3546266555786133, 2.5080184936523438, 2.6614105701446533, 2.814802408218384, 2.9681944847106934, 3.121586322784424, 3.2749781608581543, 3.428370237350464, 3.5817620754241943, 3.735153913497925, 3.8885459899902344, 4.041937828063965, 4.195329666137695, 4.348721504211426, 4.5021138191223145, 4.655505657196045, 4.808897495269775]}, "gradients/encoder.nn_layers.1.bias": {"_type": "histogram", "values": [1.0, 0.0, 0.0, 0.0, 0.0, 0.0, 0.0, 0.0, 0.0, 0.0, 0.0, 0.0, 0.0, 0.0, 0.0, 0.0, 0.0, 0.0, 1.0, 0.0, 0.0, 0.0, 0.0, 0.0, 0.0, 0.0, 0.0, 0.0, 1.0, 0.0, 1.0, 0.0, 0.0, 0.0, 0.0, 1.0, 0.0, 0.0, 0.0, 1.0, 9.0, 0.0, 0.0, 0.0, 0.0, 0.0, 0.0, 0.0, 0.0, 0.0, 0.0, 0.0, 0.0, 0.0, 0.0, 1.0, 1.0, 0.0, 0.0, 0.0, 0.0, 1.0, 0.0, 2.0], "bins": [-1.0680171251296997, -1.041847586631775, -1.0156779289245605, -0.989508330821991, -0.9633387327194214, -0.9371691346168518, -0.9109995365142822, -0.8848299384117126, -0.8586603403091431, -0.8324908018112183, -0.8063212037086487, -0.7801516056060791, -0.7539820075035095, -0.7278124094009399, -0.7016428112983704, -0.6754732131958008, -0.6493036150932312, -0.6231340169906616, -0.596964418888092, -0.5707948207855225, -0.5446252226829529, -0.5184556245803833, -0.4922860562801361, -0.46611645817756653, -0.43994686007499695, -0.41377726197242737, -0.3876076638698578, -0.3614380657672882, -0.335268497467041, -0.30909889936447144, -0.28292930126190186, -0.2567597031593323, -0.23059016466140747, -0.2044205665588379, -0.1782509684562683, -0.15208138525485992, -0.12591178715229034, -0.09974218904972076, -0.07357259839773178, -0.0474030040204525, -0.021233409643173218, 0.004936184734106064, 0.031105779111385345, 0.05727537348866463, 0.08344496786594391, 0.10961456596851349, 0.13578414916992188, 0.16195374727249146, 0.18812334537506104, 0.21429294347763062, 0.2404625415802002, 0.2666321396827698, 0.29280173778533936, 0.31897130608558655, 0.34514090418815613, 0.3713105022907257, 0.3974801003932953, 0.42364969849586487, 0.44981929659843445, 0.47598889470100403, 0.5021584630012512, 0.5283280611038208, 0.5544976592063904, 0.58066725730896, 0.6068368554115295]}, "gradients/encoder.nn_layers.1.weight": {"_type": "histogram", "values": [1.0, 0.0, 0.0, 1.0, 0.0, 1.0, 0.0, 0.0, 1.0, 1.0, 0.0, 0.0, 0.0, 0.0, 0.0, 0.0, 0.0, 1.0, 0.0, 0.0, 2.0, 1.0, 1.0, 0.0, 1.0, 1.0, 1.0, 2.0, 2.0, 3.0, 1.0, 3.0, 3.0, 4.0, 4.0, 3.0, 4.0, 8.0, 4.0, 5.0, 278.0, 13.0, 0.0, 2.0, 2.0, 2.0, 7.0, 3.0, 4.0, 1.0, 3.0, 2.0, 4.0, 1.0, 0.0, 1.0, 2.0, 2.0, 4.0, 4.0, 3.0, 1.0, 1.0, 1.0], "bins": [-1.6273332834243774, -1.5875941514968872, -1.547855019569397, -1.5081157684326172, -1.468376636505127, -1.4286375045776367, -1.3888983726501465, -1.3491592407226562, -1.309420108795166, -1.2696808576583862, -1.229941725730896, -1.1902025938034058, -1.1504634618759155, -1.1107243299484253, -1.0709850788116455, -1.0312459468841553, -0.991506814956665, -0.9517676830291748, -0.9120284914970398, -0.8722893595695496, -0.8325501680374146, -0.7928110361099243, -0.7530719041824341, -0.7133327126502991, -0.6735935807228088, -0.6338544487953186, -0.5941152572631836, -0.5543761253356934, -0.5146369934082031, -0.4748978018760681, -0.4351586699485779, -0.39541950821876526, -0.3556804060935974, -0.3159412443637848, -0.27620208263397217, -0.23646295070648193, -0.1967237889766693, -0.1569846272468567, -0.11724548041820526, -0.07750632613897324, -0.03776717185974121, 0.001971982419490814, 0.04171113669872284, 0.08145029097795486, 0.12118944525718689, 0.1609286069869995, 0.20066775381565094, 0.24040690064430237, 0.280146062374115, 0.3198852241039276, 0.35962438583374023, 0.39936351776123047, 0.4391026794910431, 0.4788418412208557, 0.518580973148346, 0.558320164680481, 0.5980592966079712, 0.6377984285354614, 0.6775376200675964, 0.7172767519950867, 0.7570159435272217, 0.7967550754547119, 0.8364942073822021, 0.8762333989143372, 0.9159725308418274]}, "gradients/encoder.nn_layers.0.bias": {"_type": "histogram", "values": [1.0, 0.0, 0.0, 0.0, 0.0, 0.0, 0.0, 0.0, 0.0, 0.0, 0.0, 0.0, 0.0, 0.0, 0.0, 0.0, 0.0, 0.0, 0.0, 0.0, 0.0, 0.0, 0.0, 0.0, 2.0, 1.0, 1.0, 0.0, 0.0, 0.0, 0.0, 0.0, 0.0, 0.0, 0.0, 0.0, 0.0, 1.0, 0.0, 0.0, 0.0, 0.0, 0.0, 1.0, 0.0, 9.0, 0.0, 1.0, 0.0, 0.0, 0.0, 0.0, 0.0, 0.0, 0.0, 0.0, 0.0, 1.0, 0.0, 1.0, 0.0, 0.0, 0.0, 1.0], "bins": [-0.3513323962688446, -0.3436143696308136, -0.3358963429927826, -0.328178346157074, -0.32046031951904297, -0.31274229288101196, -0.30502426624298096, -0.29730623960494995, -0.28958824276924133, -0.2818702161312103, -0.2741521894931793, -0.2664341628551483, -0.2587161362171173, -0.2509981393814087, -0.24328011274337769, -0.23556208610534668, -0.22784405946731567, -0.22012604773044586, -0.21240802109241486, -0.20469000935554504, -0.19697198271751404, -0.18925397098064423, -0.18153594434261322, -0.17381791770458221, -0.1660999059677124, -0.1583818793296814, -0.15066386759281158, -0.14294584095478058, -0.13522781431674957, -0.12750980257987976, -0.11979177594184875, -0.11207375675439835, -0.10435573756694794, -0.09663771837949753, -0.08891969919204712, -0.08120167255401611, -0.0734836533665657, -0.0657656341791153, -0.058047614991664886, -0.05032959207892418, -0.04261157289147377, -0.03489355370402336, -0.027175530791282654, -0.019457511603832245, -0.011739490553736687, -0.004021469969302416, 0.003696550615131855, 0.011414570733904839, 0.019132591784000397, 0.026850612834095955, 0.03456863388419151, 0.04228665307164192, 0.05000467598438263, 0.05772269517183304, 0.06544071435928345, 0.07315873354673386, 0.08087675273418427, 0.08859477937221527, 0.09631279855966568, 0.10403081774711609, 0.1117488369345665, 0.1194668561220169, 0.1271848827600479, 0.13490289449691772, 0.14262092113494873]}, "gradients/encoder.nn_layers.0.weight": {"_type": "histogram", "values": [6.0, 0.0, 0.0, 0.0, 0.0, 1.0, 0.0, 0.0, 1.0, 1.0, 0.0, 0.0, 6.0, 1.0, 6.0, 1.0, 0.0, 2.0, 6.0, 7.0, 1.0, 8.0, 3.0, 3.0, 13.0, 9.0, 16.0, 20.0, 8.0, 15.0, 18.0, 30.0, 301.0, 17.0, 11.0, 8.0, 15.0, 15.0, 7.0, 16.0, 9.0, 2.0, 3.0, 3.0, 10.0, 8.0, 0.0, 0.0, 6.0, 6.0, 3.0, 7.0, 1.0, 0.0, 0.0, 0.0, 1.0, 0.0, 0.0, 0.0, 0.0, 0.0, 2.0, 7.0], "bins": [-0.37614262104034424, -0.36438843607902527, -0.3526342511177063, -0.34088006615638733, -0.32912588119506836, -0.3173716962337494, -0.3056175112724304, -0.29386332631111145, -0.2821091413497925, -0.2703549563884735, -0.25860077142715454, -0.24684660136699677, -0.2350924164056778, -0.22333823144435883, -0.21158404648303986, -0.1998298615217209, -0.18807567656040192, -0.17632149159908295, -0.16456730663776398, -0.152813121676445, -0.14105893671512604, -0.12930475175380707, -0.1175505742430687, -0.10579638928174973, -0.09404220432043076, -0.08228801935911179, -0.07053383439779282, -0.058779653161764145, -0.047025468200445175, -0.035271283239126205, -0.023517100140452385, -0.01176291611045599, -8.732080459594727e-06, 0.0117454519495368, 0.023499635979533195, 0.035253819078207016, 0.047008004039525986, 0.058762189000844955, 0.07051637023687363, 0.0822705551981926, 0.09402474015951157, 0.10577892512083054, 0.1175331100821495, 0.12928728759288788, 0.14104147255420685, 0.15279565751552582, 0.1645498424768448, 0.17630402743816376, 0.18805821239948273, 0.1998123973608017, 0.21156658232212067, 0.22332076728343964, 0.2350749522447586, 0.24682913720607758, 0.25858330726623535, 0.2703374922275543, 0.2820916771888733, 0.29384586215019226, 0.30560004711151123, 0.3173542320728302, 0.32910841703414917, 0.34086260199546814, 0.3526167869567871, 0.3643709719181061, 0.37612515687942505]}, "gradients/phi_x.nn_layers.2.bias": {"_type": "histogram", "values": [1.0, 0.0, 0.0, 0.0, 0.0, 0.0, 0.0, 1.0, 0.0, 0.0, 0.0, 0.0, 0.0, 0.0, 1.0, 1.0, 0.0, 0.0, 1.0, 0.0, 1.0, 1.0, 0.0, 0.0, 1.0, 0.0, 0.0, 0.0, 0.0, 0.0, 0.0, 0.0, 0.0, 0.0, 0.0, 0.0, 0.0, 0.0, 0.0, 0.0, 0.0, 0.0, 0.0, 0.0, 0.0, 0.0, 0.0, 1.0, 0.0, 1.0, 0.0, 1.0, 0.0, 0.0, 0.0, 2.0, 1.0, 0.0, 0.0, 0.0, 0.0, 0.0, 1.0, 1.0], "bins": [-0.5370939373970032, -0.5215862393379211, -0.5060785412788391, -0.4905708432197571, -0.47506314516067505, -0.459555447101593, -0.4440477788448334, -0.42854008078575134, -0.4130323827266693, -0.3975246846675873, -0.38201698660850525, -0.3665092885494232, -0.3510015904903412, -0.33549389243125916, -0.3199861943721771, -0.3044784963130951, -0.28897082805633545, -0.2734631299972534, -0.2579554319381714, -0.24244773387908936, -0.22694003582000732, -0.2114323377609253, -0.19592463970184326, -0.18041694164276123, -0.1649092435836792, -0.14940156042575836, -0.13389386236667633, -0.1183861643075943, -0.10287846624851227, -0.08737077564001083, -0.0718630775809288, -0.05635538324713707, -0.04084768891334534, -0.025339994579553604, -0.009832298383116722, 0.005675396881997585, 0.021183092147111893, 0.036690786480903625, 0.05219848453998566, 0.06770617514848709, 0.08321387320756912, 0.09872157126665115, 0.11422926187515259, 0.12973695993423462, 0.14524465799331665, 0.16075235605239868, 0.17626003921031952, 0.19176773726940155, 0.20727543532848358, 0.2227831333875656, 0.23829083144664764, 0.2537985146045685, 0.2693062126636505, 0.28481391072273254, 0.3003216087818146, 0.3158293068408966, 0.33133700489997864, 0.34684470295906067, 0.3623524010181427, 0.37786006927490234, 0.3933677673339844, 0.4088754653930664, 0.42438316345214844, 0.43989086151123047, 0.4553985595703125]}, "gradients/phi_x.nn_layers.2.weight": {"_type": "histogram", "values": [1.0, 0.0, 0.0, 0.0, 1.0, 1.0, 0.0, 0.0, 1.0, 0.0, 0.0, 1.0, 1.0, 0.0, 1.0, 2.0, 0.0, 3.0, 3.0, 0.0, 5.0, 2.0, 2.0, 5.0, 2.0, 5.0, 4.0, 5.0, 2.0, 4.0, 3.0, 2.0, 0.0, 0.0, 208.0, 0.0, 0.0, 1.0, 2.0, 4.0, 3.0, 4.0, 4.0, 2.0, 5.0, 4.0, 2.0, 3.0, 4.0, 2.0, 0.0, 5.0, 2.0, 0.0, 1.0, 2.0, 0.0, 1.0, 1.0, 2.0, 0.0, 1.0, 0.0, 1.0], "bins": [-0.5761488676071167, -0.5593637228012085, -0.5425785779953003, -0.5257933735847473, -0.5090082287788391, -0.4922230839729309, -0.4754379391670227, -0.4586527645587921, -0.4418676197528839, -0.4250824749469757, -0.4082973003387451, -0.3915121555328369, -0.3747270107269287, -0.3579418361186981, -0.3411566913127899, -0.3243715167045593, -0.3075863718986511, -0.2908012270927429, -0.27401605248451233, -0.2572309076786041, -0.24044574797153473, -0.22366058826446533, -0.20687544345855713, -0.19009028375148773, -0.17330512404441833, -0.15651996433734894, -0.13973480463027954, -0.12294965982437134, -0.10616450011730194, -0.08937934041023254, -0.07259418815374374, -0.055809032171964645, -0.039023905992507935, -0.022238750010728836, -0.0054535940289497375, 0.011331561952829361, 0.02811671793460846, 0.04490187391638756, 0.061687029898166656, 0.07847218215465546, 0.09525734186172485, 0.11204250156879425, 0.12882766127586365, 0.14561280608177185, 0.16239796578884125, 0.17918312549591064, 0.19596827030181885, 0.21275343000888824, 0.22953858971595764, 0.24632374942302704, 0.26310890913009644, 0.27989405393600464, 0.29667919874191284, 0.31346437335014343, 0.33024951815605164, 0.3470346927642822, 0.36381983757019043, 0.38060498237609863, 0.3973901569843292, 0.4141753017902374, 0.430960476398468, 0.4477456212043762, 0.4645307660102844, 0.481315940618515, 0.4981010854244232]}, "gradients/phi_x.nn_layers.1.bias": {"_type": "histogram", "values": [1.0, 0.0, 0.0, 1.0, 0.0, 0.0, 0.0, 1.0, 0.0, 0.0, 0.0, 0.0, 0.0, 1.0, 0.0, 0.0, 0.0, 0.0, 0.0, 1.0, 0.0, 0.0, 0.0, 0.0, 0.0, 0.0, 0.0, 0.0, 0.0, 0.0, 0.0, 0.0, 0.0, 0.0, 0.0, 0.0, 0.0, 1.0, 0.0, 1.0, 0.0, 0.0, 0.0, 0.0, 0.0, 0.0, 0.0, 0.0, 0.0, 0.0, 0.0, 0.0, 0.0, 0.0, 0.0, 0.0, 0.0, 0.0, 0.0, 0.0, 0.0, 0.0, 0.0, 13.0], "bins": [-0.5198423266410828, -0.5117197632789612, -0.5035972595214844, -0.4954747259616852, -0.487352192401886, -0.4792296588420868, -0.4711070954799652, -0.462984561920166, -0.4548620283603668, -0.4467394948005676, -0.43861696124076843, -0.43049442768096924, -0.42237189412117004, -0.41424936056137085, -0.40612682700157166, -0.39800429344177246, -0.3898817300796509, -0.3817591965198517, -0.3736366629600525, -0.3655141294002533, -0.3573915958404541, -0.3492690622806549, -0.3411465287208557, -0.3330239951610565, -0.3249014616012573, -0.31677892804145813, -0.30865639448165894, -0.30053383111953735, -0.29241129755973816, -0.28428876399993896, -0.27616623044013977, -0.2680436968803406, -0.2599211633205414, -0.2517986297607422, -0.243676096200943, -0.2355535477399826, -0.2274310141801834, -0.21930848062038422, -0.21118594706058502, -0.20306341350078583, -0.19494086503982544, -0.18681833148002625, -0.17869579792022705, -0.17057326436042786, -0.16245073080062866, -0.15432819724082947, -0.14620564877986908, -0.13808311522006989, -0.1299605816602707, -0.1218380481004715, -0.1137155070900917, -0.10559297353029251, -0.09747043251991272, -0.08934789896011353, -0.08122536540031433, -0.07310282438993454, -0.06498029083013535, -0.05685775354504585, -0.04873521625995636, -0.040612682700157166, -0.03249014541506767, -0.02436760812997818, -0.016245072707533836, -0.008122536353766918, 0.0]}, "gradients/phi_x.nn_layers.1.weight": {"_type": "histogram", "values": [1.0, 0.0, 0.0, 0.0, 1.0, 0.0, 0.0, 1.0, 0.0, 0.0, 0.0, 0.0, 0.0, 0.0, 1.0, 0.0, 0.0, 0.0, 0.0, 1.0, 0.0, 0.0, 0.0, 0.0, 0.0, 0.0, 0.0, 0.0, 0.0, 0.0, 0.0, 0.0, 0.0, 0.0, 0.0, 0.0, 0.0, 2.0, 1.0, 2.0, 0.0, 0.0, 1.0, 1.0, 2.0, 4.0, 2.0, 2.0, 1.0, 2.0, 1.0, 1.0, 4.0, 4.0, 2.0, 4.0, 6.0, 2.0, 1.0, 6.0, 12.0, 4.0, 16.0, 312.0], "bins": [-0.7625051140785217, -0.750590980052948, -0.7386768460273743, -0.7267627120018005, -0.714848518371582, -0.7029343843460083, -0.6910202503204346, -0.6791061162948608, -0.6671919822692871, -0.6552778482437134, -0.6433637142181396, -0.6314495205879211, -0.6195353865623474, -0.6076212525367737, -0.5957071185112, -0.5837929844856262, -0.5718788504600525, -0.5599647164344788, -0.5480505228042603, -0.5361363887786865, -0.5242222547531128, -0.5123081207275391, -0.5003939867019653, -0.4884798526763916, -0.4765656888484955, -0.46465155482292175, -0.452737420797348, -0.4408232569694519, -0.4289091229438782, -0.41699498891830444, -0.4050808548927307, -0.3931666910648346, -0.38125255703926086, -0.36933842301368713, -0.357424259185791, -0.3455101251602173, -0.33359599113464355, -0.3216818571090698, -0.3097676932811737, -0.2978535592556, -0.28593942523002625, -0.2740252614021301, -0.2621111273765564, -0.25019699335098267, -0.23828284442424774, -0.226368710398674, -0.2144545614719391, -0.20254042744636536, -0.19062627851963043, -0.1787121295928955, -0.16679799556732178, -0.15488384664058685, -0.14296971261501312, -0.1310555636882782, -0.11914142221212387, -0.10722728073596954, -0.09531313925981522, -0.08339899778366089, -0.07148485630750656, -0.059570711106061935, -0.04765656962990761, -0.03574242815375328, -0.023828284814953804, -0.011914142407476902, 0.0]}, "gradients/phi_x.nn_layers.0.bias": {"_type": "histogram", "values": [1.0, 0.0, 0.0, 0.0, 0.0, 0.0, 0.0, 0.0, 1.0, 1.0, 0.0, 0.0, 1.0, 1.0, 0.0, 0.0, 0.0, 0.0, 0.0, 0.0, 1.0, 0.0, 1.0, 0.0, 1.0, 0.0, 0.0, 0.0, 0.0, 0.0, 0.0, 0.0, 0.0, 0.0, 0.0, 0.0, 0.0, 0.0, 0.0, 0.0, 0.0, 1.0, 0.0, 0.0, 0.0, 0.0, 1.0, 1.0, 0.0, 0.0, 1.0, 0.0, 0.0, 0.0, 0.0, 0.0, 0.0, 0.0, 1.0, 0.0, 1.0, 2.0, 3.0, 1.0], "bins": [-0.4573615491390228, -0.4500042200088501, -0.44264689087867737, -0.435289591550827, -0.4279322624206543, -0.42057493329048157, -0.41321760416030884, -0.4058603048324585, -0.39850297570228577, -0.39114564657211304, -0.3837883174419403, -0.3764309883117676, -0.36907368898391724, -0.3617163598537445, -0.3543590307235718, -0.34700170159339905, -0.3396443724632263, -0.332287073135376, -0.32492974400520325, -0.3175724148750305, -0.3102150857448578, -0.30285778641700745, -0.2955004572868347, -0.288143128156662, -0.28078579902648926, -0.27342846989631653, -0.2660711705684662, -0.25871384143829346, -0.2513565123081207, -0.2439991980791092, -0.23664186894893646, -0.22928455471992493, -0.221927210688591, -0.21456988155841827, -0.20721256732940674, -0.199855238199234, -0.19249792397022247, -0.18514059484004974, -0.1777832806110382, -0.17042595148086548, -0.16306862235069275, -0.1557113081216812, -0.14835397899150848, -0.14099666476249695, -0.13363933563232422, -0.12628202140331268, -0.11892469227313995, -0.11156737059354782, -0.10421004891395569, -0.09685272723436356, -0.08949540555477142, -0.08213808387517929, -0.07478076219558716, -0.06742343306541443, -0.060066111385822296, -0.052708789706230164, -0.04535146802663803, -0.0379941463470459, -0.030636822804808617, -0.023279499262571335, -0.015922177582979202, -0.008564854972064495, -0.001207532361149788, 0.006149790249764919, 0.013507112860679626]}, "gradients/phi_x.nn_layers.0.weight": {"_type": "histogram", "values": [1.0, 0.0, 0.0, 0.0, 0.0, 0.0, 0.0, 0.0, 1.0, 1.0, 0.0, 0.0, 1.0, 1.0, 0.0, 0.0, 1.0, 0.0, 0.0, 0.0, 1.0, 1.0, 2.0, 1.0, 2.0, 1.0, 1.0, 0.0, 3.0, 2.0, 1.0, 3.0, 1.0, 3.0, 2.0, 3.0, 2.0, 1.0, 3.0, 2.0, 2.0, 2.0, 1.0, 1.0, 1.0, 1.0, 1.0, 2.0, 2.0, 5.0, 2.0, 6.0, 7.0, 7.0, 6.0, 5.0, 3.0, 3.0, 4.0, 8.0, 8.0, 22.0, 36.0, 4.0], "bins": [-0.41444265842437744, -0.40777498483657837, -0.4011073112487793, -0.3944396376609802, -0.38777196407318115, -0.3811042904853821, -0.374436616897583, -0.36776894330978394, -0.36110126972198486, -0.3544335663318634, -0.34776589274406433, -0.34109821915626526, -0.3344305455684662, -0.3277628719806671, -0.32109519839286804, -0.31442752480506897, -0.3077598512172699, -0.3010921776294708, -0.29442450404167175, -0.2877568304538727, -0.2810891568660736, -0.27442148327827454, -0.26775380969047546, -0.2610861361026764, -0.25441843271255493, -0.24775077402591705, -0.24108310043811798, -0.2344154268503189, -0.22774773836135864, -0.22108006477355957, -0.2144123911857605, -0.20774471759796143, -0.20107704401016235, -0.19440937042236328, -0.1877416968345642, -0.18107402324676514, -0.17440634965896606, -0.167738676071167, -0.16107098758220673, -0.15440331399440765, -0.14773564040660858, -0.1410679668188095, -0.13440029323101044, -0.12773261964321136, -0.1210649386048317, -0.11439726501703262, -0.10772959142923355, -0.10106191039085388, -0.09439423680305481, -0.08772656321525574, -0.08105888962745667, -0.07439121603965759, -0.06772353500127792, -0.06105586141347885, -0.05438818782567978, -0.04772051051259041, -0.04105283319950104, -0.034385159611701965, -0.027717484161257744, -0.021049808710813522, -0.0143821332603693, -0.007714457809925079, -0.0010467823594808578, 0.005620893090963364, 0.012288568541407585]}, "gradients/prior.nn_layers.2.bias": {"_type": "histogram", "values": [1.0, 0.0, 0.0, 0.0, 0.0, 0.0, 0.0, 0.0, 0.0, 0.0, 0.0, 0.0, 0.0, 0.0, 0.0, 0.0, 0.0, 0.0, 0.0, 0.0, 0.0, 0.0, 0.0, 0.0, 0.0, 0.0, 0.0, 0.0, 0.0, 0.0, 0.0, 0.0, 0.0, 0.0, 0.0, 0.0, 0.0, 0.0, 0.0, 0.0, 0.0, 0.0, 0.0, 0.0, 0.0, 0.0, 0.0, 0.0, 0.0, 0.0, 0.0, 0.0, 0.0, 1.0, 0.0, 0.0, 0.0, 0.0, 1.0, 0.0, 0.0, 0.0, 0.0, 7.0], "bins": [-59.252132415771484, -58.1900634765625, -57.12799072265625, -56.065921783447266, -55.003849029541016, -53.94178009033203, -52.87970733642578, -51.8176383972168, -50.75556945800781, -49.69349670410156, -48.63142776489258, -47.56935501098633, -46.507286071777344, -45.445213317871094, -44.38314437866211, -43.32107162475586, -42.259002685546875, -41.19693374633789, -40.13486099243164, -39.072792053222656, -38.010719299316406, -36.94865036010742, -35.88657760620117, -34.82450866699219, -33.76243591308594, -32.70036697387695, -31.638296127319336, -30.57622528076172, -29.514156341552734, -28.452085494995117, -27.3900146484375, -26.327943801879883, -25.265869140625, -24.203800201416016, -23.1417293548584, -22.07965850830078, -21.017587661743164, -19.955516815185547, -18.89344596862793, -17.831375122070312, -16.769306182861328, -15.707234382629395, -14.645164489746094, -13.583093643188477, -12.52102279663086, -11.458951950073242, -10.396881103515625, -9.334811210632324, -8.272740364074707, -7.21066951751709, -6.148599147796631, -5.086528778076172, -4.024457931518555, -2.9623873233795166, -1.9003167152404785, -0.8382461071014404, 0.22382450103759766, 1.2858951091766357, 2.347965717315674, 3.410036325454712, 4.47210693359375, 5.534177780151367, 6.596248149871826, 7.658318519592285, 8.720389366149902]}, "gradients/prior.nn_layers.2.weight": {"_type": "histogram", "values": [1.0, 1.0, 0.0, 0.0, 0.0, 0.0, 0.0, 0.0, 1.0, 0.0, 1.0, 1.0, 0.0, 0.0, 0.0, 1.0, 1.0, 1.0, 1.0, 0.0, 0.0, 0.0, 1.0, 0.0, 1.0, 0.0, 0.0, 0.0, 0.0, 1.0, 1.0, 0.0, 0.0, 0.0, 0.0, 0.0, 0.0, 0.0, 1.0, 0.0, 0.0, 0.0, 0.0, 0.0, 0.0, 0.0, 0.0, 0.0, 0.0, 0.0, 0.0, 0.0, 0.0, 0.0, 10.0, 4.0, 60.0, 5.0, 14.0, 16.0, 15.0, 28.0, 20.0, 14.0], "bins": [-148.11610412597656, -145.4755401611328, -142.83497619628906, -140.1944122314453, -137.55384826660156, -134.9132843017578, -132.272705078125, -129.63214111328125, -126.9915771484375, -124.35101318359375, -121.71044921875, -119.06988525390625, -116.4293212890625, -113.78875732421875, -111.14818572998047, -108.50762176513672, -105.86705780029297, -103.22649383544922, -100.58592987060547, -97.94535827636719, -95.30479431152344, -92.66423034667969, -90.02366638183594, -87.38310241699219, -84.74253845214844, -82.10196685791016, -79.4614028930664, -76.82083892822266, -74.1802749633789, -71.53971099853516, -68.89913940429688, -66.25857543945312, -63.61800765991211, -60.97744369506836, -58.336875915527344, -55.696311950683594, -53.055747985839844, -50.41518020629883, -47.77461624145508, -45.13404846191406, -42.49348449707031, -39.85292053222656, -37.21235275268555, -34.5717887878418, -31.931222915649414, -29.29065704345703, -26.65009307861328, -24.0095272064209, -21.368961334228516, -18.728395462036133, -16.08782958984375, -13.447265625, -10.806699752807617, -8.166133880615234, -5.525568962097168, -2.8850035667419434, -0.24443817138671875, 2.396127223968506, 5.0366926193237305, 7.677258014678955, 10.31782341003418, 12.958389282226562, 15.598954200744629, 18.239519119262695, 20.880084991455078]}, "gradients/prior.nn_layers.1.bias": {"_type": "histogram", "values": [1.0, 0.0, 0.0, 1.0, 0.0, 0.0, 0.0, 0.0, 0.0, 1.0, 1.0, 1.0, 0.0, 0.0, 0.0, 0.0, 0.0, 0.0, 1.0, 0.0, 0.0, 0.0, 0.0, 2.0, 0.0, 0.0, 1.0, 0.0, 0.0, 0.0, 2.0, 0.0, 0.0, 1.0, 0.0, 0.0, 0.0, 0.0, 0.0, 0.0, 0.0, 1.0, 0.0, 0.0, 0.0, 1.0, 0.0, 0.0, 0.0, 0.0, 0.0, 0.0, 0.0, 0.0, 0.0, 0.0, 0.0, 0.0, 0.0, 0.0, 0.0, 0.0, 0.0, 6.0], "bins": [-26.393068313598633, -25.980676651000977, -25.56828498840332, -25.155893325805664, -24.743501663208008, -24.33111000061035, -23.918718338012695, -23.50632667541504, -23.093935012817383, -22.681543350219727, -22.26915168762207, -21.856760025024414, -21.444368362426758, -21.0319766998291, -20.619585037231445, -20.20719337463379, -19.794801712036133, -19.382410049438477, -18.97001838684082, -18.557626724243164, -18.145235061645508, -17.73284339904785, -17.320451736450195, -16.90806007385254, -16.495668411254883, -16.083276748657227, -15.670884132385254, -15.258492469787598, -14.846100807189941, -14.433709144592285, -14.021317481994629, -13.608925819396973, -13.196534156799316, -12.78414249420166, -12.371750831604004, -11.959359169006348, -11.546967506408691, -11.134575843811035, -10.722184181213379, -10.309792518615723, -9.897400856018066, -9.48500919342041, -9.072617530822754, -8.660225868225098, -8.247834205627441, -7.835442066192627, -7.423050403594971, -7.0106587409973145, -6.598267078399658, -6.185875415802002, -5.773483753204346, -5.3610920906066895, -4.948700428009033, -4.536308765411377, -4.123917102813721, -3.7115252017974854, -3.299133539199829, -2.886741876602173, -2.4743502140045166, -2.0619585514068604, -1.6495667695999146, -1.2371751070022583, -0.8247833847999573, -0.41239169239997864, 0.0]}, "gradients/prior.nn_layers.1.weight": {"_type": "histogram", "values": [1.0, 0.0, 0.0, 1.0, 0.0, 0.0, 0.0, 0.0, 0.0, 1.0, 1.0, 1.0, 1.0, 0.0, 1.0, 0.0, 0.0, 0.0, 1.0, 1.0, 1.0, 1.0, 0.0, 1.0, 1.0, 0.0, 2.0, 0.0, 0.0, 1.0, 2.0, 4.0, 0.0, 3.0, 1.0, 1.0, 5.0, 1.0, 1.0, 2.0, 1.0, 2.0, 3.0, 6.0, 2.0, 8.0, 5.0, 5.0, 8.0, 1.0, 4.0, 5.0, 8.0, 4.0, 6.0, 1.0, 2.0, 3.0, 2.0, 0.0, 0.0, 0.0, 5.0, 283.0], "bins": [-77.42408752441406, -76.2143325805664, -75.00458526611328, -73.79483032226562, -72.5850830078125, -71.37532806396484, -70.16558074951172, -68.95582580566406, -67.74607849121094, -66.53632354736328, -65.32657623291016, -64.1168212890625, -62.90707015991211, -61.69731903076172, -60.48756790161133, -59.27781677246094, -58.06806564331055, -56.858314514160156, -55.648563385009766, -54.438812255859375, -53.229061126708984, -52.019309997558594, -50.8095588684082, -49.59980773925781, -48.390052795410156, -47.180301666259766, -45.970550537109375, -44.760799407958984, -43.551048278808594, -42.3412971496582, -41.13154602050781, -39.92179489135742, -38.71204376220703, -37.50229263305664, -36.29254150390625, -35.08279037475586, -33.87303924560547, -32.66328811645508, -31.453535079956055, -30.243783950805664, -29.034032821655273, -27.824281692504883, -26.614530563354492, -25.4047794342041, -24.195026397705078, -22.985275268554688, -21.775524139404297, -20.565773010253906, -19.356021881103516, -18.146270751953125, -16.936519622802734, -15.726767539978027, -14.517016410827637, -13.307265281677246, -12.097513198852539, -10.887762069702148, -9.678010940551758, -8.468259811401367, -7.258508205413818, -6.0487565994262695, -4.839005470275879, -3.629254102706909, -2.4195027351379395, -1.2097513675689697, 0.0]}, "gradients/prior.nn_layers.0.bias": {"_type": "histogram", "values": [1.0, 0.0, 1.0, 0.0, 0.0, 0.0, 0.0, 0.0, 0.0, 0.0, 0.0, 0.0, 0.0, 1.0, 0.0, 0.0, 0.0, 1.0, 0.0, 0.0, 0.0, 0.0, 0.0, 0.0, 0.0, 0.0, 0.0, 0.0, 1.0, 0.0, 0.0, 0.0, 0.0, 1.0, 0.0, 1.0, 0.0, 0.0, 0.0, 0.0, 1.0, 0.0, 0.0, 0.0, 0.0, 0.0, 0.0, 0.0, 0.0, 0.0, 0.0, 0.0, 0.0, 0.0, 0.0, 0.0, 0.0, 0.0, 0.0, 0.0, 1.0, 0.0, 0.0, 11.0], "bins": [-41.20418167114258, -40.554832458496094, -39.90548324584961, -39.25613784790039, -38.606788635253906, -37.95743942260742, -37.30809020996094, -36.65874099731445, -36.00939178466797, -35.36004638671875, -34.710697174072266, -34.06134796142578, -33.4119987487793, -32.76264953613281, -32.113304138183594, -31.46395492553711, -30.814605712890625, -30.16525650024414, -29.51590919494629, -28.866559982299805, -28.217212677001953, -27.56786346435547, -26.918514251708984, -26.269166946411133, -25.61981773376465, -24.970468521118164, -24.321121215820312, -23.671772003173828, -23.022422790527344, -22.373075485229492, -21.723726272583008, -21.074378967285156, -20.425029754638672, -19.77568244934082, -19.126333236694336, -18.47698402404785, -17.82763671875, -17.178287506103516, -16.528940200805664, -15.87959098815918, -15.230242729187012, -14.580893516540527, -13.93154525756836, -13.282196998596191, -12.632848739624023, -11.983499526977539, -11.334151268005371, -10.684803009033203, -10.035454750061035, -9.38610553741455, -8.736757278442383, -8.087409019470215, -7.438060283660889, -6.788712024688721, -6.1393632888793945, -5.490015029907227, -4.8406662940979, -4.191318035125732, -3.5419695377349854, -2.8926210403442383, -2.243272542953491, -1.5939240455627441, -0.9445754885673523, -0.2952269911766052, 0.35412150621414185]}, "gradients/prior.nn_layers.0.weight": {"_type": "histogram", "values": [6.0, 6.0, 0.0, 0.0, 0.0, 1.0, 7.0, 0.0, 6.0, 0.0, 1.0, 0.0, 1.0, 0.0, 6.0, 0.0, 12.0, 1.0, 0.0, 8.0, 0.0, 1.0, 0.0, 0.0, 0.0, 0.0, 0.0, 0.0, 0.0, 0.0, 7.0, 0.0, 176.0, 9.0, 0.0, 0.0, 0.0, 0.0, 0.0, 0.0, 0.0, 0.0, 0.0, 0.0, 9.0, 0.0, 4.0, 14.0, 0.0, 9.0, 0.0, 0.0, 0.0, 0.0, 4.0, 5.0, 4.0, 5.0, 0.0, 0.0, 0.0, 2.0, 9.0, 7.0], "bins": [-38.226318359375, -37.03177261352539, -35.83723068237305, -34.64268493652344, -33.448143005371094, -32.253597259521484, -31.059053421020508, -29.86450958251953, -28.669965744018555, -27.475421905517578, -26.2808780670166, -25.086334228515625, -23.891788482666016, -22.69724464416504, -21.502700805664062, -20.308156967163086, -19.11361312866211, -17.919069290161133, -16.724525451660156, -15.529980659484863, -14.335436820983887, -13.14089298248291, -11.946348190307617, -10.75180435180664, -9.557260513305664, -8.362716674804688, -7.168172359466553, -5.973628044128418, -4.779084205627441, -3.5845401287078857, -2.38999605178833, -1.1954519748687744, -0.000911712646484375, 1.1936323642730713, 2.388176441192627, 3.5827205181121826, 4.777264595031738, 5.971808433532715, 7.16635274887085, 8.360897064208984, 9.555440902709961, 10.749984741210938, 11.944528579711914, 13.139073371887207, 14.333617210388184, 15.52816104888916, 16.722705841064453, 17.91724967956543, 19.111793518066406, 20.306337356567383, 21.50088119506836, 22.695425033569336, 23.889968872070312, 25.084514617919922, 26.2790584564209, 27.473602294921875, 28.66814613342285, 29.862689971923828, 31.057233810424805, 32.25177764892578, 33.44632339477539, 34.640865325927734, 35.835411071777344, 37.02995300292969, 38.2244987487793]}, "gradients/decoder.fc_out.bias": {"_type": "histogram", "values": [1.0, 0.0, 0.0, 0.0, 0.0, 0.0, 0.0, 0.0, 0.0, 0.0, 0.0, 0.0, 0.0, 0.0, 0.0, 0.0, 0.0, 0.0, 0.0, 0.0, 0.0, 0.0, 0.0, 1.0, 0.0, 0.0, 0.0, 0.0, 1.0, 1.0, 0.0, 0.0, 0.0, 2.0, 0.0, 2.0, 2.0, 1.0, 1.0, 0.0, 2.0, 2.0, 0.0, 1.0, 0.0, 0.0, 0.0, 0.0, 0.0, 0.0, 0.0, 0.0, 0.0, 0.0, 0.0, 0.0, 0.0, 0.0, 0.0, 0.0, 0.0, 0.0, 0.0, 1.0], "bins": [-24.497791290283203, -23.832015991210938, -23.166240692138672, -22.500465393066406, -21.83469009399414, -21.168914794921875, -20.50313949584961, -19.837364196777344, -19.171588897705078, -18.505815505981445, -17.84004020690918, -17.174264907836914, -16.50848960876465, -15.842714309692383, -15.176939010620117, -14.511163711547852, -13.845388412475586, -13.17961311340332, -12.513837814331055, -11.848062515258789, -11.182287216186523, -10.516512870788574, -9.850737571716309, -9.184962272644043, -8.519186973571777, -7.853411674499512, -7.187636375427246, -6.521861553192139, -5.856086254119873, -5.190310955047607, -4.5245361328125, -3.8587608337402344, -3.1929874420166016, -2.527212142944336, -1.8614370822906494, -1.1956619024276733, -0.5298867225646973, 0.1358884572982788, 0.8016636371612549, 1.467438817024231, 2.133213996887207, 2.7989892959594727, 3.464764356613159, 4.130539417266846, 4.796314716339111, 5.462090015411377, 6.127864837646484, 6.79364013671875, 7.459415435791016, 8.125190734863281, 8.790966033935547, 9.456741333007812, 10.122516632080078, 10.788290977478027, 11.454066276550293, 12.119841575622559, 12.785616874694824, 13.45139217376709, 14.117167472839355, 14.782942771911621, 15.44871711730957, 16.114492416381836, 16.7802677154541, 17.446043014526367, 18.111818313598633]}, "gradients/decoder.fc_out.weight": {"_type": "histogram", "values": [1.0, 1.0, 0.0, 0.0, 0.0, 2.0, 0.0, 1.0, 0.0, 1.0, 1.0, 1.0, 0.0, 3.0, 1.0, 0.0, 1.0, 1.0, 1.0, 0.0, 3.0, 1.0, 5.0, 7.0, 8.0, 9.0, 14.0, 21.0, 46.0, 100.0, 158.0, 86.0, 33.0, 23.0, 5.0, 11.0, 5.0, 7.0, 0.0, 2.0, 2.0, 1.0, 1.0, 0.0, 3.0, 1.0, 0.0, 4.0, 0.0, 0.0, 1.0, 1.0, 0.0, 0.0, 2.0, 0.0, 0.0, 0.0, 0.0, 0.0, 0.0, 0.0, 0.0, 1.0], "bins": [-70.83969116210938, -68.50830841064453, -66.17691802978516, -63.84553527832031, -61.51415252685547, -59.18276596069336, -56.85137939453125, -54.519996643066406, -52.1886100769043, -49.85722351074219, -47.525840759277344, -45.194454193115234, -42.863067626953125, -40.53168487548828, -38.20029830932617, -35.86891555786133, -33.53752899169922, -31.206144332885742, -28.874759674072266, -26.543373107910156, -24.21198844909668, -21.880603790283203, -19.549217224121094, -17.217832565307617, -14.88644790649414, -12.555063247680664, -10.223677635192871, -7.892292499542236, -5.560907363891602, -3.229522228240967, -0.898137092590332, 1.4332480430603027, 3.7646331787109375, 6.096018314361572, 8.427403450012207, 10.7587890625, 13.090173721313477, 15.421558380126953, 17.752944946289062, 20.08432960510254, 22.415714263916016, 24.747098922729492, 27.07848358154297, 29.409870147705078, 31.741254806518555, 34.07263946533203, 36.40402603149414, 38.735408782958984, 41.066795349121094, 43.3981819152832, 45.72956466674805, 48.060951232910156, 50.392333984375, 52.72372055053711, 55.05510711669922, 57.38648986816406, 59.71787643432617, 62.04926300048828, 64.38064575195312, 66.71202850341797, 69.04341888427734, 71.37480163574219, 73.70618438720703, 76.0375747680664, 78.36895751953125]}, "gradients/decoder.lstm_cell.bias_ih": {"_type": "histogram", "values": [2.0, 0.0, 0.0, 0.0, 0.0, 0.0, 0.0, 0.0, 0.0, 0.0, 2.0, 0.0, 0.0, 1.0, 0.0, 0.0, 1.0, 0.0, 2.0, 1.0, 0.0, 1.0, 2.0, 1.0, 5.0, 1.0, 5.0, 5.0, 2.0, 2.0, 5.0, 3.0, 17.0, 23.0, 9.0, 9.0, 2.0, 3.0, 5.0, 2.0, 2.0, 2.0, 3.0, 1.0, 0.0, 0.0, 1.0, 0.0, 2.0, 2.0, 1.0, 1.0, 1.0, 0.0, 0.0, 0.0, 0.0, 0.0, 0.0, 0.0, 0.0, 0.0, 0.0, 1.0], "bins": [-3.6915788650512695, -3.58150577545166, -3.471432685852051, -3.3613593578338623, -3.251286268234253, -3.1412131786346436, -3.031140089035034, -2.9210667610168457, -2.8109936714172363, -2.700920581817627, -2.5908474922180176, -2.480774402618408, -2.3707010746002197, -2.2606279850006104, -2.150554895401001, -2.0404818058013916, -1.9304085969924927, -1.8203355073928833, -1.7102622985839844, -1.600189208984375, -1.490116000175476, -1.3800429105758667, -1.2699697017669678, -1.1598966121673584, -1.049823522567749, -0.9397503137588501, -0.829677164554596, -0.7196040153503418, -0.6095309257507324, -0.4994577467441559, -0.3893846273422241, -0.27931147813796997, -0.16923832893371582, -0.05916518718004227, 0.05090795457363129, 0.16098108887672424, 0.2710542380809784, 0.38112738728523254, 0.4912005066871643, 0.6012736558914185, 0.7113468050956726, 0.8214199542999268, 0.9314931035041809, 1.041566252708435, 1.1516393423080444, 1.2617125511169434, 1.3717856407165527, 1.4818588495254517, 1.591931939125061, 1.7020050287246704, 1.8120782375335693, 1.9221513271331787, 2.032224416732788, 2.1422977447509766, 2.252370834350586, 2.3624439239501953, 2.4725170135498047, 2.582590103149414, 2.6926634311676025, 2.802736520767212, 2.9128096103668213, 3.0228826999664307, 3.132956027984619, 3.2430291175842285, 3.353102207183838]}, "gradients/decoder.lstm_cell.bias_hh": {"_type": "histogram", "values": [2.0, 0.0, 0.0, 0.0, 0.0, 0.0, 0.0, 0.0, 0.0, 0.0, 2.0, 0.0, 0.0, 1.0, 0.0, 0.0, 1.0, 0.0, 2.0, 1.0, 0.0, 1.0, 2.0, 1.0, 5.0, 1.0, 5.0, 5.0, 2.0, 2.0, 5.0, 3.0, 17.0, 23.0, 9.0, 9.0, 2.0, 3.0, 5.0, 2.0, 2.0, 2.0, 3.0, 1.0, 0.0, 0.0, 1.0, 0.0, 2.0, 2.0, 1.0, 1.0, 1.0, 0.0, 0.0, 0.0, 0.0, 0.0, 0.0, 0.0, 0.0, 0.0, 0.0, 1.0], "bins": [-3.6915788650512695, -3.58150577545166, -3.471432685852051, -3.3613593578338623, -3.251286268234253, -3.1412131786346436, -3.031140089035034, -2.9210667610168457, -2.8109936714172363, -2.700920581817627, -2.5908474922180176, -2.480774402618408, -2.3707010746002197, -2.2606279850006104, -2.150554895401001, -2.0404818058013916, -1.9304085969924927, -1.8203355073928833, -1.7102622985839844, -1.600189208984375, -1.490116000175476, -1.3800429105758667, -1.2699697017669678, -1.1598966121673584, -1.049823522567749, -0.9397503137588501, -0.829677164554596, -0.7196040153503418, -0.6095309257507324, -0.4994577467441559, -0.3893846273422241, -0.27931147813796997, -0.16923832893371582, -0.05916518718004227, 0.05090795457363129, 0.16098108887672424, 0.2710542380809784, 0.38112738728523254, 0.4912005066871643, 0.6012736558914185, 0.7113468050956726, 0.8214199542999268, 0.9314931035041809, 1.041566252708435, 1.1516393423080444, 1.2617125511169434, 1.3717856407165527, 1.4818588495254517, 1.591931939125061, 1.7020050287246704, 1.8120782375335693, 1.9221513271331787, 2.032224416732788, 2.1422977447509766, 2.252370834350586, 2.3624439239501953, 2.4725170135498047, 2.582590103149414, 2.6926634311676025, 2.802736520767212, 2.9128096103668213, 3.0228826999664307, 3.132956027984619, 3.2430291175842285, 3.353102207183838]}, "gradients/decoder.lstm_cell.weight_hh": {"_type": "histogram", "values": [1.0, 2.0, 1.0, 2.0, 1.0, 4.0, 2.0, 2.0, 3.0, 2.0, 7.0, 4.0, 3.0, 8.0, 6.0, 7.0, 9.0, 17.0, 18.0, 23.0, 30.0, 29.0, 33.0, 55.0, 92.0, 87.0, 131.0, 131.0, 167.0, 297.0, 862.0, 909.0, 317.0, 185.0, 133.0, 115.0, 63.0, 62.0, 57.0, 37.0, 32.0, 24.0, 20.0, 24.0, 18.0, 15.0, 8.0, 8.0, 6.0, 4.0, 2.0, 1.0, 1.0, 6.0, 1.0, 1.0, 2.0, 3.0, 2.0, 0.0, 2.0, 0.0, 0.0, 2.0], "bins": [-3.157595634460449, -3.056119441986084, -2.954643487930298, -2.8531672954559326, -2.7516913414001465, -2.6502151489257812, -2.548738956451416, -2.44726300239563, -2.3457868099212646, -2.2443108558654785, -2.1428346633911133, -2.041358470916748, -1.939882516860962, -1.8384064435958862, -1.736930251121521, -1.6354541778564453, -1.5339781045913696, -1.432502031326294, -1.3310259580612183, -1.229549765586853, -1.1280736923217773, -1.0265976190567017, -0.925121545791626, -0.8236454129219055, -0.7221693396568298, -0.6206932663917542, -0.5192171335220337, -0.417741060256958, -0.31626495718955994, -0.21478885412216187, -0.11331276595592499, -0.011836670339107513, 0.08963942527770996, 0.19111552834510803, 0.2925916314125061, 0.3940677046775818, 0.49554380774497986, 0.5970199108123779, 0.6984959840774536, 0.7999721169471741, 0.9014481902122498, 1.0029243230819702, 1.104400396347046, 1.2058764696121216, 1.3073525428771973, 1.408828616142273, 1.5103048086166382, 1.6117808818817139, 1.7132569551467896, 1.8147330284118652, 1.916209101676941, 2.0176851749420166, 2.119161367416382, 2.220637321472168, 2.322113513946533, 2.4235897064208984, 2.5250656604766846, 2.62654185295105, 2.728017807006836, 2.829493999481201, 2.9309701919555664, 3.0324461460113525, 3.1339223384857178, 3.235398292541504, 3.336874485015869]}, "gradients/decoder.lstm_cell.weight_ih": {"_type": "histogram", "values": [1.0, 0.0, 0.0, 3.0, 0.0, 0.0, 0.0, 0.0, 1.0, 2.0, 1.0, 0.0, 1.0, 2.0, 4.0, 6.0, 0.0, 1.0, 9.0, 6.0, 2.0, 8.0, 6.0, 12.0, 16.0, 27.0, 27.0, 29.0, 31.0, 40.0, 85.0, 208.0, 1141.0, 315.0, 89.0, 42.0, 39.0, 19.0, 24.0, 14.0, 11.0, 18.0, 5.0, 9.0, 9.0, 3.0, 4.0, 5.0, 3.0, 2.0, 3.0, 2.0, 2.0, 4.0, 4.0, 1.0, 0.0, 0.0, 2.0, 0.0, 3.0, 1.0, 0.0, 2.0], "bins": [-13.293997764587402, -12.886480331420898, -12.478963851928711, -12.071446418762207, -11.663928985595703, -11.256412506103516, -10.848895072937012, -10.441378593444824, -10.03386116027832, -9.626343727111816, -9.218827247619629, -8.811309814453125, -8.403793334960938, -7.996275901794434, -7.58875846862793, -7.181241512298584, -6.773724555969238, -6.366207599639893, -5.958690643310547, -5.551173210144043, -5.143656253814697, -4.736139297485352, -4.328621864318848, -3.921104907989502, -3.5135879516601562, -3.1060709953308105, -2.6985538005828857, -2.291036605834961, -1.8835196495056152, -1.47600257396698, -1.0684854984283447, -0.6609684228897095, -0.2534523010253906, 0.15406477451324463, 0.5615818500518799, 0.9690989255905151, 1.3766160011291504, 1.7841330766677856, 2.191650152206421, 2.5991673469543457, 3.0066843032836914, 3.414201259613037, 3.821718454360962, 4.229235649108887, 4.636752605438232, 5.044269561767578, 5.451786994934082, 5.859303951263428, 6.266820907592773, 6.674337863922119, 7.081854820251465, 7.489372253417969, 7.8968892097473145, 8.30440616607666, 8.711923599243164, 9.119440078735352, 9.526957511901855, 9.93447494506836, 10.341991424560547, 10.74950885772705, 11.157026290893555, 11.564542770385742, 11.972060203552246, 12.379576683044434, 12.787094116210938]}, "gradients/phi_z.nn_layers.2.bias": {"_type": "histogram", "values": [1.0, 0.0, 0.0, 0.0, 0.0, 0.0, 0.0, 0.0, 1.0, 0.0, 0.0, 0.0, 0.0, 0.0, 0.0, 0.0, 1.0, 0.0, 2.0, 1.0, 1.0, 0.0, 0.0, 0.0, 0.0, 1.0, 1.0, 1.0, 1.0, 0.0, 0.0, 0.0, 1.0, 0.0, 1.0, 0.0, 0.0, 0.0, 1.0, 0.0, 1.0, 0.0, 0.0, 0.0, 0.0, 0.0, 0.0, 0.0, 0.0, 0.0, 0.0, 0.0, 0.0, 0.0, 0.0, 0.0, 0.0, 0.0, 0.0, 0.0, 0.0, 0.0, 0.0, 1.0], "bins": [-1.3246161937713623, -1.2811964750289917, -1.2377766370773315, -1.194356918334961, -1.1509370803833008, -1.1075173616409302, -1.06409752368927, -1.0206778049468994, -0.9772579669952393, -0.9338382482528687, -0.8904184699058533, -0.8469986915588379, -0.8035789132118225, -0.7601591348648071, -0.7167393565177917, -0.6733195781707764, -0.629899799823761, -0.5864800214767456, -0.5430602431297302, -0.49964046478271484, -0.45622068643569946, -0.41280093789100647, -0.3693811595439911, -0.3259613811969757, -0.2825416028499603, -0.23912182450294495, -0.19570204615592957, -0.15228228271007538, -0.10886250436306, -0.06544272601604462, -0.022022955119609833, 0.02139681950211525, 0.06481659412384033, 0.10823637247085571, 0.1516561508178711, 0.19507591426372528, 0.23849569261074066, 0.28191545605659485, 0.32533523440361023, 0.3687550127506256, 0.412174791097641, 0.45559456944465637, 0.49901434779167175, 0.5424340963363647, 0.5858538746833801, 0.6292736530303955, 0.6726934313774109, 0.7161132097244263, 0.7595329880714417, 0.802952766418457, 0.8463725447654724, 0.8897923231124878, 0.9332121014595032, 0.9766318798065186, 1.0200515985488892, 1.0634714365005493, 1.10689115524292, 1.15031099319458, 1.1937307119369507, 1.2371505498886108, 1.2805702686309814, 1.3239901065826416, 1.3674098253250122, 1.4108296632766724, 1.454249382019043]}, "gradients/phi_z.nn_layers.2.weight": {"_type": "histogram", "values": [1.0, 0.0, 1.0, 0.0, 0.0, 0.0, 0.0, 2.0, 2.0, 0.0, 1.0, 2.0, 2.0, 1.0, 1.0, 2.0, 3.0, 5.0, 4.0, 3.0, 8.0, 5.0, 9.0, 11.0, 11.0, 9.0, 10.0, 24.0, 26.0, 44.0, 46.0, 31.0, 11.0, 5.0, 6.0, 10.0, 3.0, 4.0, 4.0, 1.0, 0.0, 0.0, 1.0, 0.0, 0.0, 0.0, 0.0, 2.0, 0.0, 0.0, 1.0, 0.0, 1.0, 1.0, 1.0, 2.0, 1.0, 0.0, 0.0, 0.0, 0.0, 0.0, 0.0, 2.0], "bins": [-1.9043948650360107, -1.8419160842895508, -1.7794371843338013, -1.7169584035873413, -1.6544795036315918, -1.5920007228851318, -1.5295218229293823, -1.4670430421829224, -1.4045641422271729, -1.342085361480713, -1.2796064615249634, -1.2171276807785034, -1.154648780822754, -1.092170000076294, -1.0296911001205444, -0.9672123193740845, -0.9047334790229797, -0.842254638671875, -0.7797757983207703, -0.7172969579696655, -0.6548181176185608, -0.592339277267456, -0.5298604369163513, -0.46738162636756897, -0.40490278601646423, -0.3424239456653595, -0.27994510531425476, -0.21746627986431122, -0.15498743951320648, -0.09250859916210175, -0.030029766261577606, 0.03244907036423683, 0.09492790699005127, 0.157406747341156, 0.21988558769226074, 0.2823644280433655, 0.3448432683944702, 0.40732207894325256, 0.4698009192943573, 0.5322797894477844, 0.5947586297988892, 0.6572374105453491, 0.7197162508964539, 0.7821950912475586, 0.8446739315986633, 0.9071527719497681, 0.9696316123008728, 1.0321104526519775, 1.0945892333984375, 1.157068133354187, 1.219546914100647, 1.2820258140563965, 1.3445045948028564, 1.406983494758606, 1.469462275505066, 1.5319411754608154, 1.5944199562072754, 1.656898856163025, 1.7193776369094849, 1.7818565368652344, 1.8443353176116943, 1.9068142175674438, 1.9692929983139038, 2.0317718982696533, 2.0942506790161133]}, "gradients/phi_z.nn_layers.1.bias": {"_type": "histogram", "values": [1.0, 0.0, 0.0, 0.0, 0.0, 0.0, 0.0, 0.0, 1.0, 0.0, 0.0, 0.0, 2.0, 0.0, 0.0, 1.0, 0.0, 2.0, 1.0, 0.0, 0.0, 1.0, 0.0, 0.0, 0.0, 0.0, 0.0, 0.0, 1.0, 0.0, 0.0, 0.0, 2.0, 0.0, 0.0, 0.0, 0.0, 1.0, 0.0, 0.0, 1.0, 2.0, 0.0, 0.0, 0.0, 0.0, 0.0, 0.0, 0.0, 0.0, 1.0, 0.0, 0.0, 0.0, 0.0, 0.0, 0.0, 1.0, 1.0, 0.0, 0.0, 0.0, 0.0, 1.0], "bins": [-1.0829561948776245, -1.0645222663879395, -1.046088457107544, -1.0276545286178589, -1.0092207193374634, -0.9907867908477783, -0.972352921962738, -0.9539190530776978, -0.9354851245880127, -0.9170512557029724, -0.8986173868179321, -0.8801835179328918, -0.8617496490478516, -0.8433157801628113, -0.8248818516731262, -0.8064479827880859, -0.7880141139030457, -0.7695802450180054, -0.7511463761329651, -0.73271244764328, -0.7142785787582397, -0.6958447098731995, -0.6774108409881592, -0.6589769721031189, -0.6405431032180786, -0.6221091747283936, -0.6036753058433533, -0.585241436958313, -0.5668075680732727, -0.5483736991882324, -0.5299397706985474, -0.5115059018135071, -0.4930720329284668, -0.4746381342411041, -0.45620426535606384, -0.43777036666870117, -0.4193364977836609, -0.4009026288986206, -0.38246873021125793, -0.36403486132621765, -0.345600962638855, -0.3271670937538147, -0.3087332248687744, -0.29029932618141174, -0.27186545729637146, -0.2534315884113312, -0.2349976897239685, -0.21656382083892822, -0.19812993705272675, -0.17969605326652527, -0.16126218438148499, -0.1428283005952835, -0.12439441680908203, -0.10596053302288055, -0.08752665668725967, -0.0690927803516388, -0.05065889656543732, -0.03222501650452614, -0.01379113644361496, 0.004642743617296219, 0.023076623678207397, 0.041510503739118576, 0.059944383800029755, 0.07837826013565063, 0.09681214392185211]}, "gradients/phi_z.nn_layers.1.weight": {"_type": "histogram", "values": [1.0, 0.0, 0.0, 0.0, 0.0, 0.0, 0.0, 0.0, 0.0, 0.0, 0.0, 2.0, 0.0, 0.0, 0.0, 1.0, 2.0, 1.0, 1.0, 1.0, 1.0, 1.0, 0.0, 0.0, 1.0, 1.0, 5.0, 4.0, 2.0, 2.0, 7.0, 5.0, 2.0, 10.0, 7.0, 5.0, 9.0, 8.0, 0.0, 8.0, 9.0, 8.0, 10.0, 10.0, 9.0, 10.0, 13.0, 9.0, 4.0, 10.0, 16.0, 14.0, 16.0, 17.0, 56.0, 65.0, 21.0, 6.0, 4.0, 2.0, 2.0, 1.0, 0.0, 1.0], "bins": [-1.384922742843628, -1.3598395586013794, -1.3347563743591309, -1.3096731901168823, -1.2845900058746338, -1.2595068216323853, -1.2344235181808472, -1.2093403339385986, -1.18425714969635, -1.1591739654541016, -1.134090781211853, -1.1090075969696045, -1.083924412727356, -1.0588412284851074, -1.0337580442428589, -1.0086748600006104, -0.983591616153717, -0.9585084319114685, -0.93342524766922, -0.9083420038223267, -0.8832588195800781, -0.8581756353378296, -0.833092451095581, -0.8080092668533325, -0.782926082611084, -0.7578428387641907, -0.7327596545219421, -0.7076764702796936, -0.6825932860374451, -0.6575101017951965, -0.6324268579483032, -0.6073436737060547, -0.5822604298591614, -0.5571772456169128, -0.5320940613746643, -0.5070108771324158, -0.48192766308784485, -0.4568444788455963, -0.4317612648010254, -0.40667808055877686, -0.3815948963165283, -0.3565116822719574, -0.33142849802970886, -0.30634528398513794, -0.2812620997428894, -0.25617891550064087, -0.23109570145606995, -0.2060125172138214, -0.18092931807041168, -0.15584611892700195, -0.13076293468475342, -0.10567973554134369, -0.08059653639793396, -0.05551334097981453, -0.0304301455616951, -0.005346950143575668, 0.019736245274543762, 0.04481944069266319, 0.06990263611078262, 0.09498582780361176, 0.12006902694702148, 0.1451522260904312, 0.17023542523384094, 0.19531860947608948, 0.2204018086194992]}, "gradients/phi_z.nn_layers.0.bias": {"_type": "histogram", "values": [1.0, 0.0, 0.0, 0.0, 0.0, 1.0, 0.0, 0.0, 1.0, 0.0, 0.0, 0.0, 1.0, 0.0, 2.0, 0.0, 0.0, 0.0, 0.0, 0.0, 1.0, 0.0, 0.0, 1.0, 0.0, 1.0, 0.0, 1.0, 0.0, 0.0, 0.0, 0.0, 0.0, 0.0, 0.0, 0.0, 0.0, 0.0, 0.0, 0.0, 0.0, 0.0, 0.0, 0.0, 0.0, 0.0, 1.0, 1.0, 0.0, 2.0, 0.0, 0.0, 0.0, 0.0, 0.0, 1.0, 0.0, 0.0, 0.0, 0.0, 2.0, 0.0, 1.0, 2.0], "bins": [-0.9977217316627502, -0.9817086458206177, -0.9656955599784851, -0.9496824145317078, -0.9336693286895752, -0.9176562428474426, -0.9016431570053101, -0.8856300115585327, -0.8696169257164001, -0.8536038398742676, -0.837590754032135, -0.8215776681900024, -0.8055645227432251, -0.7895514369010925, -0.77353835105896, -0.7575252652168274, -0.7415121793746948, -0.7254990339279175, -0.7094859480857849, -0.6934728622436523, -0.6774597764015198, -0.6614466309547424, -0.6454335451126099, -0.6294204592704773, -0.6134073734283447, -0.5973942875862122, -0.5813811421394348, -0.5653680562973022, -0.5493549704551697, -0.5333418846130371, -0.5173287391662598, -0.5013156533241272, -0.48530250787734985, -0.4692894220352173, -0.4532763361930847, -0.43726322054862976, -0.4212501347064972, -0.40523701906204224, -0.38922393321990967, -0.3732108175754547, -0.35719773173332214, -0.3411846458911896, -0.3251715302467346, -0.30915844440460205, -0.2931453287601471, -0.2771322429180145, -0.26111912727355957, -0.245106041431427, -0.22909294068813324, -0.21307983994483948, -0.19706673920154572, -0.18105363845825195, -0.16504055261611938, -0.14902745187282562, -0.13301435112953186, -0.1170012503862381, -0.10098814964294434, -0.08497504889965057, -0.06896194815635681, -0.052948854863643646, -0.036935754120349884, -0.02092265523970127, -0.004909556359052658, 0.011103542521595955, 0.027116641402244568]}, "gradients/phi_z.nn_layers.0.weight": {"_type": "histogram", "values": [1.0, 0.0, 1.0, 1.0, 0.0, 0.0, 1.0, 0.0, 0.0, 0.0, 0.0, 0.0, 0.0, 1.0, 0.0, 5.0, 1.0, 0.0, 2.0, 2.0, 2.0, 2.0, 0.0, 1.0, 1.0, 4.0, 4.0, 3.0, 7.0, 2.0, 4.0, 5.0, 3.0, 3.0, 4.0, 5.0, 5.0, 6.0, 8.0, 8.0, 9.0, 15.0, 7.0, 8.0, 8.0, 10.0, 10.0, 23.0, 46.0, 33.0, 18.0, 6.0, 6.0, 3.0, 6.0, 3.0, 2.0, 5.0, 2.0, 3.0, 3.0, 0.0, 0.0, 2.0], "bins": [-1.1629855632781982, -1.139230728149414, -1.1154758930206299, -1.0917209386825562, -1.067966103553772, -1.0442112684249878, -1.0204564332962036, -0.9967015981674194, -0.9729467034339905, -0.9491918683052063, -0.9254370331764221, -0.9016821384429932, -0.877927303314209, -0.8541724681854248, -0.8304175734519958, -0.8066627383232117, -0.7829078435897827, -0.7591530084609985, -0.7353981733322144, -0.7116432785987854, -0.6878884434700012, -0.664133608341217, -0.6403787136077881, -0.6166238784790039, -0.5928690433502197, -0.5691141486167908, -0.5453593134880066, -0.5216044783592224, -0.49784961342811584, -0.4740947484970093, -0.4503398835659027, -0.42658504843711853, -0.40283018350601196, -0.3790753185749054, -0.3553204834461212, -0.33156561851501465, -0.3078107535839081, -0.2840559184551239, -0.26030105352401733, -0.23654618859291077, -0.2127913385629654, -0.18903648853302002, -0.16528162360191345, -0.14152677357196808, -0.11777191609144211, -0.09401705861091614, -0.07026220858097076, -0.046507351100444794, -0.022752493619918823, 0.001002361997961998, 0.02475721761584282, 0.04851207137107849, 0.07226692885160446, 0.09602178633213043, 0.1197766363620758, 0.14353150129318237, 0.16728635132312775, 0.19104120135307312, 0.2147960662841797, 0.23855091631412506, 0.26230576634407043, 0.286060631275177, 0.30981549620628357, 0.33357033133506775, 0.3573251962661743]}, "gradients/c_means": {"_type": "histogram", "values": [1.0, 0.0, 0.0, 0.0, 0.0, 0.0, 1.0, 1.0, 0.0, 0.0, 0.0, 1.0, 0.0, 0.0, 0.0, 1.0, 1.0, 0.0, 0.0, 0.0, 2.0, 2.0, 1.0, 0.0, 2.0, 0.0, 1.0, 2.0, 0.0, 1.0, 2.0, 3.0, 5.0, 2.0, 4.0, 3.0, 3.0, 3.0, 3.0, 7.0, 3.0, 6.0, 7.0, 12.0, 14.0, 8.0, 10.0, 6.0, 7.0, 7.0, 6.0, 3.0, 0.0, 1.0, 2.0, 3.0, 4.0, 4.0, 2.0, 2.0, 0.0, 0.0, 0.0, 1.0], "bins": [-0.3052915334701538, -0.29970720410346985, -0.2941228449344635, -0.28853851556777954, -0.2829541563987732, -0.27736982703208923, -0.2717854678630829, -0.2662011384963989, -0.2606167793273926, -0.2550324499607086, -0.24944810569286346, -0.2438637614250183, -0.23827941715717316, -0.232695072889328, -0.22711072862148285, -0.2215263843536377, -0.21594205498695374, -0.21035771071910858, -0.20477336645126343, -0.19918902218341827, -0.19360467791557312, -0.18802033364772797, -0.1824359893798828, -0.17685164511203766, -0.1712673008441925, -0.16568295657634735, -0.1600986123085022, -0.15451428294181824, -0.14892993867397308, -0.14334559440612793, -0.13776125013828278, -0.13217690587043762, -0.12659257650375366, -0.12100822478532791, -0.11542388051748276, -0.1098395437002182, -0.10425519943237305, -0.0986708551645279, -0.09308651089668274, -0.08750216662883759, -0.08191782236099243, -0.07633348554372787, -0.07074914127588272, -0.06516479700803757, -0.05958045274019241, -0.05399611219763756, -0.048411767929792404, -0.04282742738723755, -0.037243083119392395, -0.03165873885154724, -0.026074398308992386, -0.020490054041147232, -0.014905711635947227, -0.009321369230747223, -0.0037370258942246437, 0.0018473169766366482, 0.00743165984749794, 0.013016002252697945, 0.01860034465789795, 0.024184688925743103, 0.029769031330943108, 0.03535337373614311, 0.040937718003988266, 0.04652205854654312, 0.052106402814388275]}, "gradients/log_c_vars": {"_type": "histogram", "values": [1.0, 0.0, 0.0, 0.0, 0.0, 0.0, 0.0, 0.0, 0.0, 0.0, 0.0, 0.0, 0.0, 0.0, 0.0, 0.0, 0.0, 0.0, 0.0, 0.0, 0.0, 0.0, 0.0, 0.0, 1.0, 0.0, 1.0, 0.0, 0.0, 0.0, 0.0, 0.0, 0.0, 0.0, 1.0, 0.0, 0.0, 0.0, 1.0, 0.0, 1.0, 1.0, 0.0, 0.0, 0.0, 0.0, 1.0, 0.0, 0.0, 0.0, 0.0, 0.0, 0.0, 0.0, 0.0, 1.0, 0.0, 0.0, 0.0, 0.0, 0.0, 0.0, 0.0, 1.0], "bins": [-0.5577199459075928, -0.5445525646209717, -0.5313851237297058, -0.5182177424430847, -0.5050503015518188, -0.49188289046287537, -0.4787154793739319, -0.4655480682849884, -0.4523806571960449, -0.43921324610710144, -0.42604583501815796, -0.4128784239292145, -0.399711012840271, -0.3865436017513275, -0.37337619066238403, -0.36020877957344055, -0.34704136848449707, -0.333873987197876, -0.3207065761089325, -0.307539165019989, -0.29437175393104553, -0.28120434284210205, -0.26803693175315857, -0.2548695206642151, -0.2417021095752716, -0.22853469848632812, -0.21536728739738464, -0.20219987630844116, -0.18903246521949768, -0.1758650541305542, -0.16269764304161072, -0.14953023195266724, -0.13636282086372375, -0.12319540977478027, -0.11002799868583679, -0.09686058759689331, -0.08369317650794983, -0.07052577286958694, -0.05735836178064346, -0.04419095069169998, -0.0310235396027565, -0.01785612851381302, -0.004688719287514687, 0.00847869087010622, 0.021646101027727127, 0.03481351211667061, 0.04798091948032379, 0.06114833056926727, 0.07431574165821075, 0.08748315274715424, 0.10065056383609772, 0.1138179749250412, 0.12698538601398468, 0.14015279710292816, 0.15332020819187164, 0.16648761928081512, 0.1796550154685974, 0.1928224265575409, 0.20598983764648438, 0.21915724873542786, 0.23232465982437134, 0.24549207091331482, 0.2586594820022583, 0.2718268930912018, 0.28499430418014526]}, "train/epoch": 6, "train/loss": -5169.822158813477, "train/loglik": 577.8502807617188, "train/kldiv": -1125.2718505859375, "train/out_l": 60.455936431884766, "_runtime": 9.204287052154541, "_step": 10, "val/epoch": 6, "val/loss": -488.04901123046875, "val/loglik": 41.23987579345703, "val/kldiv": -119.69181823730469, "val/out_l": 5.253927707672119, "test/epoch": "evaluation", "test/loss": -487.7435302734375, "test/loglik": 41.184898376464844, "test/kldiv": -119.57909393310547, "test/out_l": 5.451569557189941, "_wandb": {"runtime": 8}}