{"gradients/predictor.nn_layers.2.bias": {"_type": "histogram", "values": [1.0, 0.0, 0.0, 0.0, 0.0, 0.0, 0.0, 0.0, 0.0, 0.0, 0.0, 0.0, 0.0, 0.0, 0.0, 0.0, 0.0, 0.0, 0.0, 0.0, 0.0, 0.0, 0.0, 0.0, 0.0, 1.0, 0.0, 0.0, 0.0, 0.0, 0.0, 0.0, 0.0, 0.0, 0.0, 0.0, 0.0, 0.0, 0.0, 0.0, 0.0, 0.0, 0.0, 0.0, 0.0, 0.0, 0.0, 0.0, 0.0, 0.0, 0.0, 1.0, 0.0, 0.0, 0.0, 0.0, 0.0, 0.0, 0.0, 0.0, 0.0, 0.0, 0.0, 1.0], "bins": [-0.296673446893692, -0.2882128655910492, -0.27975231409072876, -0.27129173278808594, -0.2628311812877655, -0.2543705999851227, -0.24591003358364105, -0.23744946718215942, -0.2289889007806778, -0.22052833437919617, -0.21206776797771454, -0.2036072015762329, -0.1951466202735901, -0.18668606877326965, -0.17822548747062683, -0.1697649210691452, -0.16130435466766357, -0.15284378826618195, -0.14438322186470032, -0.1359226554632187, -0.12746208906173706, -0.11900151520967484, -0.11054094135761261, -0.10208037495613098, -0.09361980855464935, -0.08515924215316772, -0.0766986757516861, -0.06823810189962387, -0.05977753549814224, -0.051316969096660614, -0.04285639896988869, -0.03439582884311676, -0.025935247540473938, -0.01747467927634716, -0.009014111012220383, -0.000553542748093605, 0.007907025516033173, 0.0163675919175148, 0.024828162044286728, 0.033288732171058655, 0.04174929857254028, 0.05020986497402191, 0.05867043510079384, 0.06713100522756577, 0.0755915716290474, 0.08405213803052902, 0.09251271188259125, 0.10097327828407288, 0.1094338446855545, 0.11789441108703613, 0.12635497748851776, 0.1348155438899994, 0.1432761251926422, 0.15173667669296265, 0.16019725799560547, 0.1686578243970871, 0.17711839079856873, 0.18557895720005035, 0.19403952360153198, 0.2025000900030136, 0.21096065640449524, 0.21942123770713806, 0.2278818041086197, 0.23634237051010132, 0.24480293691158295]}, "_timestamp": 1686705454.095299, "gradients/predictor.nn_layers.2.weight": {"_type": "histogram", "values": [1.0, 0.0, 0.0, 0.0, 0.0, 0.0, 0.0, 0.0, 0.0, 0.0, 0.0, 0.0, 0.0, 0.0, 0.0, 0.0, 0.0, 0.0, 0.0, 1.0, 1.0, 0.0, 0.0, 1.0, 0.0, 2.0, 2.0, 0.0, 0.0, 0.0, 2.0, 0.0, 2.0, 2.0, 5.0, 5.0, 3.0, 22.0, 8.0, 3.0, 2.0, 4.0, 1.0, 3.0, 1.0, 2.0, 0.0, 0.0, 3.0, 0.0, 0.0, 1.0, 1.0, 0.0, 0.0, 1.0, 0.0, 0.0, 0.0, 0.0, 0.0, 0.0, 0.0, 1.0], "bins": [-0.12851694226264954, -0.12508708238601685, -0.12165721505880356, -0.11822734773159027, -0.11479748785495758, -0.11136762797832489, -0.1079377606511116, -0.10450789332389832, -0.10107803344726562, -0.09764817357063293, -0.09421830624341965, -0.09078843891620636, -0.08735857903957367, -0.08392871916294098, -0.08049885183572769, -0.0770689845085144, -0.07363912463188171, -0.07020926475524902, -0.06677939742803574, -0.06334953010082245, -0.05991967022418976, -0.05648980662226677, -0.05305994302034378, -0.04963007941842079, -0.0462002158164978, -0.042770352214574814, -0.039340488612651825, -0.035910625010728836, -0.03248076140880585, -0.02905089780688286, -0.02562103420495987, -0.02219117060303688, -0.018761299550533295, -0.015331435948610306, -0.011901572346687317, -0.008471708744764328, -0.005041845142841339, -0.0016119815409183502, 0.0018178820610046387, 0.0052477456629276276, 0.008677609264850616, 0.012107472866773605, 0.015537336468696594, 0.018967200070619583, 0.022397063672542572, 0.02582692727446556, 0.02925679087638855, 0.03268665447831154, 0.03611651808023453, 0.039546381682157516, 0.042976245284080505, 0.046406108886003494, 0.04983597248792648, 0.05326583608984947, 0.05669569969177246, 0.06012556329369545, 0.06355542689561844, 0.06698529422283173, 0.07041515409946442, 0.0738450139760971, 0.0772748813033104, 0.08070474863052368, 0.08413460850715637, 0.08756446838378906, 0.09099433571100235]}, "gradients/predictor.nn_layers.1.bias": {"_type": "histogram", "values": [1.0, 0.0, 0.0, 0.0, 0.0, 0.0, 0.0, 0.0, 0.0, 0.0, 0.0, 1.0, 0.0, 0.0, 0.0, 0.0, 0.0, 0.0, 0.0, 0.0, 0.0, 0.0, 0.0, 1.0, 0.0, 0.0, 0.0, 0.0, 0.0, 0.0, 0.0, 0.0, 0.0, 0.0, 1.0, 1.0, 0.0, 0.0, 0.0, 1.0, 1.0, 0.0, 0.0, 0.0, 1.0, 0.0, 1.0, 0.0, 2.0, 0.0, 2.0, 1.0, 4.0, 0.0, 0.0, 0.0, 1.0, 0.0, 0.0, 0.0, 0.0, 0.0, 0.0, 1.0], "bins": [-0.08682892471551895, -0.08508902043104172, -0.08334911614656448, -0.08160921186208725, -0.07986930757761002, -0.07812940329313278, -0.07638950645923615, -0.07464960217475891, -0.07290969789028168, -0.07116979360580444, -0.06942988932132721, -0.06768998503684998, -0.06595008075237274, -0.06421017646789551, -0.06247027590870857, -0.06073037162423134, -0.058990463614463806, -0.05725055932998657, -0.05551065504550934, -0.053770750761032104, -0.05203085020184517, -0.050290945917367935, -0.0485510416328907, -0.04681113734841347, -0.04507123678922653, -0.0433313325047493, -0.041591428220272064, -0.03985152393579483, -0.038111623376607895, -0.03637171909213066, -0.03463181480765343, -0.03289191052317619, -0.03115200623869896, -0.029412101954221725, -0.02767219953238964, -0.025932295247912407, -0.024192390963435173, -0.02245248854160309, -0.020712584257125854, -0.01897267997264862, -0.017232775688171387, -0.015492872335016727, -0.013752968050539494, -0.012013064697384834, -0.0102731604129076, -0.008533257059752941, -0.006793353706598282, -0.005053449422121048, -0.0033135470002889633, -0.0015736432978883386, 0.00016626040451228619, 0.0019061639904975891, 0.0036460678093135357, 0.005385971628129482, 0.0071258749812841415, 0.008865779265761375, 0.010605682618916035, 0.012345585972070694, 0.014085490256547928, 0.015825394541025162, 0.017565296962857246, 0.01930520124733448, 0.021045103669166565, 0.0227850079536438, 0.024524912238121033]}, "gradients/predictor.nn_layers.1.weight": {"_type": "histogram", "values": [1.0, 1.0, 0.0, 1.0, 0.0, 2.0, 0.0, 0.0, 0.0, 0.0, 0.0, 0.0, 0.0, 0.0, 1.0, 0.0, 0.0, 2.0, 2.0, 0.0, 2.0, 2.0, 2.0, 3.0, 1.0, 3.0, 2.0, 2.0, 1.0, 4.0, 4.0, 1.0, 6.0, 6.0, 4.0, 9.0, 0.0, 8.0, 15.0, 12.0, 28.0, 39.0, 128.0, 50.0, 20.0, 8.0, 7.0, 7.0, 6.0, 4.0, 1.0, 1.0, 0.0, 1.0, 1.0, 1.0, 0.0, 0.0, 0.0, 0.0, 0.0, 0.0, 0.0, 1.0], "bins": [-0.04158054664731026, -0.04060738533735275, -0.03963422402739525, -0.038661062717437744, -0.03768790140748024, -0.036714740097522736, -0.03574158251285553, -0.034768421202898026, -0.03379525989294052, -0.03282209858298302, -0.03184893727302551, -0.030875777825713158, -0.029902616515755653, -0.02892945520579815, -0.027956293895840645, -0.02698313444852829, -0.026009973138570786, -0.02503681182861328, -0.024063650518655777, -0.023090491071343422, -0.022117329761385918, -0.021144168451428413, -0.02017100714147091, -0.019197847694158554, -0.0182246845215559, -0.017251523211598396, -0.016278361901640892, -0.015305201523005962, -0.014332041144371033, -0.013358879834413528, -0.012385718524456024, -0.011412558145821095, -0.010439397767186165, -0.00946623645722866, -0.008493076078593731, -0.007519914768636227, -0.006546754390001297, -0.005573593080043793, -0.004600432235747576, -0.003627271391451359, -0.002654111012816429, -0.0016809501685202122, -0.0007077892078086734, 0.0002653717529028654, 0.0012385325971990824, 0.002211693674325943, 0.00318485451862216, 0.004158015362918377, 0.005131176672875881, 0.006104337517172098, 0.007077498361468315, 0.00805065967142582, 0.009023820050060749, 0.009996981360018253, 0.010970141738653183, 0.011943303048610687, 0.012916464358568192, 0.013889625668525696, 0.014862786047160625, 0.015835946425795555, 0.01680910773575306, 0.017782269045710564, 0.018755430355668068, 0.019728589802980423, 0.020701751112937927]}, "gradients/predictor.nn_layers.0.bias": {"_type": "histogram", "values": [1.0, 0.0, 0.0, 0.0, 0.0, 0.0, 0.0, 0.0, 0.0, 0.0, 0.0, 1.0, 0.0, 0.0, 0.0, 0.0, 0.0, 0.0, 0.0, 0.0, 0.0, 1.0, 0.0, 0.0, 0.0, 0.0, 0.0, 0.0, 0.0, 0.0, 0.0, 0.0, 2.0, 0.0, 0.0, 0.0, 0.0, 0.0, 0.0, 0.0, 0.0, 0.0, 0.0, 0.0, 0.0, 0.0, 0.0, 1.0, 1.0, 0.0, 0.0, 0.0, 1.0, 1.0, 3.0, 0.0, 2.0, 2.0, 1.0, 0.0, 1.0, 0.0, 1.0, 1.0], "bins": [-0.022901829332113266, -0.022507837042212486, -0.022113846614956856, -0.021719854325056076, -0.021325862035155296, -0.020931871607899666, -0.020537879317998886, -0.020143887028098106, -0.019749896600842476, -0.019355904310941696, -0.018961913883686066, -0.018567921593785286, -0.018173929303884506, -0.017779938876628876, -0.017385946586728096, -0.016991954296827316, -0.016597962006926537, -0.016203969717025757, -0.015809979289770126, -0.015415986999869347, -0.015021995641291142, -0.014628003351390362, -0.014234011992812157, -0.013840019702911377, -0.013446029275655746, -0.013052037917077541, -0.012658045627176762, -0.012264054268598557, -0.011870062910020351, -0.011476070620119572, -0.011082079261541367, -0.010688086971640587, -0.010294094681739807, -0.009900103323161602, -0.009506111033260822, -0.009112119674682617, -0.008718128316104412, -0.008324136026203632, -0.007930144667625427, -0.007536152843385935, -0.007142161019146442, -0.00674816919490695, -0.006354177836328745, -0.0059601860120892525, -0.00556619418784976, -0.005172202363610268, -0.0047782110050320625, -0.00438421918079257, -0.003990228287875652, -0.0035962366964668036, -0.003202244872227311, -0.0028082532808184624, -0.00241426145657897, -0.002020269865170121, -0.0016262782737612724, -0.00123228644952178, -0.0008382946252822876, -0.00044430294656194746, -5.031126784160733e-05, 0.00034368038177490234, 0.0007376720895990729, 0.0011316637974232435, 0.0015256553888320923, 0.0019196472130715847, 0.0023136388044804335]}, "gradients/predictor.nn_layers.0.weight": {"_type": "histogram", "values": [1.0, 2.0, 1.0, 0.0, 1.0, 0.0, 0.0, 0.0, 1.0, 0.0, 0.0, 0.0, 0.0, 1.0, 0.0, 2.0, 1.0, 1.0, 0.0, 2.0, 3.0, 0.0, 2.0, 4.0, 2.0, 0.0, 4.0, 4.0, 5.0, 2.0, 4.0, 4.0, 2.0, 0.0, 5.0, 5.0, 7.0, 7.0, 8.0, 10.0, 5.0, 15.0, 19.0, 18.0, 39.0, 27.0, 28.0, 24.0, 9.0, 8.0, 16.0, 2.0, 7.0, 4.0, 0.0, 0.0, 1.0, 1.0, 1.0, 1.0, 3.0, 0.0, 0.0, 1.0], "bins": [-0.02259225584566593, -0.02209555171430111, -0.021598847582936287, -0.021102143451571465, -0.02060544118285179, -0.02010873705148697, -0.019612032920122147, -0.019115328788757324, -0.018618624657392502, -0.01812192052602768, -0.017625216394662857, -0.017128512263298035, -0.016631808131933212, -0.01613510586321354, -0.015638401731848717, -0.015141697600483894, -0.014644993469119072, -0.01414828933775425, -0.013651585206389427, -0.01315488200634718, -0.012658177874982357, -0.012161473743617535, -0.011664770543575287, -0.011168066412210464, -0.010671362280845642, -0.01017465814948082, -0.009677954018115997, -0.00918125081807375, -0.008684546686708927, -0.008187842555344105, -0.00769113888964057, -0.007194435223937035, -0.006697732023894787, -0.0062010278925299644, -0.005704324226826429, -0.005207620561122894, -0.004710916429758072, -0.0042142122983932495, -0.0037175086326897144, -0.0032208047341555357, -0.002724100835621357, -0.0022273969370871782, -0.0017306930385529995, -0.0012339891400188208, -0.000737285241484642, -0.0002405813429504633, 0.00025612255558371544, 0.0007528264541178942, 0.001249530352652073, 0.0017462342511862516, 0.0022429381497204304, 0.002739642048254609, 0.003236345946788788, 0.0037330498453229666, 0.004229753743857145, 0.00472645740956068, 0.005223161540925503, 0.005719865672290325, 0.00621656933799386, 0.006713273003697395, 0.007209977135062218, 0.00770668126642704, 0.008203385397791862, 0.00870008859783411, 0.009196792729198933]}, "gradients/cell_update.nn_layers.2.bias": {"_type": "histogram", "values": [1.0, 0.0, 0.0, 0.0, 0.0, 0.0, 0.0, 0.0, 0.0, 0.0, 1.0, 0.0, 0.0, 0.0, 0.0, 0.0, 1.0, 0.0, 0.0, 0.0, 0.0, 1.0, 2.0, 0.0, 0.0, 1.0, 0.0, 0.0, 1.0, 0.0, 0.0, 1.0, 0.0, 0.0, 0.0, 0.0, 1.0, 0.0, 0.0, 0.0, 0.0, 0.0, 0.0, 0.0, 0.0, 0.0, 1.0, 0.0, 0.0, 0.0, 1.0, 1.0, 0.0, 1.0, 0.0, 0.0, 0.0, 0.0, 0.0, 0.0, 0.0, 0.0, 0.0, 2.0], "bins": [-1.5378376245498657, -1.4883896112442017, -1.4389417171478271, -1.389493703842163, -1.340045690536499, -1.290597677230835, -1.241149663925171, -1.1917017698287964, -1.1422537565231323, -1.0928057432174683, -1.0433578491210938, -0.9939098358154297, -0.9444618225097656, -0.8950138092041016, -0.8455658555030823, -0.796117901802063, -0.7466698884963989, -0.6972218751907349, -0.6477739214897156, -0.5983259677886963, -0.5488779544830322, -0.49942997097969055, -0.4499819874763489, -0.4005340039730072, -0.3510860204696655, -0.30163803696632385, -0.2521900534629822, -0.2027420699596405, -0.15329408645629883, -0.10384610295295715, -0.05439811944961548, -0.004950135946273804, 0.04449784755706787, 0.09394583106040955, 0.14339381456375122, 0.1928417980670929, 0.24228978157043457, 0.29173776507377625, 0.3411857485771179, 0.3906337320804596, 0.44008171558380127, 0.48952969908714294, 0.5389776825904846, 0.5884256362915039, 0.637873649597168, 0.687321662902832, 0.7367696166038513, 0.7862175703048706, 0.8356655836105347, 0.8851135969161987, 0.934561550617218, 0.9840095043182373, 1.0334575176239014, 1.0829055309295654, 1.1323535442352295, 1.181801438331604, 1.231249451637268, 1.2806974649429321, 1.3301453590393066, 1.3795933723449707, 1.4290413856506348, 1.4784893989562988, 1.527937412261963, 1.5773853063583374, 1.6268333196640015]}, "gradients/cell_update.nn_layers.2.weight": {"_type": "histogram", "values": [1.0, 0.0, 1.0, 0.0, 0.0, 1.0, 0.0, 0.0, 0.0, 0.0, 1.0, 0.0, 1.0, 0.0, 1.0, 1.0, 1.0, 1.0, 0.0, 1.0, 0.0, 2.0, 4.0, 4.0, 2.0, 1.0, 4.0, 0.0, 3.0, 2.0, 0.0, 260.0, 0.0, 1.0, 0.0, 1.0, 1.0, 1.0, 1.0, 0.0, 2.0, 1.0, 0.0, 1.0, 0.0, 1.0, 3.0, 2.0, 2.0, 1.0, 2.0, 1.0, 0.0, 1.0, 0.0, 0.0, 1.0, 1.0, 0.0, 0.0, 2.0, 0.0, 0.0, 2.0], "bins": [-0.3654991388320923, -0.353741317987442, -0.34198352694511414, -0.33022570610046387, -0.318467915058136, -0.3067100942134857, -0.29495230317115784, -0.28319448232650757, -0.2714366912841797, -0.2596788704395294, -0.24792107939720154, -0.23616327345371246, -0.2244054675102234, -0.21264766156673431, -0.20088985562324524, -0.18913203477859497, -0.1773742288351059, -0.16561642289161682, -0.15385861694812775, -0.14210081100463867, -0.1303430050611496, -0.11858519911766052, -0.10682738572359085, -0.09506957978010178, -0.0833117663860321, -0.07155396044254303, -0.059796154499053955, -0.04803834483027458, -0.03628053888678551, -0.024522732943296432, -0.01276492327451706, -0.0010071173310279846, 0.010750681161880493, 0.022508487105369568, 0.03426629304885864, 0.046024102717638016, 0.05778190866112709, 0.06953971087932587, 0.08129752427339554, 0.09305533021688461, 0.10481312870979309, 0.11657093465328217, 0.12832874059677124, 0.14008654654026031, 0.1518443524837494, 0.16360215842723846, 0.17535996437072754, 0.1871177852153778, 0.19887559115886688, 0.21063339710235596, 0.22239120304584503, 0.2341490089893341, 0.24590681493282318, 0.25766462087631226, 0.2694224417209625, 0.2811802327632904, 0.2929380536079407, 0.30469587445259094, 0.3164536654949188, 0.3282114863395691, 0.339969277381897, 0.35172709822654724, 0.3634848892688751, 0.3752427101135254, 0.38700050115585327]}, "gradients/cell_update.nn_layers.1.bias": {"_type": "histogram", "values": [1.0, 0.0, 0.0, 0.0, 0.0, 0.0, 0.0, 0.0, 0.0, 0.0, 1.0, 0.0, 0.0, 0.0, 0.0, 0.0, 1.0, 0.0, 0.0, 0.0, 0.0, 0.0, 0.0, 0.0, 0.0, 0.0, 1.0, 15.0, 0.0, 0.0, 0.0, 0.0, 0.0, 0.0, 0.0, 0.0, 0.0, 0.0, 0.0, 0.0, 0.0, 0.0, 0.0, 0.0, 0.0, 0.0, 0.0, 0.0, 0.0, 0.0, 0.0, 0.0, 0.0, 0.0, 0.0, 0.0, 0.0, 0.0, 0.0, 0.0, 0.0, 0.0, 0.0, 1.0], "bins": [-0.5341993570327759, -0.5150352716445923, -0.4958711862564087, -0.4767071008682251, -0.4575430154800415, -0.4383789300918579, -0.4192148447036743, -0.4000507593154907, -0.38088667392730713, -0.36172258853912354, -0.34255850315093994, -0.32339441776275635, -0.30423033237457275, -0.28506624698638916, -0.26590216159820557, -0.24673809111118317, -0.22757402062416077, -0.20840993523597717, -0.18924584984779358, -0.17008176445960999, -0.1509176790714264, -0.1317535936832428, -0.1125895231962204, -0.0934254378080368, -0.0742613673210144, -0.05509728193283081, -0.035933200269937515, -0.01676911860704422, 0.0023949667811393738, 0.021559052169322968, 0.040723130106925964, 0.05988721549510956, 0.07905131578445435, 0.09821540117263794, 0.11737948656082153, 0.13654357194900513, 0.15570765733718872, 0.17487174272537231, 0.19403581321239471, 0.2131998986005783, 0.2323639988899231, 0.2515280842781067, 0.2706921696662903, 0.2898562550544739, 0.30902034044265747, 0.32818442583084106, 0.34734851121902466, 0.36651259660720825, 0.38567665219306946, 0.40484073758125305, 0.42400482296943665, 0.44316890835762024, 0.46233299374580383, 0.4814970791339874, 0.5006611347198486, 0.5198252201080322, 0.5389893054962158, 0.5581533908843994, 0.577317476272583, 0.5964815616607666, 0.6156456470489502, 0.6348097324371338, 0.6539738178253174, 0.673137903213501, 0.6923019886016846]}, "gradients/cell_update.nn_layers.1.weight": {"_type": "histogram", "values": [1.0, 0.0, 0.0, 1.0, 0.0, 0.0, 0.0, 0.0, 0.0, 2.0, 0.0, 0.0, 2.0, 0.0, 0.0, 0.0, 2.0, 3.0, 0.0, 1.0, 4.0, 1.0, 1.0, 3.0, 2.0, 2.0, 9.0, 353.0, 1.0, 3.0, 1.0, 0.0, 0.0, 0.0, 0.0, 0.0, 1.0, 1.0, 1.0, 0.0, 0.0, 1.0, 0.0, 0.0, 0.0, 0.0, 0.0, 0.0, 1.0, 0.0, 0.0, 1.0, 0.0, 0.0, 0.0, 0.0, 0.0, 0.0, 0.0, 1.0, 0.0, 0.0, 0.0, 1.0], "bins": [-0.17798790335655212, -0.17159655690193176, -0.1652051955461502, -0.15881383419036865, -0.1524224877357483, -0.14603114128112793, -0.13963977992534637, -0.13324841856956482, -0.12685707211494446, -0.1204657182097435, -0.11407436430454254, -0.10768301039934158, -0.10129165649414062, -0.09490030258893967, -0.08850894868373871, -0.08211759477853775, -0.07572624087333679, -0.06933488696813583, -0.06294353306293488, -0.05655217915773392, -0.05016082525253296, -0.043769471347332, -0.03737811744213104, -0.030986763536930084, -0.024595409631729126, -0.018204055726528168, -0.01181270182132721, -0.005421347916126251, 0.000970005989074707, 0.007361359894275665, 0.013752713799476624, 0.020144067704677582, 0.026535436511039734, 0.03292679041624069, 0.03931814432144165, 0.04570949822664261, 0.05210085213184357, 0.058492206037044525, 0.06488355994224548, 0.07127491384744644, 0.0776662677526474, 0.08405762165784836, 0.09044897556304932, 0.09684032946825027, 0.10323168337345123, 0.10962303727865219, 0.11601439118385315, 0.12240574508905411, 0.12879709899425507, 0.13518846035003662, 0.14157980680465698, 0.14797115325927734, 0.1543625146150589, 0.16075387597084045, 0.16714522242546082, 0.17353656888008118, 0.17992793023586273, 0.1863192915916443, 0.19271063804626465, 0.199101984500885, 0.20549334585666656, 0.21188470721244812, 0.21827605366706848, 0.22466740012168884, 0.2310587614774704]}, "gradients/cell_update.nn_layers.0.bias": {"_type": "histogram", "values": [1.0, 0.0, 0.0, 0.0, 0.0, 0.0, 0.0, 0.0, 0.0, 0.0, 0.0, 0.0, 0.0, 0.0, 0.0, 0.0, 0.0, 0.0, 0.0, 1.0, 2.0, 0.0, 0.0, 0.0, 0.0, 0.0, 1.0, 0.0, 0.0, 0.0, 1.0, 1.0, 1.0, 0.0, 0.0, 0.0, 0.0, 0.0, 0.0, 1.0, 1.0, 0.0, 7.0, 0.0, 2.0, 0.0, 0.0, 0.0, 0.0, 0.0, 0.0, 0.0, 0.0, 0.0, 0.0, 0.0, 0.0, 0.0, 0.0, 0.0, 0.0, 0.0, 0.0, 1.0], "bins": [-0.18935026228427887, -0.18486066162586212, -0.18037106096744537, -0.17588146030902863, -0.17139185965061188, -0.16690225899219513, -0.16241265833377838, -0.15792307257652283, -0.15343347191810608, -0.14894387125968933, -0.14445427060127258, -0.13996466994285583, -0.1354750692844391, -0.13098546862602234, -0.1264958679676056, -0.12200627475976944, -0.1175166666507721, -0.11302706599235535, -0.1085374653339386, -0.10404786467552185, -0.0995582640171051, -0.09506866335868835, -0.0905790701508522, -0.08608946949243546, -0.08159986883401871, -0.07711026817560196, -0.07262066751718521, -0.06813106685876846, -0.06364147365093231, -0.059151869267225266, -0.054662272334098816, -0.05017267167568207, -0.04568307101726532, -0.04119347035884857, -0.036703869700431824, -0.032214272767305374, -0.027724672108888626, -0.023235071450471878, -0.01874547265470028, -0.01425587385892868, -0.009766273200511932, -0.005276673473417759, -0.0007870737463235855, 0.003702525980770588, 0.008192125707864761, 0.01268172636628151, 0.017171325162053108, 0.021660923957824707, 0.026150524616241455, 0.030640125274658203, 0.03512972593307495, 0.0396193228662014, 0.04410892352461815, 0.0485985241830349, 0.053088121116161346, 0.057577721774578094, 0.06206732243299484, 0.06655692309141159, 0.07104652374982834, 0.07553612440824509, 0.08002571761608124, 0.08451531827449799, 0.08900491893291473, 0.09349451959133148, 0.09798412024974823]}, "gradients/cell_update.nn_layers.0.weight": {"_type": "histogram", "values": [1.0, 0.0, 0.0, 0.0, 0.0, 0.0, 1.0, 0.0, 0.0, 0.0, 0.0, 0.0, 0.0, 0.0, 0.0, 0.0, 0.0, 1.0, 4.0, 3.0, 0.0, 2.0, 2.0, 3.0, 1.0, 1.0, 3.0, 7.0, 13.0, 8.0, 15.0, 12.0, 13.0, 21.0, 21.0, 17.0, 18.0, 89.0, 431.0, 62.0, 28.0, 27.0, 37.0, 20.0, 20.0, 14.0, 17.0, 20.0, 4.0, 1.0, 2.0, 7.0, 0.0, 4.0, 3.0, 3.0, 1.0, 0.0, 1.0, 0.0, 0.0, 0.0, 1.0, 1.0], "bins": [-0.083915576338768, -0.08172731101512909, -0.07953905314207077, -0.07735079526901245, -0.07516252994537354, -0.07297426462173462, -0.0707860067486763, -0.06859774887561798, -0.06640948355197906, -0.06422121822834015, -0.06203296035528183, -0.05984469875693321, -0.057656437158584595, -0.05546817556023598, -0.05327991396188736, -0.05109165236353874, -0.048903390765190125, -0.04671512916684151, -0.04452686756849289, -0.04233860597014427, -0.040150344371795654, -0.03796208277344704, -0.03577382117509842, -0.0335855595767498, -0.031397297978401184, -0.029209036380052567, -0.02702077478170395, -0.02483251318335533, -0.022644251585006714, -0.020455989986658096, -0.01826772838830948, -0.01607946678996086, -0.013891208916902542, -0.011702947318553925, -0.009514685720205307, -0.0073264241218566895, -0.005138162523508072, -0.0029499009251594543, -0.0007616393268108368, 0.0014266222715377808, 0.0036148838698863983, 0.005803145468235016, 0.007991407066583633, 0.010179668664932251, 0.012367930263280869, 0.014556191861629486, 0.016744453459978104, 0.01893271505832672, 0.02112097665667534, 0.023309238255023956, 0.025497499853372574, 0.02768576145172119, 0.02987402305006981, 0.032062284648418427, 0.034250546246767044, 0.03643880784511566, 0.03862706944346428, 0.0408153310418129, 0.043003592640161514, 0.04519185423851013, 0.04738011583685875, 0.04956837743520737, 0.051756639033555984, 0.0539449006319046, 0.05613316223025322]}, "gradients/encoder.nn_layers.2.bias": {"_type": "histogram", "values": [1.0, 0.0, 0.0, 0.0, 0.0, 0.0, 2.0, 0.0, 0.0, 0.0, 0.0, 0.0, 0.0, 0.0, 0.0, 0.0, 0.0, 0.0, 1.0, 0.0, 0.0, 0.0, 0.0, 0.0, 0.0, 1.0, 1.0, 0.0, 0.0, 0.0, 0.0, 0.0, 0.0, 0.0, 1.0, 0.0, 0.0, 0.0, 0.0, 0.0, 0.0, 0.0, 1.0, 0.0, 0.0, 0.0, 0.0, 0.0, 0.0, 0.0, 0.0, 0.0, 0.0, 0.0, 0.0, 0.0, 1.0, 0.0, 0.0, 0.0, 0.0, 0.0, 0.0, 1.0], "bins": [-3.602994680404663, -3.4743411540985107, -3.3456878662109375, -3.217034339904785, -3.088380813598633, -2.9597275257110596, -2.8310739994049072, -2.702420711517334, -2.5737671852111816, -2.4451136589050293, -2.316460371017456, -2.1878068447113037, -2.0591535568237305, -1.9305000305175781, -1.8018465042114258, -1.673193097114563, -1.5445396900177002, -1.4158862829208374, -1.2872328758239746, -1.1585793495178223, -1.0299259424209595, -0.9012725353240967, -0.7726190686225891, -0.6439656019210815, -0.5153121948242188, -0.38665875792503357, -0.2580053210258484, -0.1293518841266632, -0.0006984472274780273, 0.12795495986938477, 0.25660842657089233, 0.3852618932723999, 0.5139150619506836, 0.6425684690475464, 0.771221935749054, 0.8998754024505615, 1.0285288095474243, 1.157182216644287, 1.2858357429504395, 1.4144891500473022, 1.543142557144165, 1.6717959642410278, 1.8004493713378906, 1.929102897644043, 2.0577564239501953, 2.1864097118377686, 2.315063238143921, 2.443716526031494, 2.5723700523376465, 2.701023578643799, 2.829676866531372, 2.9583303928375244, 3.0869836807250977, 3.21563720703125, 3.3442907333374023, 3.4729442596435547, 3.601597547531128, 3.7302510738372803, 3.8589043617248535, 3.987557888031006, 4.116211414337158, 4.244864463806152, 4.373517990112305, 4.502171516418457, 4.630825042724609]}, "gradients/encoder.nn_layers.2.weight": {"_type": "histogram", "values": [1.0, 0.0, 0.0, 0.0, 0.0, 0.0, 3.0, 0.0, 0.0, 0.0, 0.0, 2.0, 1.0, 0.0, 0.0, 0.0, 3.0, 1.0, 1.0, 3.0, 3.0, 2.0, 1.0, 0.0, 3.0, 5.0, 4.0, 15.0, 125.0, 2.0, 2.0, 2.0, 3.0, 2.0, 1.0, 1.0, 1.0, 0.0, 2.0, 2.0, 0.0, 1.0, 2.0, 1.0, 0.0, 0.0, 0.0, 1.0, 0.0, 1.0, 0.0, 0.0, 0.0, 0.0, 0.0, 1.0, 1.0, 0.0, 0.0, 0.0, 0.0, 0.0, 0.0, 1.0], "bins": [-0.8007612228393555, -0.7721684575080872, -0.7435756921768188, -0.7149829268455505, -0.6863901615142822, -0.6577973961830139, -0.6292046308517456, -0.6006118655204773, -0.572019100189209, -0.5434263348579407, -0.5148335695266724, -0.48624080419540405, -0.45764803886413574, -0.42905527353286743, -0.4004625082015991, -0.3718697428703308, -0.3432770073413849, -0.3146842420101166, -0.28609147667884827, -0.25749871134757996, -0.22890594601631165, -0.20031319558620453, -0.17172043025493622, -0.1431276649236679, -0.11453491449356079, -0.08594214916229248, -0.05734938755631447, -0.028756625950336456, -0.00016386061906814575, 0.028428897261619568, 0.05702166259288788, 0.08561442792415619, 0.1142072081565857, 0.142799973487854, 0.17139273881912231, 0.19998550415039062, 0.22857826948165894, 0.25717103481292725, 0.28576380014419556, 0.31435656547546387, 0.3429493308067322, 0.3715420961380005, 0.4001348614692688, 0.4287276268005371, 0.4573203921318054, 0.48591315746307373, 0.514505922794342, 0.5430986881256104, 0.5716913938522339, 0.6002841591835022, 0.6288769245147705, 0.6574696898460388, 0.6860624551773071, 0.7146552205085754, 0.7432479858398438, 0.7718407511711121, 0.8004335165023804, 0.8290262818336487, 0.857619047164917, 0.8862118124961853, 0.9148045778274536, 0.9433973431587219, 0.9719901084899902, 1.0005828142166138, 1.0291756391525269]}, "gradients/encoder.nn_layers.1.bias": {"_type": "histogram", "values": [2.0, 0.0, 0.0, 0.0, 0.0, 0.0, 0.0, 0.0, 0.0, 0.0, 0.0, 0.0, 0.0, 0.0, 0.0, 0.0, 0.0, 0.0, 0.0, 0.0, 0.0, 0.0, 0.0, 0.0, 0.0, 0.0, 0.0, 0.0, 0.0, 1.0, 0.0, 0.0, 0.0, 0.0, 0.0, 0.0, 0.0, 0.0, 0.0, 0.0, 0.0, 0.0, 0.0, 0.0, 0.0, 1.0, 11.0, 1.0, 0.0, 0.0, 0.0, 0.0, 0.0, 0.0, 0.0, 0.0, 2.0, 0.0, 0.0, 0.0, 1.0, 0.0, 0.0, 1.0], "bins": [-0.512452244758606, -0.5014442205429077, -0.49043622612953186, -0.479428231716156, -0.46842020750045776, -0.4574121832847595, -0.44640418887138367, -0.4353961944580078, -0.42438817024230957, -0.41338014602661133, -0.4023721516132355, -0.3913641571998596, -0.3803561329841614, -0.36934810876846313, -0.3583401143550873, -0.3473321199417114, -0.3363240957260132, -0.32531607151031494, -0.3143080770969391, -0.30330008268356323, -0.292292058467865, -0.28128403425216675, -0.2702760398387909, -0.25926804542541504, -0.2482600212097168, -0.23725201189517975, -0.2262440025806427, -0.21523599326610565, -0.2042279839515686, -0.19321997463703156, -0.1822119653224945, -0.17120395600795746, -0.16019591689109802, -0.14918790757656097, -0.13817989826202393, -0.12717188894748688, -0.11616387963294983, -0.10515587031841278, -0.09414786100387573, -0.08313985168933868, -0.07213184237480164, -0.06112383306026459, -0.05011582374572754, -0.03910781443119049, -0.028099805116653442, -0.017091795802116394, -0.006083786487579346, 0.004924222826957703, 0.01593223214149475, 0.0269402414560318, 0.03794825077056885, 0.048956260085105896, 0.059964269399642944, 0.07097227871417999, 0.08198028802871704, 0.09298829734325409, 0.10399630665779114, 0.11500431597232819, 0.12601232528686523, 0.13702033460140228, 0.14802834391593933, 0.15903635323047638, 0.17004436254501343, 0.18105237185955048, 0.19206038117408752]}, "gradients/encoder.nn_layers.1.weight": {"_type": "histogram", "values": [2.0, 0.0, 0.0, 0.0, 1.0, 1.0, 0.0, 0.0, 0.0, 0.0, 0.0, 0.0, 0.0, 0.0, 0.0, 0.0, 0.0, 2.0, 2.0, 0.0, 0.0, 0.0, 0.0, 0.0, 2.0, 0.0, 0.0, 2.0, 1.0, 2.0, 1.0, 2.0, 4.0, 0.0, 0.0, 0.0, 2.0, 0.0, 1.0, 1.0, 4.0, 2.0, 0.0, 0.0, 4.0, 9.0, 309.0, 4.0, 2.0, 8.0, 6.0, 6.0, 6.0, 2.0, 3.0, 2.0, 3.0, 0.0, 1.0, 0.0, 1.0, 0.0, 1.0, 1.0], "bins": [-0.10403414815664291, -0.1017909124493599, -0.09954766929149628, -0.09730443358421326, -0.09506119042634964, -0.09281795471906662, -0.090574711561203, -0.08833147585391998, -0.08608824014663696, -0.08384500443935394, -0.08160176128149033, -0.0793585255742073, -0.07711528241634369, -0.07487204670906067, -0.07262881100177765, -0.07038556784391403, -0.06814232468605042, -0.0658990889787674, -0.06365584582090378, -0.06141261011362076, -0.05916937068104744, -0.05692613124847412, -0.0546828918159008, -0.052439652383327484, -0.050196416676044464, -0.047953177243471146, -0.04570993781089783, -0.04346670210361481, -0.04122346267104149, -0.03898022323846817, -0.03673698380589485, -0.03449374437332153, -0.032250504940748215, -0.030007265508174896, -0.027764027938246727, -0.02552078850567341, -0.02327755093574524, -0.02103431150317192, -0.018791072070598602, -0.016547834500670433, -0.014304596930742264, -0.01206135842949152, -0.009818119928240776, -0.007574880495667458, -0.005331641994416714, -0.00308840349316597, -0.0008451640605926514, 0.0013980735093355179, 0.0036413148045539856, 0.0058845533058047295, 0.008127791807055473, 0.010371031239628792, 0.012614269740879536, 0.01485750824213028, 0.017100747674703598, 0.019343985244631767, 0.021587224677205086, 0.023830464109778404, 0.026073701679706573, 0.028316941112279892, 0.03056018054485321, 0.03280341625213623, 0.03504665940999985, 0.03728989511728287, 0.039533134549856186]}, "gradients/encoder.nn_layers.0.bias": {"_type": "histogram", "values": [1.0, 0.0, 0.0, 0.0, 0.0, 1.0, 0.0, 0.0, 0.0, 0.0, 0.0, 0.0, 1.0, 0.0, 0.0, 0.0, 0.0, 1.0, 1.0, 0.0, 0.0, 0.0, 0.0, 0.0, 0.0, 0.0, 0.0, 0.0, 0.0, 0.0, 0.0, 0.0, 0.0, 0.0, 1.0, 0.0, 1.0, 6.0, 1.0, 0.0, 0.0, 0.0, 0.0, 0.0, 1.0, 2.0, 0.0, 0.0, 0.0, 0.0, 0.0, 0.0, 0.0, 0.0, 0.0, 0.0, 0.0, 0.0, 1.0, 1.0, 0.0, 0.0, 0.0, 1.0], "bins": [-0.16088703274726868, -0.15663807094097137, -0.15238912403583527, -0.14814016222953796, -0.14389120042324066, -0.13964225351810455, -0.13539329171180725, -0.13114432990550995, -0.12689538300037384, -0.12264642864465714, -0.11839746683835983, -0.11414851248264313, -0.10989955812692642, -0.10565060377120972, -0.10140164196491241, -0.09715268760919571, -0.09290372580289841, -0.0886547714471817, -0.0844058096408844, -0.0801568552851677, -0.07590790092945099, -0.07165893912315369, -0.06740998476743698, -0.06316103041172028, -0.058912068605422974, -0.05466311052441597, -0.050414156168699265, -0.04616519808769226, -0.041916243731975555, -0.03766728565096855, -0.03341832756996155, -0.029169371351599693, -0.02492041140794754, -0.020671455189585686, -0.01642249897122383, -0.012173540890216827, -0.007924584671854973, -0.0036756284534931183, 0.0005733296275138855, 0.00482228584587574, 0.009071238338947296, 0.01332019455730915, 0.017569150775671005, 0.02181810885667801, 0.026067065075039864, 0.030316021293401718, 0.03456497937440872, 0.03881393373012543, 0.04306289553642273, 0.04731185361742973, 0.05156080797314644, 0.05580976605415344, 0.06005872040987015, 0.06430767476558685, 0.06855663657188416, 0.07280559092760086, 0.07705454528331757, 0.08130349963903427, 0.08555246144533157, 0.08980141580104828, 0.09405037015676498, 0.09829932451248169, 0.10254828631877899, 0.1067972406744957, 0.111046202480793]}, "gradients/encoder.nn_layers.0.weight": {"_type": "histogram", "values": [2.0, 2.0, 1.0, 0.0, 1.0, 1.0, 3.0, 4.0, 1.0, 4.0, 1.0, 2.0, 8.0, 8.0, 5.0, 6.0, 7.0, 9.0, 6.0, 9.0, 13.0, 9.0, 10.0, 17.0, 17.0, 28.0, 39.0, 248.0, 28.0, 14.0, 15.0, 9.0, 13.0, 6.0, 8.0, 11.0, 7.0, 8.0, 9.0, 4.0, 5.0, 8.0, 5.0, 3.0, 6.0, 3.0, 2.0, 1.0, 3.0, 3.0, 0.0, 1.0, 2.0, 1.0, 0.0, 0.0, 0.0, 1.0, 1.0, 0.0, 0.0, 0.0, 1.0, 1.0], "bins": [-0.03504554182291031, -0.03375265374779701, -0.032459765672683716, -0.03116687387228012, -0.029873985797166824, -0.028581097722053528, -0.027288207784295082, -0.025995317846536636, -0.02470242977142334, -0.023409541696310043, -0.022116651758551598, -0.020823761820793152, -0.019530873745679855, -0.01823798567056656, -0.016945095732808113, -0.015652205795049667, -0.01435931771993637, -0.0130664287135005, -0.011773539707064629, -0.010480650700628757, -0.009187761694192886, -0.007894872687757015, -0.006601983681321144, -0.005309094674885273, -0.004016205668449402, -0.0027233166620135307, -0.0014304276555776596, -0.00013753864914178848, 0.0011553503572940826, 0.0024482393637299538, 0.003741128370165825, 0.005034017376601696, 0.006326902657747269, 0.00761979166418314, 0.008912680670619011, 0.010205569677054882, 0.011498458683490753, 0.012791347689926624, 0.014084236696362495, 0.015377125702798367, 0.016670014709234238, 0.017962902784347534, 0.01925579272210598, 0.020548682659864426, 0.021841570734977722, 0.02313445881009102, 0.024427348747849464, 0.02572023868560791, 0.027013126760721207, 0.028306014835834503, 0.02959890477359295, 0.030891794711351395, 0.03218468278646469, 0.03347757086157799, 0.034770458936691284, 0.03606335073709488, 0.037356238812208176, 0.03864912688732147, 0.03994201868772507, 0.041234906762838364, 0.04252779483795166, 0.04382068291306496, 0.04511357098817825, 0.04640646278858185, 0.047699350863695145]}, "gradients/phi_x.nn_layers.2.bias": {"_type": "histogram", "values": [1.0, 0.0, 0.0, 0.0, 0.0, 0.0, 0.0, 0.0, 0.0, 0.0, 0.0, 0.0, 1.0, 0.0, 0.0, 0.0, 0.0, 0.0, 1.0, 0.0, 0.0, 1.0, 0.0, 0.0, 0.0, 2.0, 0.0, 0.0, 0.0, 1.0, 0.0, 0.0, 0.0, 2.0, 0.0, 0.0, 0.0, 0.0, 0.0, 0.0, 0.0, 1.0, 1.0, 1.0, 0.0, 0.0, 1.0, 0.0, 0.0, 0.0, 0.0, 0.0, 0.0, 1.0, 0.0, 0.0, 0.0, 0.0, 0.0, 0.0, 1.0, 0.0, 0.0, 1.0], "bins": [-0.055733583867549896, -0.053579822182655334, -0.05142606049776077, -0.04927229881286621, -0.04711853712797165, -0.04496477544307709, -0.042811017483472824, -0.04065725579857826, -0.0385034941136837, -0.03634973242878914, -0.03419597074389458, -0.032042209059000015, -0.029888449236750603, -0.02773468755185604, -0.02558092772960663, -0.023427166044712067, -0.021273404359817505, -0.019119642674922943, -0.01696588099002838, -0.014812121167778969, -0.012658359482884407, -0.010504597797989845, -0.008350837044417858, -0.006197076290845871, -0.004043314605951309, -0.0018895533867180347, 0.0002642078325152397, 0.002417969051748514, 0.004571730270981789, 0.00672549195587635, 0.008879252709448338, 0.011033013463020325, 0.01318676769733429, 0.015340529382228851, 0.017494291067123413, 0.019648050889372826, 0.021801812574267387, 0.02395557425916195, 0.02610933408141136, 0.028263095766305923, 0.030416857451200485, 0.03257061913609505, 0.03472438082098961, 0.03687814250588417, 0.039031900465488434, 0.041185662150382996, 0.04333942383527756, 0.04549318552017212, 0.04764694720506668, 0.04980070888996124, 0.051954470574855804, 0.054108232259750366, 0.05626199394464493, 0.05841575562953949, 0.06056951358914375, 0.06272327899932861, 0.06487703323364258, 0.06703079491853714, 0.0691845566034317, 0.07133831828832626, 0.07349207997322083, 0.07564584165811539, 0.07779960334300995, 0.07995335757732391, 0.08210712671279907]}, "gradients/phi_x.nn_layers.2.weight": {"_type": "histogram", "values": [1.0, 0.0, 0.0, 0.0, 0.0, 0.0, 0.0, 1.0, 0.0, 0.0, 0.0, 0.0, 1.0, 2.0, 0.0, 1.0, 1.0, 1.0, 1.0, 3.0, 2.0, 2.0, 3.0, 7.0, 7.0, 20.0, 173.0, 20.0, 7.0, 12.0, 6.0, 4.0, 5.0, 6.0, 4.0, 5.0, 1.0, 1.0, 4.0, 2.0, 2.0, 2.0, 3.0, 2.0, 1.0, 0.0, 2.0, 0.0, 0.0, 0.0, 0.0, 1.0, 0.0, 0.0, 2.0, 0.0, 0.0, 0.0, 0.0, 1.0, 0.0, 0.0, 0.0, 1.0], "bins": [-0.025258371606469154, -0.02429571934044361, -0.023333068937063217, -0.022370416671037674, -0.02140776440501213, -0.020445114001631737, -0.019482461735606194, -0.0185198113322258, -0.017557159066200256, -0.016594506800174713, -0.01563185639679432, -0.014669204130768776, -0.013706552796065807, -0.012743901461362839, -0.011781249195337296, -0.010818597860634327, -0.009855946525931358, -0.00889329519122839, -0.007930643856525421, -0.006967991590499878, -0.006005340255796909, -0.005042688921093941, -0.004080037120729685, -0.003117385320365429, -0.0021547339856624603, -0.001192082418128848, -0.00022943085059523582, 0.0007332207169383764, 0.0016958722844719887, 0.0026585236191749573, 0.003621175419539213, 0.004583827219903469, 0.005546480417251587, 0.0065091317519545555, 0.007471783552318811, 0.008434435352683067, 0.009397086687386036, 0.010359738022089005, 0.011322390288114548, 0.012285041622817516, 0.013247692957520485, 0.014210344292223454, 0.015172995626926422, 0.016135647892951965, 0.01709830015897751, 0.018060950562357903, 0.019023602828383446, 0.01998625323176384, 0.020948905497789383, 0.021911557763814926, 0.02287420816719532, 0.023836860433220863, 0.024799510836601257, 0.0257621631026268, 0.026724815368652344, 0.027687467634677887, 0.02865011803805828, 0.029612770304083824, 0.030575420707464218, 0.03153807297348976, 0.032500725239515305, 0.03346337378025055, 0.03442602604627609, 0.035388678312301636, 0.03635133057832718]}, "gradients/phi_x.nn_layers.1.bias": {"_type": "histogram", "values": [1.0, 0.0, 0.0, 0.0, 0.0, 0.0, 0.0, 0.0, 0.0, 0.0, 0.0, 0.0, 0.0, 0.0, 0.0, 0.0, 0.0, 0.0, 0.0, 0.0, 0.0, 0.0, 0.0, 0.0, 1.0, 0.0, 0.0, 0.0, 0.0, 1.0, 0.0, 1.0, 0.0, 0.0, 1.0, 0.0, 1.0, 0.0, 0.0, 0.0, 0.0, 0.0, 1.0, 0.0, 0.0, 0.0, 1.0, 0.0, 0.0, 0.0, 1.0, 0.0, 0.0, 0.0, 1.0, 1.0, 0.0, 6.0, 1.0, 0.0, 0.0, 1.0, 0.0, 1.0], "bins": [-0.05436602607369423, -0.053415749222040176, -0.05246547609567642, -0.05151519924402237, -0.050564926117658615, -0.04961464926600456, -0.04866437613964081, -0.047714099287986755, -0.0467638224363327, -0.04581354558467865, -0.044863272458314896, -0.04391299560666084, -0.04296272248029709, -0.042012445628643036, -0.04106216877698898, -0.04011189565062523, -0.039161622524261475, -0.03821134567260742, -0.03726107254624367, -0.036310795694589615, -0.03536052256822586, -0.03441024571657181, -0.033459968864917755, -0.032509695738554, -0.03155941888689995, -0.030609143897891045, -0.02965886890888214, -0.02870859205722809, -0.027758317068219185, -0.02680804207921028, -0.025857767090201378, -0.024907492101192474, -0.02395721897482872, -0.023006943985819817, -0.022056668996810913, -0.02110639214515686, -0.020156117156147957, -0.019205842167139053, -0.01825556717813015, -0.017305292189121246, -0.016355017200112343, -0.01540474221110344, -0.014454466290771961, -0.013504191301763058, -0.012553916312754154, -0.011603640392422676, -0.010653365403413773, -0.009703090414404869, -0.008752813562750816, -0.0078025381080806255, -0.006852263119071722, -0.005901987664401531, -0.004951712675392628, -0.004001437220722437, -0.003051161766052246, -0.0021008867770433426, -0.001150611788034439, -0.00020033650798723102, 0.0007499387720599771, 0.001700214110314846, 0.002650489332154393, 0.0036007645539939404, 0.004551040008664131, 0.005501314997673035, 0.0064515904523432255]}, "gradients/phi_x.nn_layers.1.weight": {"_type": "histogram", "values": [1.0, 0.0, 0.0, 0.0, 0.0, 0.0, 0.0, 0.0, 0.0, 0.0, 1.0, 0.0, 0.0, 0.0, 0.0, 1.0, 0.0, 0.0, 0.0, 0.0, 0.0, 0.0, 0.0, 0.0, 0.0, 1.0, 1.0, 0.0, 1.0, 1.0, 1.0, 0.0, 1.0, 3.0, 3.0, 2.0, 1.0, 0.0, 1.0, 1.0, 1.0, 5.0, 3.0, 4.0, 2.0, 3.0, 7.0, 4.0, 1.0, 9.0, 9.0, 6.0, 5.0, 8.0, 11.0, 11.0, 251.0, 20.0, 9.0, 3.0, 2.0, 3.0, 1.0, 2.0], "bins": [-0.026307811960577965, -0.025844957679510117, -0.02538210339844227, -0.02491925098001957, -0.02445639669895172, -0.023993542417883873, -0.023530688136816025, -0.023067833855748177, -0.022604981437325478, -0.02214212715625763, -0.02167927287518978, -0.021216420456767082, -0.020753566175699234, -0.020290711894631386, -0.019827857613563538, -0.01936500333249569, -0.01890214905142784, -0.018439294770359993, -0.017976440489292145, -0.017513588070869446, -0.017050733789801598, -0.01658787950873375, -0.0161250252276659, -0.015662170946598053, -0.015199318528175354, -0.014736464247107506, -0.014273610897362232, -0.013810756616294384, -0.01334790326654911, -0.012885048985481262, -0.012422194704413414, -0.01195934135466814, -0.011496487073600292, -0.011033632792532444, -0.01057077944278717, -0.010107925161719322, -0.009645071811974049, -0.0091822175309062, -0.008719364181160927, -0.008256509900093079, -0.00779365561902523, -0.0073308018036186695, -0.006867947988212109, -0.00640509370714426, -0.0059422398917376995, -0.005479386076331139, -0.005016532260924578, -0.004553678445518017, -0.004090824630111456, -0.003627970814704895, -0.0031651167664676905, -0.0027022629510611296, -0.002239408902823925, -0.0017765550874173641, -0.0013137012720108032, -0.0008508472237735987, -0.0003879934083670378, 7.48604943510145e-05, 0.0005377143970690668, 0.0010005682706832886, 0.0014634222025051713, 0.001926276134327054, 0.002389129949733615, 0.0028519839979708195, 0.0033148378133773804]}, "gradients/phi_x.nn_layers.0.bias": {"_type": "histogram", "values": [1.0, 0.0, 0.0, 0.0, 0.0, 0.0, 0.0, 0.0, 0.0, 0.0, 0.0, 0.0, 0.0, 0.0, 0.0, 0.0, 1.0, 0.0, 0.0, 0.0, 0.0, 0.0, 0.0, 0.0, 0.0, 0.0, 0.0, 0.0, 0.0, 0.0, 0.0, 0.0, 0.0, 0.0, 0.0, 1.0, 0.0, 0.0, 1.0, 0.0, 1.0, 1.0, 0.0, 0.0, 0.0, 0.0, 0.0, 0.0, 1.0, 0.0, 7.0, 2.0, 0.0, 2.0, 0.0, 0.0, 0.0, 0.0, 1.0, 0.0, 0.0, 0.0, 0.0, 1.0], "bins": [-0.028300710022449493, -0.0277401190251112, -0.027179528027772903, -0.02661893703043461, -0.026058346033096313, -0.02549775317311287, -0.024937164038419724, -0.02437657117843628, -0.023815980181097984, -0.02325538918375969, -0.022694798186421394, -0.0221342071890831, -0.021573616191744804, -0.02101302519440651, -0.020452432334423065, -0.01989184133708477, -0.019331250339746475, -0.01877065934240818, -0.018210068345069885, -0.01764947734773159, -0.017088886350393295, -0.01652829349040985, -0.015967704355716705, -0.015407111495733261, -0.014846522361040115, -0.01428593136370182, -0.013725340366363525, -0.01316474936902523, -0.01260415744036436, -0.012043566443026066, -0.01148297544568777, -0.010922383517026901, -0.010361793451011181, -0.009801202453672886, -0.009240611456334591, -0.008680019527673721, -0.008119428530335426, -0.007558837532997131, -0.006998246535658836, -0.006437655072659254, -0.005877063609659672, -0.005316472612321377, -0.0047558811493217945, -0.0041952901519834995, -0.003634698921814561, -0.0030741076916456223, -0.0025135166943073273, -0.001952925231307745, -0.0013923346996307373, -0.0008317435276694596, -0.00027115235570818186, 0.00028943875804543495, 0.0008500299882143736, 0.0014106212183833122, 0.001971212215721607, 0.0025318036787211895, 0.0030923946760594845, 0.003652985906228423, 0.004213577136397362, 0.004774168133735657, 0.005334759131073952, 0.005895350594073534, 0.006455941591411829, 0.007016533054411411, 0.007577124051749706]}, "gradients/phi_x.nn_layers.0.weight": {"_type": "histogram", "values": [1.0, 0.0, 1.0, 0.0, 0.0, 0.0, 0.0, 0.0, 0.0, 0.0, 1.0, 0.0, 0.0, 0.0, 1.0, 1.0, 1.0, 0.0, 1.0, 0.0, 0.0, 0.0, 2.0, 0.0, 0.0, 0.0, 1.0, 1.0, 0.0, 0.0, 0.0, 1.0, 1.0, 0.0, 0.0, 1.0, 4.0, 0.0, 4.0, 4.0, 7.0, 3.0, 3.0, 3.0, 2.0, 3.0, 8.0, 3.0, 6.0, 85.0, 11.0, 2.0, 2.0, 5.0, 2.0, 1.0, 1.0, 2.0, 2.0, 0.0, 0.0, 1.0, 1.0, 1.0], "bins": [-0.022938214242458344, -0.022470807656645775, -0.022003401070833206, -0.021535996347665787, -0.021068589761853218, -0.02060118317604065, -0.02013377659022808, -0.019666370004415512, -0.019198963418602943, -0.018731556832790375, -0.018264150246977806, -0.017796743661165237, -0.017329338937997818, -0.01686193235218525, -0.01639452576637268, -0.015927119180560112, -0.015459713526070118, -0.01499230694025755, -0.014524901285767555, -0.014057494699954987, -0.013590088114142418, -0.01312268152832985, -0.012655275873839855, -0.012187869288027287, -0.011720463633537292, -0.011253057047724724, -0.01078565139323473, -0.010318244807422161, -0.009850838221609592, -0.009383432567119598, -0.00891602598130703, -0.008448619395494461, -0.007981212809681892, -0.007513806689530611, -0.007046400103718042, -0.006578993983566761, -0.006111587397754192, -0.005644181277602911, -0.00517677515745163, -0.004709368571639061, -0.004241961985826492, -0.0037745556328445673, -0.0033071492798626423, -0.002839743159711361, -0.002372336806729436, -0.001904930453747511, -0.0014375243335962296, -0.0009701179806143045, -0.0005027120932936668, -3.530579851940274e-05, 0.00043210049625486135, 0.0008995067328214645, 0.0013669130858033895, 0.0018343194387853146, 0.002301725558936596, 0.002769131911918521, 0.003236538264900446, 0.003703944617882371, 0.004171350970864296, 0.004638757091015577, 0.005106163211166859, 0.005573569796979427, 0.006040975917130709, 0.00650838203728199, 0.006975788623094559]}, "gradients/prior.nn_layers.2.bias": {"_type": "histogram", "values": [1.0, 0.0, 0.0, 0.0, 0.0, 0.0, 0.0, 0.0, 0.0, 0.0, 0.0, 0.0, 0.0, 0.0, 1.0, 0.0, 0.0, 1.0, 0.0, 0.0, 1.0, 1.0, 1.0, 0.0, 0.0, 0.0, 0.0, 0.0, 0.0, 0.0, 1.0, 0.0, 0.0, 1.0, 0.0, 0.0, 0.0, 0.0, 0.0, 0.0, 0.0, 0.0, 0.0, 0.0, 0.0, 0.0, 0.0, 0.0, 0.0, 0.0, 0.0, 0.0, 0.0, 0.0, 0.0, 1.0, 0.0, 0.0, 0.0, 0.0, 0.0, 0.0, 0.0, 1.0], "bins": [-3.2560722827911377, -3.1398680210113525, -3.0236635208129883, -2.907459259033203, -2.791254758834839, -2.6750504970550537, -2.5588459968566895, -2.4426417350769043, -2.326437473297119, -2.210233211517334, -2.0940287113189697, -1.9778244495391846, -1.8616199493408203, -1.7454156875610352, -1.6292113065719604, -1.5130069255828857, -1.3968024253845215, -1.2805980443954468, -1.164393663406372, -1.048189401626587, -0.9319849610328674, -0.8157805800437927, -0.6995762586593628, -0.5833718776702881, -0.46716761589050293, -0.3509632349014282, -0.2347588837146759, -0.11855453252792358, -0.002350151538848877, 0.11385422945022583, 0.23005855083465576, 0.34626293182373047, 0.46246767044067383, 0.5786720514297485, 0.6948764324188232, 0.8110807538032532, 0.9272851347923279, 1.0434894561767578, 1.1596938371658325, 1.2758982181549072, 1.3921027183532715, 1.5083070993423462, 1.624511480331421, 1.740715742111206, 1.8569202423095703, 1.9731245040893555, 2.0893287658691406, 2.205533266067505, 2.32173752784729, 2.437941789627075, 2.5541462898254395, 2.6703505516052246, 2.786555051803589, 2.902759313583374, 3.0189638137817383, 3.1351680755615234, 3.2513723373413086, 3.3675765991210938, 3.483781099319458, 3.599985361099243, 3.7161898612976074, 3.8323941230773926, 3.9485983848571777, 4.064803123474121, 4.181007385253906]}, "gradients/prior.nn_layers.2.weight": {"_type": "histogram", "values": [1.0, 1.0, 0.0, 1.0, 0.0, 0.0, 0.0, 0.0, 0.0, 0.0, 1.0, 2.0, 0.0, 0.0, 1.0, 3.0, 1.0, 2.0, 1.0, 3.0, 2.0, 7.0, 6.0, 8.0, 7.0, 11.0, 7.0, 11.0, 83.0, 8.0, 4.0, 4.0, 2.0, 3.0, 0.0, 2.0, 1.0, 0.0, 1.0, 0.0, 2.0, 0.0, 0.0, 2.0, 2.0, 1.0, 0.0, 0.0, 0.0, 2.0, 1.0, 0.0, 1.0, 0.0, 1.0, 1.0, 0.0, 0.0, 0.0, 1.0, 0.0, 1.0, 0.0, 1.0], "bins": [-0.9206423759460449, -0.88785719871521, -0.8550720810890198, -0.8222869634628296, -0.7895017862319946, -0.7567166090011597, -0.7239314913749695, -0.6911463737487793, -0.6583611965179443, -0.6255760192871094, -0.5927909016609192, -0.560005784034729, -0.527220606803894, -0.49443545937538147, -0.4616503119468689, -0.4288651645183563, -0.39608001708984375, -0.3632948696613312, -0.3305097222328186, -0.29772457480430603, -0.26493942737579346, -0.23215427994728088, -0.1993691325187683, -0.16658398509025574, -0.13379883766174316, -0.10101369023323059, -0.06822854280471802, -0.035443395376205444, -0.002658247947692871, 0.030126899480819702, 0.06291204690933228, 0.09569719433784485, 0.12848246097564697, 0.16126760840415955, 0.19405275583267212, 0.2268379032611847, 0.25962305068969727, 0.29240819811820984, 0.3251933455467224, 0.357978492975235, 0.39076364040374756, 0.42354878783226013, 0.4563339352607727, 0.4891190826892853, 0.5219042301177979, 0.5546894073486328, 0.587474524974823, 0.6202596426010132, 0.6530448198318481, 0.6858299970626831, 0.7186151146888733, 0.7514002323150635, 0.7841854095458984, 0.8169705867767334, 0.8497557044029236, 0.8825408220291138, 0.9153259992599487, 0.9481111764907837, 0.9808962941169739, 1.013681411743164, 1.046466588973999, 1.079251766204834, 1.112036943435669, 1.1448220014572144, 1.1776071786880493]}, "gradients/prior.nn_layers.1.bias": {"_type": "histogram", "values": [1.0, 0.0, 1.0, 0.0, 0.0, 0.0, 0.0, 0.0, 0.0, 0.0, 0.0, 0.0, 0.0, 0.0, 0.0, 0.0, 0.0, 1.0, 0.0, 0.0, 0.0, 1.0, 0.0, 1.0, 1.0, 2.0, 0.0, 0.0, 0.0, 0.0, 0.0, 0.0, 0.0, 0.0, 0.0, 0.0, 0.0, 0.0, 0.0, 0.0, 1.0, 1.0, 0.0, 0.0, 0.0, 0.0, 0.0, 0.0, 0.0, 0.0, 0.0, 0.0, 0.0, 0.0, 0.0, 0.0, 6.0, 3.0, 0.0, 0.0, 0.0, 0.0, 0.0, 1.0], "bins": [-1.1966660022735596, -1.175498127937317, -1.1543302536010742, -1.1331623792648315, -1.1119943857192993, -1.0908265113830566, -1.069658637046814, -1.0484907627105713, -1.0273228883743286, -1.006155014038086, -0.9849870800971985, -0.9638192057609558, -0.9426513314247131, -0.9214834570884705, -0.900315523147583, -0.8791476488113403, -0.8579797744750977, -0.836811900138855, -0.8156439661979675, -0.7944760918617249, -0.7733082175254822, -0.7521403431892395, -0.730972409248352, -0.7098045349121094, -0.6886366009712219, -0.6674687266349792, -0.6463007926940918, -0.6251329183578491, -0.6039650440216064, -0.5827971696853638, -0.5616292357444763, -0.5404613614082336, -0.5192935466766357, -0.4981256425380707, -0.476957768201828, -0.45578986406326294, -0.43462198972702026, -0.4134540855884552, -0.39228618144989014, -0.37111830711364746, -0.3499504327774048, -0.3287825286388397, -0.30761465430259705, -0.286446750164032, -0.2652788758277893, -0.24411097168922424, -0.22294308245182037, -0.2017751932144165, -0.18060727417469025, -0.15943938493728638, -0.1382714956998825, -0.11710359901189804, -0.09593570977449417, -0.0747678205370903, -0.053599923849105835, -0.032432034611701965, -0.011264145374298096, 0.009903745725750923, 0.031071636825799942, 0.05223952978849411, 0.07340741902589798, 0.09457530826330185, 0.11574320495128632, 0.13691109418869019, 0.15807898342609406]}, "gradients/prior.nn_layers.1.weight": {"_type": "histogram", "values": [1.0, 0.0, 1.0, 0.0, 0.0, 0.0, 0.0, 0.0, 0.0, 0.0, 0.0, 0.0, 0.0, 0.0, 0.0, 0.0, 0.0, 1.0, 0.0, 2.0, 2.0, 1.0, 2.0, 0.0, 2.0, 3.0, 1.0, 0.0, 0.0, 0.0, 2.0, 0.0, 1.0, 6.0, 4.0, 5.0, 4.0, 3.0, 3.0, 2.0, 4.0, 2.0, 5.0, 8.0, 1.0, 1.0, 3.0, 3.0, 3.0, 4.0, 7.0, 6.0, 9.0, 2.0, 8.0, 17.0, 257.0, 6.0, 0.0, 3.0, 2.0, 2.0, 0.0, 1.0], "bins": [-0.4691191613674164, -0.46079787611961365, -0.4524765908718109, -0.4441553056240082, -0.43583402037620544, -0.4275127351284027, -0.4191914498806, -0.41087013483047485, -0.4025488495826721, -0.3942275643348694, -0.38590627908706665, -0.3775849938392639, -0.3692637085914612, -0.36094242334365845, -0.3526211380958557, -0.344299852848053, -0.33597856760025024, -0.3276572823524475, -0.3193359971046448, -0.31101471185684204, -0.3026934266090393, -0.2943721413612366, -0.28605085611343384, -0.2777295708656311, -0.26940828561782837, -0.26108700037002563, -0.2527657151222229, -0.24444442987442017, -0.23612314462661743, -0.2278018593788147, -0.21948055922985077, -0.21115927398204803, -0.2028379887342453, -0.19451670348644257, -0.18619541823863983, -0.1778741329908371, -0.16955283284187317, -0.16123154759407043, -0.1529102623462677, -0.14458897709846497, -0.13626769185066223, -0.1279464066028595, -0.11962512135505676, -0.11130382865667343, -0.1029825434088707, -0.09466125816106796, -0.08633996546268463, -0.0780186802148819, -0.06969739496707916, -0.06137610971927643, -0.053054820746183395, -0.04473353177309036, -0.03641224652528763, -0.028090961277484894, -0.01976967230439186, -0.011448383331298828, -0.0031270980834960938, 0.00519418902695179, 0.013515476137399673, 0.021836763247847557, 0.03015805035829544, 0.038479335606098175, 0.04680062457919121, 0.05512191355228424, 0.06344319880008698]}, "gradients/prior.nn_layers.0.bias": {"_type": "histogram", "values": [2.0, 0.0, 0.0, 0.0, 0.0, 0.0, 0.0, 0.0, 0.0, 0.0, 0.0, 0.0, 0.0, 0.0, 0.0, 0.0, 0.0, 0.0, 0.0, 0.0, 0.0, 0.0, 0.0, 0.0, 0.0, 1.0, 0.0, 0.0, 0.0, 2.0, 0.0, 1.0, 0.0, 0.0, 0.0, 0.0, 0.0, 0.0, 1.0, 1.0, 1.0, 0.0, 0.0, 0.0, 1.0, 0.0, 0.0, 0.0, 1.0, 0.0, 7.0, 0.0, 0.0, 1.0, 0.0, 0.0, 0.0, 0.0, 0.0, 0.0, 0.0, 0.0, 0.0, 1.0], "bins": [-0.7285396456718445, -0.714214026927948, -0.6998883485794067, -0.6855627298355103, -0.6712371110916138, -0.6569114327430725, -0.642585813999176, -0.6282601356506348, -0.6139345169067383, -0.5996088981628418, -0.5852832198143005, -0.570957601070404, -0.5566319823265076, -0.5423063039779663, -0.5279806852340698, -0.5136550664901733, -0.4993293881416321, -0.4850037395954132, -0.4706781208515167, -0.45635247230529785, -0.442026823759079, -0.4277011752128601, -0.4133755564689636, -0.39904990792274475, -0.38472428917884827, -0.3703986406326294, -0.3560730218887329, -0.34174737334251404, -0.32742172479629517, -0.3130961060523987, -0.2987704575061798, -0.28444480895996094, -0.27011916041374207, -0.2557935118675232, -0.24146787822246552, -0.22714224457740784, -0.21281659603118896, -0.1984909623861313, -0.1841653287410736, -0.16983968019485474, -0.15551403164863586, -0.14118839800357819, -0.12686274945735931, -0.11253711581230164, -0.09821146726608276, -0.08388583362102509, -0.06956019252538681, -0.055234551429748535, -0.04090891778469086, -0.026583276689052582, -0.012257637456059456, 0.00206800177693367, 0.016393642872571945, 0.030719280242919922, 0.0450449213385582, 0.05937056243419647, 0.07369620352983475, 0.08802184462547302, 0.1023474857211113, 0.11667312681674957, 0.13099876046180725, 0.14532440900802612, 0.1596500426530838, 0.17397567629814148, 0.18830132484436035]}, "gradients/prior.nn_layers.0.weight": {"_type": "histogram", "values": [2.0, 2.0, 0.0, 0.0, 0.0, 0.0, 0.0, 0.0, 2.0, 0.0, 0.0, 0.0, 2.0, 0.0, 0.0, 0.0, 2.0, 1.0, 3.0, 0.0, 2.0, 4.0, 1.0, 1.0, 3.0, 3.0, 3.0, 10.0, 8.0, 4.0, 3.0, 11.0, 8.0, 13.0, 16.0, 132.0, 8.0, 9.0, 5.0, 6.0, 8.0, 10.0, 2.0, 3.0, 7.0, 2.0, 8.0, 3.0, 0.0, 3.0, 0.0, 0.0, 0.0, 0.0, 0.0, 2.0, 0.0, 0.0, 2.0, 0.0, 0.0, 0.0, 1.0, 5.0], "bins": [-0.15041495859622955, -0.14614611864089966, -0.14187726378440857, -0.13760840892791748, -0.13333956897258759, -0.1290707290172577, -0.1248018741607666, -0.12053302675485611, -0.11626417934894562, -0.11199533194303513, -0.10772648453712463, -0.10345763713121414, -0.09918878972530365, -0.09491994231939316, -0.09065109491348267, -0.08638224750757217, -0.08211340010166168, -0.07784455269575119, -0.0735757052898407, -0.0693068578839302, -0.06503801047801971, -0.06076916307210922, -0.05650031566619873, -0.05223146826028824, -0.04796262085437775, -0.043693773448467255, -0.03942492604255676, -0.03515607863664627, -0.03088723123073578, -0.026618383824825287, -0.022349536418914795, -0.018080689013004303, -0.013811826705932617, -0.009542979300022125, -0.005274131894111633, -0.0010052844882011414, 0.0032635629177093506, 0.0075324103236198425, 0.011801257729530334, 0.016070105135440826, 0.02033895254135132, 0.02460779994726181, 0.028876647353172302, 0.033145494759082794, 0.037414342164993286, 0.04168318957090378, 0.04595203697681427, 0.05022088438272476, 0.054489731788635254, 0.058758579194545746, 0.06302742660045624, 0.06729627400636673, 0.07156512141227722, 0.07583396881818771, 0.0801028162240982, 0.0843716636300087, 0.08864051103591919, 0.09290935844182968, 0.09717820584774017, 0.10144705325365067, 0.10571590065956116, 0.10998474806547165, 0.11425359547138214, 0.11852244287729263, 0.12279129028320312]}, "gradients/decoder.fc_out.bias": {"_type": "histogram", "values": [1.0, 0.0, 0.0, 0.0, 0.0, 0.0, 0.0, 0.0, 0.0, 0.0, 2.0, 1.0, 1.0, 1.0, 0.0, 0.0, 0.0, 0.0, 1.0, 0.0, 0.0, 0.0, 0.0, 1.0, 0.0, 0.0, 1.0, 0.0, 0.0, 0.0, 0.0, 0.0, 0.0, 0.0, 0.0, 0.0, 0.0, 0.0, 0.0, 0.0, 0.0, 0.0, 0.0, 0.0, 0.0, 0.0, 0.0, 0.0, 1.0, 2.0, 1.0, 0.0, 0.0, 0.0, 1.0, 0.0, 0.0, 0.0, 0.0, 0.0, 1.0, 1.0, 0.0, 2.0], "bins": [-7.877219200134277, -7.607368469238281, -7.337518215179443, -7.067667484283447, -6.797817230224609, -6.527966499328613, -6.258115768432617, -5.988265037536621, -5.718414783477783, -5.448564052581787, -5.178713798522949, -4.908863067626953, -4.639012336730957, -4.369162082672119, -4.099311351776123, -3.829460859298706, -3.559610366821289, -3.289759874343872, -3.019909381866455, -2.750058650970459, -2.480208158493042, -2.210357666015625, -1.9405070543289185, -1.670656442642212, -1.400805950164795, -1.130955457687378, -0.8611048460006714, -0.5912542939186096, -0.32140374183654785, -0.05155324935913086, 0.21829736232757568, 0.4881479740142822, 0.7579975128173828, 1.0278480052947998, 1.2976986169815063, 1.567549228668213, 1.8373997211456299, 2.107250213623047, 2.377100944519043, 2.64695143699646, 2.916801929473877, 3.186652421951294, 3.456502914428711, 3.726353645324707, 3.996204137802124, 4.266054630279541, 4.535905361175537, 4.805755615234375, 5.075606346130371, 5.345457077026367, 5.615307331085205, 5.885158061981201, 6.155008316040039, 6.424859046936035, 6.694709777832031, 6.964560508728027, 7.234410762786865, 7.504261493682861, 7.774111747741699, 8.043962478637695, 8.313813209533691, 8.583663940429688, 8.853513717651367, 9.123364448547363, 9.39321517944336]}, "gradients/decoder.fc_out.weight": {"_type": "histogram", "values": [2.0, 0.0, 0.0, 0.0, 0.0, 0.0, 1.0, 0.0, 5.0, 4.0, 7.0, 3.0, 3.0, 7.0, 7.0, 9.0, 13.0, 13.0, 8.0, 13.0, 20.0, 12.0, 8.0, 15.0, 18.0, 15.0, 31.0, 30.0, 39.0, 30.0, 23.0, 27.0, 31.0, 33.0, 22.0, 19.0, 14.0, 13.0, 5.0, 13.0, 11.0, 4.0, 3.0, 2.0, 0.0, 6.0, 6.0, 2.0, 3.0, 4.0, 5.0, 0.0, 3.0, 0.0, 4.0, 0.0, 2.0, 0.0, 0.0, 0.0, 2.0, 2.0, 0.0, 4.0], "bins": [-2.5528671741485596, -2.465766429901123, -2.3786656856536865, -2.29156494140625, -2.2044644355773926, -2.117363691329956, -2.0302629470825195, -1.943162202835083, -1.856061577796936, -1.7689608335494995, -1.6818602085113525, -1.594759464263916, -1.5076587200164795, -1.4205580949783325, -1.333457350730896, -1.246356725692749, -1.1592559814453125, -1.072155237197876, -0.985054612159729, -0.8979538679122925, -0.8108531832695007, -0.723752498626709, -0.6366517543792725, -0.5495510697364807, -0.4624502658843994, -0.37534958124160767, -0.28824886679649353, -0.2011481523513794, -0.11404746770858765, -0.0269467830657959, 0.060153961181640625, 0.14725464582443237, 0.23435544967651367, 0.3214561343193054, 0.40855684876441956, 0.4956575632095337, 0.5827582478523254, 0.6698589324951172, 0.7569596767425537, 0.8440603613853455, 0.9311609268188477, 1.0182616710662842, 1.1053622961044312, 1.1924630403518677, 1.2795636653900146, 1.3666644096374512, 1.4537651538848877, 1.5408658981323242, 1.6279666423797607, 1.7150673866271973, 1.8021680116653442, 1.8892687559127808, 1.9763693809509277, 2.0634701251983643, 2.150570869445801, 2.2376716136932373, 2.324772357940674, 2.4118731021881104, 2.498973846435547, 2.5860743522644043, 2.673175096511841, 2.7602758407592773, 2.847376585006714, 2.9344773292541504, 3.021577835083008]}, "gradients/decoder.lstm_cell.bias_hh": {"_type": "histogram", "values": [1.0, 0.0, 0.0, 1.0, 0.0, 0.0, 0.0, 1.0, 0.0, 1.0, 0.0, 0.0, 0.0, 1.0, 1.0, 0.0, 0.0, 2.0, 0.0, 1.0, 0.0, 0.0, 3.0, 2.0, 1.0, 0.0, 0.0, 0.0, 3.0, 1.0, 5.0, 6.0, 34.0, 50.0, 1.0, 3.0, 0.0, 0.0, 0.0, 1.0, 0.0, 0.0, 1.0, 0.0, 1.0, 2.0, 0.0, 1.0, 0.0, 0.0, 0.0, 2.0, 0.0, 0.0, 1.0, 0.0, 0.0, 0.0, 0.0, 0.0, 0.0, 0.0, 0.0, 1.0], "bins": [-5.195842742919922, -5.0394368171691895, -4.883030414581299, -4.726624488830566, -4.570218563079834, -4.413812637329102, -4.257406234741211, -4.1010003089904785, -3.944594144821167, -3.7881879806518555, -3.631782054901123, -3.4753758907318115, -3.3189697265625, -3.1625638008117676, -3.006157636642456, -2.8497514724731445, -2.693345546722412, -2.5369393825531006, -2.380533456802368, -2.2241272926330566, -2.067721366882324, -1.9113152027130127, -1.7549090385437012, -1.5985029935836792, -1.4420969486236572, -1.2856909036636353, -1.1292848587036133, -0.9728786945343018, -0.8164726495742798, -0.6600666046142578, -0.5036605000495911, -0.3472543954849243, -0.19084787368774414, -0.03444179892539978, 0.12196427583694458, 0.27837035059928894, 0.4347764253616333, 0.5911824703216553, 0.747588574886322, 0.9039946794509888, 1.0604007244110107, 1.2168067693710327, 1.3732128143310547, 1.5296189785003662, 1.6860250234603882, 1.8424310684204102, 1.9988372325897217, 2.155243396759033, 2.3116493225097656, 2.468055486679077, 2.6244614124298096, 2.780867576599121, 2.9372735023498535, 3.093679666519165, 3.2500858306884766, 3.406491756439209, 3.5628979206085205, 3.719304084777832, 3.8757100105285645, 4.032115936279297, 4.1885223388671875, 4.34492826461792, 4.501334190368652, 4.657740592956543, 4.814146518707275]}, "gradients/decoder.lstm_cell.weight_hh": {"_type": "histogram", "values": [2.0, 1.0, 0.0, 1.0, 1.0, 0.0, 1.0, 0.0, 1.0, 1.0, 1.0, 1.0, 3.0, 3.0, 1.0, 4.0, 3.0, 7.0, 5.0, 3.0, 12.0, 15.0, 18.0, 11.0, 19.0, 34.0, 42.0, 48.0, 74.0, 92.0, 336.0, 2803.0, 197.0, 72.0, 63.0, 47.0, 44.0, 26.0, 25.0, 18.0, 13.0, 4.0, 14.0, 7.0, 7.0, 3.0, 2.0, 1.0, 1.0, 1.0, 3.0, 2.0, 1.0, 0.0, 0.0, 0.0, 0.0, 0.0, 0.0, 0.0, 0.0, 1.0, 0.0, 1.0], "bins": [-1.1951336860656738, -1.1570183038711548, -1.1189030408859253, -1.0807876586914062, -1.0426722764968872, -1.0045570135116577, -0.9664416313171387, -0.9283263087272644, -0.8902109861373901, -0.8520956635475159, -0.8139802813529968, -0.7758649587631226, -0.7377496361732483, -0.699634313583374, -0.661518931388855, -0.6234036087989807, -0.5852882266044617, -0.5471729040145874, -0.5090575218200684, -0.4709421992301941, -0.4328268766403198, -0.39471152424812317, -0.3565961718559265, -0.31848084926605225, -0.2803654670715332, -0.24225012958049774, -0.20413479208946228, -0.16601943969726562, -0.12790410220623016, -0.0897887647151947, -0.05167341232299805, -0.01355808973312378, 0.02455723285675049, 0.06267257034778595, 0.10078791528940201, 0.13890326023101807, 0.17701859772205353, 0.215133935213089, 0.25324928760528564, 0.2913646101951599, 0.3294799327850342, 0.36759528517723083, 0.4057106077671051, 0.44382596015930176, 0.481941282749176, 0.5200566053390503, 0.5581719875335693, 0.5962873101234436, 0.6344026923179626, 0.6725180149078369, 0.710633397102356, 0.7487487196922302, 0.7868640422821045, 0.8249794244766235, 0.8630947470664978, 0.9012100696563721, 0.9393254518508911, 0.9774407744407654, 1.0155560970306396, 1.0536714792251587, 1.0917868614196777, 1.1299021244049072, 1.1680175065994263, 1.2061328887939453, 1.2442481517791748]}, "gradients/decoder.lstm_cell.bias_ih": {"_type": "histogram", "values": [1.0, 0.0, 0.0, 1.0, 0.0, 0.0, 0.0, 1.0, 0.0, 1.0, 0.0, 0.0, 0.0, 1.0, 1.0, 0.0, 0.0, 2.0, 0.0, 1.0, 0.0, 0.0, 3.0, 2.0, 1.0, 0.0, 0.0, 0.0, 3.0, 1.0, 5.0, 6.0, 34.0, 50.0, 1.0, 3.0, 0.0, 0.0, 0.0, 1.0, 0.0, 0.0, 1.0, 0.0, 1.0, 2.0, 0.0, 1.0, 0.0, 0.0, 0.0, 2.0, 0.0, 0.0, 1.0, 0.0, 0.0, 0.0, 0.0, 0.0, 0.0, 0.0, 0.0, 1.0], "bins": [-5.195842742919922, -5.0394368171691895, -4.883030414581299, -4.726624488830566, -4.570218563079834, -4.413812637329102, -4.257406234741211, -4.1010003089904785, -3.944594144821167, -3.7881879806518555, -3.631782054901123, -3.4753758907318115, -3.3189697265625, -3.1625638008117676, -3.006157636642456, -2.8497514724731445, -2.693345546722412, -2.5369393825531006, -2.380533456802368, -2.2241272926330566, -2.067721366882324, -1.9113152027130127, -1.7549090385437012, -1.5985029935836792, -1.4420969486236572, -1.2856909036636353, -1.1292848587036133, -0.9728786945343018, -0.8164726495742798, -0.6600666046142578, -0.5036605000495911, -0.3472543954849243, -0.19084787368774414, -0.03444179892539978, 0.12196427583694458, 0.27837035059928894, 0.4347764253616333, 0.5911824703216553, 0.747588574886322, 0.9039946794509888, 1.0604007244110107, 1.2168067693710327, 1.3732128143310547, 1.5296189785003662, 1.6860250234603882, 1.8424310684204102, 1.9988372325897217, 2.155243396759033, 2.3116493225097656, 2.468055486679077, 2.6244614124298096, 2.780867576599121, 2.9372735023498535, 3.093679666519165, 3.2500858306884766, 3.406491756439209, 3.5628979206085205, 3.719304084777832, 3.8757100105285645, 4.032115936279297, 4.1885223388671875, 4.34492826461792, 4.501334190368652, 4.657740592956543, 4.814146518707275]}, "gradients/decoder.lstm_cell.weight_ih": {"_type": "histogram", "values": [1.0, 0.0, 0.0, 0.0, 1.0, 1.0, 0.0, 1.0, 0.0, 3.0, 0.0, 2.0, 3.0, 4.0, 3.0, 4.0, 5.0, 6.0, 2.0, 9.0, 8.0, 12.0, 14.0, 13.0, 18.0, 29.0, 54.0, 97.0, 1626.0, 159.0, 61.0, 29.0, 27.0, 21.0, 13.0, 12.0, 11.0, 9.0, 7.0, 10.0, 3.0, 4.0, 2.0, 5.0, 1.0, 2.0, 1.0, 2.0, 2.0, 0.0, 1.0, 1.0, 1.0, 1.0, 0.0, 0.0, 2.0, 0.0, 0.0, 0.0, 0.0, 0.0, 0.0, 1.0], "bins": [-1.0038049221038818, -0.968607485294342, -0.9334100484848022, -0.8982126712799072, -0.8630152344703674, -0.8278177976608276, -0.7926204204559326, -0.7574229836463928, -0.722225546836853, -0.6870281100273132, -0.6518306732177734, -0.6166332960128784, -0.5814358592033386, -0.5462384223937988, -0.5110410451889038, -0.475843608379364, -0.4406461715698242, -0.4054487347602844, -0.370251327753067, -0.3350539207458496, -0.2998564839363098, -0.26465904712677, -0.2294616401195526, -0.194264218211174, -0.1590667963027954, -0.12386937439441681, -0.08867195248603821, -0.05347453057765961, -0.018277108669281006, 0.016920313239097595, 0.052117735147476196, 0.0873151570558548, 0.12251269817352295, 0.15771012008190155, 0.19290754199028015, 0.22810496389865875, 0.26330238580703735, 0.29849982261657715, 0.33369722962379456, 0.36889463663101196, 0.40409207344055176, 0.43928951025009155, 0.47448691725730896, 0.5096843242645264, 0.5448817610740662, 0.580079197883606, 0.615276575088501, 0.6504740118980408, 0.6856714487075806, 0.7208688855171204, 0.7560663223266602, 0.7912636995315552, 0.826461136341095, 0.8616585731506348, 0.8968559503555298, 0.9320533871650696, 0.9672508239746094, 1.0024482011795044, 1.037645697593689, 1.072843074798584, 1.1080405712127686, 1.1432379484176636, 1.1784353256225586, 1.2136328220367432, 1.2488301992416382]}, "gradients/phi_z.nn_layers.2.bias": {"_type": "histogram", "values": [1.0, 0.0, 0.0, 0.0, 1.0, 0.0, 0.0, 0.0, 0.0, 0.0, 0.0, 0.0, 0.0, 0.0, 0.0, 1.0, 1.0, 1.0, 0.0, 0.0, 1.0, 0.0, 0.0, 0.0, 0.0, 0.0, 0.0, 1.0, 0.0, 0.0, 0.0, 0.0, 0.0, 1.0, 0.0, 0.0, 0.0, 1.0, 1.0, 0.0, 0.0, 1.0, 0.0, 1.0, 0.0, 1.0, 0.0, 0.0, 0.0, 0.0, 0.0, 0.0, 1.0, 0.0, 0.0, 0.0, 0.0, 0.0, 0.0, 1.0, 0.0, 0.0, 0.0, 1.0], "bins": [-3.3335585594177246, -3.2411303520202637, -3.1487021446228027, -3.056273937225342, -2.963845729827881, -2.87141752243042, -2.778989315032959, -2.686561107635498, -2.594132900238037, -2.501704692840576, -2.4092764854431152, -2.3168482780456543, -2.2244200706481934, -2.1319918632507324, -2.0395636558532715, -1.9471355676651, -1.8547074794769287, -1.7622792720794678, -1.6698510646820068, -1.577422857284546, -1.484994649887085, -1.392566442489624, -1.3001383543014526, -1.2077101469039917, -1.1152820587158203, -1.0228538513183594, -0.9304256439208984, -0.8379974961280823, -0.7455692887306213, -0.6531410813331604, -0.5607129335403442, -0.4682847261428833, -0.3758566379547119, -0.283428430557251, -0.19100025296211243, -0.09857207536697388, -0.0061438679695129395, 0.086284339427948, 0.17871248722076416, 0.2711406946182251, 0.3635690212249756, 0.4559972286224365, 0.5484254360198975, 0.6408535838127136, 0.7332817912101746, 0.8257099986076355, 0.9181381464004517, 1.0105663537979126, 1.102994441986084, 1.195422649383545, 1.2878508567810059, 1.3802790641784668, 1.4727072715759277, 1.5651354789733887, 1.65756356716156, 1.749991774559021, 1.842419981956482, 1.9348481893539429, 2.0272762775421143, 2.119704484939575, 2.212132692337036, 2.304560899734497, 2.396989107131958, 2.489417314529419, 2.58184552192688]}, "gradients/phi_z.nn_layers.2.weight": {"_type": "histogram", "values": [1.0, 0.0, 1.0, 1.0, 0.0, 0.0, 1.0, 1.0, 0.0, 0.0, 1.0, 0.0, 0.0, 2.0, 0.0, 3.0, 2.0, 2.0, 3.0, 3.0, 4.0, 3.0, 4.0, 4.0, 3.0, 6.0, 9.0, 6.0, 6.0, 9.0, 6.0, 10.0, 15.0, 18.0, 21.0, 26.0, 42.0, 22.0, 15.0, 13.0, 10.0, 6.0, 5.0, 7.0, 3.0, 4.0, 2.0, 2.0, 3.0, 3.0, 1.0, 1.0, 2.0, 2.0, 1.0, 0.0, 1.0, 1.0, 0.0, 0.0, 0.0, 2.0, 0.0, 1.0], "bins": [-1.081322193145752, -1.0511126518249512, -1.0209031105041504, -0.9906935691833496, -0.960483968257904, -0.9302744269371033, -0.9000648856163025, -0.8698553442955017, -0.8396457433700562, -0.8094362020492554, -0.7792266607284546, -0.7490171194076538, -0.7188075184822083, -0.6885979771614075, -0.6583884358406067, -0.6281788945198059, -0.5979693531990051, -0.5677598118782043, -0.5375502705574036, -0.507340669631958, -0.4771311283111572, -0.44692158699035645, -0.41671204566955566, -0.3865025043487549, -0.3562929630279541, -0.3260834217071533, -0.29587385058403015, -0.26566430926322937, -0.2354547530412674, -0.20524519681930542, -0.17503565549850464, -0.14482609927654266, -0.1146165132522583, -0.08440695703029633, -0.05419740825891495, -0.02398785948753357, 0.006221696734428406, 0.03643125295639038, 0.06664079427719116, 0.09685035049915314, 0.1270599365234375, 0.15726949274539948, 0.18747904896736145, 0.21768859028816223, 0.2478981465101242, 0.2781077027320862, 0.30831724405288696, 0.33852678537368774, 0.3687363266944885, 0.3989458680152893, 0.4291554391384125, 0.45936498045921326, 0.4895745515823364, 0.5197840929031372, 0.549993634223938, 0.5802031755447388, 0.6104127168655396, 0.6406222581863403, 0.6708317995071411, 0.7010413408279419, 0.7312509417533875, 0.7614604830741882, 0.791670024394989, 0.8218795657157898, 0.8520891666412354]}, "gradients/phi_z.nn_layers.1.bias": {"_type": "histogram", "values": [2.0, 0.0, 0.0, 0.0, 0.0, 1.0, 0.0, 0.0, 0.0, 0.0, 1.0, 0.0, 0.0, 1.0, 0.0, 0.0, 1.0, 0.0, 0.0, 0.0, 1.0, 1.0, 0.0, 0.0, 0.0, 0.0, 1.0, 0.0, 0.0, 0.0, 0.0, 0.0, 0.0, 1.0, 0.0, 0.0, 0.0, 0.0, 0.0, 1.0, 1.0, 0.0, 0.0, 1.0, 0.0, 1.0, 0.0, 0.0, 1.0, 1.0, 0.0, 0.0, 0.0, 0.0, 0.0, 0.0, 0.0, 0.0, 1.0, 1.0, 1.0, 0.0, 0.0, 1.0], "bins": [-1.3316385746002197, -1.303580403327942, -1.275522232055664, -1.2474640607833862, -1.2194058895111084, -1.191347599029541, -1.1632895469665527, -1.1352312564849854, -1.1071730852127075, -1.0791149139404297, -1.0510567426681519, -1.022998571395874, -0.9949403405189514, -0.9668821692466736, -0.9388239979743958, -0.9107658267021179, -0.8827076554298401, -0.8546494841575623, -0.8265913128852844, -0.7985330820083618, -0.770474910736084, -0.7424167394638062, -0.7143585681915283, -0.6863003969192505, -0.6582422256469727, -0.6301840543746948, -0.602125883102417, -0.5740677118301392, -0.5460094809532166, -0.5179513096809387, -0.4898931384086609, -0.46183496713638306, -0.43377673625946045, -0.4057185649871826, -0.3776603639125824, -0.34960219264030457, -0.32154399156570435, -0.2934858202934265, -0.2654276490211487, -0.23736946284770966, -0.20931124687194824, -0.18125306069850922, -0.1531948745250702, -0.12513670325279236, -0.09707851707935333, -0.0690203309059143, -0.040962159633636475, -0.012903973460197449, 0.01515418291091919, 0.04321236535906792, 0.07127054780721664, 0.09932872653007507, 0.1273869127035141, 0.15544509887695312, 0.18350327014923096, 0.21156145632266998, 0.239619642496109, 0.26767781376838684, 0.29573601484298706, 0.3237941861152649, 0.3518523573875427, 0.37991055846214294, 0.4079687297344208, 0.436026930809021, 0.46408510208129883]}, "gradients/phi_z.nn_layers.1.weight": {"_type": "histogram", "values": [2.0, 0.0, 0.0, 0.0, 0.0, 0.0, 1.0, 0.0, 0.0, 1.0, 2.0, 1.0, 0.0, 2.0, 2.0, 0.0, 1.0, 1.0, 0.0, 2.0, 0.0, 1.0, 3.0, 2.0, 3.0, 0.0, 2.0, 3.0, 2.0, 6.0, 4.0, 5.0, 3.0, 7.0, 4.0, 11.0, 8.0, 9.0, 8.0, 5.0, 6.0, 9.0, 8.0, 13.0, 25.0, 22.0, 29.0, 35.0, 78.0, 24.0, 4.0, 8.0, 5.0, 8.0, 5.0, 6.0, 2.0, 3.0, 2.0, 2.0, 2.0, 2.0, 0.0, 1.0], "bins": [-0.9938746094703674, -0.9732364416122437, -0.9525983333587646, -0.9319601655006409, -0.9113219976425171, -0.8906838297843933, -0.8700456619262695, -0.8494075536727905, -0.8287693858146667, -0.808131217956543, -0.787493109703064, -0.7668549418449402, -0.7462167739868164, -0.7255786061286926, -0.7049404382705688, -0.6843023300170898, -0.6636641621589661, -0.6430259943008423, -0.6223878860473633, -0.6017497181892395, -0.5811115503311157, -0.5604733824729919, -0.5398352146148682, -0.5191971063613892, -0.4985589385032654, -0.4779207706451416, -0.4572826325893402, -0.4366444945335388, -0.41600632667541504, -0.39536815881729126, -0.37473002076148987, -0.3540918827056885, -0.3334536552429199, -0.31281548738479614, -0.29217734932899475, -0.27153921127319336, -0.2509010434150696, -0.230262890458107, -0.2096247375011444, -0.18898658454418182, -0.16834843158721924, -0.14771027863025665, -0.12707212567329407, -0.10643397271633148, -0.0857958197593689, -0.06515766680240631, -0.044519513845443726, -0.02388136088848114, -0.0032432079315185547, 0.01739494502544403, 0.038033097982406616, 0.0586712509393692, 0.07930940389633179, 0.09994755685329437, 0.12058570981025696, 0.14122386276721954, 0.16186201572418213, 0.18250016868114471, 0.2031383216381073, 0.22377647459506989, 0.24441462755203247, 0.26505279541015625, 0.28569093346595764, 0.30632907152175903, 0.3269672393798828]}, "gradients/phi_z.nn_layers.0.bias": {"_type": "histogram", "values": [1.0, 0.0, 0.0, 0.0, 0.0, 0.0, 0.0, 1.0, 0.0, 0.0, 0.0, 1.0, 0.0, 0.0, 0.0, 0.0, 0.0, 0.0, 0.0, 0.0, 0.0, 0.0, 1.0, 0.0, 0.0, 0.0, 0.0, 1.0, 0.0, 0.0, 1.0, 0.0, 0.0, 0.0, 0.0, 0.0, 0.0, 1.0, 0.0, 0.0, 0.0, 1.0, 0.0, 1.0, 1.0, 2.0, 1.0, 3.0, 0.0, 0.0, 0.0, 2.0, 0.0, 0.0, 1.0, 0.0, 0.0, 0.0, 0.0, 0.0, 0.0, 0.0, 0.0, 1.0], "bins": [-0.7463901042938232, -0.7318461537361145, -0.7173022031784058, -0.7027581930160522, -0.6882142424583435, -0.6736702919006348, -0.659126341342926, -0.6445823907852173, -0.6300383806228638, -0.615494430065155, -0.6009504795074463, -0.5864064693450928, -0.571862518787384, -0.5573185682296753, -0.5427746176719666, -0.5282306671142578, -0.5136867165565491, -0.49914276599884033, -0.4845987856388092, -0.47005483508110046, -0.45551085472106934, -0.4409669041633606, -0.42642295360565186, -0.4118789732456207, -0.3973349928855896, -0.38279104232788086, -0.36824706196784973, -0.353703111410141, -0.33915913105010986, -0.3246151804924011, -0.3100712299346924, -0.29552724957466125, -0.2809832692146301, -0.2664393186569214, -0.25189533829689026, -0.23735138773918152, -0.22280742228031158, -0.20826345682144165, -0.19371949136257172, -0.17917552590370178, -0.16463159024715424, -0.1500876247882843, -0.13554365932941437, -0.12099970132112503, -0.1064557433128357, -0.09191177785396576, -0.07736781239509583, -0.06282385438680649, -0.04827988147735596, -0.03373591974377632, -0.019191956147551537, -0.004647992551326752, 0.009895969182252884, 0.02443993091583252, 0.038983896374702454, 0.05352785438299179, 0.06807181984186172, 0.08261578530073166, 0.097159743309021, 0.11170370876789093, 0.12624767422676086, 0.1407916247844696, 0.15533560514450073, 0.16987955570220947, 0.1844235211610794]}, "gradients/phi_z.nn_layers.0.weight": {"_type": "histogram", "values": [1.0, 0.0, 0.0, 0.0, 0.0, 0.0, 0.0, 0.0, 0.0, 1.0, 0.0, 0.0, 0.0, 0.0, 0.0, 0.0, 1.0, 1.0, 1.0, 0.0, 2.0, 0.0, 0.0, 1.0, 4.0, 2.0, 0.0, 2.0, 5.0, 3.0, 2.0, 0.0, 7.0, 1.0, 1.0, 4.0, 2.0, 4.0, 5.0, 5.0, 8.0, 7.0, 11.0, 8.0, 13.0, 16.0, 15.0, 25.0, 20.0, 27.0, 41.0, 33.0, 14.0, 9.0, 5.0, 3.0, 3.0, 1.0, 1.0, 1.0, 2.0, 0.0, 1.0, 1.0], "bins": [-0.9480043649673462, -0.929482102394104, -0.9109598398208618, -0.8924375772476196, -0.8739153146743774, -0.8553930521011353, -0.8368707895278931, -0.8183485269546509, -0.7998262643814087, -0.7813040018081665, -0.7627817392349243, -0.7442594766616821, -0.7257372140884399, -0.7072149515151978, -0.6886926889419556, -0.6701704263687134, -0.6516481041908264, -0.6331258416175842, -0.614603579044342, -0.5960813164710999, -0.5775590538978577, -0.5590367913246155, -0.5405145287513733, -0.5219922065734863, -0.5034699440002441, -0.48494768142700195, -0.46642541885375977, -0.4479031562805176, -0.4293808937072754, -0.4108586311340332, -0.39233633875846863, -0.37381407618522644, -0.35529184341430664, -0.33676958084106445, -0.31824731826782227, -0.2997250556945801, -0.2812027931213379, -0.2626805305480957, -0.24415823817253113, -0.22563597559928894, -0.20711372792720795, -0.18859146535396576, -0.17006918787956238, -0.1515469253063202, -0.133024662733078, -0.11450240015983582, -0.09598013013601303, -0.07745786011219025, -0.05893559753894806, -0.04041333124041557, -0.021891064941883087, -0.003368798643350601, 0.015153467655181885, 0.03367573022842407, 0.05219800025224686, 0.07072027027606964, 0.08924253284931183, 0.10776479542255402, 0.1262870728969574, 0.14480933547019958, 0.16333159804344177, 0.18185386061668396, 0.20037612318992615, 0.21889840066432953, 0.23742066323757172]}, "gradients/c_means": {"_type": "histogram", "values": [2.0, 0.0, 0.0, 1.0, 0.0, 1.0, 3.0, 1.0, 4.0, 4.0, 2.0, 3.0, 2.0, 6.0, 3.0, 5.0, 9.0, 5.0, 8.0, 5.0, 7.0, 2.0, 8.0, 12.0, 5.0, 6.0, 5.0, 3.0, 2.0, 5.0, 4.0, 6.0, 2.0, 4.0, 3.0, 0.0, 0.0, 2.0, 0.0, 0.0, 0.0, 0.0, 0.0, 0.0, 3.0, 1.0, 3.0, 0.0, 3.0, 3.0, 1.0, 1.0, 0.0, 1.0, 1.0, 0.0, 0.0, 1.0, 0.0, 0.0, 0.0, 1.0, 0.0, 1.0], "bins": [-0.051568418741226196, -0.049624066799879074, -0.04767971858382225, -0.04573536664247513, -0.043791018426418304, -0.04184666648507118, -0.03990231454372406, -0.037957966327667236, -0.036013614386320114, -0.03406926244497299, -0.03212491422891617, -0.030180562287569046, -0.028236212208867073, -0.0262918621301651, -0.024347510188817978, -0.022403160110116005, -0.020458810031414032, -0.01851445995271206, -0.016570109874010086, -0.014625757932662964, -0.012681407853960991, -0.010737057775259018, -0.00879270676523447, -0.006848355755209923, -0.00490400567650795, -0.0029596551321446896, -0.0010153045877814293, 0.000929045956581831, 0.0028733965009450912, 0.004817746579647064, 0.006762097589671612, 0.00870644859969616, 0.010650798678398132, 0.012595148757100105, 0.014539499767124653, 0.0164838507771492, 0.018428200855851173, 0.020372550934553146, 0.02231690287590027, 0.02426125295460224, 0.026205603033304214, 0.028149953112006187, 0.03009430319070816, 0.03203865513205528, 0.033983007073402405, 0.03592735528945923, 0.03787170723080635, 0.03981605917215347, 0.0417604073882103, 0.04370475932955742, 0.04564910754561424, 0.047593459486961365, 0.04953780770301819, 0.05148215964436531, 0.05342651158571243, 0.05537085980176926, 0.05731521174311638, 0.0592595636844635, 0.061203911900520325, 0.06314826011657715, 0.06509261578321457, 0.06703696399927139, 0.06898131221532822, 0.07092566788196564, 0.07287001609802246]}, "gradients/log_c_vars": {"_type": "histogram", "values": [1.0, 0.0, 0.0, 0.0, 0.0, 0.0, 0.0, 0.0, 0.0, 1.0, 0.0, 0.0, 1.0, 0.0, 0.0, 0.0, 0.0, 0.0, 0.0, 0.0, 0.0, 0.0, 0.0, 0.0, 0.0, 1.0, 0.0, 0.0, 0.0, 0.0, 0.0, 0.0, 0.0, 0.0, 0.0, 1.0, 0.0, 0.0, 0.0, 0.0, 0.0, 0.0, 0.0, 0.0, 1.0, 0.0, 0.0, 0.0, 0.0, 0.0, 0.0, 1.0, 0.0, 0.0, 0.0, 2.0, 0.0, 0.0, 0.0, 0.0, 0.0, 0.0, 0.0, 1.0], "bins": [-0.12446123361587524, -0.12275198847055435, -0.12104273587465286, -0.11933349072933197, -0.11762423813343048, -0.11591499298810959, -0.1142057403922081, -0.11249649524688721, -0.11078724265098572, -0.10907799750566483, -0.10736874490976334, -0.10565949976444244, -0.10395024716854095, -0.10224100202322006, -0.10053174942731857, -0.09882250428199768, -0.09711325913667679, -0.0954040139913559, -0.0936947613954544, -0.09198551625013351, -0.09027626365423203, -0.08856701850891113, -0.08685776591300964, -0.08514852076768875, -0.08343926817178726, -0.08173002302646637, -0.08002077043056488, -0.07831152528524399, -0.0766022726893425, -0.0748930275440216, -0.07318377494812012, -0.07147452980279922, -0.06976527720689774, -0.06805603206157684, -0.06634677946567535, -0.06463753432035446, -0.06292828172445297, -0.06121903657913208, -0.05950978398323059, -0.0578005388379097, -0.056091293692588806, -0.054382044821977615, -0.052672795951366425, -0.050963547080755234, -0.04925429821014404, -0.04754505306482315, -0.04583580046892166, -0.04412655532360077, -0.04241730272769928, -0.04070805385708809, -0.0389988049864769, -0.03728955611586571, -0.03558030724525452, -0.033871062099933624, -0.032161809504032135, -0.030452564358711243, -0.028743315488100052, -0.02703406661748886, -0.02532481774687767, -0.02361556887626648, -0.021906321868300438, -0.020197072997689247, -0.018487824127078056, -0.016778577119112015, -0.015069326385855675]}, "_runtime": 4.667164087295532, "_step": 2, "train/epoch": 2, "train/loss": 1338.6663513183594, "train/loglik": -451.5889892578125, "train/kldiv": 2.159512519836426, "train/out_l": 22.57908821105957, "_wandb": {"runtime": 4}}