{"gradients/predictor.nn_layers.2.bias": {"_type": "histogram", "values": [1.0, 0.0, 0.0, 0.0, 0.0, 0.0, 0.0, 0.0, 0.0, 0.0, 0.0, 0.0, 0.0, 0.0, 0.0, 0.0, 0.0, 0.0, 0.0, 0.0, 0.0, 0.0, 0.0, 1.0, 0.0, 0.0, 0.0, 0.0, 0.0, 0.0, 0.0, 0.0, 0.0, 0.0, 0.0, 0.0, 0.0, 0.0, 0.0, 0.0, 0.0, 0.0, 0.0, 0.0, 0.0, 0.0, 0.0, 0.0, 0.0, 0.0, 0.0, 0.0, 1.0, 0.0, 0.0, 0.0, 0.0, 0.0, 0.0, 0.0, 0.0, 0.0, 0.0, 1.0], "bins": [-0.5916932821273804, -0.574702799320221, -0.5577123165130615, -0.5407218337059021, -0.5237313508987427, -0.5067408680915833, -0.48975038528442383, -0.4727599024772644, -0.455769419670105, -0.43877893686294556, -0.42178845405578613, -0.4047979712486267, -0.3878074884414673, -0.37081700563430786, -0.35382652282714844, -0.336836040019989, -0.3198455572128296, -0.30285507440567017, -0.28586459159851074, -0.2688741087913513, -0.2518836259841919, -0.23489314317703247, -0.21790266036987305, -0.20091217756271362, -0.1839216947555542, -0.16693121194839478, -0.14994072914123535, -0.13295024633407593, -0.1159597635269165, -0.09896928071975708, -0.08197879791259766, -0.06498831510543823, -0.04799783229827881, -0.031007349491119385, -0.014016866683959961, 0.002973616123199463, 0.019964098930358887, 0.03695458173751831, 0.053945064544677734, 0.07093554735183716, 0.08792603015899658, 0.104916512966156, 0.12190699577331543, 0.13889747858047485, 0.15588796138763428, 0.1728784441947937, 0.18986892700195312, 0.20685940980911255, 0.22384989261627197, 0.2408403754234314, 0.2578308582305908, 0.27482134103775024, 0.29181182384490967, 0.3088023066520691, 0.3257927894592285, 0.34278327226638794, 0.35977375507354736, 0.3767642378807068, 0.3937547206878662, 0.41074520349502563, 0.42773568630218506, 0.4447261691093445, 0.4617166519165039, 0.47870713472366333, 0.49569761753082275]}, "_timestamp": 1686707793.2043147, "gradients/predictor.nn_layers.2.weight": {"_type": "histogram", "values": [1.0, 0.0, 0.0, 0.0, 0.0, 0.0, 0.0, 0.0, 0.0, 0.0, 1.0, 0.0, 1.0, 0.0, 2.0, 0.0, 1.0, 0.0, 1.0, 1.0, 1.0, 1.0, 1.0, 0.0, 0.0, 1.0, 3.0, 4.0, 2.0, 3.0, 0.0, 2.0, 2.0, 0.0, 23.0, 1.0, 0.0, 1.0, 2.0, 1.0, 1.0, 4.0, 2.0, 1.0, 2.0, 2.0, 1.0, 3.0, 1.0, 1.0, 0.0, 1.0, 2.0, 0.0, 1.0, 1.0, 0.0, 0.0, 0.0, 0.0, 0.0, 0.0, 0.0, 1.0], "bins": [-1.4572144746780396, -1.4152437448501587, -1.3732731342315674, -1.3313024044036865, -1.2893316745758057, -1.2473610639572144, -1.2053903341293335, -1.1634197235107422, -1.1214489936828613, -1.0794782638549805, -1.0375076532363892, -0.9955369234085083, -0.9535662531852722, -0.9115955829620361, -0.8696248531341553, -0.8276541829109192, -0.7856834530830383, -0.7437127828598022, -0.7017420530319214, -0.6597713828086853, -0.6178007125854492, -0.5758299827575684, -0.5338593125343323, -0.4918886423110962, -0.44991791248321533, -0.40794721245765686, -0.3659765422344208, -0.3240058422088623, -0.2820351719856262, -0.24006447196006775, -0.19809377193450928, -0.1561231017112732, -0.11415243148803711, -0.07218174636363983, -0.030211053788661957, 0.011759638786315918, 0.053730323910713196, 0.09570100903511047, 0.13767170906066895, 0.17964237928390503, 0.2216130495071411, 0.2635837495326996, 0.30555441975593567, 0.34752511978149414, 0.3894957900047302, 0.4314664900302887, 0.47343719005584717, 0.5154078602790833, 0.5573785901069641, 0.5993492603302002, 0.641319990158081, 0.6832906603813171, 0.7252613306045532, 0.7672320604324341, 0.8092027306556702, 0.8511734008789062, 0.8931441307067871, 0.9351148009300232, 0.977085530757904, 1.0190562009811401, 1.061026930809021, 1.1029975414276123, 1.1449682712554932, 1.186939001083374, 1.2289096117019653]}, "gradients/predictor.nn_layers.1.bias": {"_type": "histogram", "values": [1.0, 1.0, 0.0, 0.0, 0.0, 0.0, 0.0, 0.0, 0.0, 1.0, 1.0, 0.0, 0.0, 0.0, 0.0, 1.0, 0.0, 0.0, 0.0, 0.0, 0.0, 0.0, 0.0, 1.0, 1.0, 0.0, 1.0, 0.0, 0.0, 0.0, 0.0, 0.0, 1.0, 1.0, 1.0, 0.0, 0.0, 0.0, 0.0, 0.0, 1.0, 0.0, 2.0, 0.0, 0.0, 0.0, 0.0, 0.0, 0.0, 0.0, 0.0, 0.0, 0.0, 0.0, 0.0, 0.0, 0.0, 0.0, 0.0, 0.0, 0.0, 0.0, 0.0, 6.0], "bins": [-0.3247312307357788, -0.3196572959423065, -0.3145833909511566, -0.3095094561576843, -0.30443552136421204, -0.29936161637306213, -0.29428768157958984, -0.28921374678611755, -0.28413981199264526, -0.279065877199173, -0.27399197220802307, -0.2689180374145508, -0.2638441026210785, -0.2587701976299286, -0.2536962628364563, -0.248622328042984, -0.2435484230518341, -0.238474503159523, -0.23340056836605072, -0.22832664847373962, -0.22325271368026733, -0.21817879378795624, -0.21310487389564514, -0.20803093910217285, -0.20295701920986176, -0.19788309931755066, -0.19280916452407837, -0.18773524463176727, -0.18266132473945618, -0.1775873899459839, -0.1725134700536728, -0.1674395501613617, -0.1623656153678894, -0.1572916954755783, -0.15221776068210602, -0.14714384078979492, -0.14206990599632263, -0.13699598610401154, -0.13192206621170044, -0.12684813141822815, -0.12177421152591705, -0.11670028418302536, -0.11162635684013367, -0.10655243694782257, -0.10147850960493088, -0.09640458226203918, -0.09133066236972809, -0.0862567350268364, -0.0811828076839447, -0.07610888034105301, -0.07103495299816132, -0.06596103310585022, -0.06088710576295853, -0.055813178420066833, -0.05073925480246544, -0.045665331184864044, -0.04059140384197235, -0.03551747649908066, -0.030443552881479263, -0.02536962740123272, -0.020295701920986176, -0.015221776440739632, -0.010147850960493088, -0.005073927342891693, 0.0]}, "gradients/predictor.nn_layers.1.weight": {"_type": "histogram", "values": [2.0, 0.0, 0.0, 0.0, 0.0, 0.0, 2.0, 0.0, 0.0, 1.0, 0.0, 0.0, 2.0, 1.0, 2.0, 1.0, 0.0, 1.0, 2.0, 0.0, 0.0, 2.0, 3.0, 3.0, 1.0, 1.0, 3.0, 3.0, 2.0, 5.0, 3.0, 4.0, 3.0, 4.0, 4.0, 4.0, 5.0, 3.0, 6.0, 2.0, 6.0, 4.0, 6.0, 6.0, 7.0, 6.0, 6.0, 6.0, 9.0, 5.0, 5.0, 8.0, 4.0, 10.0, 3.0, 6.0, 5.0, 5.0, 7.0, 9.0, 6.0, 9.0, 23.0, 164.0], "bins": [-0.5117774605751038, -0.5037603974342346, -0.4957433342933655, -0.48772624135017395, -0.4797091782093048, -0.47169211506843567, -0.46367502212524414, -0.455657958984375, -0.44764089584350586, -0.4396238327026367, -0.4316067695617676, -0.42358967661857605, -0.4155726134777069, -0.40755555033683777, -0.39953845739364624, -0.3915213942527771, -0.38350433111190796, -0.3754872679710388, -0.3674702048301697, -0.35945311188697815, -0.351436048746109, -0.34341898560523987, -0.33540189266204834, -0.3273848295211792, -0.31936776638031006, -0.3113507032394409, -0.3033336400985718, -0.29531654715538025, -0.2872994840145111, -0.27928242087364197, -0.27126532793045044, -0.2632482647895813, -0.25523123145103455, -0.2472141683101654, -0.23919709026813507, -0.23118001222610474, -0.2231629490852356, -0.21514588594436646, -0.20712880790233612, -0.1991117298603058, -0.19109466671943665, -0.1830776035785675, -0.17506052553653717, -0.16704344749450684, -0.1590263843536377, -0.15100932121276855, -0.14299224317073822, -0.13497516512870789, -0.12695810198783875, -0.11894103139638901, -0.11092396080493927, -0.10290689021348953, -0.0948898196220398, -0.08687274903059006, -0.07885567843914032, -0.07083860784769058, -0.06282153725624084, -0.05480446666479111, -0.04678739607334137, -0.03877032548189163, -0.030753254890441895, -0.022736184298992157, -0.01471911370754242, -0.006702043116092682, 0.0013150277081876993]}, "gradients/predictor.nn_layers.0.bias": {"_type": "histogram", "values": [1.0, 0.0, 0.0, 0.0, 0.0, 0.0, 0.0, 0.0, 0.0, 0.0, 0.0, 0.0, 0.0, 0.0, 0.0, 0.0, 0.0, 0.0, 0.0, 0.0, 1.0, 0.0, 0.0, 0.0, 0.0, 0.0, 2.0, 0.0, 0.0, 0.0, 0.0, 0.0, 1.0, 1.0, 0.0, 2.0, 0.0, 0.0, 1.0, 0.0, 0.0, 0.0, 0.0, 0.0, 0.0, 0.0, 1.0, 0.0, 0.0, 1.0, 0.0, 0.0, 0.0, 0.0, 2.0, 1.0, 0.0, 0.0, 0.0, 1.0, 1.0, 0.0, 2.0, 2.0], "bins": [-0.5192566514015198, -0.5111374258995056, -0.5030182003974915, -0.4948989748954773, -0.48677974939346313, -0.47866055369377136, -0.4705413281917572, -0.46242210268974304, -0.4543028771877289, -0.4461836516857147, -0.43806442618370056, -0.4299452006816864, -0.42182600498199463, -0.41370677947998047, -0.4055875539779663, -0.39746832847595215, -0.389349102973938, -0.38122987747192383, -0.37311065196990967, -0.3649914264678955, -0.35687220096588135, -0.3487530052661896, -0.3406337797641754, -0.33251455426216125, -0.3243953287601471, -0.31627610325813293, -0.3081568777561188, -0.3000376522541046, -0.29191845655441284, -0.2837992310523987, -0.2756800055503845, -0.26756078004837036, -0.2594415545463562, -0.25132232904434204, -0.24320310354232788, -0.23508389294147491, -0.22696466743946075, -0.2188454419374466, -0.21072623133659363, -0.20260700583457947, -0.1944877654314041, -0.18636853992938995, -0.178249329328537, -0.17013010382652283, -0.16201087832450867, -0.1538916528224945, -0.14577242732048035, -0.13765321671962738, -0.12953399121761322, -0.12141476571559906, -0.1132955476641655, -0.10517632961273193, -0.09705710411071777, -0.08893787860870361, -0.08081866055727005, -0.07269944250583649, -0.06458021700382233, -0.056460995227098465, -0.0483417734503746, -0.04022255167365074, -0.03210332989692688, -0.023984108120203018, -0.015864886343479156, -0.007745664566755295, 0.0003735553764272481]}, "gradients/predictor.nn_layers.0.weight": {"_type": "histogram", "values": [1.0, 0.0, 0.0, 0.0, 0.0, 0.0, 0.0, 0.0, 0.0, 0.0, 1.0, 0.0, 0.0, 0.0, 0.0, 0.0, 0.0, 1.0, 0.0, 1.0, 0.0, 1.0, 0.0, 1.0, 0.0, 3.0, 0.0, 1.0, 2.0, 2.0, 3.0, 1.0, 1.0, 4.0, 0.0, 6.0, 2.0, 9.0, 3.0, 7.0, 2.0, 5.0, 6.0, 10.0, 6.0, 6.0, 10.0, 15.0, 9.0, 12.0, 17.0, 27.0, 21.0, 29.0, 70.0, 12.0, 3.0, 2.0, 4.0, 2.0, 1.0, 0.0, 0.0, 1.0], "bins": [-0.8490095734596252, -0.833476722240448, -0.8179438710212708, -0.8024110198020935, -0.7868781685829163, -0.7713453769683838, -0.7558125257492065, -0.7402796745300293, -0.724746823310852, -0.7092139720916748, -0.6936811208724976, -0.6781482696533203, -0.6626154184341431, -0.6470825672149658, -0.6315497159957886, -0.6160169243812561, -0.6004840135574341, -0.5849511623382568, -0.5694183111190796, -0.5538854598999023, -0.5383526086807251, -0.5228197574615479, -0.5072869062423706, -0.49175408482551575, -0.4762212634086609, -0.46068841218948364, -0.4451555609703064, -0.42962270975112915, -0.4140898883342743, -0.39855703711509705, -0.3830241858959198, -0.36749133467674255, -0.3519584834575653, -0.33642563223838806, -0.3208927810192108, -0.30535995960235596, -0.2898271083831787, -0.27429425716400146, -0.2587614059448242, -0.24322855472564697, -0.22769573330879211, -0.21216288208961487, -0.19663004577159882, -0.18109719455242157, -0.16556435823440552, -0.15003150701522827, -0.13449865579605103, -0.11896581202745438, -0.10343295335769653, -0.08790010958909988, -0.07236726582050323, -0.05683441460132599, -0.04130157083272934, -0.02576872706413269, -0.010235875844955444, 0.005296967923641205, 0.020829811692237854, 0.0363626554608345, 0.05189550295472145, 0.0674283504486084, 0.08296119421720505, 0.0984940379858017, 0.11402688920497894, 0.129559725522995, 0.14509257674217224]}, "gradients/cell_update.nn_layers.2.bias": {"_type": "histogram", "values": [1.0, 0.0, 0.0, 0.0, 0.0, 1.0, 0.0, 0.0, 0.0, 0.0, 0.0, 1.0, 1.0, 0.0, 1.0, 7.0, 2.0, 1.0, 0.0, 0.0, 0.0, 0.0, 0.0, 0.0, 0.0, 0.0, 0.0, 0.0, 0.0, 0.0, 0.0, 0.0, 0.0, 0.0, 0.0, 0.0, 0.0, 0.0, 0.0, 0.0, 0.0, 0.0, 0.0, 0.0, 0.0, 0.0, 0.0, 0.0, 0.0, 0.0, 0.0, 0.0, 0.0, 0.0, 0.0, 0.0, 0.0, 0.0, 0.0, 0.0, 0.0, 0.0, 0.0, 1.0], "bins": [-2.8526599407196045, -2.6713688373565674, -2.490077495574951, -2.308786392211914, -2.127495050430298, -1.9462039470672607, -1.764912724494934, -1.5836215019226074, -1.4023302793502808, -1.221039056777954, -1.0397478342056274, -0.8584566712379456, -0.6771654486656189, -0.49587422609329224, -0.31458306312561035, -0.1332918405532837, 0.04799938201904297, 0.22929058969020844, 0.4105817973613739, 0.5918729901313782, 0.7731642127037048, 0.9544554352760315, 1.1357465982437134, 1.31703782081604, 1.4983289241790771, 1.6796201467514038, 1.8609113693237305, 2.0422024726867676, 2.223493814468384, 2.404784917831421, 2.586076259613037, 2.767367362976074, 2.9486584663391113, 3.1299495697021484, 3.3112409114837646, 3.4925320148468018, 3.673823356628418, 3.855114459991455, 4.036405563354492, 4.2176971435546875, 4.398988246917725, 4.580279350280762, 4.761570453643799, 4.942862033843994, 5.124153137207031, 5.305444240570068, 5.4867353439331055, 5.668026924133301, 5.84931755065918, 6.030608654022217, 6.211899757385254, 6.393191337585449, 6.574482440948486, 6.755773544311523, 6.9370646476745605, 7.118355751037598, 7.299647331237793, 7.48093843460083, 7.662229537963867, 7.8435211181640625, 8.024811744689941, 8.206103324890137, 8.387394905090332, 8.568685531616211, 8.749977111816406]}, "gradients/cell_update.nn_layers.2.weight": {"_type": "histogram", "values": [1.0, 0.0, 0.0, 0.0, 1.0, 1.0, 2.0, 0.0, 0.0, 3.0, 2.0, 4.0, 4.0, 6.0, 10.0, 260.0, 16.0, 1.0, 1.0, 0.0, 0.0, 0.0, 0.0, 0.0, 0.0, 0.0, 0.0, 1.0, 1.0, 0.0, 0.0, 0.0, 1.0, 0.0, 1.0, 0.0, 0.0, 0.0, 0.0, 0.0, 0.0, 0.0, 0.0, 0.0, 1.0, 0.0, 0.0, 1.0, 1.0, 0.0, 0.0, 0.0, 0.0, 0.0, 0.0, 0.0, 0.0, 0.0, 0.0, 0.0, 0.0, 0.0, 0.0, 1.0], "bins": [-22.438621520996094, -21.006553649902344, -19.574485778808594, -18.142417907714844, -16.710350036621094, -15.278282165527344, -13.84621524810791, -12.41414737701416, -10.98207950592041, -9.55001163482666, -8.11794376373291, -6.685876369476318, -5.253808498382568, -3.8217406272888184, -2.3896732330322266, -0.9576053619384766, 0.47446250915527344, 1.9065302610397339, 3.3385980129241943, 4.770665645599365, 6.202733516693115, 7.634801387786865, 9.066868782043457, 10.498936653137207, 11.93100357055664, 13.36307144165039, 14.79513931274414, 16.22720718383789, 17.65927505493164, 19.09134292602539, 20.52341079711914, 21.95547866821289, 23.38754653930664, 24.81961441040039, 26.25168228149414, 27.68375015258789, 29.11581802368164, 30.54788589477539, 31.97995376586914, 33.41202163696289, 34.84408950805664, 36.27615737915039, 37.70822525024414, 39.14029312133789, 40.57236099243164, 42.00442886352539, 43.43649673461914, 44.86856460571289, 46.300628662109375, 47.732696533203125, 49.164764404296875, 50.596832275390625, 52.028900146484375, 53.460968017578125, 54.893035888671875, 56.325103759765625, 57.757171630859375, 59.189239501953125, 60.621307373046875, 62.053375244140625, 63.485443115234375, 64.91751098632812, 66.34957885742188, 67.78164672851562, 69.21371459960938]}, "gradients/cell_update.nn_layers.1.bias": {"_type": "histogram", "values": [1.0, 0.0, 0.0, 0.0, 0.0, 0.0, 0.0, 0.0, 0.0, 0.0, 0.0, 0.0, 0.0, 0.0, 0.0, 0.0, 0.0, 1.0, 0.0, 0.0, 1.0, 0.0, 0.0, 0.0, 0.0, 0.0, 0.0, 0.0, 0.0, 0.0, 0.0, 0.0, 0.0, 0.0, 0.0, 1.0, 0.0, 0.0, 0.0, 0.0, 0.0, 0.0, 0.0, 0.0, 0.0, 1.0, 1.0, 0.0, 0.0, 0.0, 1.0, 0.0, 0.0, 0.0, 11.0, 0.0, 0.0, 0.0, 0.0, 0.0, 0.0, 0.0, 0.0, 2.0], "bins": [-1.5957622528076172, -1.5663740634918213, -1.536985993385315, -1.507597804069519, -1.4782097339630127, -1.4488215446472168, -1.4194334745407104, -1.3900452852249146, -1.3606572151184082, -1.3312690258026123, -1.301880955696106, -1.27249276638031, -1.2431046962738037, -1.2137165069580078, -1.1843284368515015, -1.1549402475357056, -1.1255520582199097, -1.0961638689041138, -1.0667757987976074, -1.0373876094818115, -1.0079995393753052, -0.9786113500595093, -0.9492232799530029, -0.919835090637207, -0.8904470205307007, -0.8610588908195496, -0.8316707611083984, -0.8022826313972473, -0.7728945016860962, -0.7435063123703003, -0.714118242263794, -0.684730052947998, -0.6553419232368469, -0.6259537935256958, -0.5965656638145447, -0.5671775341033936, -0.5377894043922424, -0.5084012746810913, -0.4790131151676178, -0.4496249556541443, -0.42023682594299316, -0.39084869623184204, -0.3614605665206909, -0.3320724368095398, -0.3026842772960663, -0.27329614758491516, -0.24390801787376404, -0.21451987326145172, -0.1851317584514618, -0.15574362874031067, -0.12635548412799835, -0.09696735441684723, -0.06757921725511551, -0.03819108009338379, -0.008802950382232666, 0.02058519423007965, 0.049973323941230774, 0.0793614611029625, 0.10874959826469421, 0.13813772797584534, 0.16752585768699646, 0.19691400229930878, 0.2263021320104599, 0.2556902766227722, 0.28507840633392334]}, "gradients/cell_update.nn_layers.1.weight": {"_type": "histogram", "values": [1.0, 0.0, 0.0, 0.0, 2.0, 1.0, 0.0, 1.0, 0.0, 0.0, 1.0, 1.0, 0.0, 0.0, 1.0, 0.0, 1.0, 2.0, 0.0, 0.0, 4.0, 1.0, 1.0, 0.0, 4.0, 3.0, 1.0, 1.0, 2.0, 2.0, 1.0, 2.0, 0.0, 1.0, 1.0, 1.0, 1.0, 3.0, 1.0, 2.0, 2.0, 1.0, 1.0, 0.0, 1.0, 3.0, 8.0, 6.0, 6.0, 1.0, 3.0, 9.0, 0.0, 292.0, 0.0, 0.0, 0.0, 0.0, 2.0, 3.0, 4.0, 5.0, 5.0, 5.0], "bins": [-6.1551713943481445, -6.040160179138184, -5.925148963928223, -5.810137748718262, -5.695126533508301, -5.580114841461182, -5.465103626251221, -5.35009241104126, -5.235081195831299, -5.120069980621338, -5.005058765411377, -4.890047550201416, -4.775035858154297, -4.660024642944336, -4.545013427734375, -4.430002212524414, -4.314990997314453, -4.199979782104492, -4.084968566894531, -3.969957113265991, -3.8549458980560303, -3.7399346828460693, -3.6249232292175293, -3.5099120140075684, -3.3949007987976074, -3.2798895835876465, -3.1648783683776855, -3.0498669147491455, -2.9348556995391846, -2.8198444843292236, -2.7048330307006836, -2.5898218154907227, -2.4748103618621826, -2.3597991466522217, -2.2447876930236816, -2.1297764778137207, -2.0147652626037598, -1.8997540473937988, -1.7847427129745483, -1.6697313785552979, -1.554720163345337, -1.439708948135376, -1.3246976137161255, -1.209686279296875, -1.094675064086914, -0.9796637892723083, -0.8646525144577026, -0.7496412396430969, -0.6346299648284912, -0.5196186900138855, -0.4046074151992798, -0.2895961403846741, -0.17458486557006836, -0.059573590755462646, 0.055437684059143066, 0.17044895887374878, 0.2854602336883545, 0.4004715085029602, 0.5154827833175659, 0.6304940581321716, 0.7455053329467773, 0.8605166077613831, 0.9755278825759888, 1.0905392169952393, 1.2055504322052002]}, "gradients/cell_update.nn_layers.0.bias": {"_type": "histogram", "values": [1.0, 0.0, 1.0, 0.0, 0.0, 0.0, 0.0, 0.0, 0.0, 0.0, 1.0, 1.0, 0.0, 0.0, 1.0, 0.0, 0.0, 0.0, 0.0, 0.0, 0.0, 0.0, 0.0, 0.0, 0.0, 0.0, 2.0, 1.0, 0.0, 0.0, 0.0, 0.0, 0.0, 1.0, 0.0, 1.0, 1.0, 1.0, 0.0, 0.0, 0.0, 0.0, 0.0, 0.0, 0.0, 0.0, 0.0, 0.0, 0.0, 0.0, 0.0, 0.0, 0.0, 0.0, 0.0, 0.0, 0.0, 0.0, 0.0, 0.0, 0.0, 0.0, 0.0, 8.0], "bins": [-0.903876006603241, -0.8897529244422913, -0.8756299018859863, -0.8615068197250366, -0.8473837375640869, -0.833260715007782, -0.8191376328468323, -0.8050145506858826, -0.7908915281295776, -0.7767684459686279, -0.762645423412323, -0.7485223412513733, -0.7343992590904236, -0.7202762365341187, -0.706153154373169, -0.6920300722122192, -0.6779069900512695, -0.6637839078903198, -0.6496608853340149, -0.6355378031730652, -0.6214147210121155, -0.6072916984558105, -0.5931686162948608, -0.5790455341339111, -0.5649225115776062, -0.5507994294166565, -0.5366764068603516, -0.5225533246994019, -0.5084302425384521, -0.49430719017982483, -0.4801841378211975, -0.4660610556602478, -0.4519380033016205, -0.43781495094299316, -0.42369186878204346, -0.40956881642341614, -0.3954457640647888, -0.3813226819038391, -0.3671996295452118, -0.3530765771865845, -0.33895349502563477, -0.32483044266700745, -0.31070736050605774, -0.2965843081474304, -0.2824612557888031, -0.2683381736278534, -0.2542151212692261, -0.24009205400943756, -0.22596900165081024, -0.21184593439102173, -0.1977228820323944, -0.1835998147726059, -0.16947674751281738, -0.15535369515419006, -0.14123062789440155, -0.12710756063461304, -0.11298450082540512, -0.0988614410161972, -0.08473837375640869, -0.07061531394720078, -0.05649225041270256, -0.042369186878204346, -0.02824612706899643, -0.014123059809207916, 0.0]}, "gradients/cell_update.nn_layers.0.weight": {"_type": "histogram", "values": [2.0, 6.0, 3.0, 1.0, 0.0, 5.0, 10.0, 4.0, 6.0, 4.0, 8.0, 12.0, 4.0, 18.0, 24.0, 1.0, 5.0, 11.0, 23.0, 21.0, 9.0, 10.0, 13.0, 19.0, 5.0, 0.0, 4.0, 0.0, 0.0, 0.0, 0.0, 0.0, 384.0, 0.0, 0.0, 2.0, 2.0, 3.0, 5.0, 3.0, 10.0, 23.0, 10.0, 21.0, 31.0, 27.0, 23.0, 21.0, 13.0, 15.0, 19.0, 17.0, 4.0, 16.0, 18.0, 5.0, 16.0, 11.0, 9.0, 4.0, 6.0, 6.0, 5.0, 3.0], "bins": [-0.8959231972694397, -0.8682360649108887, -0.8405489325523376, -0.8128618001937866, -0.7851746082305908, -0.7574875354766846, -0.7298003435134888, -0.7021132111549377, -0.6744260787963867, -0.6467389464378357, -0.6190518140792847, -0.5913646817207336, -0.5636775493621826, -0.5359903573989868, -0.5083032250404358, -0.48061609268188477, -0.45292896032333374, -0.4252418279647827, -0.3975546956062317, -0.3698675334453583, -0.34218040108680725, -0.3144932687282562, -0.2868061065673828, -0.2591189742088318, -0.23143184185028076, -0.20374470949172974, -0.17605756223201752, -0.1483704149723053, -0.12068328261375427, -0.09299615025520325, -0.06530900299549103, -0.03762185573577881, -0.009934782981872559, 0.017752356827259064, 0.045439496636390686, 0.07312663644552231, 0.10081377625465393, 0.12850090861320496, 0.15618805587291718, 0.1838752031326294, 0.21156233549118042, 0.23924946784973145, 0.26693660020828247, 0.2946237623691559, 0.3223108947277069, 0.34999802708625793, 0.37768518924713135, 0.4053723216056824, 0.4330594539642334, 0.4607465863227844, 0.48843371868133545, 0.5161208510398865, 0.5438079833984375, 0.5714951753616333, 0.5991823077201843, 0.6268694400787354, 0.6545565724372864, 0.6822437047958374, 0.7099308371543884, 0.7376179695129395, 0.7653051614761353, 0.7929922342300415, 0.8206794261932373, 0.8483665585517883, 0.8760536909103394]}, "gradients/encoder.nn_layers.2.bias": {"_type": "histogram", "values": [1.0, 1.0, 0.0, 0.0, 0.0, 0.0, 0.0, 0.0, 0.0, 0.0, 0.0, 0.0, 0.0, 0.0, 0.0, 0.0, 1.0, 1.0, 0.0, 0.0, 1.0, 0.0, 0.0, 1.0, 1.0, 1.0, 0.0, 0.0, 0.0, 0.0, 0.0, 0.0, 0.0, 0.0, 0.0, 0.0, 0.0, 0.0, 0.0, 1.0, 0.0, 0.0, 0.0, 0.0, 0.0, 0.0, 0.0, 0.0, 0.0, 0.0, 0.0, 0.0, 0.0, 0.0, 0.0, 0.0, 0.0, 0.0, 0.0, 0.0, 0.0, 0.0, 0.0, 1.0], "bins": [-2.0638673305511475, -1.975273847579956, -1.8866803646087646, -1.7980867624282837, -1.7094932794570923, -1.6208997964859009, -1.53230619430542, -1.4437127113342285, -1.355119228363037, -1.2665257453918457, -1.1779322624206543, -1.0893386602401733, -1.000745177268982, -0.9121516942977905, -0.8235581517219543, -0.7349646091461182, -0.6463711261749268, -0.5577776432037354, -0.46918410062789917, -0.3805905878543854, -0.2919970750808716, -0.2034035623073578, -0.114810049533844, -0.026216506958007812, 0.062376976013183594, 0.1509704887866974, 0.23956400156021118, 0.328157514333725, 0.41675102710723877, 0.5053445100784302, 0.5939380526542664, 0.6825315952301025, 0.7711248397827148, 0.8597183227539062, 0.9483118653297424, 1.0369054079055786, 1.12549889087677, 1.2140923738479614, 1.3026859760284424, 1.3912794589996338, 1.4798729419708252, 1.5684664249420166, 1.657059907913208, 1.745653510093689, 1.8342469930648804, 1.9228404760360718, 2.0114340782165527, 2.100027561187744, 2.1886210441589355, 2.277214527130127, 2.3658080101013184, 2.4544014930725098, 2.542994976043701, 2.6315886974334717, 2.720182180404663, 2.8087756633758545, 2.897369146347046, 2.9859626293182373, 3.0745561122894287, 3.16314959526062, 3.2517433166503906, 3.340336799621582, 3.4289302825927734, 3.517523765563965, 3.6061172485351562]}, "gradients/encoder.nn_layers.2.weight": {"_type": "histogram", "values": [1.0, 0.0, 1.0, 1.0, 1.0, 0.0, 3.0, 1.0, 1.0, 1.0, 0.0, 0.0, 1.0, 0.0, 2.0, 2.0, 1.0, 6.0, 4.0, 2.0, 1.0, 5.0, 6.0, 5.0, 109.0, 17.0, 10.0, 1.0, 0.0, 1.0, 1.0, 1.0, 1.0, 0.0, 0.0, 0.0, 1.0, 2.0, 2.0, 0.0, 2.0, 1.0, 1.0, 0.0, 0.0, 0.0, 0.0, 0.0, 0.0, 0.0, 0.0, 0.0, 0.0, 0.0, 1.0, 1.0, 0.0, 0.0, 0.0, 2.0, 0.0, 0.0, 0.0, 1.0], "bins": [-2.467747449874878, -2.3673508167266846, -2.266953945159912, -2.1665573120117188, -2.0661606788635254, -1.9657639265060425, -1.8653671741485596, -1.7649705410003662, -1.6645737886428833, -1.5641770362854004, -1.463780403137207, -1.3633836507797241, -1.2629868984222412, -1.1625902652740479, -1.062193512916565, -0.9617968201637268, -0.8614001274108887, -0.7610034346580505, -0.6606067419052124, -0.5602099895477295, -0.45981329679489136, -0.3594166040420532, -0.2590198516845703, -0.15862315893173218, -0.05822634696960449, 0.042170360684394836, 0.14256706833839417, 0.2429637908935547, 0.3433604836463928, 0.44375717639923096, 0.5441539287567139, 0.644550621509552, 0.7449474334716797, 0.8453441262245178, 0.945740818977356, 1.0461375713348389, 1.1465342044830322, 1.2469309568405151, 1.347327709197998, 1.4477243423461914, 1.5481209754943848, 1.6485177278518677, 1.748914361000061, 1.849311113357544, 1.9497077465057373, 2.0501046180725098, 2.150501251220703, 2.2508978843688965, 2.351294755935669, 2.4516913890838623, 2.5520882606506348, 2.652484893798828, 2.7528815269470215, 2.853278160095215, 2.9536750316619873, 3.0540716648101807, 3.154468536376953, 3.2548651695251465, 3.355262041091919, 3.4556586742401123, 3.5560553073883057, 3.656452178955078, 3.7568488121032715, 3.857245445251465, 3.957642078399658]}, "gradients/encoder.nn_layers.1.bias": {"_type": "histogram", "values": [1.0, 0.0, 0.0, 0.0, 0.0, 0.0, 0.0, 0.0, 0.0, 0.0, 0.0, 0.0, 0.0, 0.0, 0.0, 0.0, 0.0, 1.0, 0.0, 0.0, 0.0, 1.0, 0.0, 0.0, 0.0, 0.0, 0.0, 2.0, 0.0, 0.0, 0.0, 8.0, 2.0, 0.0, 0.0, 1.0, 0.0, 1.0, 0.0, 0.0, 1.0, 0.0, 0.0, 0.0, 0.0, 0.0, 0.0, 0.0, 0.0, 0.0, 0.0, 0.0, 0.0, 0.0, 0.0, 0.0, 0.0, 0.0, 1.0, 0.0, 0.0, 0.0, 0.0, 1.0], "bins": [-0.6753760576248169, -0.6540032625198364, -0.632630467414856, -0.6112576723098755, -0.589884877204895, -0.5685120820999146, -0.5471392869949341, -0.5257664918899536, -0.5043936967849731, -0.4830209016799927, -0.4616481065750122, -0.44027531147003174, -0.41890251636505127, -0.3975297212600708, -0.37615692615509033, -0.35478413105010986, -0.333411306142807, -0.31203851103782654, -0.29066571593284607, -0.2692929208278656, -0.24792012572288513, -0.22654733061790466, -0.205174520611763, -0.18380172550678253, -0.16242891550064087, -0.1410561203956604, -0.11968332529067993, -0.09831052273511887, -0.0769377276301384, -0.05556493252515793, -0.03419212996959686, -0.012819334864616394, 0.00855344533920288, 0.0299262423068285, 0.05129903927445412, 0.07267183810472488, 0.09404463320970535, 0.11541742831468582, 0.1367902308702469, 0.15816302597522736, 0.17953580617904663, 0.2009086012840271, 0.22228139638900757, 0.24365419149398804, 0.2650269865989685, 0.286399781703949, 0.30777257680892944, 0.3291453719139099, 0.35051819682121277, 0.37189099192619324, 0.3932637870311737, 0.4146365821361542, 0.43600937724113464, 0.4573821723461151, 0.47875499725341797, 0.5001277923583984, 0.5215005874633789, 0.5428733825683594, 0.5642461776733398, 0.5856189727783203, 0.6069917678833008, 0.6283645629882812, 0.6497373580932617, 0.6711101531982422, 0.6924829483032227]}, "gradients/encoder.nn_layers.1.weight": {"_type": "histogram", "values": [1.0, 0.0, 0.0, 0.0, 0.0, 0.0, 0.0, 1.0, 0.0, 0.0, 0.0, 0.0, 0.0, 1.0, 0.0, 0.0, 0.0, 0.0, 0.0, 0.0, 0.0, 1.0, 1.0, 1.0, 2.0, 2.0, 1.0, 2.0, 0.0, 3.0, 1.0, 8.0, 4.0, 6.0, 17.0, 310.0, 11.0, 3.0, 5.0, 0.0, 3.0, 2.0, 3.0, 2.0, 2.0, 1.0, 0.0, 0.0, 0.0, 0.0, 0.0, 1.0, 1.0, 0.0, 0.0, 0.0, 1.0, 1.0, 1.0, 0.0, 0.0, 0.0, 0.0, 1.0], "bins": [-1.786649227142334, -1.7357856035232544, -1.6849219799041748, -1.6340583562850952, -1.5831947326660156, -1.532331109046936, -1.4814674854278564, -1.4306038618087769, -1.3797402381896973, -1.3288766145706177, -1.278012990951538, -1.2271493673324585, -1.176285743713379, -1.1254221200942993, -1.0745584964752197, -1.0236948728561401, -0.9728313088417053, -0.9219676852226257, -0.8711040616035461, -0.8202404379844666, -0.769376814365387, -0.7185132503509521, -0.6676496267318726, -0.616786003112793, -0.5659223794937134, -0.5150587558746338, -0.4641951322555542, -0.4133315086364746, -0.362467885017395, -0.3116042912006378, -0.2607406675815582, -0.20987704396247864, -0.15901339054107666, -0.10814976692199707, -0.05728615075349808, -0.0064225345849990845, 0.044441089034080505, 0.0953046977519989, 0.1461683213710785, 0.19703194499015808, 0.24789559841156006, 0.29875922203063965, 0.34962284564971924, 0.40048646926879883, 0.4513500928878784, 0.502213716506958, 0.5530773401260376, 0.6039409637451172, 0.654804527759552, 0.7056681513786316, 0.7565317749977112, 0.8073953986167908, 0.8582590222358704, 0.9091225862503052, 0.9599862098693848, 1.0108498334884644, 1.061713457107544, 1.1125770807266235, 1.1634407043457031, 1.2143043279647827, 1.2651679515838623, 1.316031575202942, 1.3668951988220215, 1.417758822441101, 1.4686224460601807]}, "gradients/encoder.nn_layers.0.bias": {"_type": "histogram", "values": [2.0, 0.0, 0.0, 0.0, 0.0, 0.0, 1.0, 0.0, 1.0, 0.0, 0.0, 0.0, 0.0, 0.0, 0.0, 0.0, 0.0, 10.0, 0.0, 0.0, 1.0, 0.0, 0.0, 1.0, 0.0, 0.0, 0.0, 0.0, 0.0, 0.0, 1.0, 0.0, 0.0, 0.0, 0.0, 0.0, 0.0, 2.0, 0.0, 0.0, 0.0, 0.0, 0.0, 0.0, 0.0, 0.0, 0.0, 0.0, 0.0, 0.0, 0.0, 0.0, 0.0, 0.0, 0.0, 0.0, 0.0, 0.0, 0.0, 0.0, 0.0, 0.0, 0.0, 1.0], "bins": [-0.15136443078517914, -0.1428937166929245, -0.13442301750183105, -0.12595230340957642, -0.11748159676790237, -0.10901089012622833, -0.1005401760339737, -0.09206946939229965, -0.08359876275062561, -0.07512805610895157, -0.06665734946727753, -0.05818663537502289, -0.049715928733348846, -0.041245222091674805, -0.032774511724710464, -0.024303801357746124, -0.015833094716072083, -0.0073623862117528915, 0.0011083222925662994, 0.00957903079688549, 0.01804973930120468, 0.026520445942878723, 0.03499115630984306, 0.043461866676807404, 0.051932573318481445, 0.06040327996015549, 0.06887398660182953, 0.07734470069408417, 0.08581540733575821, 0.09428611397743225, 0.10275682806968689, 0.11122753471136093, 0.11969822645187378, 0.12816894054412842, 0.13663963973522186, 0.1451103538274765, 0.15358105301856995, 0.16205176711082458, 0.17052248120307922, 0.17899319529533386, 0.1874638944864273, 0.19593460857868195, 0.2044053077697754, 0.21287602186203003, 0.22134673595428467, 0.2298174351453781, 0.23828814923763275, 0.2467588484287262, 0.25522956252098083, 0.2637002766132355, 0.2721709907054901, 0.28064167499542236, 0.289112389087677, 0.29758310317993164, 0.3060538172721863, 0.3145245313644409, 0.32299524545669556, 0.3314659595489502, 0.33993667364120483, 0.3484073579311371, 0.3568780720233917, 0.36534878611564636, 0.373819500207901, 0.38229021430015564, 0.3907608985900879]}, "gradients/encoder.nn_layers.0.weight": {"_type": "histogram", "values": [4.0, 0.0, 10.0, 1.0, 2.0, 0.0, 1.0, 0.0, 0.0, 0.0, 4.0, 4.0, 1.0, 0.0, 0.0, 12.0, 3.0, 2.0, 4.0, 15.0, 14.0, 5.0, 2.0, 17.0, 3.0, 2.0, 6.0, 3.0, 7.0, 16.0, 20.0, 3.0, 1.0, 336.0, 0.0, 7.0, 12.0, 11.0, 3.0, 12.0, 11.0, 2.0, 9.0, 7.0, 6.0, 12.0, 8.0, 7.0, 2.0, 1.0, 14.0, 0.0, 1.0, 0.0, 0.0, 7.0, 0.0, 0.0, 0.0, 0.0, 0.0, 1.0, 1.0, 8.0], "bins": [-0.35596612095832825, -0.34522372484207153, -0.33448129892349243, -0.3237389028072357, -0.312996506690979, -0.3022541105747223, -0.2915116846561432, -0.2807692885398865, -0.27002689242362976, -0.25928449630737305, -0.24854208528995514, -0.23779967427253723, -0.22705727815628052, -0.2163148671388626, -0.2055724561214447, -0.194830060005188, -0.18408764898777008, -0.17334523797035217, -0.16260284185409546, -0.15186043083667755, -0.14111803472042084, -0.13037562370300293, -0.11963322013616562, -0.10889081656932831, -0.0981484055519104, -0.08740600198507309, -0.07666359841823578, -0.06592118740081787, -0.05517878755927086, -0.04443638399243355, -0.03369397670030594, -0.022951573133468628, -0.012209177017211914, -0.0014667725190520287, 0.009275631979107857, 0.020018037408590317, 0.030760440975427628, 0.04150284454226494, 0.05224525183439255, 0.06298765540122986, 0.07373005151748657, 0.08447245508432388, 0.0952148586511612, 0.1059572696685791, 0.11669966578483582, 0.12744207680225372, 0.13818448781967163, 0.14892688393592834, 0.15966929495334625, 0.17041170597076416, 0.18115410208702087, 0.19189651310443878, 0.2026389092206955, 0.2133813202381134, 0.22412371635437012, 0.23486612737178802, 0.24560853838920593, 0.25635093450546265, 0.26709336042404175, 0.27783575654029846, 0.2885781526565552, 0.2993205487728119, 0.310062974691391, 0.3208053708076477, 0.3315477669239044]}, "gradients/phi_x.nn_layers.2.bias": {"_type": "histogram", "values": [1.0, 0.0, 0.0, 0.0, 0.0, 0.0, 0.0, 0.0, 0.0, 0.0, 0.0, 0.0, 0.0, 0.0, 0.0, 0.0, 0.0, 1.0, 0.0, 0.0, 1.0, 0.0, 0.0, 0.0, 0.0, 0.0, 0.0, 0.0, 0.0, 0.0, 0.0, 0.0, 1.0, 1.0, 1.0, 0.0, 0.0, 2.0, 1.0, 1.0, 1.0, 0.0, 2.0, 0.0, 0.0, 0.0, 0.0, 1.0, 0.0, 1.0, 0.0, 0.0, 0.0, 0.0, 0.0, 0.0, 0.0, 0.0, 0.0, 0.0, 0.0, 0.0, 0.0, 1.0], "bins": [-0.5274093151092529, -0.5087129473686218, -0.4900166094303131, -0.471320241689682, -0.4526238739490509, -0.4339275360107422, -0.4152311682701111, -0.39653480052948, -0.3778384327888489, -0.3591420650482178, -0.34044572710990906, -0.32174935936927795, -0.30305299162864685, -0.28435665369033813, -0.26566028594970703, -0.24696391820907593, -0.2282675802707672, -0.2095712274312973, -0.1908748596906662, -0.1721785068511963, -0.15348213911056519, -0.13478578627109528, -0.11608943343162537, -0.09739306569099426, -0.07869672775268555, -0.06000036746263504, -0.04130401089787483, -0.022607654333114624, -0.003911294043064117, 0.01478506624698639, 0.0334814190864563, 0.0521777868270874, 0.0708741545677185, 0.08957051485776901, 0.10826687514781952, 0.12696322798728943, 0.14565959572792053, 0.16435594856739044, 0.18305230140686035, 0.20174866914749146, 0.22044503688812256, 0.23914138972759247, 0.2578377425670624, 0.2765341103076935, 0.2952304780483246, 0.3139268159866333, 0.3326231837272644, 0.3513195514678955, 0.3700158894062042, 0.3887122571468353, 0.40740859508514404, 0.42610496282577515, 0.44480133056640625, 0.46349769830703735, 0.48219403624534607, 0.5008903741836548, 0.5195867419242859, 0.538283109664917, 0.5569794774055481, 0.5756758451461792, 0.5943721532821655, 0.6130685210227966, 0.6317648887634277, 0.6504612565040588, 0.6691576242446899]}, "gradients/phi_x.nn_layers.2.weight": {"_type": "histogram", "values": [1.0, 0.0, 0.0, 0.0, 0.0, 0.0, 1.0, 0.0, 2.0, 0.0, 0.0, 1.0, 0.0, 0.0, 1.0, 1.0, 1.0, 2.0, 1.0, 3.0, 1.0, 4.0, 2.0, 5.0, 8.0, 8.0, 3.0, 3.0, 70.0, 25.0, 26.0, 30.0, 26.0, 18.0, 13.0, 13.0, 12.0, 8.0, 7.0, 3.0, 0.0, 7.0, 2.0, 2.0, 2.0, 1.0, 1.0, 0.0, 0.0, 2.0, 0.0, 0.0, 0.0, 2.0, 0.0, 1.0, 0.0, 0.0, 0.0, 0.0, 0.0, 0.0, 0.0, 1.0], "bins": [-0.6905264854431152, -0.6660863757133484, -0.6416462659835815, -0.6172061562538147, -0.5927660465240479, -0.568325936794281, -0.5438858270645142, -0.5194457173347473, -0.49500560760498047, -0.4705654978752136, -0.4461253881454468, -0.42168527841567993, -0.3972451686859131, -0.37280505895614624, -0.3483649492263794, -0.32392483949661255, -0.2994847297668457, -0.27504462003707886, -0.250604510307312, -0.22616440057754517, -0.20172429084777832, -0.17728418111801147, -0.15284407138824463, -0.12840396165847778, -0.10396385192871094, -0.07952374219894409, -0.055083632469177246, -0.0306435227394104, -0.006203413009643555, 0.01823669672012329, 0.04267680644989014, 0.06711691617965698, 0.09155696630477905, 0.1159970760345459, 0.14043718576431274, 0.1648772954940796, 0.18931740522384644, 0.21375751495361328, 0.23819762468338013, 0.262637734413147, 0.2870778441429138, 0.31151795387268066, 0.3359580636024475, 0.36039817333221436, 0.3848382830619812, 0.40927839279174805, 0.4337185025215149, 0.45815861225128174, 0.4825987219810486, 0.5070388317108154, 0.5314789414405823, 0.5559190511703491, 0.580359160900116, 0.6047992706298828, 0.6292393803596497, 0.6536794900894165, 0.6781195998191833, 0.7025597095489502, 0.726999819278717, 0.7514399290084839, 0.7758800387382507, 0.8003201484680176, 0.8247602581977844, 0.8492003679275513, 0.8736404776573181]}, "gradients/phi_x.nn_layers.1.bias": {"_type": "histogram", "values": [1.0, 0.0, 0.0, 0.0, 0.0, 0.0, 0.0, 0.0, 0.0, 0.0, 0.0, 0.0, 0.0, 0.0, 0.0, 1.0, 1.0, 0.0, 0.0, 1.0, 0.0, 0.0, 0.0, 0.0, 0.0, 1.0, 0.0, 1.0, 0.0, 0.0, 1.0, 0.0, 1.0, 0.0, 0.0, 1.0, 1.0, 0.0, 0.0, 1.0, 0.0, 0.0, 0.0, 0.0, 0.0, 0.0, 1.0, 1.0, 0.0, 1.0, 1.0, 0.0, 0.0, 0.0, 0.0, 0.0, 0.0, 0.0, 0.0, 0.0, 0.0, 0.0, 4.0, 1.0], "bins": [-0.5889770984649658, -0.5795283913612366, -0.5700797438621521, -0.5606310367584229, -0.5511823892593384, -0.5417336821556091, -0.5322849750518799, -0.5228363275527954, -0.5133876204490662, -0.5039389133453369, -0.49449026584625244, -0.4850415587425232, -0.47559288144111633, -0.4661442041397095, -0.4566954970359802, -0.44724681973457336, -0.4377981424331665, -0.42834946513175964, -0.4189007878303528, -0.40945208072662354, -0.4000034034252167, -0.3905547261238098, -0.38110601902008057, -0.3716573417186737, -0.36220866441726685, -0.35275998711586, -0.3433113098144531, -0.3338626027107239, -0.324413925409317, -0.31496524810791016, -0.3055165410041809, -0.29606786370277405, -0.2866192162036896, -0.2771705389022827, -0.26772183179855347, -0.2582731544971466, -0.24882447719573975, -0.23937579989433289, -0.22992710769176483, -0.22047841548919678, -0.21102973818778992, -0.20158106088638306, -0.192132368683815, -0.18268367648124695, -0.1732349991798401, -0.16378632187843323, -0.15433762967586517, -0.14488893747329712, -0.13544026017189026, -0.1259915828704834, -0.11654289066791534, -0.10709420591592789, -0.09764552116394043, -0.08819683641195297, -0.07874815165996552, -0.06929946690797806, -0.0598507784307003, -0.050402093678712845, -0.04095340892672539, -0.03150472417473793, -0.022056039422750473, -0.012607354670763016, -0.0031586699187755585, 0.006290014833211899, 0.015738699585199356]}, "gradients/phi_x.nn_layers.1.weight": {"_type": "histogram", "values": [1.0, 0.0, 1.0, 0.0, 0.0, 0.0, 1.0, 0.0, 0.0, 0.0, 0.0, 0.0, 0.0, 0.0, 0.0, 2.0, 1.0, 2.0, 1.0, 1.0, 2.0, 1.0, 2.0, 1.0, 2.0, 0.0, 1.0, 2.0, 4.0, 2.0, 2.0, 5.0, 5.0, 2.0, 4.0, 2.0, 4.0, 5.0, 4.0, 5.0, 7.0, 2.0, 4.0, 6.0, 6.0, 6.0, 4.0, 5.0, 6.0, 6.0, 11.0, 4.0, 11.0, 12.0, 6.0, 7.0, 5.0, 4.0, 3.0, 12.0, 199.0, 2.0, 5.0, 2.0], "bins": [-0.4704071283340454, -0.46261513233184814, -0.4548231363296509, -0.4470311403274536, -0.43923914432525635, -0.4314471483230591, -0.4236551523208618, -0.41586315631866455, -0.4080711603164673, -0.40027916431427, -0.39248716831207275, -0.3846951723098755, -0.3769031763076782, -0.36911118030548096, -0.3613191843032837, -0.3535271883010864, -0.34573519229888916, -0.3379431962966919, -0.33015120029449463, -0.32235920429229736, -0.3145672082901001, -0.30677521228790283, -0.29898321628570557, -0.2911912202835083, -0.2833992540836334, -0.27560725808143616, -0.2678152620792389, -0.2600232660770416, -0.25223127007484436, -0.2444392740726471, -0.23664727807044983, -0.22885528206825256, -0.2210632860660553, -0.21327129006385803, -0.20547929406166077, -0.1976872980594635, -0.18989530205726624, -0.18210330605506897, -0.1743113100528717, -0.16651931405067444, -0.15872731804847717, -0.1509353220462799, -0.14314332604408264, -0.13535133004188538, -0.1275593340396881, -0.11976733803749084, -0.11197534948587418, -0.10418335348367691, -0.09639137238264084, -0.08859937638044357, -0.08080738037824631, -0.07301539182662964, -0.06522339582443237, -0.05743139609694481, -0.04963940382003784, -0.041847407817840576, -0.03405541181564331, -0.026263415813446045, -0.01847142167389393, -0.010679427534341812, -0.0028874315321445465, 0.004904564470052719, 0.012696556746959686, 0.020488552749156952, 0.028280548751354218]}, "gradients/phi_x.nn_layers.0.bias": {"_type": "histogram", "values": [1.0, 0.0, 0.0, 0.0, 0.0, 0.0, 0.0, 0.0, 0.0, 0.0, 0.0, 0.0, 0.0, 0.0, 0.0, 1.0, 0.0, 0.0, 0.0, 1.0, 0.0, 0.0, 2.0, 0.0, 1.0, 2.0, 0.0, 0.0, 0.0, 0.0, 0.0, 0.0, 0.0, 0.0, 0.0, 0.0, 0.0, 1.0, 0.0, 0.0, 0.0, 0.0, 0.0, 0.0, 0.0, 0.0, 0.0, 0.0, 0.0, 0.0, 0.0, 0.0, 0.0, 1.0, 0.0, 1.0, 0.0, 2.0, 0.0, 0.0, 0.0, 0.0, 0.0, 7.0], "bins": [-0.6595727801322937, -0.6492669582366943, -0.638961136341095, -0.6286553144454956, -0.6183494925498962, -0.6080436706542969, -0.5977378487586975, -0.5874320268630981, -0.5771262049674988, -0.5668203830718994, -0.5565145611763, -0.5462087392807007, -0.5359029173851013, -0.525597095489502, -0.5152912735939026, -0.5049854516983032, -0.4946795701980591, -0.4843737483024597, -0.47406792640686035, -0.463762104511261, -0.4534562826156616, -0.44315046072006226, -0.4328446388244629, -0.42253878712654114, -0.41223299503326416, -0.4019271731376648, -0.39162135124206543, -0.38131552934646606, -0.3710097074508667, -0.36070388555526733, -0.35039806365966797, -0.3400922119617462, -0.32978639006614685, -0.3194805681705475, -0.3091747462749481, -0.29886892437934875, -0.2885631024837494, -0.27825725078582764, -0.26795142889022827, -0.2576456069946289, -0.24733978509902954, -0.23703396320343018, -0.2267281413078308, -0.21642231941223145, -0.2061164826154709, -0.19581066071987152, -0.18550483882427216, -0.1751990020275116, -0.16489319503307343, -0.15458737313747406, -0.1442815512418747, -0.13397571444511414, -0.12366989254951477, -0.1133640706539154, -0.10305824875831604, -0.09275241941213608, -0.08244659751653671, -0.07214077562093735, -0.061834946274757385, -0.05152912437915802, -0.041223298758268356, -0.030917473137378693, -0.020611651241779327, -0.010305821895599365, 0.0]}, "gradients/phi_x.nn_layers.0.weight": {"_type": "histogram", "values": [1.0, 1.0, 0.0, 0.0, 0.0, 0.0, 0.0, 0.0, 0.0, 0.0, 0.0, 0.0, 0.0, 0.0, 0.0, 1.0, 1.0, 0.0, 2.0, 1.0, 1.0, 0.0, 2.0, 1.0, 1.0, 3.0, 0.0, 3.0, 1.0, 1.0, 3.0, 1.0, 0.0, 0.0, 3.0, 1.0, 6.0, 3.0, 1.0, 1.0, 2.0, 3.0, 1.0, 1.0, 1.0, 4.0, 2.0, 0.0, 3.0, 0.0, 1.0, 2.0, 5.0, 7.0, 6.0, 5.0, 4.0, 6.0, 1.0, 7.0, 5.0, 6.0, 4.0, 65.0], "bins": [-0.5099695324897766, -0.5020012855529785, -0.49403297901153564, -0.48606470227241516, -0.4780964255332947, -0.4701281785964966, -0.4621598720550537, -0.4541916251182556, -0.44622334837913513, -0.43825507164001465, -0.43028679490089417, -0.4223185181617737, -0.4143502414226532, -0.4063819646835327, -0.3984137177467346, -0.39044544100761414, -0.38247716426849365, -0.37450888752937317, -0.3665406107902527, -0.3585723340511322, -0.3506040573120117, -0.3426358103752136, -0.33466750383377075, -0.32669925689697266, -0.3187309503555298, -0.3107626736164093, -0.3027943968772888, -0.29482612013816833, -0.28685784339904785, -0.27888959646224976, -0.2709212899208069, -0.2629530429840088, -0.2549847662448883, -0.24701648950576782, -0.23904821276664734, -0.23107993602752686, -0.22311167418956757, -0.21514339745044708, -0.2071751207113266, -0.19920684397220612, -0.19123858213424683, -0.18327030539512634, -0.17530202865600586, -0.16733375191688538, -0.1593654900789261, -0.1513972133398056, -0.14342893660068512, -0.13546065986156464, -0.12749238312244415, -0.11952410638332367, -0.11155583709478378, -0.1035875603556633, -0.09561929106712341, -0.08765101432800293, -0.07968273758888245, -0.07171446084976196, -0.06374619156122208, -0.05577791854739189, -0.04780964553356171, -0.03984136879444122, -0.03187309578061104, -0.023904822766780853, -0.01593654602766037, -0.007968273013830185, 0.0]}, "gradients/prior.nn_layers.2.bias": {"_type": "histogram", "values": [1.0, 0.0, 0.0, 0.0, 0.0, 0.0, 0.0, 0.0, 0.0, 0.0, 0.0, 0.0, 0.0, 0.0, 0.0, 0.0, 0.0, 0.0, 0.0, 0.0, 0.0, 0.0, 0.0, 0.0, 0.0, 0.0, 0.0, 0.0, 0.0, 0.0, 0.0, 0.0, 0.0, 0.0, 0.0, 0.0, 0.0, 0.0, 0.0, 0.0, 0.0, 0.0, 0.0, 0.0, 0.0, 0.0, 0.0, 0.0, 0.0, 0.0, 0.0, 0.0, 0.0, 0.0, 0.0, 1.0, 0.0, 0.0, 1.0, 0.0, 0.0, 0.0, 2.0, 5.0], "bins": [-58.24432373046875, -57.20125961303711, -56.158199310302734, -55.115135192871094, -54.07207107543945, -53.02900695800781, -51.98594665527344, -50.9428825378418, -49.899818420410156, -48.856754302978516, -47.81369400024414, -46.7706298828125, -45.72756576538086, -44.68450164794922, -43.641441345214844, -42.5983772277832, -41.55531692504883, -40.51225280761719, -39.46919250488281, -38.42612838745117, -37.38306427001953, -36.340003967285156, -35.296939849853516, -34.253875732421875, -33.2108154296875, -32.16775131225586, -31.12468910217285, -30.081626892089844, -29.038562774658203, -27.995500564575195, -26.952438354492188, -25.909374237060547, -24.866310119628906, -23.8232479095459, -22.780183792114258, -21.73712158203125, -20.69405746459961, -19.6509952545166, -18.607933044433594, -17.564868927001953, -16.521804809570312, -15.478741645812988, -14.435678482055664, -13.392616271972656, -12.349553108215332, -11.306489944458008, -10.263427734375, -9.220364570617676, -8.177302360534668, -7.134239196777344, -6.091176509857178, -5.048113822937012, -4.0050506591796875, -2.9619874954223633, -1.9189248085021973, -0.8758621215820312, 0.16720104217529297, 1.210263967514038, 2.253326892852783, 3.2963898181915283, 4.339452743530273, 5.382515907287598, 6.425578594207764, 7.46864128112793, 8.511704444885254]}, "gradients/prior.nn_layers.2.weight": {"_type": "histogram", "values": [1.0, 0.0, 0.0, 0.0, 1.0, 0.0, 0.0, 0.0, 0.0, 0.0, 0.0, 0.0, 0.0, 1.0, 0.0, 1.0, 0.0, 1.0, 1.0, 0.0, 0.0, 0.0, 0.0, 1.0, 0.0, 0.0, 0.0, 2.0, 0.0, 0.0, 1.0, 0.0, 0.0, 0.0, 0.0, 0.0, 0.0, 0.0, 0.0, 1.0, 0.0, 0.0, 0.0, 0.0, 0.0, 0.0, 0.0, 0.0, 0.0, 0.0, 0.0, 0.0, 0.0, 0.0, 0.0, 90.0, 14.0, 9.0, 6.0, 16.0, 19.0, 19.0, 6.0, 10.0], "bins": [-301.2989501953125, -295.91607666015625, -290.533203125, -285.15032958984375, -279.7674560546875, -274.38458251953125, -269.001708984375, -263.61883544921875, -258.2359924316406, -252.85311889648438, -247.47024536132812, -242.08737182617188, -236.7045135498047, -231.32164001464844, -225.9387664794922, -220.55589294433594, -215.17300415039062, -209.79013061523438, -204.40725708007812, -199.02438354492188, -193.6415252685547, -188.25865173339844, -182.8757781982422, -177.49290466308594, -172.11004638671875, -166.7271728515625, -161.34429931640625, -155.96142578125, -150.5785675048828, -145.19569396972656, -139.8128204345703, -134.42994689941406, -129.0470733642578, -123.66419982910156, -118.28133392333984, -112.8984603881836, -107.51558685302734, -102.13272094726562, -96.74984741210938, -91.36697387695312, -85.98410034179688, -80.60122680664062, -75.2183609008789, -69.83548736572266, -64.4526138305664, -59.06974411010742, -53.68687438964844, -48.30400085449219, -42.92113494873047, -37.538265228271484, -32.155391693115234, -26.77252197265625, -21.389650344848633, -16.006778717041016, -10.623908996582031, -5.241035461425781, 0.14183425903320312, 5.524705410003662, 10.907576560974121, 16.290447235107422, 21.67331886291504, 27.056190490722656, 32.43906021118164, 37.82193374633789, 43.204803466796875]}, "gradients/prior.nn_layers.1.bias": {"_type": "histogram", "values": [1.0, 0.0, 0.0, 0.0, 0.0, 0.0, 0.0, 0.0, 0.0, 0.0, 1.0, 0.0, 0.0, 0.0, 0.0, 0.0, 0.0, 0.0, 0.0, 0.0, 0.0, 0.0, 1.0, 1.0, 0.0, 0.0, 0.0, 0.0, 1.0, 0.0, 0.0, 1.0, 0.0, 0.0, 0.0, 0.0, 1.0, 0.0, 0.0, 0.0, 0.0, 1.0, 0.0, 0.0, 0.0, 0.0, 0.0, 1.0, 0.0, 0.0, 0.0, 0.0, 0.0, 1.0, 0.0, 0.0, 0.0, 0.0, 0.0, 0.0, 1.0, 1.0, 0.0, 8.0], "bins": [-23.11329460144043, -22.75214958190918, -22.39100456237793, -22.02985954284668, -21.66871452331543, -21.307567596435547, -20.946422576904297, -20.585277557373047, -20.224132537841797, -19.862987518310547, -19.501842498779297, -19.140697479248047, -18.779552459716797, -18.418405532836914, -18.057260513305664, -17.696115493774414, -17.334970474243164, -16.973825454711914, -16.612680435180664, -16.251535415649414, -15.890389442443848, -15.529244422912598, -15.168099403381348, -14.806953430175781, -14.445809364318848, -14.084664344787598, -13.723519325256348, -13.362373352050781, -13.001228332519531, -12.640083312988281, -12.278938293457031, -11.917793273925781, -11.556647300720215, -11.195502281188965, -10.834357261657715, -10.473211288452148, -10.112066268920898, -9.750921249389648, -9.389776229858398, -9.028631210327148, -8.667485237121582, -8.306340217590332, -7.945194721221924, -7.584049701690674, -7.222904205322266, -6.861759185791016, -6.500614166259766, -6.139468669891357, -5.778323650360107, -5.417178630828857, -5.056033134460449, -4.694888114929199, -4.333742618560791, -3.972597599029541, -3.611452341079712, -3.250307083129883, -2.8891618251800537, -2.5280165672302246, -2.1668713092803955, -1.805726170539856, -1.4445809125900269, -1.0834356546401978, -0.7222905158996582, -0.3611452579498291, 0.0]}, "gradients/prior.nn_layers.1.weight": {"_type": "histogram", "values": [1.0, 0.0, 0.0, 0.0, 0.0, 0.0, 0.0, 1.0, 1.0, 0.0, 1.0, 0.0, 1.0, 0.0, 0.0, 0.0, 1.0, 1.0, 1.0, 0.0, 0.0, 1.0, 0.0, 2.0, 0.0, 1.0, 0.0, 0.0, 4.0, 2.0, 2.0, 2.0, 2.0, 1.0, 2.0, 3.0, 4.0, 1.0, 2.0, 2.0, 0.0, 6.0, 5.0, 2.0, 4.0, 4.0, 2.0, 6.0, 2.0, 7.0, 4.0, 5.0, 5.0, 2.0, 5.0, 3.0, 3.0, 5.0, 6.0, 7.0, 8.0, 11.0, 10.0, 249.0], "bins": [-71.88262939453125, -70.75946044921875, -69.63629913330078, -68.51313018798828, -67.38996887207031, -66.26679992675781, -65.14363098144531, -64.02046966552734, -62.897300720214844, -61.77413558959961, -60.650970458984375, -59.527801513671875, -58.40463638305664, -57.281471252441406, -56.158302307128906, -55.03513717651367, -53.91197204589844, -52.7888069152832, -51.66564178466797, -50.54247283935547, -49.419307708740234, -48.296142578125, -47.1729736328125, -46.049808502197266, -44.92664337158203, -43.8034782409668, -42.68031311035156, -41.55714416503906, -40.43397903442383, -39.310813903808594, -38.187644958496094, -37.06447982788086, -35.941314697265625, -34.81814956665039, -33.694984436035156, -32.571815490722656, -31.448650360107422, -30.325485229492188, -29.20231819152832, -28.079151153564453, -26.95598602294922, -25.832820892333984, -24.709653854370117, -23.58648681640625, -22.463321685791016, -21.34015655517578, -20.216989517211914, -19.093822479248047, -17.970657348632812, -16.847492218017578, -15.724325180053711, -14.60115909576416, -13.47799301147461, -12.354826927185059, -11.231660842895508, -10.108494758605957, -8.985328674316406, -7.8621625900268555, -6.738996505737305, -5.615830421447754, -4.492664337158203, -3.3694982528686523, -2.2463321685791016, -1.1231660842895508, 0.0]}, "gradients/prior.nn_layers.0.bias": {"_type": "histogram", "values": [3.0, 0.0, 0.0, 0.0, 0.0, 0.0, 1.0, 0.0, 0.0, 0.0, 0.0, 1.0, 0.0, 0.0, 1.0, 2.0, 0.0, 0.0, 0.0, 1.0, 1.0, 0.0, 0.0, 0.0, 0.0, 1.0, 0.0, 0.0, 0.0, 0.0, 0.0, 0.0, 0.0, 0.0, 0.0, 0.0, 0.0, 0.0, 0.0, 0.0, 1.0, 0.0, 0.0, 0.0, 0.0, 0.0, 0.0, 0.0, 0.0, 1.0, 0.0, 1.0, 0.0, 0.0, 0.0, 0.0, 0.0, 1.0, 0.0, 0.0, 0.0, 0.0, 0.0, 5.0], "bins": [-23.445899963378906, -23.079557418823242, -22.713214874267578, -22.346874237060547, -21.980531692504883, -21.61418914794922, -21.247846603393555, -20.88150405883789, -20.51516342163086, -20.148820877075195, -19.78247833251953, -19.4161376953125, -19.049795150756836, -18.683452606201172, -18.317110061645508, -17.950767517089844, -17.58442497253418, -17.218082427978516, -16.85173988342285, -16.48539924621582, -16.119056701660156, -15.752714157104492, -15.386371612548828, -15.020029067993164, -14.653687477111816, -14.287344932556152, -13.921003341674805, -13.55466079711914, -13.188318252563477, -12.821976661682129, -12.455634117126465, -12.089292526245117, -11.722949981689453, -11.356607437133789, -10.990265846252441, -10.623923301696777, -10.25758171081543, -9.891239166259766, -9.524896621704102, -9.158554077148438, -8.79221248626709, -8.425869941711426, -8.059528350830078, -7.693185806274414, -7.326843738555908, -6.960501670837402, -6.594159126281738, -6.227817058563232, -5.861474990844727, -5.495132923126221, -5.128790855407715, -4.762448310852051, -4.396106243133545, -4.029764175415039, -3.663421869277954, -3.297079563140869, -2.9307374954223633, -2.5643954277038574, -2.1980531215667725, -1.831710934638977, -1.4653687477111816, -1.0990265607833862, -0.7326843738555908, -0.36634206771850586, 0.0]}, "gradients/prior.nn_layers.0.weight": {"_type": "histogram", "values": [15.0, 6.0, 3.0, 5.0, 2.0, 6.0, 2.0, 9.0, 12.0, 12.0, 6.0, 2.0, 2.0, 5.0, 1.0, 0.0, 0.0, 0.0, 0.0, 0.0, 7.0, 1.0, 0.0, 0.0, 12.0, 4.0, 0.0, 0.0, 8.0, 0.0, 0.0, 80.0, 0.0, 0.0, 0.0, 8.0, 0.0, 0.0, 3.0, 13.0, 0.0, 1.0, 0.0, 7.0, 0.0, 0.0, 0.0, 0.0, 1.0, 0.0, 6.0, 3.0, 2.0, 4.0, 12.0, 10.0, 12.0, 0.0, 7.0, 3.0, 7.0, 0.0, 0.0, 21.0], "bins": [-21.556367874145508, -20.882410049438477, -20.208450317382812, -19.53449249267578, -18.86053466796875, -18.18657684326172, -17.512619018554688, -16.838659286499023, -16.164701461791992, -15.490743637084961, -14.816784858703613, -14.142826080322266, -13.468868255615234, -12.794910430908203, -12.120951652526855, -11.446992874145508, -10.773035049438477, -10.099077224731445, -9.425118446350098, -8.75115966796875, -8.077201843261719, -7.403243541717529, -6.72928524017334, -6.05532693862915, -5.381368637084961, -4.7074103355407715, -4.033452033996582, -3.3594937324523926, -2.685535430908203, -2.0115771293640137, -1.3376188278198242, -0.6636605262756348, 0.010295867919921875, 0.6842541694641113, 1.3582124710083008, 2.0321707725524902, 2.7061290740966797, 3.380087375640869, 4.054045677185059, 4.728003978729248, 5.4019622802734375, 6.075920581817627, 6.749878883361816, 7.423837184906006, 8.097795486450195, 8.771753311157227, 9.445712089538574, 10.119670867919922, 10.793628692626953, 11.467586517333984, 12.141545295715332, 12.81550407409668, 13.489461898803711, 14.163419723510742, 14.83737850189209, 15.511337280273438, 16.18529510498047, 16.8592529296875, 17.53321075439453, 18.207170486450195, 18.881128311157227, 19.555086135864258, 20.229045867919922, 20.903003692626953, 21.576961517333984]}, "gradients/decoder.fc_out.bias": {"_type": "histogram", "values": [1.0, 0.0, 0.0, 0.0, 0.0, 0.0, 0.0, 0.0, 0.0, 0.0, 0.0, 0.0, 0.0, 0.0, 0.0, 0.0, 0.0, 0.0, 0.0, 0.0, 0.0, 1.0, 0.0, 0.0, 0.0, 0.0, 0.0, 0.0, 0.0, 0.0, 0.0, 0.0, 0.0, 0.0, 0.0, 0.0, 0.0, 0.0, 0.0, 0.0, 0.0, 1.0, 0.0, 1.0, 1.0, 2.0, 1.0, 2.0, 2.0, 2.0, 1.0, 1.0, 0.0, 0.0, 0.0, 0.0, 1.0, 0.0, 0.0, 0.0, 0.0, 0.0, 0.0, 1.0], "bins": [-52.39043045043945, -51.25855255126953, -50.12667465209961, -48.99479293823242, -47.8629150390625, -46.73103713989258, -45.599159240722656, -44.467281341552734, -43.33540344238281, -42.20352554321289, -41.07164764404297, -39.93976593017578, -38.80788803100586, -37.67601013183594, -36.544132232666016, -35.412254333496094, -34.280372619628906, -33.148494720458984, -32.01661682128906, -30.884737014770508, -29.752857208251953, -28.62097930908203, -27.48910140991211, -26.357223510742188, -25.225343704223633, -24.09346580505371, -22.961585998535156, -21.829708099365234, -20.697830200195312, -19.565950393676758, -18.434072494506836, -17.30219268798828, -16.17031478881836, -15.038435935974121, -13.906557083129883, -12.774679183959961, -11.642800331115723, -10.510921478271484, -9.379043579101562, -8.247164726257324, -7.115285873413086, -5.983407020568848, -4.851528644561768, -3.7196500301361084, -2.587771415710449, -1.455892562866211, -0.32401418685913086, 0.8078641891479492, 1.9397430419921875, 3.0716216564178467, 4.203500270843506, 5.335378646850586, 6.467257499694824, 7.5991363525390625, 8.731014251708984, 9.862893104553223, 10.994771957397461, 12.1266508102417, 13.258529663085938, 14.39040756225586, 15.522286415100098, 16.654165267944336, 17.786043167114258, 18.917922973632812, 20.049800872802734]}, "gradients/decoder.fc_out.weight": {"_type": "histogram", "values": [1.0, 0.0, 0.0, 0.0, 1.0, 0.0, 0.0, 0.0, 0.0, 0.0, 1.0, 2.0, 0.0, 1.0, 1.0, 1.0, 1.0, 2.0, 1.0, 3.0, 1.0, 2.0, 6.0, 4.0, 1.0, 3.0, 5.0, 4.0, 7.0, 6.0, 18.0, 60.0, 223.0, 122.0, 41.0, 15.0, 8.0, 4.0, 4.0, 3.0, 3.0, 3.0, 1.0, 2.0, 3.0, 1.0, 3.0, 0.0, 0.0, 1.0, 0.0, 1.0, 0.0, 0.0, 0.0, 0.0, 1.0, 2.0, 1.0, 0.0, 0.0, 0.0, 1.0, 1.0], "bins": [-141.9005584716797, -137.56895446777344, -133.23736572265625, -128.90576171875, -124.57415771484375, -120.24256134033203, -115.91096496582031, -111.57936096191406, -107.24776458740234, -102.91616821289062, -98.58456420898438, -94.25296783447266, -89.92137145996094, -85.58976745605469, -81.25817108154297, -76.92657470703125, -72.594970703125, -68.26337432861328, -63.93177032470703, -59.60017395019531, -55.26857376098633, -50.936973571777344, -46.605377197265625, -42.27377700805664, -37.942176818847656, -33.61057662963867, -29.27897834777832, -24.94738006591797, -20.615779876708984, -16.2841796875, -11.952581405639648, -7.620983123779297, -3.289398193359375, 1.042201042175293, 5.373800277709961, 9.705399513244629, 14.036998748779297, 18.36859893798828, 22.700197219848633, 27.031795501708984, 31.36339569091797, 35.69499588012695, 40.02659606933594, 44.358192443847656, 48.68979263305664, 53.021392822265625, 57.352989196777344, 61.68458938598633, 66.01618957519531, 70.34778594970703, 74.67938995361328, 79.010986328125, 83.34259033203125, 87.67418670654297, 92.00578308105469, 96.33738708496094, 100.66898345947266, 105.00057983398438, 109.33218383789062, 113.66378021240234, 117.99537658691406, 122.32698059082031, 126.65857696533203, 130.99017333984375, 135.32177734375]}, "gradients/decoder.lstm_cell.bias_hh": {"_type": "histogram", "values": [1.0, 0.0, 0.0, 0.0, 0.0, 0.0, 0.0, 0.0, 0.0, 1.0, 0.0, 0.0, 0.0, 0.0, 0.0, 0.0, 0.0, 1.0, 1.0, 0.0, 1.0, 0.0, 2.0, 1.0, 1.0, 0.0, 1.0, 0.0, 0.0, 1.0, 0.0, 0.0, 1.0, 3.0, 2.0, 6.0, 4.0, 4.0, 5.0, 13.0, 16.0, 26.0, 12.0, 3.0, 2.0, 2.0, 0.0, 2.0, 2.0, 1.0, 4.0, 0.0, 1.0, 0.0, 2.0, 0.0, 0.0, 2.0, 1.0, 1.0, 0.0, 1.0, 0.0, 1.0], "bins": [-8.573790550231934, -8.36763858795166, -8.16148567199707, -7.955333232879639, -7.749180793762207, -7.543028831481934, -7.336876392364502, -7.13072395324707, -6.924571514129639, -6.718419075012207, -6.512266635894775, -6.306114196777344, -6.09996223449707, -5.8938093185424805, -5.687657356262207, -5.481504917144775, -5.275352478027344, -5.069200038909912, -4.8630475997924805, -4.656895160675049, -4.450742721557617, -4.244590759277344, -4.038438320159912, -3.8322858810424805, -3.626133441925049, -3.419981002807617, -3.2138285636901855, -3.007676362991333, -2.8015239238739014, -2.5953714847564697, -2.389219284057617, -2.1830668449401855, -1.976914882659912, -1.7707624435424805, -1.5646101236343384, -1.3584578037261963, -1.1523053646087646, -0.946152925491333, -0.7400006055831909, -0.5338482856750488, -0.3276958465576172, -0.12154346704483032, 0.08460891246795654, 0.2907612919807434, 0.4969136714935303, 0.7030661106109619, 0.909218430519104, 1.115370750427246, 1.3215231895446777, 1.5276756286621094, 1.7338279485702515, 1.9399802684783936, 2.146132707595825, 2.352285146713257, 2.5584373474121094, 2.764589786529541, 2.9707422256469727, 3.1768946647644043, 3.383047103881836, 3.5891993045806885, 3.79535174369812, 4.001503944396973, 4.207656383514404, 4.413808822631836, 4.619961261749268]}, "gradients/decoder.lstm_cell.weight_hh": {"_type": "histogram", "values": [1.0, 0.0, 0.0, 1.0, 0.0, 0.0, 1.0, 0.0, 1.0, 1.0, 0.0, 1.0, 1.0, 5.0, 3.0, 5.0, 8.0, 14.0, 8.0, 13.0, 17.0, 22.0, 28.0, 39.0, 32.0, 45.0, 56.0, 80.0, 114.0, 151.0, 293.0, 566.0, 1172.0, 530.0, 268.0, 138.0, 123.0, 71.0, 56.0, 55.0, 28.0, 41.0, 21.0, 12.0, 16.0, 10.0, 13.0, 12.0, 5.0, 5.0, 4.0, 2.0, 1.0, 0.0, 2.0, 0.0, 0.0, 0.0, 2.0, 1.0, 0.0, 0.0, 1.0, 1.0], "bins": [-6.989182949066162, -6.7737884521484375, -6.558394432067871, -6.343000411987305, -6.12760591506958, -5.9122114181518555, -5.696817398071289, -5.481423377990723, -5.266028881072998, -5.050634384155273, -4.835240364074707, -4.619846343994141, -4.404451847076416, -4.189057350158691, -3.973663330078125, -3.7582690715789795, -3.542874813079834, -3.3274805545806885, -3.112086296081543, -2.8966920375823975, -2.681297779083252, -2.4659035205841064, -2.250509262084961, -2.0351150035858154, -1.81972074508667, -1.6043264865875244, -1.388932228088379, -1.1735379695892334, -0.9581437110900879, -0.7427494525909424, -0.5273551940917969, -0.31196093559265137, -0.09656620025634766, 0.11882805824279785, 0.33422231674194336, 0.5496165752410889, 0.7650108337402344, 0.9804050922393799, 1.1957993507385254, 1.411193609237671, 1.6265878677368164, 1.841982126235962, 2.0573763847351074, 2.272770643234253, 2.4881649017333984, 2.703559160232544, 2.9189534187316895, 3.134347677230835, 3.3497419357299805, 3.565136194229126, 3.7805304527282715, 3.995924711227417, 4.2113189697265625, 4.426712989807129, 4.6421074867248535, 4.857501983642578, 5.0728960037231445, 5.288290023803711, 5.5036845207214355, 5.71907901763916, 5.934473037719727, 6.149867057800293, 6.365261554718018, 6.580656051635742, 6.796050071716309]}, "gradients/decoder.lstm_cell.bias_ih": {"_type": "histogram", "values": [1.0, 0.0, 0.0, 0.0, 0.0, 0.0, 0.0, 0.0, 0.0, 1.0, 0.0, 0.0, 0.0, 0.0, 0.0, 0.0, 0.0, 1.0, 1.0, 0.0, 1.0, 0.0, 2.0, 1.0, 1.0, 0.0, 1.0, 0.0, 0.0, 1.0, 0.0, 0.0, 1.0, 3.0, 2.0, 6.0, 4.0, 4.0, 5.0, 13.0, 16.0, 26.0, 12.0, 3.0, 2.0, 2.0, 0.0, 2.0, 2.0, 1.0, 4.0, 0.0, 1.0, 0.0, 2.0, 0.0, 0.0, 2.0, 1.0, 1.0, 0.0, 1.0, 0.0, 1.0], "bins": [-8.573790550231934, -8.36763858795166, -8.16148567199707, -7.955333232879639, -7.749180793762207, -7.543028831481934, -7.336876392364502, -7.13072395324707, -6.924571514129639, -6.718419075012207, -6.512266635894775, -6.306114196777344, -6.09996223449707, -5.8938093185424805, -5.687657356262207, -5.481504917144775, -5.275352478027344, -5.069200038909912, -4.8630475997924805, -4.656895160675049, -4.450742721557617, -4.244590759277344, -4.038438320159912, -3.8322858810424805, -3.626133441925049, -3.419981002807617, -3.2138285636901855, -3.007676362991333, -2.8015239238739014, -2.5953714847564697, -2.389219284057617, -2.1830668449401855, -1.976914882659912, -1.7707624435424805, -1.5646101236343384, -1.3584578037261963, -1.1523053646087646, -0.946152925491333, -0.7400006055831909, -0.5338482856750488, -0.3276958465576172, -0.12154346704483032, 0.08460891246795654, 0.2907612919807434, 0.4969136714935303, 0.7030661106109619, 0.909218430519104, 1.115370750427246, 1.3215231895446777, 1.5276756286621094, 1.7338279485702515, 1.9399802684783936, 2.146132707595825, 2.352285146713257, 2.5584373474121094, 2.764589786529541, 2.9707422256469727, 3.1768946647644043, 3.383047103881836, 3.5891993045806885, 3.79535174369812, 4.001503944396973, 4.207656383514404, 4.413808822631836, 4.619961261749268]}, "gradients/decoder.lstm_cell.weight_ih": {"_type": "histogram", "values": [2.0, 0.0, 0.0, 1.0, 0.0, 0.0, 0.0, 5.0, 0.0, 4.0, 4.0, 3.0, 7.0, 4.0, 6.0, 12.0, 12.0, 12.0, 18.0, 20.0, 26.0, 29.0, 36.0, 48.0, 315.0, 1249.0, 201.0, 97.0, 56.0, 32.0, 14.0, 11.0, 3.0, 6.0, 5.0, 5.0, 10.0, 8.0, 2.0, 3.0, 5.0, 9.0, 3.0, 1.0, 2.0, 0.0, 2.0, 5.0, 1.0, 0.0, 2.0, 2.0, 1.0, 0.0, 0.0, 2.0, 0.0, 1.0, 0.0, 0.0, 0.0, 0.0, 1.0, 1.0], "bins": [-22.088953018188477, -21.214534759521484, -20.340118408203125, -19.465700149536133, -18.59128189086914, -17.71686553955078, -16.84244728088379, -15.968029975891113, -15.093612670898438, -14.219195365905762, -13.344778060913086, -12.470359802246094, -11.595942497253418, -10.721525192260742, -9.84710693359375, -8.972689628601074, -8.098272323608398, -7.223855018615723, -6.349437236785889, -5.475019454956055, -4.600602149963379, -3.726184844970703, -2.851767063140869, -1.9773492813110352, -1.1029319763183594, -0.2285144329071045, 0.6459031105041504, 1.5203206539154053, 2.39473819732666, 3.269155502319336, 4.14357328414917, 5.017991065979004, 5.8924102783203125, 6.766827583312988, 7.641245365142822, 8.515663146972656, 9.390080451965332, 10.264497756958008, 11.138916015625, 12.013333320617676, 12.887750625610352, 13.762167930603027, 14.636585235595703, 15.511003494262695, 16.385421752929688, 17.259838104248047, 18.13425636291504, 19.00867462158203, 19.88309097290039, 20.757509231567383, 21.631925582885742, 22.506343841552734, 23.380760192871094, 24.255178451538086, 25.129596710205078, 26.004013061523438, 26.87843132019043, 27.752849578857422, 28.62726593017578, 29.501684188842773, 30.376102447509766, 31.250518798828125, 32.124935150146484, 32.99935531616211, 33.87377166748047]}, "gradients/phi_z.nn_layers.2.bias": {"_type": "histogram", "values": [1.0, 0.0, 0.0, 0.0, 0.0, 0.0, 0.0, 0.0, 0.0, 1.0, 1.0, 0.0, 0.0, 0.0, 0.0, 0.0, 0.0, 0.0, 0.0, 0.0, 0.0, 0.0, 1.0, 0.0, 0.0, 0.0, 0.0, 0.0, 1.0, 2.0, 0.0, 0.0, 0.0, 0.0, 0.0, 1.0, 0.0, 1.0, 0.0, 1.0, 0.0, 2.0, 1.0, 0.0, 0.0, 0.0, 0.0, 2.0, 0.0, 0.0, 0.0, 0.0, 0.0, 0.0, 0.0, 0.0, 0.0, 0.0, 0.0, 0.0, 0.0, 0.0, 0.0, 1.0], "bins": [-2.238999366760254, -2.178816795349121, -2.118633985519409, -2.0584514141082764, -1.9982688426971436, -1.9380861520767212, -1.8779034614562988, -1.817720890045166, -1.7575381994247437, -1.6973555088043213, -1.6371729373931885, -1.5769902467727661, -1.5168075561523438, -1.456624984741211, -1.3964422941207886, -1.3362596035003662, -1.2760770320892334, -1.215894341468811, -1.1557117700576782, -1.0955290794372559, -1.035346508026123, -0.9751638174057007, -0.9149811267852783, -0.8547984957695007, -0.7946158647537231, -0.7344332337379456, -0.674250602722168, -0.6140679121017456, -0.553885281085968, -0.49370265007019043, -0.43351998925209045, -0.3733373284339905, -0.3131546974182129, -0.2529720664024353, -0.19278940558433533, -0.13260675966739655, -0.07242411375045776, -0.012241482734680176, 0.0479411780834198, 0.10812383890151978, 0.16830646991729736, 0.22848911583423615, 0.2886717617511749, 0.3488544225692749, 0.4090370535850525, 0.4692196846008301, 0.5294023752212524, 0.58958500623703, 0.6497676372528076, 0.7099502682685852, 0.7701328992843628, 0.8303155899047852, 0.8904982209205627, 0.9506808519363403, 1.0108635425567627, 1.0710461139678955, 1.1312288045883179, 1.1914114952087402, 1.251594066619873, 1.3117767572402954, 1.3719594478607178, 1.4321420192718506, 1.492324709892273, 1.5525074005126953, 1.6126899719238281]}, "gradients/phi_z.nn_layers.2.weight": {"_type": "histogram", "values": [1.0, 0.0, 1.0, 0.0, 1.0, 1.0, 0.0, 0.0, 1.0, 2.0, 0.0, 2.0, 1.0, 2.0, 2.0, 1.0, 0.0, 3.0, 1.0, 3.0, 4.0, 2.0, 2.0, 2.0, 2.0, 1.0, 0.0, 3.0, 5.0, 4.0, 2.0, 6.0, 9.0, 10.0, 12.0, 8.0, 7.0, 12.0, 20.0, 103.0, 9.0, 16.0, 14.0, 9.0, 4.0, 5.0, 7.0, 6.0, 1.0, 1.0, 1.0, 0.0, 1.0, 1.0, 0.0, 3.0, 0.0, 2.0, 1.0, 1.0, 0.0, 0.0, 0.0, 2.0], "bins": [-3.46109676361084, -3.3724780082702637, -3.2838590145111084, -3.1952402591705322, -3.106621265411377, -3.018002510070801, -2.9293835163116455, -2.8407647609710693, -2.752145767211914, -2.663527011871338, -2.5749080181121826, -2.4862892627716064, -2.397670269012451, -2.309051513671875, -2.2204325199127197, -2.1318137645721436, -2.0431947708129883, -1.9545758962631226, -1.8659570217132568, -1.7773381471633911, -1.6887192726135254, -1.6001003980636597, -1.511481523513794, -1.4228627681732178, -1.3342440128326416, -1.2456251382827759, -1.1570062637329102, -1.0683873891830444, -0.9797685146331787, -0.891149640083313, -0.802530825138092, -0.7139119505882263, -0.6252930164337158, -0.5366741418838501, -0.4480552673339844, -0.35943642258644104, -0.2708175480365753, -0.1821986734867096, -0.09357982873916626, -0.004960954189300537, 0.08365797996520996, 0.17227685451507568, 0.2608957290649414, 0.34951457381248474, 0.43813344836235046, 0.5267523527145386, 0.6153711676597595, 0.7039900422096252, 0.7926088571548462, 0.8812277317047119, 0.9698466062545776, 1.0584654808044434, 1.147084355354309, 1.2357032299041748, 1.324321985244751, 1.4129409790039062, 1.5015597343444824, 1.5901786088943481, 1.6787974834442139, 1.7674163579940796, 1.8560352325439453, 1.944654107093811, 2.0332729816436768, 2.121891736984253, 2.210510730743408]}, "gradients/phi_z.nn_layers.1.bias": {"_type": "histogram", "values": [1.0, 0.0, 0.0, 0.0, 0.0, 0.0, 1.0, 0.0, 0.0, 0.0, 0.0, 1.0, 0.0, 0.0, 0.0, 0.0, 0.0, 1.0, 0.0, 1.0, 1.0, 0.0, 1.0, 0.0, 0.0, 0.0, 1.0, 0.0, 0.0, 0.0, 1.0, 0.0, 0.0, 1.0, 0.0, 1.0, 0.0, 0.0, 0.0, 0.0, 0.0, 1.0, 1.0, 0.0, 0.0, 0.0, 0.0, 0.0, 0.0, 0.0, 0.0, 0.0, 0.0, 0.0, 0.0, 1.0, 0.0, 2.0, 2.0, 1.0, 0.0, 0.0, 0.0, 1.0], "bins": [-1.6893739700317383, -1.6605209112167358, -1.6316678524017334, -1.602814793586731, -1.5739617347717285, -1.545108675956726, -1.5162556171417236, -1.4874025583267212, -1.4585494995117188, -1.4296964406967163, -1.4008433818817139, -1.3719903230667114, -1.343137264251709, -1.3142842054367065, -1.285431146621704, -1.2565780878067017, -1.2277250289916992, -1.1988719701766968, -1.1700189113616943, -1.141165852546692, -1.1123127937316895, -1.083459734916687, -1.0546066761016846, -1.0257536172866821, -0.9969005584716797, -0.9680474996566772, -0.9391944408416748, -0.9103413820266724, -0.8814883232116699, -0.8526352643966675, -0.823782205581665, -0.7949291467666626, -0.7660760879516602, -0.7372230291366577, -0.7083699703216553, -0.6795169115066528, -0.6506638526916504, -0.621810793876648, -0.5929577350616455, -0.5641046762466431, -0.5352516174316406, -0.5063985586166382, -0.47754549980163574, -0.4486924409866333, -0.41983938217163086, -0.3909863233566284, -0.362133264541626, -0.33328020572662354, -0.3044271171092987, -0.27557405829429626, -0.24672099947929382, -0.21786794066429138, -0.18901488184928894, -0.1601618230342865, -0.13130876421928406, -0.10245570540428162, -0.07360264658927917, -0.04474958777427673, -0.015896528959274292, 0.01295652985572815, 0.04180958867073059, 0.07066264748573303, 0.09951570630073547, 0.12836876511573792, 0.15722182393074036]}, "gradients/phi_z.nn_layers.1.weight": {"_type": "histogram", "values": [1.0, 0.0, 1.0, 1.0, 0.0, 0.0, 0.0, 0.0, 0.0, 1.0, 1.0, 1.0, 0.0, 1.0, 0.0, 1.0, 0.0, 0.0, 0.0, 1.0, 0.0, 1.0, 1.0, 3.0, 2.0, 0.0, 2.0, 4.0, 4.0, 5.0, 5.0, 3.0, 6.0, 5.0, 7.0, 7.0, 8.0, 7.0, 9.0, 6.0, 9.0, 11.0, 12.0, 12.0, 18.0, 14.0, 7.0, 7.0, 10.0, 11.0, 6.0, 7.0, 7.0, 13.0, 76.0, 70.0, 4.0, 3.0, 3.0, 1.0, 1.0, 0.0, 1.0, 3.0], "bins": [-2.025636672973633, -1.988816499710083, -1.9519964456558228, -1.915176272392273, -1.8783560991287231, -1.841536045074463, -1.804715871810913, -1.7678956985473633, -1.7310755252838135, -1.6942553520202637, -1.6574352979660034, -1.6206151247024536, -1.5837949514389038, -1.5469748973846436, -1.5101547241210938, -1.473334550857544, -1.4365144968032837, -1.3996943235397339, -1.3628742694854736, -1.3260540962219238, -1.289233922958374, -1.2524137496948242, -1.215593695640564, -1.1787735223770142, -1.141953468322754, -1.105133295059204, -1.0683132410049438, -1.031493067741394, -0.9946728944778442, -0.9578527808189392, -0.9210326671600342, -0.8842124938964844, -0.8473922610282898, -0.8105721473693848, -0.773751974105835, -0.7369318604469299, -0.7001117467880249, -0.6632915735244751, -0.6264714598655701, -0.589651346206665, -0.5528311729431152, -0.5160110592842102, -0.4791908860206604, -0.44237077236175537, -0.40555062890052795, -0.36873048543930054, -0.3319103717803955, -0.2950902283191681, -0.2582700848579407, -0.22144994139671326, -0.18462981283664703, -0.1478096842765808, -0.1109895408153534, -0.07416939735412598, -0.03734926879405975, -0.0005291402339935303, 0.03629100322723389, 0.0731111392378807, 0.10993127524852753, 0.14675140380859375, 0.18357154726982117, 0.22039169073104858, 0.2572118043899536, 0.29403194785118103, 0.33085209131240845]}, "gradients/phi_z.nn_layers.0.bias": {"_type": "histogram", "values": [1.0, 0.0, 0.0, 0.0, 0.0, 0.0, 1.0, 0.0, 0.0, 1.0, 0.0, 2.0, 1.0, 0.0, 0.0, 0.0, 0.0, 0.0, 1.0, 1.0, 0.0, 0.0, 0.0, 0.0, 0.0, 1.0, 2.0, 1.0, 0.0, 1.0, 0.0, 2.0, 0.0, 2.0, 0.0, 0.0, 0.0, 0.0, 0.0, 0.0, 0.0, 0.0, 0.0, 0.0, 0.0, 0.0, 0.0, 0.0, 0.0, 0.0, 0.0, 0.0, 0.0, 0.0, 0.0, 0.0, 0.0, 0.0, 0.0, 0.0, 1.0, 1.0, 0.0, 1.0], "bins": [-1.714431881904602, -1.6860945224761963, -1.657757043838501, -1.6294196844100952, -1.6010822057724, -1.5727448463439941, -1.5444073677062988, -1.516070008277893, -1.4877326488494873, -1.4593952894210815, -1.4310578107833862, -1.4027204513549805, -1.3743829727172852, -1.3460456132888794, -1.3177082538604736, -1.2893707752227783, -1.261033296585083, -1.2326959371566772, -1.204358458518982, -1.1760210990905762, -1.1476836204528809, -1.119346261024475, -1.0910089015960693, -1.062671422958374, -1.0343340635299683, -1.0059967041015625, -0.9776592254638672, -0.9493218660354614, -0.9209844470024109, -0.8926470279693604, -0.8643096089363098, -0.8359721899032593, -0.807634711265564, -0.7792972922325134, -0.7509598731994629, -0.7226225137710571, -0.6942850947380066, -0.665947675704956, -0.6376102566719055, -0.609272837638855, -0.5809354186058044, -0.5525979995727539, -0.5242605805397034, -0.4959231913089752, -0.4675857722759247, -0.43924838304519653, -0.410910964012146, -0.38257354497909546, -0.3542361855506897, -0.32589876651763916, -0.297561377286911, -0.2692239582538605, -0.24088653922080994, -0.2125491350889206, -0.18421173095703125, -0.1558743119239807, -0.12753689289093018, -0.09919948130846024, -0.0708620697259903, -0.04252466559410095, -0.014187254011631012, 0.014150157570838928, 0.04248756170272827, 0.07082498073577881, 0.09916238486766815]}, "gradients/phi_z.nn_layers.0.weight": {"_type": "histogram", "values": [1.0, 0.0, 0.0, 1.0, 1.0, 1.0, 0.0, 0.0, 2.0, 3.0, 1.0, 5.0, 2.0, 3.0, 3.0, 0.0, 4.0, 2.0, 2.0, 2.0, 1.0, 1.0, 7.0, 6.0, 3.0, 7.0, 8.0, 7.0, 6.0, 7.0, 9.0, 9.0, 6.0, 5.0, 7.0, 10.0, 6.0, 6.0, 6.0, 7.0, 6.0, 8.0, 10.0, 10.0, 6.0, 8.0, 12.0, 12.0, 6.0, 13.0, 2.0, 6.0, 25.0, 18.0, 2.0, 8.0, 4.0, 4.0, 1.0, 0.0, 0.0, 0.0, 1.0, 1.0], "bins": [-1.4938693046569824, -1.4656260013580322, -1.4373828172683716, -1.4091395139694214, -1.3808962106704712, -1.352652907371521, -1.3244097232818604, -1.2961664199829102, -1.26792311668396, -1.2396798133850098, -1.2114366292953491, -1.183193325996399, -1.1549500226974487, -1.1267067193984985, -1.098463535308838, -1.0702202320098877, -1.0419769287109375, -1.0137336254119873, -0.9854903817176819, -0.9572471380233765, -0.9290038347244263, -0.9007605910301208, -0.8725173473358154, -0.8442740440368652, -0.8160308599472046, -0.7877876162528992, -0.759544312953949, -0.7313010692596436, -0.7030577659606934, -0.6748145222663879, -0.6465712785720825, -0.6183279752731323, -0.5900847315788269, -0.5618414878845215, -0.5335981845855713, -0.5053549408912659, -0.4771116375923157, -0.44886839389801025, -0.42062512040138245, -0.39238184690475464, -0.36413854360580444, -0.33589527010917664, -0.30765199661254883, -0.2794087529182434, -0.2511654496192932, -0.2229221910238266, -0.19467893242835999, -0.16643565893173218, -0.13819241523742676, -0.10994914174079895, -0.08170587569475174, -0.05346260964870453, -0.02521933615207672, 0.0030239373445510864, 0.0312671959400177, 0.05951046943664551, 0.08775374293327332, 0.11599701642990112, 0.14424028992652893, 0.17248354852199554, 0.20072682201862335, 0.22897009551525116, 0.2572133541107178, 0.2854566276073456, 0.3136999011039734]}, "gradients/c_means": {"_type": "histogram", "values": [1.0, 0.0, 0.0, 0.0, 1.0, 0.0, 1.0, 0.0, 1.0, 0.0, 1.0, 0.0, 2.0, 0.0, 1.0, 1.0, 2.0, 4.0, 2.0, 4.0, 4.0, 1.0, 7.0, 2.0, 4.0, 4.0, 5.0, 3.0, 6.0, 7.0, 4.0, 8.0, 5.0, 14.0, 7.0, 5.0, 6.0, 5.0, 3.0, 5.0, 5.0, 0.0, 0.0, 1.0, 2.0, 2.0, 3.0, 1.0, 1.0, 0.0, 1.0, 3.0, 1.0, 0.0, 2.0, 1.0, 3.0, 1.0, 1.0, 0.0, 2.0, 3.0, 0.0, 1.0], "bins": [-0.33101385831832886, -0.32529985904693604, -0.3195858597755432, -0.3138718605041504, -0.30815789103507996, -0.30244389176368713, -0.2967298924922943, -0.2910158932209015, -0.28530189394950867, -0.27958789467811584, -0.273873895406723, -0.2681599259376526, -0.26244592666625977, -0.25673192739486694, -0.2510179281234741, -0.2453039288520813, -0.23958995938301086, -0.23387596011161804, -0.2281619757413864, -0.2224479764699936, -0.21673397719860077, -0.21101999282836914, -0.20530599355697632, -0.1995919942855835, -0.19387799501419067, -0.18816399574279785, -0.18245001137256622, -0.1767360121011734, -0.17102201282978058, -0.16530802845954895, -0.15959402918815613, -0.1538800299167633, -0.14816603064537048, -0.14245203137397766, -0.13673804700374603, -0.1310240477323532, -0.1253100484609604, -0.11959606409072876, -0.11388206481933594, -0.10816807299852371, -0.10245408862829208, -0.09674009680747986, -0.09102609753608704, -0.08531210571527481, -0.07959811389446259, -0.07388411462306976, -0.06817012280225754, -0.06245613098144531, -0.05674213171005249, -0.051028136163949966, -0.04531414434313774, -0.03960014879703522, -0.03388615697622299, -0.028172161430120468, -0.022458165884017944, -0.01674417406320572, -0.011030178517103195, -0.005316184367984533, 0.00039780978113412857, 0.006111804395914078, 0.011825798079371452, 0.017539791762828827, 0.02325378730893135, 0.028967779129743576, 0.0346817746758461]}, "gradients/log_c_vars": {"_type": "histogram", "values": [1.0, 0.0, 0.0, 0.0, 0.0, 0.0, 0.0, 0.0, 0.0, 0.0, 0.0, 0.0, 1.0, 0.0, 0.0, 0.0, 0.0, 1.0, 0.0, 0.0, 0.0, 0.0, 1.0, 0.0, 1.0, 0.0, 0.0, 1.0, 1.0, 0.0, 0.0, 0.0, 0.0, 0.0, 1.0, 0.0, 0.0, 0.0, 0.0, 0.0, 0.0, 0.0, 0.0, 0.0, 0.0, 0.0, 0.0, 0.0, 0.0, 1.0, 0.0, 0.0, 0.0, 0.0, 0.0, 0.0, 0.0, 0.0, 0.0, 0.0, 0.0, 0.0, 0.0, 1.0], "bins": [-0.24731996655464172, -0.23653219640254974, -0.22574441134929657, -0.2149566411972046, -0.2041688710451126, -0.19338110089302063, -0.18259331583976746, -0.17180554568767548, -0.1610177755355835, -0.15023000538349152, -0.13944222033023834, -0.12865445017814636, -0.11786668002605438, -0.1070789024233818, -0.09629112482070923, -0.08550335466861725, -0.07471556961536407, -0.0639277920126915, -0.05314002186059952, -0.04235224425792694, -0.03156447038054466, -0.020776696503162384, -0.009988918900489807, 0.0007988512516021729, 0.011586636304855347, 0.022374410182237625, 0.033162184059619904, 0.04394996166229248, 0.05473773553967476, 0.06552550941705704, 0.07631328701972961, 0.0871010571718216, 0.09788882732391357, 0.10867660492658615, 0.11946437507867813, 0.1302521526813507, 0.1410399228334427, 0.15182769298553467, 0.16261547803878784, 0.17340324819087982, 0.1841910183429718, 0.19497878849506378, 0.20576657354831696, 0.21655434370040894, 0.22734211385250092, 0.2381298840045929, 0.24891766905784607, 0.25970542430877686, 0.27049320936203003, 0.2812809944152832, 0.292068749666214, 0.30285653471946716, 0.31364431977272034, 0.3244320750236511, 0.3352198600769043, 0.34600764513015747, 0.35679543018341064, 0.3675832152366638, 0.3783709704875946, 0.3891587555408478, 0.39994654059410095, 0.41073429584503174, 0.4215220808982849, 0.4323098659515381, 0.44309762120246887]}, "_runtime": 39.84806966781616, "_step": 6, "train/epoch": 6, "train/loss": -6491.374862670898, "train/loglik": 630.0088500976562, "train/kldiv": -1515.7769775390625, "train/out_l": 54.017005920410156, "1/epoch": 2, "1/loss": 74.6245346069336, "1/loglik": -25.61478614807129, "1/kldiv": -0.25361302495002747, "1/out_l": 1.458987832069397, "1/avg_clus_dist": 2.8717827796936035, "1/acc": 0.003335556946694851, "1/macro_f1": [NaN, 0.003335556946694851], "1/micro_f1": [NaN, 0.003335556946694851], "1/Receiver_Operating_Char_table": {"_type": "table-file", "sha256": "6d845ae9ccd453d45bca0366dfbffda5693a67c0ba97a15f75f1dec218533c66", "size": 75920, "artifact_path": "wandb-client-artifact://cwno46ol0i4i6cb3rm0piiwumc73vrsh6fkou4fe2e2pvbcafqq667upurvcf91klzeq505c8rtg22pnrcofxnq6n7e5hi3nfsed54m1tly5apvnquzu01x0bz3fudec:latest/1/Receiver_Operating_Char_table.table.json", "_latest_artifact_path": "wandb-client-artifact://cwno46ol0i4i6cb3rm0piiwumc73vrsh6fkou4fe2e2pvbcafqq667upurvcf91klzeq505c8rtg22pnrcofxnq6n7e5hi3nfsed54m1tly5apvnquzu01x0bz3fudec:latest/1/Receiver_Operating_Char_table.table.json", "path": "media/table/1/Receiver_Operating_Char_table_2_6d845ae9ccd453d45bca.table.json", "ncols": 3, "nrows": 3657}, "1/Precision_Recall_table": {"_type": "table-file", "sha256": "8a1459f5e829b29438886ce206bb30bb4872e79ea41e830fd3b31ccab1683fba", "size": 1678, "artifact_path": "wandb-client-artifact://v0y5bu8knlz88d844a0udltehjq9n59fgpegsfys1x5ahb4d4698g8seshx9ucbq6e8ab41372yectw9ju3oqd0tblwlribue7gn521vus1z9tfgmpk2uj1biaj4i2dx:latest/1/Precision_Recall_table.table.json", "_latest_artifact_path": "wandb-client-artifact://v0y5bu8knlz88d844a0udltehjq9n59fgpegsfys1x5ahb4d4698g8seshx9ucbq6e8ab41372yectw9ju3oqd0tblwlribue7gn521vus1z9tfgmpk2uj1biaj4i2dx:latest/1/Precision_Recall_table.table.json", "path": "media/table/1/Precision_Recall_table_2_8a1459f5e829b2943888.table.json", "ncols": 3, "nrows": 84}, "2/epoch": 3, "2/loss": 28.279420852661133, "2/loglik": -11.294624328613281, "2/kldiv": -1.3490873575210571, "2/out_l": 1.557191014289856, "2/avg_clus_dist": 2.87712025642395, "2/acc": 0.003335556946694851, "2/macro_f1": [NaN, 0.003335556946694851], "2/micro_f1": [NaN, 0.003335556946694851], "2/Receiver_Operating_Char_table": {"_type": "table-file", "sha256": "91ccfa5276f1f74740a92da03e649027474f8f41a38ff3d54c9f4f4c6f100a17", "size": 78805, "artifact_path": "wandb-client-artifact://8g9tcm5uxl97u1z61pn9rzpqpowxu9uuz9p6uni20gg3lqxgajj1n4d9xhy56jb2z4xrhm8w5lvkvdyrfhyl6nq22qzwjra4cj52531ahsyhi85mpu4ioawnmjktbmco:latest/2/Receiver_Operating_Char_table.table.json", "_latest_artifact_path": "wandb-client-artifact://8g9tcm5uxl97u1z61pn9rzpqpowxu9uuz9p6uni20gg3lqxgajj1n4d9xhy56jb2z4xrhm8w5lvkvdyrfhyl6nq22qzwjra4cj52531ahsyhi85mpu4ioawnmjktbmco:latest/2/Receiver_Operating_Char_table.table.json", "path": "media/table/2/Receiver_Operating_Char_table_3_91ccfa5276f1f74740a9.table.json", "ncols": 3, "nrows": 3793}, "2/Precision_Recall_table": {"_type": "table-file", "sha256": "084b364837b6fe20ebf9b537c56a778bdeda9e95e427904d5676f8dcbba28fba", "size": 1682, "artifact_path": "wandb-client-artifact://f8k3z9dnz0v0zso509lg06w29m3ubbd5zoyo97o3zi72l62b1qvqh6810ui6zvytf5qytbl3jnbnxhrqrbede8pqqifjcxmczoah2vu5xurmizt37l0oo2gsp9sx8j5a:latest/2/Precision_Recall_table.table.json", "_latest_artifact_path": "wandb-client-artifact://f8k3z9dnz0v0zso509lg06w29m3ubbd5zoyo97o3zi72l62b1qvqh6810ui6zvytf5qytbl3jnbnxhrqrbede8pqqifjcxmczoah2vu5xurmizt37l0oo2gsp9sx8j5a:latest/2/Precision_Recall_table.table.json", "path": "media/table/2/Precision_Recall_table_3_084b364837b6fe20ebf9.table.json", "ncols": 3, "nrows": 84}, "3/epoch": 4, "3/loss": -53.646785736083984, "3/loglik": 11.153840065002441, "3/kldiv": -6.119483470916748, "3/out_l": 1.8268122673034668, "3/avg_clus_dist": 2.8754727840423584, "3/acc": 0.003335556946694851, "3/macro_f1": [NaN, 0.003335556946694851], "3/micro_f1": [NaN, 0.003335556946694851], "3/Receiver_Operating_Char_table": {"_type": "table-file", "sha256": "915c01befbd0507cd28886143c1063a5ce906dc831c91aa605b2e0e2b92ad8de", "size": 75931, "artifact_path": "wandb-client-artifact://d67lppfqstole9u4wspjto4gh8zemkgdeongjzw6pmbuimliyybu1jih0f05ok5k9tqma13ce85rwkjhbceey84muu2q10fdb4n2r5dkqyo2k123jbezz7cmovnr26g0:latest/3/Receiver_Operating_Char_table.table.json", "_latest_artifact_path": "wandb-client-artifact://d67lppfqstole9u4wspjto4gh8zemkgdeongjzw6pmbuimliyybu1jih0f05ok5k9tqma13ce85rwkjhbceey84muu2q10fdb4n2r5dkqyo2k123jbezz7cmovnr26g0:latest/3/Receiver_Operating_Char_table.table.json", "path": "media/table/3/Receiver_Operating_Char_table_4_915c01befbd0507cd288.table.json", "ncols": 3, "nrows": 3655}, "3/Precision_Recall_table": {"_type": "table-file", "sha256": "aa6ab5eec1ed4409e53fe46536719fef1bd69a8466f3baaa2b1bb2e463c801fb", "size": 1681, "artifact_path": "wandb-client-artifact://gjec33qtkjgrs3fgn5oqqrilbw9xqoj5rnhrkoiv57ar3snz7rm99p17yrw0zn7a77e8h0r6wqknneg7ituq92hz7oiuv4vtij51al7md520h30pno005kt3vfrj692b:latest/3/Precision_Recall_table.table.json", "_latest_artifact_path": "wandb-client-artifact://gjec33qtkjgrs3fgn5oqqrilbw9xqoj5rnhrkoiv57ar3snz7rm99p17yrw0zn7a77e8h0r6wqknneg7ituq92hz7oiuv4vtij51al7md520h30pno005kt3vfrj692b:latest/3/Precision_Recall_table.table.json", "path": "media/table/3/Precision_Recall_table_4_aa6ab5eec1ed4409e53f.table.json", "ncols": 3, "nrows": 84}, "4/epoch": 5, "4/loss": -248.7652587890625, "4/loglik": 35.10103225708008, "4/kldiv": -47.0706787109375, "4/out_l": 2.250087022781372, "4/avg_clus_dist": 2.8728630542755127, "4/acc": 0.003335556946694851, "4/macro_f1": [NaN, 0.003335556946694851], "4/micro_f1": [NaN, 0.003335556946694851], "4/Receiver_Operating_Char_table": {"_type": "table-file", "sha256": "025cd5b1aa7ef6863c095cadcbf506edba63ace4570327b358d13a9dc71df0ca", "size": 76012, "artifact_path": "wandb-client-artifact://bdkskt0w92xrhgkgp8db87vtq31exaz4sikrmy5aisdvqj67spkf2d3hz1mdlehcr14b5cf53gtsg6noemrykdbob4fs13njferlpbowils4t0czt61auc8l5pvrdg23:latest/4/Receiver_Operating_Char_table.table.json", "_latest_artifact_path": "wandb-client-artifact://bdkskt0w92xrhgkgp8db87vtq31exaz4sikrmy5aisdvqj67spkf2d3hz1mdlehcr14b5cf53gtsg6noemrykdbob4fs13njferlpbowils4t0czt61auc8l5pvrdg23:latest/4/Receiver_Operating_Char_table.table.json", "path": "media/table/4/Receiver_Operating_Char_table_5_025cd5b1aa7ef6863c09.table.json", "ncols": 3, "nrows": 3659}, "4/Precision_Recall_table": {"_type": "table-file", "sha256": "6cf156b04f24363e934ea52c18dcecedff1447bad083ef18d8087e23b8a44c66", "size": 1679, "artifact_path": "wandb-client-artifact://7wqsh1ol5isb109ereqvdtfbwvykw6jx85p2beq6om7i33l3kmbe3w6a74etb8v7vy4zh9pzbzzleg369dst8rb5dseilarg2be6qjc2nxitc02mw24311x6br9xwoe4:latest/4/Precision_Recall_table.table.json", "_latest_artifact_path": "wandb-client-artifact://7wqsh1ol5isb109ereqvdtfbwvykw6jx85p2beq6om7i33l3kmbe3w6a74etb8v7vy4zh9pzbzzleg369dst8rb5dseilarg2be6qjc2nxitc02mw24311x6br9xwoe4:latest/4/Precision_Recall_table.table.json", "path": "media/table/4/Precision_Recall_table_5_6cf156b04f24363e934e.table.json", "ncols": 3, "nrows": 84}, "5/epoch": 6, "5/loss": -604.2899780273438, "5/loglik": 43.1643180847168, "5/kldiv": -157.04566955566406, "5/out_l": 3.659942865371704, "5/avg_clus_dist": 2.867386817932129, "5/acc": 0.003335556946694851, "5/macro_f1": [NaN, 0.003335556946694851], "5/micro_f1": [NaN, 0.003335556946694851], "5/Receiver_Operating_Char_table": {"_type": "table-file", "sha256": "a85a8acbeabf57f0644d5584f20afd8620a7e39f1a9364ca37125beaba368fd7", "size": 77023, "artifact_path": "wandb-client-artifact://mf6jlix7z4mtbayayofgwen70fdo7xgattshx7f3i29k3zqzad5wto0hk5sfif87698lqcn5k71a7ip7z7qj1dwi4w0j46kiergh8xh81g32lwayj7nr8kktkmytnrh8:latest/5/Receiver_Operating_Char_table.table.json", "_latest_artifact_path": "wandb-client-artifact://mf6jlix7z4mtbayayofgwen70fdo7xgattshx7f3i29k3zqzad5wto0hk5sfif87698lqcn5k71a7ip7z7qj1dwi4w0j46kiergh8xh81g32lwayj7nr8kktkmytnrh8:latest/5/Receiver_Operating_Char_table.table.json", "path": "media/table/5/Receiver_Operating_Char_table_6_a85a8acbeabf57f0644d.table.json", "ncols": 3, "nrows": 3708}, "5/Precision_Recall_table": {"_type": "table-file", "sha256": "6a2ef89bf85cda32f2e1e2dcd0f5d71045a5995f6fe6507fa2bac866dfa90e00", "size": 1667, "artifact_path": "wandb-client-artifact://ey7tbimg1o67n62ea3av5gxlnqoaqgcln236e427y6lmuhl6pwiu4wpio3if79av2zas0q5sn6od33ehgs0pnj27laqxkzpp7d98gclfc9ckpr2i7ufb2v61dwlpt67s:latest/5/Precision_Recall_table.table.json", "_latest_artifact_path": "wandb-client-artifact://ey7tbimg1o67n62ea3av5gxlnqoaqgcln236e427y6lmuhl6pwiu4wpio3if79av2zas0q5sn6od33ehgs0pnj27laqxkzpp7d98gclfc9ckpr2i7ufb2v61dwlpt67s:latest/5/Precision_Recall_table.table.json", "path": "media/table/5/Precision_Recall_table_6_6a2ef89bf85cda32f2e1.table.json", "ncols": 3, "nrows": 84}, "_wandb": {"runtime": 38}}