{"gradients/predictor.nn_layers.2.bias": {"_type": "histogram", "values": [1.0, 0.0, 0.0, 0.0, 0.0, 0.0, 0.0, 0.0, 0.0, 0.0, 0.0, 0.0, 0.0, 0.0, 0.0, 0.0, 0.0, 0.0, 0.0, 0.0, 0.0, 1.0, 0.0, 0.0, 0.0, 0.0, 0.0, 0.0, 0.0, 0.0, 0.0, 0.0, 0.0, 0.0, 0.0, 0.0, 0.0, 0.0, 0.0, 0.0, 0.0, 0.0, 0.0, 0.0, 0.0, 0.0, 0.0, 0.0, 0.0, 0.0, 0.0, 0.0, 0.0, 0.0, 0.0, 0.0, 0.0, 0.0, 0.0, 0.0, 1.0, 0.0, 0.0, 1.0], "bins": [-0.5522339344024658, -0.5370802879333496, -0.5219266414642334, -0.5067729949951172, -0.491619348526001, -0.47646573185920715, -0.46131208539009094, -0.44615843892097473, -0.4310047924518585, -0.4158511459827423, -0.4006974995136261, -0.3855438530445099, -0.37039023637771606, -0.35523658990859985, -0.34008294343948364, -0.32492929697036743, -0.3097756505012512, -0.294622004032135, -0.2794683575630188, -0.2643147110939026, -0.24916107952594757, -0.23400743305683136, -0.21885380148887634, -0.20370015501976013, -0.18854650855064392, -0.1733928620815277, -0.1582392156124115, -0.14308558404445648, -0.12793193757534027, -0.11277829110622406, -0.09762465208768845, -0.08247101306915283, -0.06731736660003662, -0.05216372385621071, -0.037010081112384796, -0.021856438368558884, -0.006702795624732971, 0.008450847119092941, 0.023604489862918854, 0.038758132606744766, 0.05391177535057068, 0.06906542181968689, 0.0842190608382225, 0.09937269985675812, 0.11452634632587433, 0.12967999279499054, 0.14483362436294556, 0.15998727083206177, 0.17514091730117798, 0.1902945637702942, 0.2054482102394104, 0.22060184180736542, 0.23575548827648163, 0.25090911984443665, 0.26606276631355286, 0.28121641278266907, 0.2963700592517853, 0.3115237057209015, 0.3266773521900177, 0.3418309986591339, 0.35698461532592773, 0.37213826179504395, 0.38729190826416016, 0.40244555473327637, 0.4175992012023926]}, "_timestamp": 1686659141.5973413, "gradients/predictor.nn_layers.2.weight": {"_type": "histogram", "values": [1.0, 0.0, 0.0, 0.0, 0.0, 1.0, 0.0, 0.0, 0.0, 0.0, 0.0, 1.0, 0.0, 1.0, 2.0, 0.0, 0.0, 1.0, 0.0, 0.0, 1.0, 1.0, 1.0, 1.0, 1.0, 1.0, 3.0, 1.0, 1.0, 0.0, 2.0, 3.0, 2.0, 1.0, 3.0, 1.0, 20.0, 1.0, 2.0, 3.0, 2.0, 0.0, 1.0, 1.0, 1.0, 2.0, 2.0, 1.0, 0.0, 1.0, 1.0, 3.0, 1.0, 2.0, 1.0, 1.0, 1.0, 0.0, 0.0, 1.0, 1.0, 0.0, 0.0, 1.0], "bins": [-0.9312738180160522, -0.9056812524795532, -0.8800886869430542, -0.8544960618019104, -0.8289034962654114, -0.8033109307289124, -0.7777183651924133, -0.7521257996559143, -0.7265331745147705, -0.7009406089782715, -0.6753480434417725, -0.6497554779052734, -0.6241629123687744, -0.5985703468322754, -0.5729777216911316, -0.5473851561546326, -0.5217925906181335, -0.4962000250816345, -0.4706074297428131, -0.4450148642063141, -0.4194222688674927, -0.39382970333099365, -0.36823713779449463, -0.3426445424556732, -0.3170519769191742, -0.29145941138267517, -0.26586681604385376, -0.24027425050735474, -0.21468167006969452, -0.1890890896320343, -0.16349652409553528, -0.13790394365787506, -0.11231136322021484, -0.08671878278255463, -0.061126209795475006, -0.03553363308310509, -0.009941056370735168, 0.01565152034163475, 0.04124409705400467, 0.06683667004108429, 0.0924292504787445, 0.11802183091640472, 0.14361441135406494, 0.16920697689056396, 0.19479955732822418, 0.2203921377658844, 0.24598470330238342, 0.27157729864120483, 0.29716986417770386, 0.3227624297142029, 0.3483550250530243, 0.3739475905895233, 0.3995401859283447, 0.42513275146484375, 0.4507253170013428, 0.4763179123401642, 0.5019104480743408, 0.5275030732154846, 0.5530956387519836, 0.5786882042884827, 0.6042807698249817, 0.6298733353614807, 0.6554659605026245, 0.6810585260391235, 0.7066510915756226]}, "gradients/predictor.nn_layers.1.bias": {"_type": "histogram", "values": [1.0, 0.0, 1.0, 0.0, 0.0, 0.0, 0.0, 0.0, 1.0, 0.0, 0.0, 1.0, 0.0, 0.0, 0.0, 0.0, 0.0, 1.0, 1.0, 0.0, 0.0, 0.0, 0.0, 1.0, 0.0, 0.0, 0.0, 0.0, 0.0, 1.0, 0.0, 0.0, 1.0, 0.0, 0.0, 0.0, 0.0, 0.0, 1.0, 1.0, 1.0, 0.0, 0.0, 2.0, 0.0, 0.0, 0.0, 0.0, 0.0, 0.0, 0.0, 0.0, 0.0, 0.0, 0.0, 0.0, 0.0, 1.0, 0.0, 0.0, 0.0, 0.0, 1.0, 4.0], "bins": [-0.3133828639984131, -0.3084382712841034, -0.3034936785697937, -0.298549085855484, -0.2936044931411743, -0.2886599004268646, -0.28371530771255493, -0.27877071499824524, -0.27382612228393555, -0.26888155937194824, -0.26393696665763855, -0.25899237394332886, -0.25404778122901917, -0.24910318851470947, -0.24415859580039978, -0.2392140030860901, -0.2342694103717804, -0.2293248176574707, -0.224380224943161, -0.21943563222885132, -0.21449103951454163, -0.20954646170139313, -0.20460186898708344, -0.19965727627277374, -0.19471268355846405, -0.18976809084415436, -0.18482349812984467, -0.17987890541553497, -0.17493432760238647, -0.16998973488807678, -0.1650451421737671, -0.1601005494594574, -0.1551559567451477, -0.150211364030838, -0.14526677131652832, -0.14032217860221863, -0.13537758588790894, -0.13043300807476044, -0.12548841536045074, -0.12054382264614105, -0.11559922993183136, -0.11065463721752167, -0.10571004450321198, -0.10076545923948288, -0.09582086652517319, -0.0908762738108635, -0.0859316810965538, -0.08098709583282471, -0.07604250311851501, -0.07109791040420532, -0.06615331768989563, -0.061208728700876236, -0.05626413971185684, -0.05131954699754715, -0.046374958008527756, -0.04143036529421806, -0.03648577630519867, -0.03154118359088898, -0.026596594601869583, -0.02165200188755989, -0.016707412898540497, -0.011762821115553379, -0.006818230263888836, -0.0018736394122242928, 0.0030709514394402504]}, "gradients/predictor.nn_layers.1.weight": {"_type": "histogram", "values": [1.0, 0.0, 1.0, 0.0, 0.0, 0.0, 0.0, 0.0, 1.0, 2.0, 1.0, 0.0, 0.0, 0.0, 0.0, 1.0, 0.0, 1.0, 3.0, 0.0, 1.0, 2.0, 2.0, 3.0, 3.0, 0.0, 1.0, 4.0, 4.0, 3.0, 0.0, 3.0, 2.0, 6.0, 3.0, 4.0, 4.0, 7.0, 2.0, 4.0, 10.0, 4.0, 4.0, 7.0, 8.0, 6.0, 11.0, 6.0, 9.0, 9.0, 6.0, 9.0, 9.0, 6.0, 7.0, 5.0, 7.0, 3.0, 12.0, 8.0, 7.0, 14.0, 57.0, 107.0], "bins": [-0.3764851689338684, -0.37051957845687866, -0.36455395817756653, -0.3585883677005768, -0.35262274742126465, -0.3466571569442749, -0.34069153666496277, -0.334725946187973, -0.3287603557109833, -0.32279473543167114, -0.3168291449546814, -0.31086352467536926, -0.3048979341983795, -0.29893234372138977, -0.29296672344207764, -0.2870011329650879, -0.28103551268577576, -0.275069922208786, -0.2691043019294739, -0.26313871145248413, -0.2571731209754944, -0.25120750069618225, -0.2452418953180313, -0.23927630484104156, -0.23331069946289062, -0.22734509408473969, -0.22137948870658875, -0.2154138833284378, -0.20944827795028687, -0.20348268747329712, -0.19751708209514618, -0.19155147671699524, -0.1855858713388443, -0.17962026596069336, -0.1736546754837036, -0.16768907010555267, -0.16172346472740173, -0.1557578593492508, -0.14979225397109985, -0.1438266485929489, -0.13786104321479797, -0.13189545273780823, -0.1259298473596573, -0.11996424198150635, -0.11399863660335541, -0.10803303122520447, -0.10206743329763412, -0.09610182791948318, -0.09013622254133224, -0.0841706246137619, -0.07820501923561096, -0.07223941385746002, -0.06627381592988968, -0.06030821055173874, -0.0543426088988781, -0.04837700352072716, -0.042411401867866516, -0.036445796489715576, -0.030480194836854935, -0.024514593183994293, -0.018548989668488503, -0.012583386152982712, -0.006617783103138208, -0.000652180053293705, 0.005313422996550798]}, "gradients/predictor.nn_layers.0.bias": {"_type": "histogram", "values": [1.0, 0.0, 0.0, 0.0, 0.0, 0.0, 0.0, 0.0, 0.0, 0.0, 0.0, 0.0, 0.0, 0.0, 0.0, 0.0, 0.0, 0.0, 0.0, 0.0, 0.0, 0.0, 1.0, 0.0, 0.0, 0.0, 0.0, 0.0, 1.0, 1.0, 1.0, 0.0, 0.0, 0.0, 0.0, 1.0, 0.0, 0.0, 0.0, 1.0, 1.0, 0.0, 1.0, 0.0, 0.0, 1.0, 0.0, 1.0, 0.0, 0.0, 0.0, 1.0, 1.0, 0.0, 0.0, 0.0, 1.0, 1.0, 0.0, 0.0, 0.0, 1.0, 2.0, 2.0], "bins": [-0.48061686754226685, -0.4731072187423706, -0.46559759974479675, -0.4580879509449005, -0.4505783021450043, -0.4430686831474304, -0.4355590343475342, -0.42804938554763794, -0.4205397665500641, -0.41303011775016785, -0.4055204689502716, -0.39801084995269775, -0.3905012011528015, -0.3829915523529053, -0.3754819333553314, -0.3679722845554352, -0.36046266555786133, -0.3529530167579651, -0.34544336795806885, -0.337933748960495, -0.33042410016059875, -0.3229144513607025, -0.31540483236312866, -0.3078951835632324, -0.3003855347633362, -0.29287591576576233, -0.2853662669658661, -0.27785661816596985, -0.270346999168396, -0.26283735036849976, -0.2553277015686035, -0.24781806766986847, -0.24030843377113342, -0.23279879987239838, -0.22528915107250214, -0.2177795171737671, -0.21026988327503204, -0.2027602344751358, -0.19525060057640076, -0.1877409666776657, -0.18023133277893066, -0.17272168397903442, -0.16521205008029938, -0.15770241618156433, -0.1501927673816681, -0.14268313348293304, -0.135173499584198, -0.12766385078430176, -0.12015421688556671, -0.11264457553625107, -0.10513494163751602, -0.09762530028820038, -0.09011566638946533, -0.08260602504014969, -0.07509638369083405, -0.067586749792099, -0.060077108442783356, -0.05256747081875801, -0.045057833194732666, -0.03754819184541702, -0.030038554221391678, -0.022528916597366333, -0.015019277110695839, -0.0075096385553479195, 0.0]}, "gradients/predictor.nn_layers.0.weight": {"_type": "histogram", "values": [1.0, 0.0, 0.0, 0.0, 0.0, 1.0, 0.0, 0.0, 0.0, 0.0, 0.0, 0.0, 1.0, 0.0, 0.0, 0.0, 0.0, 1.0, 0.0, 1.0, 1.0, 2.0, 0.0, 1.0, 2.0, 3.0, 1.0, 2.0, 0.0, 0.0, 3.0, 3.0, 3.0, 6.0, 2.0, 5.0, 8.0, 6.0, 5.0, 6.0, 4.0, 10.0, 14.0, 6.0, 7.0, 14.0, 14.0, 14.0, 16.0, 18.0, 19.0, 67.0, 19.0, 11.0, 4.0, 5.0, 2.0, 4.0, 3.0, 1.0, 1.0, 1.0, 1.0, 1.0], "bins": [-0.6287859082221985, -0.616684079170227, -0.6045823097229004, -0.592480480670929, -0.5803787112236023, -0.5682768821716309, -0.5561751127243042, -0.5440732836723328, -0.5319714546203613, -0.5198696851730347, -0.5077678561210632, -0.4956660866737366, -0.48356425762176514, -0.4714624583721161, -0.45936065912246704, -0.447258859872818, -0.43515706062316895, -0.4230552613735199, -0.41095346212387085, -0.3988516628742218, -0.38674986362457275, -0.3746480345726013, -0.36254623532295227, -0.3504444360733032, -0.3383426368236542, -0.3262408375740051, -0.3141390383243561, -0.30203723907470703, -0.2899354100227356, -0.27783361077308655, -0.2657318115234375, -0.25363001227378845, -0.2415281981229782, -0.22942639887332916, -0.21732458472251892, -0.20522278547286987, -0.19312098622322083, -0.18101918697357178, -0.16891738772392273, -0.1568155735731125, -0.14471377432346344, -0.1326119750738144, -0.12051016837358475, -0.1084083616733551, -0.09630656242370605, -0.084204763174057, -0.07210295647382736, -0.060001153498888016, -0.04789935052394867, -0.03579754754900932, -0.023695744574069977, -0.01159394159913063, 0.0005078613758087158, 0.012609664350748062, 0.02471146732568741, 0.036813270300626755, 0.0489150732755661, 0.06101687625050545, 0.0731186792254448, 0.08522048592567444, 0.09732228517532349, 0.10942408442497253, 0.12152589112520218, 0.13362769782543182, 0.14572949707508087]}, "gradients/cell_update.nn_layers.2.bias": {"_type": "histogram", "values": [1.0, 0.0, 1.0, 0.0, 0.0, 0.0, 0.0, 0.0, 1.0, 0.0, 0.0, 0.0, 1.0, 0.0, 2.0, 6.0, 2.0, 1.0, 0.0, 0.0, 0.0, 0.0, 0.0, 0.0, 0.0, 0.0, 0.0, 0.0, 0.0, 0.0, 0.0, 0.0, 0.0, 0.0, 0.0, 0.0, 0.0, 0.0, 0.0, 0.0, 0.0, 0.0, 0.0, 0.0, 0.0, 0.0, 0.0, 0.0, 0.0, 0.0, 0.0, 0.0, 0.0, 0.0, 0.0, 0.0, 0.0, 0.0, 0.0, 0.0, 0.0, 0.0, 0.0, 1.0], "bins": [-2.415806531906128, -2.2584569454193115, -2.101107597351074, -1.9437580108642578, -1.7864084243774414, -1.629058837890625, -1.4717093706130981, -1.3143599033355713, -1.1570103168487549, -0.9996607899665833, -0.8423112630844116, -0.68496173620224, -0.5276122093200684, -0.37026268243789673, -0.2129131555557251, -0.05556362867355347, 0.10178589820861816, 0.2591354250907898, 0.4164849519729614, 0.5738344788551331, 0.7311840057373047, 0.8885335326194763, 1.045883059501648, 1.2032325267791748, 1.3605821132659912, 1.5179316997528076, 1.6752811670303345, 1.8326306343078613, 1.9899802207946777, 2.147329807281494, 2.3046793937683105, 2.462028741836548, 2.619378089904785, 2.7767276763916016, 2.934077262878418, 3.0914266109466553, 3.2487761974334717, 3.406125783920288, 3.5634751319885254, 3.720824718475342, 3.878174304962158, 4.035523891448975, 4.192873477935791, 4.350223064422607, 4.507572174072266, 4.664921760559082, 4.822271347045898, 4.979620933532715, 5.136970520019531, 5.294320106506348, 5.451669692993164, 5.6090192794799805, 5.766368865966797, 5.923717975616455, 6.0810675621032715, 6.238417148590088, 6.395766735076904, 6.553116321563721, 6.710465908050537, 6.8678154945373535, 7.025164604187012, 7.182514190673828, 7.3398637771606445, 7.497213363647461, 7.654562950134277]}, "gradients/cell_update.nn_layers.2.weight": {"_type": "histogram", "values": [1.0, 0.0, 0.0, 1.0, 1.0, 2.0, 1.0, 2.0, 2.0, 1.0, 4.0, 4.0, 4.0, 5.0, 21.0, 256.0, 6.0, 1.0, 0.0, 0.0, 0.0, 0.0, 0.0, 0.0, 0.0, 0.0, 0.0, 1.0, 0.0, 1.0, 0.0, 0.0, 0.0, 0.0, 1.0, 1.0, 0.0, 0.0, 0.0, 0.0, 0.0, 0.0, 0.0, 0.0, 0.0, 1.0, 1.0, 0.0, 1.0, 0.0, 0.0, 0.0, 0.0, 0.0, 0.0, 0.0, 0.0, 0.0, 0.0, 0.0, 0.0, 0.0, 0.0, 1.0], "bins": [-18.270898818969727, -17.068923950195312, -15.866950035095215, -14.664976119995117, -13.463001251220703, -12.261027336120605, -11.059053421020508, -9.857078552246094, -8.655104637145996, -7.45313024520874, -6.251155853271484, -5.049181938171387, -3.847207546234131, -2.645233154296875, -1.4432590007781982, -0.24128472805023193, 0.9606895446777344, 2.1626639366149902, 3.364638090133667, 4.566612243652344, 5.7685866355896, 6.9705610275268555, 8.172534942626953, 9.374509811401367, 10.576483726501465, 11.778457641601562, 12.980432510375977, 14.182406425476074, 15.384380340576172, 16.586355209350586, 17.788330078125, 18.99030303955078, 20.192279815673828, 21.394254684448242, 22.596227645874023, 23.798202514648438, 25.00017738342285, 26.202150344848633, 27.404125213623047, 28.60610008239746, 29.808074951171875, 31.010047912597656, 32.21202087402344, 33.413997650146484, 34.615970611572266, 35.81794357299805, 37.019920349121094, 38.221893310546875, 39.423866271972656, 40.6258430480957, 41.827816009521484, 43.02979278564453, 44.23176574707031, 45.433738708496094, 46.63571548461914, 47.83768844604492, 49.0396614074707, 50.24163818359375, 51.44361114501953, 52.64558410644531, 53.84756088256836, 55.04953384399414, 56.25150680541992, 57.45348358154297, 58.65545654296875]}, "gradients/cell_update.nn_layers.1.bias": {"_type": "histogram", "values": [1.0, 0.0, 0.0, 0.0, 0.0, 0.0, 0.0, 0.0, 0.0, 0.0, 0.0, 0.0, 1.0, 0.0, 0.0, 0.0, 0.0, 0.0, 0.0, 0.0, 0.0, 0.0, 0.0, 0.0, 1.0, 0.0, 0.0, 0.0, 0.0, 0.0, 0.0, 0.0, 0.0, 0.0, 0.0, 0.0, 0.0, 0.0, 0.0, 1.0, 0.0, 0.0, 0.0, 0.0, 1.0, 0.0, 0.0, 0.0, 1.0, 1.0, 0.0, 0.0, 0.0, 0.0, 0.0, 0.0, 0.0, 11.0, 0.0, 0.0, 0.0, 0.0, 1.0, 1.0], "bins": [-1.5248253345489502, -1.4981218576431274, -1.4714183807373047, -1.444714903831482, -1.4180114269256592, -1.3913079500198364, -1.3646044731140137, -1.337900996208191, -1.3111975193023682, -1.284494161605835, -1.2577906847000122, -1.2310872077941895, -1.2043837308883667, -1.177680253982544, -1.1509767770767212, -1.1242733001708984, -1.0975698232650757, -1.070866346359253, -1.0441628694534302, -1.0174593925476074, -0.9907559156417847, -0.9640524983406067, -0.9373490214347839, -0.9106455445289612, -0.8839420676231384, -0.8572385907173157, -0.8305351138114929, -0.8038316369056702, -0.7771282196044922, -0.7504247426986694, -0.7237212657928467, -0.6970177888870239, -0.6703143119812012, -0.6436108350753784, -0.6169073581695557, -0.5902038812637329, -0.5635004043579102, -0.5367969274520874, -0.5100934505462646, -0.4833900034427643, -0.45668652653694153, -0.4299830496311188, -0.4032796025276184, -0.37657612562179565, -0.3498726487159729, -0.32316917181015015, -0.2964656949043274, -0.269762247800827, -0.24305877089500427, -0.21635529398918152, -0.18965183198451996, -0.1629483699798584, -0.13624489307403564, -0.10954142361879349, -0.08283795416355133, -0.056134484708309174, -0.029431015253067017, -0.0027275457978248596, 0.023975923657417297, 0.050679393112659454, 0.07738286256790161, 0.10408633202314377, 0.13078980147838593, 0.15749326348304749, 0.18419674038887024]}, "gradients/cell_update.nn_layers.1.weight": {"_type": "histogram", "values": [2.0, 0.0, 0.0, 0.0, 0.0, 0.0, 0.0, 0.0, 2.0, 0.0, 0.0, 1.0, 1.0, 0.0, 2.0, 2.0, 0.0, 1.0, 0.0, 1.0, 1.0, 1.0, 1.0, 2.0, 1.0, 3.0, 1.0, 1.0, 1.0, 1.0, 1.0, 2.0, 2.0, 2.0, 1.0, 1.0, 0.0, 0.0, 1.0, 3.0, 0.0, 0.0, 3.0, 2.0, 2.0, 3.0, 2.0, 5.0, 5.0, 5.0, 7.0, 7.0, 4.0, 1.0, 0.0, 0.0, 292.0, 0.0, 0.0, 1.0, 5.0, 9.0, 6.0, 3.0], "bins": [-5.913800239562988, -5.809048652648926, -5.704297065734863, -5.599545478820801, -5.494793891906738, -5.390042781829834, -5.2852911949157715, -5.180539608001709, -5.0757880210876465, -4.971036434173584, -4.8662848472595215, -4.761533260345459, -4.6567816734313965, -4.552030086517334, -4.44727897644043, -4.342527389526367, -4.237775802612305, -4.133024215698242, -4.02827262878418, -3.923521041870117, -3.8187694549560547, -3.7140181064605713, -3.609266519546509, -3.5045149326324463, -3.399763345718384, -3.2950117588043213, -3.190260410308838, -3.0855088233947754, -2.980757236480713, -2.8760056495666504, -2.771254301071167, -2.6665027141571045, -2.561751365661621, -2.4569997787475586, -2.352248191833496, -2.2474966049194336, -2.142745018005371, -2.0379936695098877, -1.9332420825958252, -1.8284904956817627, -1.7237389087677002, -1.6189874410629272, -1.5142358541488647, -1.4094843864440918, -1.3047327995300293, -1.1999813318252563, -1.0952297449111938, -0.9904782176017761, -0.8857266902923584, -0.7809751629829407, -0.676223635673523, -0.5714721083641052, -0.4667205512523651, -0.3619690239429474, -0.2572174668312073, -0.15246593952178955, -0.047714412212371826, 0.057037122547626495, 0.16178865730762482, 0.26654019951820374, 0.37129172682762146, 0.4760432541370392, 0.5807948112487793, 0.685546338558197, 0.7902978658676147]}, "gradients/cell_update.nn_layers.0.bias": {"_type": "histogram", "values": [1.0, 0.0, 0.0, 1.0, 0.0, 0.0, 0.0, 0.0, 0.0, 0.0, 0.0, 0.0, 1.0, 0.0, 0.0, 1.0, 0.0, 1.0, 0.0, 0.0, 0.0, 0.0, 0.0, 0.0, 0.0, 1.0, 0.0, 0.0, 0.0, 0.0, 0.0, 2.0, 1.0, 1.0, 0.0, 0.0, 0.0, 0.0, 0.0, 1.0, 0.0, 0.0, 0.0, 0.0, 1.0, 0.0, 0.0, 0.0, 0.0, 0.0, 0.0, 0.0, 0.0, 0.0, 0.0, 0.0, 0.0, 0.0, 0.0, 0.0, 0.0, 0.0, 0.0, 8.0], "bins": [-0.9480618238449097, -0.9332483410835266, -0.9184349179267883, -0.9036214351654053, -0.8888079524040222, -0.8739944696426392, -0.8591810464859009, -0.8443675637245178, -0.8295540809631348, -0.8147406578063965, -0.7999271750450134, -0.7851136922836304, -0.7703002095222473, -0.755486786365509, -0.740673303604126, -0.7258598208427429, -0.7110463380813599, -0.6962329149246216, -0.6814194321632385, -0.6666059494018555, -0.6517925262451172, -0.6369790434837341, -0.6221655607223511, -0.607352077960968, -0.5925386548042297, -0.5777251720428467, -0.5629116892814636, -0.5480982661247253, -0.5332847833633423, -0.5184713006019592, -0.5036578178405762, -0.4888443648815155, -0.47403091192245483, -0.45921745896339417, -0.4444039762020111, -0.42959052324295044, -0.4147770404815674, -0.3999635875225067, -0.38515010476112366, -0.370336651802063, -0.35552316904067993, -0.34070971608161926, -0.3258962631225586, -0.31108278036117554, -0.29626932740211487, -0.2814558446407318, -0.26664239168167114, -0.2518289089202881, -0.23701545596122742, -0.22220198810100555, -0.2073885202407837, -0.19257505238056183, -0.17776158452033997, -0.1629481315612793, -0.14813466370105743, -0.13332119584083557, -0.11850772798061371, -0.10369426012039185, -0.08888079226016998, -0.07406733185052872, -0.059253863990306854, -0.04444039613008499, -0.029626931995153427, -0.014813465997576714, 0.0]}, "gradients/cell_update.nn_layers.0.weight": {"_type": "histogram", "values": [1.0, 2.0, 2.0, 3.0, 4.0, 2.0, 2.0, 3.0, 5.0, 10.0, 9.0, 12.0, 5.0, 3.0, 15.0, 13.0, 12.0, 12.0, 12.0, 14.0, 11.0, 20.0, 19.0, 10.0, 9.0, 14.0, 2.0, 1.0, 1.0, 0.0, 0.0, 0.0, 384.0, 0.0, 0.0, 0.0, 2.0, 3.0, 3.0, 4.0, 19.0, 21.0, 17.0, 18.0, 31.0, 17.0, 30.0, 27.0, 11.0, 5.0, 23.0, 18.0, 8.0, 12.0, 15.0, 10.0, 20.0, 7.0, 6.0, 1.0, 10.0, 2.0, 6.0, 2.0], "bins": [-0.9157387018203735, -0.8878926634788513, -0.8600466847419739, -0.8322006464004517, -0.8043546676635742, -0.776508629322052, -0.7486625909805298, -0.7208166122436523, -0.6929705739021301, -0.6651245355606079, -0.6372785568237305, -0.6094325184822083, -0.581586480140686, -0.5537405014038086, -0.5258944630622864, -0.49804845452308655, -0.4702024459838867, -0.4423564374446869, -0.41451042890548706, -0.38666439056396484, -0.358818382024765, -0.3309723734855652, -0.30312633514404297, -0.27528032660484314, -0.2474343180656433, -0.21958830952644348, -0.19174228608608246, -0.16389626264572144, -0.1360502541065216, -0.10820423811674118, -0.08035822212696075, -0.05251220613718033, -0.024666130542755127, 0.003179885447025299, 0.031025901436805725, 0.05887191742658615, 0.08671793341636658, 0.114563949406147, 0.14240996539592743, 0.17025598883628845, 0.19810199737548828, 0.2259480059146881, 0.25379401445388794, 0.28164005279541016, 0.30948606133461, 0.3373320698738098, 0.36517810821533203, 0.39302411675453186, 0.4208701252937317, 0.4487161338329315, 0.47656214237213135, 0.5044081807136536, 0.5322542190551758, 0.5601001977920532, 0.5879462361335754, 0.6157922148704529, 0.6436382532119751, 0.6714842915534973, 0.6993302702903748, 0.727176308631897, 0.7550222873687744, 0.7828683257102966, 0.8107143640518188, 0.8385603427886963, 0.8664063811302185]}, "gradients/encoder.nn_layers.2.bias": {"_type": "histogram", "values": [1.0, 0.0, 0.0, 0.0, 0.0, 0.0, 0.0, 0.0, 1.0, 0.0, 1.0, 0.0, 0.0, 0.0, 0.0, 0.0, 0.0, 0.0, 0.0, 1.0, 0.0, 1.0, 1.0, 0.0, 1.0, 0.0, 0.0, 0.0, 0.0, 0.0, 0.0, 0.0, 0.0, 1.0, 0.0, 0.0, 0.0, 0.0, 0.0, 0.0, 0.0, 0.0, 0.0, 0.0, 0.0, 0.0, 0.0, 0.0, 0.0, 0.0, 0.0, 0.0, 0.0, 1.0, 0.0, 0.0, 0.0, 0.0, 0.0, 0.0, 0.0, 0.0, 0.0, 1.0], "bins": [-2.255002737045288, -2.1678569316864014, -2.0807111263275146, -1.9935652017593384, -1.9064193964004517, -1.819273591041565, -1.7321276664733887, -1.644981861114502, -1.5578360557556152, -1.4706902503967285, -1.3835444450378418, -1.2963985204696655, -1.2092527151107788, -1.122106909751892, -1.0349609851837158, -0.9478151798248291, -0.8606693744659424, -0.7735235691070557, -0.6863777041435242, -0.5992318391799927, -0.512086033821106, -0.42494019865989685, -0.33779436349868774, -0.25064852833747864, -0.16350269317626953, -0.07635685801506042, 0.010788977146148682, 0.09793481230735779, 0.1850806474685669, 0.272226482629776, 0.3593723177909851, 0.4465181529521942, 0.5336639881134033, 0.62080979347229, 0.7079556584358215, 0.795101523399353, 0.8822473287582397, 0.9693931341171265, 1.0565390586853027, 1.1436848640441895, 1.2308306694030762, 1.317976474761963, 1.4051222801208496, 1.4922682046890259, 1.5794140100479126, 1.6665598154067993, 1.7537057399749756, 1.8408515453338623, 1.927997350692749, 2.0151431560516357, 2.1022889614105225, 2.189434766769409, 2.276580810546875, 2.3637266159057617, 2.4508724212646484, 2.538018226623535, 2.625164031982422, 2.7123098373413086, 2.7994556427001953, 2.886601448059082, 2.9737472534179688, 3.0608932971954346, 3.1480391025543213, 3.235184907913208, 3.3223307132720947]}, "gradients/encoder.nn_layers.2.weight": {"_type": "histogram", "values": [1.0, 0.0, 2.0, 0.0, 2.0, 1.0, 1.0, 1.0, 2.0, 2.0, 1.0, 0.0, 0.0, 2.0, 1.0, 2.0, 1.0, 1.0, 5.0, 0.0, 1.0, 8.0, 8.0, 18.0, 112.0, 3.0, 2.0, 2.0, 2.0, 1.0, 0.0, 2.0, 1.0, 2.0, 0.0, 0.0, 1.0, 1.0, 0.0, 0.0, 2.0, 0.0, 0.0, 0.0, 0.0, 0.0, 1.0, 1.0, 0.0, 1.0, 1.0, 0.0, 0.0, 1.0, 0.0, 1.0, 0.0, 1.0, 0.0, 1.0, 0.0, 0.0, 0.0, 1.0], "bins": [-2.4246363639831543, -2.3252878189086914, -2.2259392738342285, -2.1265907287597656, -2.0272421836853027, -1.9278936386108398, -1.828545093536377, -1.729196548461914, -1.6298480033874512, -1.5304994583129883, -1.4311509132385254, -1.3318023681640625, -1.2324538230895996, -1.1331052780151367, -1.0337567329406738, -0.9344081878662109, -0.835059642791748, -0.7357110977172852, -0.6363625526428223, -0.5370140075683594, -0.4376654624938965, -0.3383169174194336, -0.2389683723449707, -0.1396198272705078, -0.04027128219604492, 0.05907726287841797, 0.15842580795288086, 0.25777435302734375, 0.35712289810180664, 0.45647144317626953, 0.5558199882507324, 0.6551685333251953, 0.7545170783996582, 0.8538656234741211, 0.953214168548584, 1.0525627136230469, 1.1519112586975098, 1.2512598037719727, 1.3506083488464355, 1.4499568939208984, 1.5493054389953613, 1.6486539840698242, 1.748002529144287, 1.84735107421875, 1.946699619293213, 2.046048164367676, 2.1453967094421387, 2.2447452545166016, 2.3440937995910645, 2.4434423446655273, 2.5427908897399902, 2.642139434814453, 2.741487979888916, 2.840836524963379, 2.940185070037842, 3.0395336151123047, 3.1388821601867676, 3.2382307052612305, 3.3375792503356934, 3.4369277954101562, 3.536276340484619, 3.635624885559082, 3.734973430633545, 3.834321975708008, 3.9336705207824707]}, "gradients/encoder.nn_layers.1.bias": {"_type": "histogram", "values": [1.0, 0.0, 0.0, 0.0, 0.0, 0.0, 0.0, 0.0, 0.0, 0.0, 0.0, 0.0, 1.0, 0.0, 0.0, 1.0, 2.0, 0.0, 0.0, 0.0, 10.0, 0.0, 1.0, 0.0, 0.0, 0.0, 0.0, 0.0, 0.0, 0.0, 0.0, 0.0, 0.0, 0.0, 0.0, 0.0, 0.0, 0.0, 0.0, 0.0, 0.0, 2.0, 0.0, 0.0, 0.0, 0.0, 0.0, 0.0, 0.0, 0.0, 0.0, 0.0, 0.0, 0.0, 0.0, 0.0, 0.0, 0.0, 0.0, 0.0, 0.0, 1.0, 0.0, 1.0], "bins": [-0.4378891587257385, -0.4160047471523285, -0.39412033557891846, -0.3722359240055084, -0.3503515124320984, -0.32846710085868835, -0.3065826892852783, -0.2846982777118683, -0.26281386613845825, -0.24092945456504822, -0.21904504299163818, -0.19716063141822815, -0.17527621984481812, -0.15339180827140808, -0.13150739669799805, -0.10962298512458801, -0.08773857355117798, -0.06585416197776794, -0.04396975040435791, -0.022085338830947876, -0.0002009272575378418, 0.021683484315872192, 0.04356789588928223, 0.06545230746269226, 0.0873367190361023, 0.10922113060951233, 0.13110554218292236, 0.1529899537563324, 0.17487436532974243, 0.19675877690315247, 0.2186431884765625, 0.24052760004997253, 0.2624119520187378, 0.2842963635921478, 0.30618077516555786, 0.3280651867389679, 0.34994959831237793, 0.37183400988578796, 0.393718421459198, 0.41560283303260803, 0.43748724460601807, 0.4593716561794281, 0.48125606775283813, 0.5031404495239258, 0.5250248908996582, 0.5469093322753906, 0.5687937140464783, 0.5906780958175659, 0.6125625371932983, 0.6344469785690308, 0.6563313603401184, 0.678215742111206, 0.7001001834869385, 0.7219846248626709, 0.7438690066337585, 0.7657533884048462, 0.7876378297805786, 0.809522271156311, 0.8314066529273987, 0.8532910346984863, 0.8751754760742188, 0.8970599174499512, 0.9189442992210388, 0.9408286809921265, 0.9627131223678589]}, "gradients/encoder.nn_layers.1.weight": {"_type": "histogram", "values": [1.0, 0.0, 0.0, 0.0, 0.0, 0.0, 1.0, 0.0, 0.0, 0.0, 0.0, 1.0, 1.0, 0.0, 1.0, 2.0, 0.0, 0.0, 0.0, 1.0, 1.0, 5.0, 8.0, 13.0, 318.0, 12.0, 3.0, 2.0, 1.0, 1.0, 4.0, 1.0, 1.0, 1.0, 1.0, 1.0, 2.0, 2.0, 2.0, 3.0, 1.0, 0.0, 1.0, 1.0, 0.0, 1.0, 0.0, 0.0, 0.0, 1.0, 0.0, 1.0, 1.0, 0.0, 1.0, 0.0, 0.0, 0.0, 0.0, 0.0, 1.0, 0.0, 0.0, 1.0], "bins": [-1.2572052478790283, -1.2065800428390503, -1.1559548377990723, -1.1053296327590942, -1.0547044277191162, -1.0040791034698486, -0.9534538984298706, -0.9028286933898926, -0.8522034883499146, -0.8015782833099365, -0.7509530782699585, -0.7003278136253357, -0.6497026085853577, -0.5990774035453796, -0.5484521389007568, -0.4978269338607788, -0.4472017288208008, -0.39657652378082275, -0.34595128893852234, -0.2953260540962219, -0.2447008490562439, -0.19407562911510468, -0.14345040917396545, -0.09282518923282623, -0.04219996929168701, 0.00842525064945221, 0.05905047059059143, 0.10967569053173065, 0.16030091047286987, 0.2109261304140091, 0.2615513503551483, 0.31217658519744873, 0.36280179023742676, 0.4134269952774048, 0.4640522301197052, 0.5146774649620056, 0.5653026700019836, 0.6159278750419617, 0.6665531396865845, 0.7171783447265625, 0.7678035497665405, 0.8184287548065186, 0.8690539598464966, 0.9196792244911194, 0.9703044295310974, 1.0209296941757202, 1.0715548992156982, 1.1221801042556763, 1.1728053092956543, 1.2234305143356323, 1.2740557193756104, 1.3246809244155884, 1.3753061294555664, 1.425931453704834, 1.476556658744812, 1.52718186378479, 1.577807068824768, 1.628432273864746, 1.6790574789047241, 1.7296826839447021, 1.7803080081939697, 1.8309332132339478, 1.8815584182739258, 1.9321836233139038, 1.9828088283538818]}, "gradients/encoder.nn_layers.0.bias": {"_type": "histogram", "values": [1.0, 0.0, 1.0, 1.0, 1.0, 0.0, 0.0, 0.0, 0.0, 0.0, 11.0, 0.0, 0.0, 0.0, 0.0, 0.0, 0.0, 0.0, 0.0, 0.0, 0.0, 0.0, 0.0, 0.0, 0.0, 0.0, 0.0, 0.0, 1.0, 1.0, 0.0, 0.0, 0.0, 0.0, 0.0, 0.0, 0.0, 0.0, 1.0, 0.0, 0.0, 0.0, 0.0, 0.0, 0.0, 0.0, 0.0, 1.0, 0.0, 0.0, 0.0, 0.0, 0.0, 0.0, 0.0, 0.0, 0.0, 0.0, 0.0, 0.0, 0.0, 0.0, 0.0, 1.0], "bins": [-0.1264519989490509, -0.11468935757875443, -0.10292671620845795, -0.09116407483816147, -0.07940143346786499, -0.06763879209756851, -0.055876150727272034, -0.044113509356975555, -0.03235086798667908, -0.0205882266163826, -0.00882558524608612, 0.0029370561242103577, 0.014699697494506836, 0.026462338864803314, 0.03822498023509979, 0.04998762160539627, 0.06175026297569275, 0.07351290434598923, 0.0852755457162857, 0.09703818708658218, 0.10880082845687866, 0.12056346982717514, 0.13232611119747162, 0.1440887451171875, 0.15585139393806458, 0.16761404275894165, 0.17937667667865753, 0.1911393105983734, 0.2029019594192505, 0.21466460824012756, 0.22642724215984344, 0.23818987607955933, 0.2499525547027588, 0.26171520352363586, 0.27347785234451294, 0.2852404713630676, 0.2970031201839447, 0.3087657690048218, 0.32052838802337646, 0.33229103684425354, 0.3440536856651306, 0.3558163344860077, 0.36757898330688477, 0.37934160232543945, 0.39110425114631653, 0.4028668999671936, 0.4146295189857483, 0.42639216780662537, 0.43815481662750244, 0.4499174654483795, 0.4616801142692566, 0.4734427332878113, 0.48520538210868835, 0.49696803092956543, 0.5087306499481201, 0.5204933285713196, 0.5322559475898743, 0.544018566608429, 0.5557812452316284, 0.5675438642501831, 0.5793064832687378, 0.5910691618919373, 0.6028317809104919, 0.6145944595336914, 0.6263570785522461]}, "gradients/encoder.nn_layers.0.weight": {"_type": "histogram", "values": [11.0, 1.0, 1.0, 3.0, 2.0, 0.0, 1.0, 0.0, 0.0, 1.0, 3.0, 2.0, 8.0, 3.0, 2.0, 4.0, 5.0, 2.0, 8.0, 0.0, 6.0, 23.0, 10.0, 3.0, 14.0, 3.0, 5.0, 4.0, 12.0, 3.0, 1.0, 0.0, 368.0, 4.0, 3.0, 21.0, 21.0, 5.0, 9.0, 8.0, 7.0, 2.0, 14.0, 6.0, 1.0, 7.0, 0.0, 0.0, 2.0, 1.0, 2.0, 6.0, 1.0, 1.0, 0.0, 0.0, 0.0, 0.0, 0.0, 0.0, 0.0, 1.0, 3.0, 6.0], "bins": [-0.5520010590553284, -0.5348697900772095, -0.5177385210990906, -0.5006071925163269, -0.483475923538208, -0.4663446545600891, -0.4492133557796478, -0.43208208680152893, -0.41495078802108765, -0.39781951904296875, -0.38068825006484985, -0.36355695128440857, -0.3464256823062897, -0.3292943835258484, -0.3121631145477295, -0.2950318157672882, -0.2779005467891693, -0.2607692778110504, -0.24363797903060913, -0.22650669515132904, -0.20937541127204895, -0.19224414229393005, -0.17511285841464996, -0.15798157453536987, -0.14085029065608978, -0.12371900677680969, -0.1065877228975296, -0.08945644646883011, -0.07232516258955002, -0.05519387871026993, -0.038062598556280136, -0.020931316539645195, -0.003800034523010254, 0.013331247493624687, 0.03046252951025963, 0.04759380966424942, 0.06472509354352951, 0.0818563774228096, 0.0989876538515091, 0.11611893773078918, 0.13325022161006927, 0.15038150548934937, 0.16751278936862946, 0.18464407324790955, 0.20177534222602844, 0.21890662610530853, 0.23603790998458862, 0.2531692087650299, 0.2703004777431488, 0.2874317467212677, 0.304563045501709, 0.3216943144798279, 0.33882561326026917, 0.35595688223838806, 0.37308818101882935, 0.39021944999694824, 0.40735071897506714, 0.4244820177555084, 0.4416132867336273, 0.4587445855140686, 0.4758758544921875, 0.4930071532726288, 0.5101384520530701, 0.527269721031189, 0.5444009900093079]}, "gradients/phi_x.nn_layers.2.bias": {"_type": "histogram", "values": [1.0, 0.0, 0.0, 0.0, 0.0, 0.0, 0.0, 0.0, 0.0, 0.0, 0.0, 0.0, 0.0, 0.0, 0.0, 0.0, 0.0, 0.0, 0.0, 1.0, 0.0, 1.0, 0.0, 0.0, 0.0, 0.0, 0.0, 0.0, 0.0, 0.0, 0.0, 0.0, 0.0, 1.0, 0.0, 2.0, 0.0, 0.0, 2.0, 0.0, 2.0, 1.0, 0.0, 2.0, 1.0, 0.0, 0.0, 0.0, 0.0, 0.0, 0.0, 0.0, 0.0, 0.0, 1.0, 0.0, 0.0, 0.0, 0.0, 0.0, 0.0, 0.0, 0.0, 1.0], "bins": [-0.567439079284668, -0.5482025742530823, -0.5289660096168518, -0.5097295045852661, -0.4904929995536804, -0.47125646471977234, -0.45201992988586426, -0.43278342485427856, -0.4135468900203705, -0.3943103551864624, -0.3750738501548767, -0.35583731532096863, -0.33660078048706055, -0.31736427545547485, -0.2981277406215668, -0.2788912355899811, -0.259654700756073, -0.2404181808233261, -0.22118166089057922, -0.20194512605667114, -0.18270860612392426, -0.16347208619117737, -0.1442355513572693, -0.1249990314245224, -0.10576251149177551, -0.08652599155902863, -0.06728946417570114, -0.048052940517663956, -0.02881641685962677, -0.009579893201589584, 0.009656630456447601, 0.028893154114484787, 0.04812973737716675, 0.06736625730991364, 0.08660278469324112, 0.1058393120765686, 0.1250758320093155, 0.14431235194206238, 0.16354888677597046, 0.18278540670871735, 0.20202192664146423, 0.22125844657421112, 0.240494966506958, 0.2597315013408661, 0.27896803617477417, 0.29820454120635986, 0.31744107604026794, 0.33667758107185364, 0.3559141159057617, 0.3751506507396698, 0.3943871557712555, 0.4136236906051636, 0.43286019563674927, 0.45209673047065735, 0.47133326530456543, 0.4905697703361511, 0.5098062753677368, 0.5290428400039673, 0.548279345035553, 0.5675158500671387, 0.5867524147033691, 0.6059889197349548, 0.6252254247665405, 0.644461989402771, 0.6636984944343567]}, "gradients/phi_x.nn_layers.2.weight": {"_type": "histogram", "values": [1.0, 0.0, 0.0, 0.0, 0.0, 0.0, 0.0, 1.0, 0.0, 2.0, 0.0, 0.0, 1.0, 0.0, 1.0, 0.0, 0.0, 1.0, 3.0, 0.0, 2.0, 1.0, 4.0, 2.0, 6.0, 3.0, 8.0, 6.0, 3.0, 80.0, 13.0, 32.0, 26.0, 31.0, 14.0, 19.0, 10.0, 10.0, 8.0, 9.0, 3.0, 2.0, 3.0, 3.0, 2.0, 0.0, 3.0, 1.0, 0.0, 1.0, 0.0, 0.0, 1.0, 1.0, 2.0, 0.0, 0.0, 0.0, 0.0, 0.0, 0.0, 0.0, 0.0, 1.0], "bins": [-0.7365535497665405, -0.7116524577140808, -0.6867513656616211, -0.6618502140045166, -0.6369491219520569, -0.6120480298995972, -0.5871468782424927, -0.562245786190033, -0.5373446941375732, -0.5124436020851135, -0.4875424802303314, -0.4626413583755493, -0.4377402663230896, -0.4128391742706299, -0.3879380524158478, -0.3630369305610657, -0.33813583850860596, -0.31323474645614624, -0.28833362460136414, -0.26343250274658203, -0.23853141069412231, -0.2136303037405014, -0.1887291967868805, -0.16382808983325958, -0.13892698287963867, -0.11402587592601776, -0.08912476897239685, -0.06422366201877594, -0.03932255506515503, -0.014421448111534119, 0.010479658842086792, 0.0353807657957077, 0.06028193235397339, 0.0851830393075943, 0.11008414626121521, 0.13498525321483612, 0.15988636016845703, 0.18478746712207794, 0.20968857407569885, 0.23458968102931976, 0.2594907879829407, 0.2843918800354004, 0.3092930018901825, 0.3341941237449646, 0.3590952157974243, 0.38399630784988403, 0.40889742970466614, 0.43379855155944824, 0.45869964361190796, 0.4836007356643677, 0.5085018873214722, 0.5334029793739319, 0.5583040714263916, 0.5832051634788513, 0.608106255531311, 0.6330074071884155, 0.6579084992408752, 0.682809591293335, 0.7077107429504395, 0.7326118350028992, 0.7575129270553589, 0.7824140191078186, 0.8073151111602783, 0.8322162628173828, 0.8571173548698425]}, "gradients/phi_x.nn_layers.1.bias": {"_type": "histogram", "values": [1.0, 0.0, 0.0, 0.0, 0.0, 0.0, 0.0, 0.0, 0.0, 0.0, 0.0, 1.0, 0.0, 0.0, 0.0, 0.0, 1.0, 0.0, 0.0, 1.0, 0.0, 0.0, 0.0, 1.0, 0.0, 0.0, 2.0, 0.0, 0.0, 0.0, 2.0, 0.0, 0.0, 0.0, 1.0, 0.0, 0.0, 0.0, 1.0, 0.0, 0.0, 0.0, 0.0, 0.0, 0.0, 1.0, 1.0, 0.0, 0.0, 0.0, 1.0, 0.0, 0.0, 0.0, 0.0, 0.0, 0.0, 0.0, 0.0, 5.0, 0.0, 0.0, 0.0, 1.0], "bins": [-0.5989107489585876, -0.5888087749481201, -0.5787067413330078, -0.5686047673225403, -0.5585027933120728, -0.5484008193016052, -0.5382987856864929, -0.5281968116760254, -0.5180948376655579, -0.5079928040504456, -0.497890830039978, -0.4877888262271881, -0.4776868522167206, -0.46758484840393066, -0.45748287439346313, -0.4473808705806732, -0.4372788667678833, -0.42717689275741577, -0.41707488894462585, -0.4069729149341583, -0.3968709111213684, -0.3867689371109009, -0.37666693329811096, -0.36656492948532104, -0.3564629554748535, -0.3463609516620636, -0.33625897765159607, -0.32615697383880615, -0.31605497002601624, -0.3059529960155487, -0.2958509922027588, -0.28574901819229126, -0.27564704418182373, -0.2655450403690338, -0.2554430365562439, -0.24534104764461517, -0.23523905873298645, -0.22513706982135773, -0.215035080909729, -0.20493309199810028, -0.19483110308647156, -0.18472909927368164, -0.17462711036205292, -0.1645251214504242, -0.15442313253879547, -0.14432114362716675, -0.13421913981437683, -0.12411715090274811, -0.11401516199111938, -0.10391317307949066, -0.09381117671728134, -0.08370918780565262, -0.0736071914434433, -0.06350520253181458, -0.05340321362018585, -0.04330122098326683, -0.03319922834634781, -0.023097235709428787, -0.012995244935154915, -0.002893253229558468, 0.007208738476037979, 0.017310731112957, 0.027412721887230873, 0.037514712661504745, 0.04761670529842377]}, "gradients/phi_x.nn_layers.1.weight": {"_type": "histogram", "values": [1.0, 1.0, 1.0, 0.0, 0.0, 0.0, 0.0, 0.0, 0.0, 0.0, 0.0, 1.0, 0.0, 3.0, 0.0, 1.0, 1.0, 2.0, 0.0, 2.0, 1.0, 2.0, 1.0, 1.0, 3.0, 1.0, 4.0, 5.0, 1.0, 1.0, 4.0, 5.0, 3.0, 5.0, 3.0, 4.0, 4.0, 6.0, 6.0, 3.0, 5.0, 3.0, 3.0, 6.0, 4.0, 8.0, 3.0, 5.0, 5.0, 7.0, 6.0, 8.0, 7.0, 4.0, 10.0, 3.0, 3.0, 221.0, 2.0, 1.0, 4.0, 1.0, 2.0, 3.0], "bins": [-0.4698180556297302, -0.4617176353931427, -0.4536172151565552, -0.44551679491996765, -0.4374163746833801, -0.429315984249115, -0.42121556401252747, -0.41311514377593994, -0.4050147235393524, -0.3969143033027649, -0.38881388306617737, -0.38071346282958984, -0.3726130723953247, -0.3645126521587372, -0.35641223192214966, -0.34831181168556213, -0.3402113914489746, -0.3321109712123871, -0.32401055097579956, -0.31591013073921204, -0.3078097105026245, -0.2997093200683594, -0.29160889983177185, -0.2835084795951843, -0.2754080593585968, -0.2673076391220093, -0.25920721888542175, -0.25110679864883423, -0.2430063933134079, -0.23490597307682037, -0.22680556774139404, -0.21870514750480652, -0.2106046974658966, -0.20250429213047028, -0.19440387189388275, -0.18630345165729523, -0.1782030463218689, -0.17010262608528137, -0.16200220584869385, -0.15390178561210632, -0.1458013653755188, -0.13770096004009247, -0.12960053980350494, -0.12150011956691742, -0.11339970678091049, -0.10529929399490356, -0.09719887375831604, -0.08909845352172852, -0.08099804073572159, -0.07289762794971466, -0.06479720771312714, -0.05669679120182991, -0.048596374690532684, -0.04049595817923546, -0.03239554166793823, -0.024295125156641006, -0.01619470864534378, -0.008094292134046555, 6.124377250671387e-06, 0.008106540888547897, 0.016206957399845123, 0.02430737391114235, 0.032407790422439575, 0.0405082069337368, 0.04860862344503403]}, "gradients/phi_x.nn_layers.0.bias": {"_type": "histogram", "values": [1.0, 0.0, 0.0, 0.0, 0.0, 0.0, 0.0, 0.0, 0.0, 0.0, 0.0, 0.0, 0.0, 0.0, 0.0, 1.0, 0.0, 0.0, 1.0, 0.0, 0.0, 1.0, 1.0, 1.0, 0.0, 0.0, 1.0, 1.0, 0.0, 0.0, 0.0, 0.0, 0.0, 1.0, 0.0, 0.0, 0.0, 0.0, 0.0, 0.0, 0.0, 0.0, 0.0, 0.0, 0.0, 0.0, 0.0, 0.0, 0.0, 0.0, 0.0, 0.0, 1.0, 0.0, 0.0, 0.0, 0.0, 0.0, 1.0, 0.0, 1.0, 1.0, 0.0, 7.0], "bins": [-0.654140055179596, -0.6439191102981567, -0.6336981654167175, -0.6234772205352783, -0.6132562756538391, -0.6030353903770447, -0.5928144454956055, -0.5825935006141663, -0.572372555732727, -0.5621516108512878, -0.5519306659698486, -0.5417097210884094, -0.5314887762069702, -0.521267831325531, -0.5110469460487366, -0.5008260011672974, -0.49060505628585815, -0.48038411140441895, -0.47016316652297974, -0.4599422216415405, -0.4497212767601013, -0.4395003616809845, -0.4292794167995453, -0.4190584719181061, -0.40883752703666687, -0.39861658215522766, -0.38839566707611084, -0.37817472219467163, -0.3679537773132324, -0.3577328324317932, -0.3475119173526764, -0.3372909724712372, -0.327070027589798, -0.31684908270835876, -0.30662813782691956, -0.29640722274780273, -0.2861862778663635, -0.2759653329849243, -0.2657443881034851, -0.2555234730243683, -0.24530252814292908, -0.23508158326148987, -0.22486063838005066, -0.21463970839977264, -0.20441876351833344, -0.19419783353805542, -0.1839768886566162, -0.1737559586763382, -0.163535013794899, -0.15331406891345978, -0.14309313893318176, -0.13287219405174255, -0.12265126407146454, -0.11243031919002533, -0.10220938175916672, -0.0919884443283081, -0.0817675068974495, -0.07154656946659088, -0.06132563203573227, -0.05110469087958336, -0.04088375344872475, -0.030662816017866135, -0.020441876724362373, -0.010220938362181187, 0.0]}, "gradients/phi_x.nn_layers.0.weight": {"_type": "histogram", "values": [1.0, 0.0, 0.0, 0.0, 0.0, 0.0, 0.0, 0.0, 1.0, 0.0, 0.0, 0.0, 0.0, 1.0, 0.0, 0.0, 0.0, 0.0, 1.0, 0.0, 0.0, 1.0, 1.0, 3.0, 1.0, 0.0, 2.0, 2.0, 2.0, 1.0, 0.0, 2.0, 1.0, 3.0, 1.0, 1.0, 1.0, 1.0, 3.0, 1.0, 3.0, 4.0, 2.0, 5.0, 3.0, 1.0, 2.0, 2.0, 1.0, 2.0, 0.0, 2.0, 3.0, 4.0, 7.0, 6.0, 5.0, 2.0, 4.0, 1.0, 2.0, 9.0, 9.0, 70.0], "bins": [-0.5505029559135437, -0.5419013500213623, -0.5332997441291809, -0.5246981382369995, -0.5160965323448181, -0.5074949264526367, -0.49889329075813293, -0.49029168486595154, -0.48169007897377014, -0.47308847308158875, -0.46448686718940735, -0.45588526129722595, -0.44728365540504456, -0.43868204951286316, -0.43008044362068176, -0.42147883772850037, -0.4128772020339966, -0.4042755961418152, -0.3956739902496338, -0.3870723843574524, -0.378470778465271, -0.3698691725730896, -0.3612675666809082, -0.3526659607887268, -0.3440643548965454, -0.335462749004364, -0.3268611431121826, -0.31825950741767883, -0.30965790152549744, -0.30105629563331604, -0.29245468974113464, -0.28385308384895325, -0.27525147795677185, -0.26664987206459045, -0.25804826617240906, -0.24944664537906647, -0.24084503948688507, -0.23224343359470367, -0.22364182770252228, -0.21504022181034088, -0.2064386010169983, -0.1978369951248169, -0.1892353892326355, -0.1806337833404541, -0.1720321774482727, -0.1634305715560913, -0.15482895076274872, -0.14622734487056732, -0.13762573897838593, -0.12902413308620453, -0.12042251974344254, -0.11182091385126114, -0.10321930050849915, -0.09461769461631775, -0.08601608872413635, -0.07741447538137436, -0.06881286948919296, -0.06021125987172127, -0.05160965025424957, -0.043008044362068176, -0.03440643474459648, -0.025804825127124786, -0.01720321737229824, -0.00860160868614912, 0.0]}, "gradients/prior.nn_layers.2.bias": {"_type": "histogram", "values": [1.0, 0.0, 0.0, 0.0, 0.0, 0.0, 0.0, 0.0, 0.0, 0.0, 0.0, 0.0, 0.0, 0.0, 0.0, 0.0, 0.0, 0.0, 0.0, 0.0, 0.0, 0.0, 0.0, 0.0, 0.0, 0.0, 0.0, 0.0, 0.0, 0.0, 0.0, 0.0, 0.0, 0.0, 0.0, 0.0, 0.0, 0.0, 0.0, 0.0, 0.0, 0.0, 0.0, 0.0, 0.0, 0.0, 0.0, 0.0, 0.0, 0.0, 0.0, 0.0, 0.0, 0.0, 0.0, 1.0, 0.0, 0.0, 1.0, 0.0, 0.0, 1.0, 1.0, 5.0], "bins": [-57.81988525390625, -56.78382873535156, -55.74777603149414, -54.71171951293945, -53.67566680908203, -52.639610290527344, -51.60355758666992, -50.567501068115234, -49.53144836425781, -48.495391845703125, -47.45933532714844, -46.423282623291016, -45.38722610473633, -44.351173400878906, -43.31511688232422, -42.2790641784668, -41.24300765991211, -40.20695114135742, -39.1708984375, -38.13484191894531, -37.09878921508789, -36.0627326965332, -35.02667999267578, -33.990623474121094, -32.954566955566406, -31.918514251708984, -30.88245964050293, -29.846405029296875, -28.810348510742188, -27.774293899536133, -26.738239288330078, -25.702184677124023, -24.66613006591797, -23.630075454711914, -22.59402084350586, -21.557966232299805, -20.52191162109375, -19.485857009887695, -18.44980239868164, -17.413747787475586, -16.37769317626953, -15.34163761138916, -14.305582046508789, -13.269527435302734, -12.23347282409668, -11.197418212890625, -10.16136360168457, -9.1253080368042, -8.089253425598145, -7.05319881439209, -6.017143726348877, -4.981088638305664, -3.9450340270996094, -2.9089791774749756, -1.8729243278503418, -0.836869478225708, 0.19918537139892578, 1.2352402210235596, 2.2712950706481934, 3.307349920272827, 4.343404769897461, 5.379459381103516, 6.4155144691467285, 7.451569557189941, 8.487624168395996]}, "gradients/prior.nn_layers.2.weight": {"_type": "histogram", "values": [1.0, 0.0, 0.0, 1.0, 0.0, 0.0, 0.0, 0.0, 0.0, 0.0, 0.0, 0.0, 0.0, 0.0, 1.0, 1.0, 0.0, 1.0, 1.0, 0.0, 0.0, 0.0, 1.0, 0.0, 0.0, 1.0, 0.0, 1.0, 0.0, 0.0, 1.0, 0.0, 0.0, 0.0, 0.0, 0.0, 0.0, 0.0, 1.0, 0.0, 0.0, 0.0, 0.0, 0.0, 0.0, 0.0, 0.0, 0.0, 0.0, 0.0, 0.0, 0.0, 0.0, 0.0, 0.0, 90.0, 15.0, 7.0, 9.0, 13.0, 20.0, 21.0, 4.0, 10.0], "bins": [-296.7276306152344, -291.4209289550781, -286.1142578125, -280.80755615234375, -275.5008544921875, -270.1941833496094, -264.8874816894531, -259.580810546875, -254.27410888671875, -248.9674072265625, -243.6607208251953, -238.35403442382812, -233.04734802246094, -227.7406463623047, -222.4339599609375, -217.1272735595703, -211.82058715820312, -206.51388549804688, -201.2071990966797, -195.9005126953125, -190.59381103515625, -185.28712463378906, -179.98043823242188, -174.6737518310547, -169.36705017089844, -164.06036376953125, -158.75367736816406, -153.4469757080078, -148.14028930664062, -142.83360290527344, -137.52691650390625, -132.22021484375, -126.91352081298828, -121.60682678222656, -116.30014038085938, -110.99344635009766, -105.68675994873047, -100.38006591796875, -95.07337951660156, -89.76668548583984, -84.45999145507812, -79.15330505371094, -73.84661102294922, -68.53992462158203, -63.23323059082031, -57.92654037475586, -52.619850158691406, -47.31315994262695, -42.0064697265625, -36.69977951049805, -31.393089294433594, -26.086397171020508, -20.779706954956055, -15.473016738891602, -10.166325569152832, -4.859634876251221, 0.4470558166503906, 5.753746509552002, 11.060437202453613, 16.367128372192383, 21.673818588256836, 26.98050880432129, 32.287200927734375, 37.59389114379883, 42.90058135986328]}, "gradients/prior.nn_layers.1.bias": {"_type": "histogram", "values": [1.0, 0.0, 0.0, 0.0, 0.0, 0.0, 0.0, 0.0, 0.0, 0.0, 1.0, 0.0, 0.0, 0.0, 0.0, 0.0, 0.0, 0.0, 0.0, 0.0, 0.0, 0.0, 1.0, 0.0, 1.0, 0.0, 0.0, 0.0, 1.0, 0.0, 0.0, 1.0, 0.0, 0.0, 0.0, 0.0, 1.0, 0.0, 0.0, 0.0, 0.0, 1.0, 0.0, 0.0, 0.0, 0.0, 0.0, 1.0, 0.0, 0.0, 0.0, 0.0, 0.0, 1.0, 0.0, 0.0, 0.0, 0.0, 0.0, 0.0, 1.0, 1.0, 0.0, 8.0], "bins": [-23.095680236816406, -22.73480987548828, -22.373939514160156, -22.013071060180664, -21.65220069885254, -21.291330337524414, -20.93045997619629, -20.569589614868164, -20.208721160888672, -19.847850799560547, -19.486980438232422, -19.126110076904297, -18.765239715576172, -18.404369354248047, -18.043500900268555, -17.68263053894043, -17.321760177612305, -16.96088981628418, -16.600019454956055, -16.239151000976562, -15.878280639648438, -15.517410278320312, -15.156539916992188, -14.795670509338379, -14.434800148010254, -14.073929786682129, -13.71306037902832, -13.352190017700195, -12.99131965637207, -12.630450248718262, -12.269579887390137, -11.908710479736328, -11.547840118408203, -11.186969757080078, -10.82610034942627, -10.465229988098145, -10.104360580444336, -9.743490219116211, -9.382619857788086, -9.021750450134277, -8.660880088806152, -8.300009727478027, -7.939140319824219, -7.578269958496094, -7.217400074005127, -6.85653018951416, -6.495659828186035, -6.134789943695068, -5.773920059204102, -5.413050174713135, -5.052180290222168, -4.691309928894043, -4.330440044403076, -3.9695701599121094, -3.6087000370025635, -3.2478299140930176, -2.886960029602051, -2.526090145111084, -2.165220022201538, -1.8043500185012817, -1.4434800148010254, -1.082610011100769, -0.7217400074005127, -0.36087000370025635, 0.0]}, "gradients/prior.nn_layers.1.weight": {"_type": "histogram", "values": [1.0, 0.0, 0.0, 0.0, 0.0, 0.0, 0.0, 1.0, 1.0, 0.0, 1.0, 0.0, 0.0, 1.0, 0.0, 0.0, 1.0, 0.0, 2.0, 0.0, 0.0, 1.0, 0.0, 2.0, 0.0, 1.0, 0.0, 0.0, 4.0, 2.0, 2.0, 1.0, 3.0, 1.0, 2.0, 3.0, 4.0, 1.0, 2.0, 2.0, 0.0, 7.0, 4.0, 3.0, 2.0, 5.0, 3.0, 5.0, 2.0, 8.0, 4.0, 4.0, 6.0, 2.0, 5.0, 4.0, 6.0, 2.0, 6.0, 5.0, 2.0, 5.0, 6.0, 265.0], "bins": [-72.20963287353516, -71.08135986328125, -69.95307922363281, -68.8248062133789, -67.696533203125, -66.56825256347656, -65.43997955322266, -64.31170654296875, -63.18342971801758, -62.055152893066406, -60.926876068115234, -59.79860305786133, -58.670326232910156, -57.542049407958984, -56.41377639770508, -55.285499572753906, -54.1572265625, -53.02894973754883, -51.900672912597656, -50.77239990234375, -49.64412307739258, -48.515846252441406, -47.3875732421875, -46.25929641723633, -45.131019592285156, -44.00274658203125, -42.87446975708008, -41.746192932128906, -40.617919921875, -39.48964309692383, -38.361366271972656, -37.23309326171875, -36.10481643676758, -34.976539611816406, -33.8482666015625, -32.71998977661133, -31.59171485900879, -30.463438034057617, -29.335163116455078, -28.20688819885254, -27.07861328125, -25.950336456298828, -24.82206153869629, -23.69378662109375, -22.565509796142578, -21.43723487854004, -20.3089599609375, -19.180683135986328, -18.05240821838379, -16.92413330078125, -15.795857429504395, -14.667581558227539, -13.539306640625, -12.411030769348145, -11.282754898071289, -10.15447998046875, -9.026204109191895, -7.897928714752197, -6.7696533203125, -5.6413774490356445, -4.513102054595947, -3.38482666015625, -2.2565510272979736, -1.1282755136489868, 0.0]}, "gradients/prior.nn_layers.0.bias": {"_type": "histogram", "values": [3.0, 0.0, 0.0, 0.0, 0.0, 0.0, 0.0, 1.0, 0.0, 0.0, 0.0, 1.0, 0.0, 0.0, 1.0, 2.0, 0.0, 0.0, 0.0, 1.0, 1.0, 0.0, 0.0, 0.0, 0.0, 1.0, 0.0, 0.0, 0.0, 0.0, 0.0, 0.0, 0.0, 0.0, 0.0, 0.0, 0.0, 0.0, 0.0, 0.0, 0.0, 0.0, 0.0, 0.0, 0.0, 0.0, 0.0, 0.0, 0.0, 1.0, 0.0, 0.0, 0.0, 0.0, 0.0, 1.0, 0.0, 0.0, 0.0, 0.0, 0.0, 0.0, 1.0, 6.0], "bins": [-23.478649139404297, -23.11179542541504, -22.74494171142578, -22.378087997436523, -22.011234283447266, -21.644380569458008, -21.277524948120117, -20.91067123413086, -20.5438175201416, -20.176963806152344, -19.810110092163086, -19.443256378173828, -19.07640266418457, -18.709548950195312, -18.342695236206055, -17.975841522216797, -17.608985900878906, -17.24213218688965, -16.87527847290039, -16.508424758911133, -16.141571044921875, -15.774717330932617, -15.40786361694336, -15.041009902954102, -14.674156188964844, -14.30730152130127, -13.940447807312012, -13.573594093322754, -13.206740379333496, -12.839886665344238, -12.473031997680664, -12.106178283691406, -11.739324569702148, -11.37247085571289, -11.005617141723633, -10.638762474060059, -10.2719087600708, -9.905055046081543, -9.538201332092285, -9.171347618103027, -8.804492950439453, -8.437639236450195, -8.070785522460938, -7.70393180847168, -7.337078094482422, -6.970223903656006, -6.603370189666748, -6.236515998840332, -5.869662284851074, -5.502808570861816, -5.1359543800354, -4.769100666046143, -4.402246475219727, -4.035392761230469, -3.668539047241211, -3.301685094833374, -2.934831142425537, -2.5679771900177, -2.2011232376098633, -1.8342695236206055, -1.4674155712127686, -1.1005616188049316, -0.7337077856063843, -0.36685389280319214, 0.0]}, "gradients/prior.nn_layers.0.weight": {"_type": "histogram", "values": [17.0, 4.0, 3.0, 6.0, 1.0, 6.0, 2.0, 10.0, 11.0, 9.0, 9.0, 2.0, 3.0, 4.0, 1.0, 0.0, 0.0, 0.0, 0.0, 0.0, 0.0, 0.0, 0.0, 0.0, 8.0, 0.0, 0.0, 8.0, 0.0, 0.0, 0.0, 112.0, 0.0, 0.0, 0.0, 0.0, 8.0, 0.0, 1.0, 7.0, 0.0, 0.0, 0.0, 0.0, 0.0, 0.0, 0.0, 0.0, 1.0, 0.0, 2.0, 7.0, 0.0, 10.0, 7.0, 9.0, 13.0, 1.0, 7.0, 0.0, 10.0, 0.0, 0.0, 21.0], "bins": [-21.590986251831055, -20.91596221923828, -20.24094009399414, -19.565916061401367, -18.890892028808594, -18.21586799621582, -17.540843963623047, -16.865821838378906, -16.190797805786133, -15.51577377319336, -14.840750694274902, -14.165727615356445, -13.490703582763672, -12.815679550170898, -12.140656471252441, -11.465633392333984, -10.790609359741211, -10.115585327148438, -9.44056224822998, -8.765539169311523, -8.09051513671875, -7.415491580963135, -6.7404680252075195, -6.065444469451904, -5.390420913696289, -4.715397357940674, -4.040373802185059, -3.3653502464294434, -2.690326690673828, -2.015303134918213, -1.3402795791625977, -0.6652560234069824, 0.009769439697265625, 0.6847929954528809, 1.359816551208496, 2.0348401069641113, 2.7098636627197266, 3.384887218475342, 4.059910774230957, 4.734934329986572, 5.4099578857421875, 6.084981441497803, 6.760004997253418, 7.435028553009033, 8.110052108764648, 8.785076141357422, 9.460099220275879, 10.135122299194336, 10.81014633178711, 11.485170364379883, 12.16019344329834, 12.835216522216797, 13.51024055480957, 14.185264587402344, 14.8602876663208, 15.535310745239258, 16.21033477783203, 16.885358810424805, 17.560382843017578, 18.23540496826172, 18.910429000854492, 19.585453033447266, 20.260475158691406, 20.93549919128418, 21.610523223876953]}, "gradients/decoder.fc_out.bias": {"_type": "histogram", "values": [2.0, 0.0, 0.0, 0.0, 0.0, 0.0, 1.0, 0.0, 0.0, 1.0, 0.0, 0.0, 0.0, 0.0, 0.0, 0.0, 2.0, 3.0, 0.0, 1.0, 2.0, 0.0, 0.0, 1.0, 0.0, 1.0, 1.0, 0.0, 0.0, 0.0, 0.0, 0.0, 0.0, 0.0, 0.0, 1.0, 0.0, 0.0, 0.0, 0.0, 0.0, 0.0, 0.0, 0.0, 0.0, 0.0, 0.0, 0.0, 0.0, 0.0, 0.0, 0.0, 0.0, 0.0, 0.0, 0.0, 1.0, 0.0, 0.0, 0.0, 0.0, 0.0, 0.0, 1.0], "bins": [-9.961014747619629, -9.37100887298584, -8.781002044677734, -8.190996170043945, -7.60098934173584, -7.010983467102051, -6.4209771156311035, -5.830970764160156, -5.240964412689209, -4.650958061218262, -4.0609517097473145, -3.4709455966949463, -2.880939245223999, -2.2909328937530518, -1.700926661491394, -1.1109204292297363, -0.5209140777587891, 0.06909221410751343, 0.6590985059738159, 1.2491047382354736, 1.839111089706421, 2.429117441177368, 3.0191235542297363, 3.6091299057006836, 4.199136257171631, 4.789142608642578, 5.379148960113525, 5.969155311584473, 6.559161186218262, 7.149167537689209, 7.739173889160156, 8.329180717468262, 8.919187545776367, 9.509193420410156, 10.099200248718262, 10.68920612335205, 11.279212951660156, 11.869218826293945, 12.45922565460205, 13.04923152923584, 13.639238357543945, 14.229244232177734, 14.819250106811523, 15.409256935119629, 15.999262809753418, 16.589269638061523, 17.179275512695312, 17.7692813873291, 18.35928726196289, 18.949295043945312, 19.5393009185791, 20.12930679321289, 20.71931266784668, 21.3093204498291, 21.89932632446289, 22.48933219909668, 23.07933807373047, 23.669343948364258, 24.25935173034668, 24.84935760498047, 25.439363479614258, 26.029369354248047, 26.61937713623047, 27.209383010864258, 27.799388885498047]}, "gradients/decoder.fc_out.weight": {"_type": "histogram", "values": [2.0, 0.0, 1.0, 2.0, 1.0, 0.0, 1.0, 2.0, 0.0, 4.0, 0.0, 1.0, 2.0, 1.0, 2.0, 2.0, 3.0, 1.0, 4.0, 4.0, 4.0, 9.0, 7.0, 5.0, 10.0, 23.0, 24.0, 31.0, 81.0, 139.0, 65.0, 32.0, 27.0, 15.0, 2.0, 8.0, 6.0, 4.0, 5.0, 7.0, 7.0, 2.0, 4.0, 3.0, 1.0, 3.0, 4.0, 1.0, 1.0, 4.0, 0.0, 3.0, 1.0, 1.0, 0.0, 0.0, 0.0, 1.0, 1.0, 0.0, 0.0, 1.0, 0.0, 1.0], "bins": [-56.80784225463867, -54.869632720947266, -52.931419372558594, -50.99320983886719, -49.054996490478516, -47.11678695678711, -45.17857360839844, -43.24036407470703, -41.302154541015625, -39.36394119262695, -37.42573165893555, -35.487518310546875, -33.54930877685547, -31.61109733581543, -29.67288589477539, -27.73467445373535, -25.796463012695312, -23.858251571655273, -21.920040130615234, -19.981828689575195, -18.043617248535156, -16.10540771484375, -14.167196273803711, -12.228984832763672, -10.290773391723633, -8.352561950683594, -6.414350986480713, -4.476140022277832, -2.537928581237793, -0.599717378616333, 1.338493824005127, 3.276705026626587, 5.214912414550781, 7.15312385559082, 9.09133529663086, 11.029545783996582, 12.967757225036621, 14.90596866607666, 16.844179153442383, 18.782390594482422, 20.72060203552246, 22.6588134765625, 24.59702491760254, 26.535236358642578, 28.473445892333984, 30.411657333374023, 32.34986877441406, 34.288082122802734, 36.22629165649414, 38.16450119018555, 40.10271453857422, 42.040924072265625, 43.9791374206543, 45.9173469543457, 47.855560302734375, 49.79376983642578, 51.73197937011719, 53.67019271850586, 55.608402252197266, 57.54661560058594, 59.484825134277344, 61.423038482666016, 63.36124801635742, 65.2994613647461, 67.2376708984375]}, "gradients/decoder.lstm_cell.bias_ih": {"_type": "histogram", "values": [1.0, 0.0, 0.0, 0.0, 0.0, 0.0, 0.0, 0.0, 0.0, 0.0, 0.0, 0.0, 1.0, 0.0, 0.0, 0.0, 2.0, 1.0, 0.0, 1.0, 0.0, 1.0, 0.0, 2.0, 1.0, 3.0, 3.0, 9.0, 4.0, 3.0, 6.0, 12.0, 21.0, 22.0, 8.0, 5.0, 3.0, 5.0, 1.0, 2.0, 3.0, 2.0, 1.0, 0.0, 0.0, 0.0, 0.0, 0.0, 1.0, 0.0, 1.0, 0.0, 0.0, 0.0, 0.0, 0.0, 1.0, 0.0, 0.0, 1.0, 0.0, 0.0, 0.0, 1.0], "bins": [-4.871763706207275, -4.7260894775390625, -4.58041524887085, -4.434741020202637, -4.289066791534424, -4.143392562866211, -3.997718095779419, -3.852043867111206, -3.706369400024414, -3.560695171356201, -3.4150209426879883, -3.2693467140197754, -3.1236724853515625, -2.9779982566833496, -2.8323237895965576, -2.6866495609283447, -2.540975332260132, -2.395301103591919, -2.249626874923706, -2.103952407836914, -1.9582781791687012, -1.8126039505004883, -1.6669297218322754, -1.521255373954773, -1.37558114528656, -1.2299069166183472, -1.0842325687408447, -0.9385583400726318, -0.7928840517997742, -0.6472097635269165, -0.5015355348587036, -0.35586124658584595, -0.21018695831298828, -0.06451268494129181, 0.08116158843040466, 0.22683586180210114, 0.3725101351737976, 0.5181844234466553, 0.6638586521148682, 0.8095329403877258, 0.9552072286605835, 1.1008814573287964, 1.2465558052062988, 1.3922300338745117, 1.5379042625427246, 1.683578610420227, 1.82925283908844, 1.9749271869659424, 2.1206014156341553, 2.266275644302368, 2.411949872970581, 2.557624340057373, 2.703298568725586, 2.848972797393799, 2.9946470260620117, 3.1403212547302246, 3.2859954833984375, 3.4316699504852295, 3.5773441791534424, 3.7230184078216553, 3.868692636489868, 4.01436710357666, 4.160041332244873, 4.305715560913086, 4.451389789581299]}, "gradients/decoder.lstm_cell.bias_hh": {"_type": "histogram", "values": [1.0, 0.0, 0.0, 0.0, 0.0, 0.0, 0.0, 0.0, 0.0, 0.0, 0.0, 0.0, 1.0, 0.0, 0.0, 0.0, 2.0, 1.0, 0.0, 1.0, 0.0, 1.0, 0.0, 2.0, 1.0, 3.0, 3.0, 9.0, 4.0, 3.0, 6.0, 12.0, 21.0, 22.0, 8.0, 5.0, 3.0, 5.0, 1.0, 2.0, 3.0, 2.0, 1.0, 0.0, 0.0, 0.0, 0.0, 0.0, 1.0, 0.0, 1.0, 0.0, 0.0, 0.0, 0.0, 0.0, 1.0, 0.0, 0.0, 1.0, 0.0, 0.0, 0.0, 1.0], "bins": [-4.871763706207275, -4.7260894775390625, -4.58041524887085, -4.434741020202637, -4.289066791534424, -4.143392562866211, -3.997718095779419, -3.852043867111206, -3.706369400024414, -3.560695171356201, -3.4150209426879883, -3.2693467140197754, -3.1236724853515625, -2.9779982566833496, -2.8323237895965576, -2.6866495609283447, -2.540975332260132, -2.395301103591919, -2.249626874923706, -2.103952407836914, -1.9582781791687012, -1.8126039505004883, -1.6669297218322754, -1.521255373954773, -1.37558114528656, -1.2299069166183472, -1.0842325687408447, -0.9385583400726318, -0.7928840517997742, -0.6472097635269165, -0.5015355348587036, -0.35586124658584595, -0.21018695831298828, -0.06451268494129181, 0.08116158843040466, 0.22683586180210114, 0.3725101351737976, 0.5181844234466553, 0.6638586521148682, 0.8095329403877258, 0.9552072286605835, 1.1008814573287964, 1.2465558052062988, 1.3922300338745117, 1.5379042625427246, 1.683578610420227, 1.82925283908844, 1.9749271869659424, 2.1206014156341553, 2.266275644302368, 2.411949872970581, 2.557624340057373, 2.703298568725586, 2.848972797393799, 2.9946470260620117, 3.1403212547302246, 3.2859954833984375, 3.4316699504852295, 3.5773441791534424, 3.7230184078216553, 3.868692636489868, 4.01436710357666, 4.160041332244873, 4.305715560913086, 4.451389789581299]}, "gradients/decoder.lstm_cell.weight_hh": {"_type": "histogram", "values": [1.0, 0.0, 0.0, 1.0, 1.0, 0.0, 0.0, 4.0, 1.0, 1.0, 2.0, 1.0, 1.0, 5.0, 2.0, 5.0, 12.0, 9.0, 10.0, 13.0, 10.0, 8.0, 13.0, 16.0, 37.0, 47.0, 62.0, 66.0, 111.0, 148.0, 259.0, 409.0, 962.0, 806.0, 350.0, 229.0, 121.0, 103.0, 52.0, 46.0, 36.0, 15.0, 13.0, 15.0, 8.0, 16.0, 15.0, 14.0, 6.0, 8.0, 9.0, 5.0, 0.0, 3.0, 0.0, 0.0, 2.0, 0.0, 1.0, 2.0, 2.0, 0.0, 1.0, 1.0], "bins": [-3.83127760887146, -3.7146732807159424, -3.598068952560425, -3.4814648628234863, -3.3648605346679688, -3.248256206512451, -3.1316518783569336, -3.015047550201416, -2.8984432220458984, -2.78183913230896, -2.6652348041534424, -2.548630475997925, -2.4320261478424072, -2.3154218196868896, -2.198817729949951, -2.0822134017944336, -1.965609073638916, -1.8490047454833984, -1.7324005365371704, -1.6157962083816528, -1.4991919994354248, -1.3825876712799072, -1.2659833431243896, -1.1493791341781616, -1.032774806022644, -0.9161705374717712, -0.7995662689208984, -0.6829619407653809, -0.5663576722145081, -0.44975340366363525, -0.33314910531044006, -0.21654482185840607, -0.09994077682495117, 0.016663506627082825, 0.13326779007911682, 0.24987207353115082, 0.3664763569831848, 0.4830806255340576, 0.5996849536895752, 0.716289222240448, 0.8328934907913208, 0.9494977593421936, 1.0661020278930664, 1.182706356048584, 1.2993106842041016, 1.4159148931503296, 1.5325192213058472, 1.6491234302520752, 1.7657277584075928, 1.8823320865631104, 1.9989362955093384, 2.1155405044555664, 2.232144832611084, 2.3487491607666016, 2.465353488922119, 2.5819578170776367, 2.6985621452331543, 2.8151662349700928, 2.9317705631256104, 3.048374891281128, 3.1649792194366455, 3.281583547592163, 3.3981876373291016, 3.514791965484619, 3.6313962936401367]}, "gradients/decoder.lstm_cell.weight_ih": {"_type": "histogram", "values": [2.0, 2.0, 0.0, 0.0, 0.0, 1.0, 1.0, 0.0, 2.0, 4.0, 3.0, 1.0, 1.0, 2.0, 0.0, 3.0, 1.0, 1.0, 5.0, 1.0, 4.0, 6.0, 12.0, 16.0, 24.0, 32.0, 41.0, 76.0, 113.0, 874.0, 691.0, 101.0, 53.0, 52.0, 32.0, 44.0, 17.0, 23.0, 13.0, 7.0, 8.0, 5.0, 7.0, 3.0, 6.0, 1.0, 1.0, 2.0, 0.0, 2.0, 1.0, 1.0, 1.0, 1.0, 1.0, 0.0, 0.0, 1.0, 0.0, 0.0, 0.0, 0.0, 1.0, 1.0], "bins": [-16.799596786499023, -16.23941993713379, -15.679244041442871, -15.119067192077637, -14.558891296386719, -13.998714447021484, -13.43853759765625, -12.878361701965332, -12.318184852600098, -11.758008003234863, -11.197832107543945, -10.637655258178711, -10.077478408813477, -9.517302513122559, -8.957125663757324, -8.396949768066406, -7.836772918701172, -7.276596546173096, -6.7164201736450195, -6.156243324279785, -5.596066951751709, -5.035890579223633, -4.475713729858398, -3.9155373573303223, -3.355360984802246, -2.79518461227417, -2.2350080013275146, -1.674831509590149, -1.1146550178527832, -0.5544785261154175, 0.005697965621948242, 0.565874457359314, 1.1260490417480469, 1.6862255334854126, 2.2464020252227783, 2.8065786361694336, 3.3667550086975098, 3.926931381225586, 4.48710823059082, 5.0472846031188965, 5.607460975646973, 6.167637348175049, 6.727813720703125, 7.287990570068359, 7.8481669425964355, 8.408343315124512, 8.968520164489746, 9.528696060180664, 10.088872909545898, 10.649049758911133, 11.20922565460205, 11.769402503967285, 12.329578399658203, 12.889755249023438, 13.449932098388672, 14.01010799407959, 14.570284843444824, 15.130461692810059, 15.690637588500977, 16.25081443786621, 16.810991287231445, 17.37116813659668, 17.93134307861328, 18.491519927978516, 19.05169677734375]}, "gradients/phi_z.nn_layers.2.bias": {"_type": "histogram", "values": [1.0, 0.0, 0.0, 1.0, 1.0, 1.0, 2.0, 0.0, 1.0, 0.0, 0.0, 0.0, 0.0, 0.0, 0.0, 0.0, 0.0, 1.0, 0.0, 0.0, 0.0, 0.0, 0.0, 0.0, 0.0, 0.0, 0.0, 0.0, 0.0, 0.0, 0.0, 1.0, 3.0, 0.0, 1.0, 0.0, 1.0, 0.0, 0.0, 0.0, 0.0, 0.0, 0.0, 0.0, 0.0, 0.0, 0.0, 0.0, 0.0, 0.0, 0.0, 0.0, 0.0, 1.0, 0.0, 0.0, 0.0, 0.0, 0.0, 0.0, 0.0, 0.0, 0.0, 1.0], "bins": [-0.9782800078392029, -0.937660813331604, -0.8970416188240051, -0.8564224243164062, -0.8158032298088074, -0.7751840353012085, -0.7345648407936096, -0.6939456462860107, -0.6533265113830566, -0.6127073168754578, -0.5720881223678589, -0.53146892786026, -0.49084973335266113, -0.45023053884506226, -0.4096113443374634, -0.3689921498298645, -0.3283729553222656, -0.28775376081466675, -0.24713456630706787, -0.2065153867006302, -0.1658961921930313, -0.12527699768543243, -0.08465781062841415, -0.044038619846105576, -0.003419429063796997, 0.03719976171851158, 0.07781895250082016, 0.11843813955783844, 0.15905733406543732, 0.1996765285730362, 0.24029570817947388, 0.28091490268707275, 0.32153403759002686, 0.36215323209762573, 0.4027724266052246, 0.4433916211128235, 0.48401081562042236, 0.5246300101280212, 0.5652492046356201, 0.605868399143219, 0.6464875936508179, 0.687106728553772, 0.7277259230613708, 0.7683451175689697, 0.8089643120765686, 0.8495835065841675, 0.8902027010917664, 0.9308218955993652, 0.9714410901069641, 1.012060284614563, 1.052679419517517, 1.0932986736297607, 1.1339178085327148, 1.1745370626449585, 1.2151561975479126, 1.2557754516601562, 1.2963945865631104, 1.337013840675354, 1.377632975578308, 1.4182522296905518, 1.4588713645935059, 1.4994906187057495, 1.5401097536087036, 1.5807290077209473, 1.6213481426239014]}, "gradients/phi_z.nn_layers.2.weight": {"_type": "histogram", "values": [2.0, 2.0, 0.0, 1.0, 0.0, 0.0, 4.0, 3.0, 3.0, 5.0, 4.0, 5.0, 3.0, 9.0, 11.0, 8.0, 4.0, 5.0, 7.0, 6.0, 4.0, 8.0, 9.0, 12.0, 15.0, 65.0, 16.0, 1.0, 5.0, 14.0, 14.0, 15.0, 17.0, 9.0, 3.0, 2.0, 3.0, 1.0, 0.0, 0.0, 0.0, 0.0, 3.0, 2.0, 0.0, 2.0, 0.0, 0.0, 2.0, 1.0, 0.0, 1.0, 2.0, 2.0, 1.0, 1.0, 1.0, 0.0, 0.0, 3.0, 2.0, 1.0, 0.0, 1.0], "bins": [-1.0361485481262207, -0.9952970743179321, -0.9544455409049988, -0.9135940074920654, -0.8727425336837769, -0.8318910598754883, -0.7910395264625549, -0.7501879930496216, -0.709336519241333, -0.6684850454330444, -0.6276335120201111, -0.5867819786071777, -0.5459305047988892, -0.5050790309906006, -0.46422749757766724, -0.4233759939670563, -0.3825244903564453, -0.34167298674583435, -0.3008214831352234, -0.2599699795246124, -0.21911847591400146, -0.1782669723033905, -0.13741546869277954, -0.09656396508216858, -0.05571246147155762, -0.014860957860946655, 0.025990545749664307, 0.06684204936027527, 0.10769355297088623, 0.1485450565814972, 0.18939656019210815, 0.23024806380271912, 0.2710994482040405, 0.3119509518146515, 0.35280245542526245, 0.3936539590358734, 0.4345054626464844, 0.47535696625709534, 0.5162084698677063, 0.5570600032806396, 0.5979114770889282, 0.6387629508972168, 0.6796144843101501, 0.7204660177230835, 0.7613174915313721, 0.8021689653396606, 0.843020498752594, 0.8838720321655273, 0.9247235059738159, 0.9655749797821045, 1.0064265727996826, 1.0472780466079712, 1.0881295204162598, 1.1289809942245483, 1.169832468032837, 1.210684061050415, 1.2515355348587036, 1.2923870086669922, 1.3332386016845703, 1.3740900754928589, 1.4149415493011475, 1.455793023109436, 1.4966444969177246, 1.5374960899353027, 1.5783475637435913]}, "gradients/phi_z.nn_layers.1.bias": {"_type": "histogram", "values": [1.0, 0.0, 0.0, 0.0, 0.0, 0.0, 0.0, 1.0, 0.0, 0.0, 0.0, 0.0, 0.0, 0.0, 1.0, 0.0, 1.0, 0.0, 1.0, 0.0, 0.0, 1.0, 0.0, 0.0, 0.0, 0.0, 0.0, 0.0, 1.0, 0.0, 1.0, 1.0, 0.0, 0.0, 0.0, 1.0, 0.0, 1.0, 0.0, 0.0, 1.0, 1.0, 0.0, 0.0, 1.0, 0.0, 0.0, 0.0, 0.0, 0.0, 0.0, 0.0, 0.0, 0.0, 0.0, 2.0, 0.0, 0.0, 0.0, 1.0, 1.0, 0.0, 0.0, 2.0], "bins": [-1.7039024829864502, -1.6755722761154175, -1.6472420692443848, -1.618911862373352, -1.5905816555023193, -1.5622514486312866, -1.533921241760254, -1.5055910348892212, -1.4772608280181885, -1.4489306211471558, -1.420600414276123, -1.3922702074050903, -1.3639400005340576, -1.335609793663025, -1.3072795867919922, -1.2789493799209595, -1.2506191730499268, -1.222288966178894, -1.1939587593078613, -1.1656285524368286, -1.137298345565796, -1.1089681386947632, -1.0806379318237305, -1.0523077249526978, -1.023977518081665, -0.9956473112106323, -0.9673171043395996, -0.9389868974685669, -0.9106566905975342, -0.8823264837265015, -0.8539962768554688, -0.825666069984436, -0.7973359227180481, -0.7690057158470154, -0.7406755089759827, -0.71234530210495, -0.6840150952339172, -0.6556848883628845, -0.6273546814918518, -0.5990244746208191, -0.5706942677497864, -0.5423640608787537, -0.514033854007721, -0.48570364713668823, -0.4573734402656555, -0.4290432333946228, -0.4007130265235901, -0.3723828196525574, -0.34405261278152466, -0.31572240591049194, -0.28739219903945923, -0.2590619921684265, -0.2307317703962326, -0.2024015635251999, -0.17407135665416718, -0.14574114978313446, -0.11741094291210175, -0.08908073604106903, -0.060750529170036316, -0.0324203222990036, -0.004090115427970886, 0.02424009144306183, 0.05257029831409454, 0.08090050518512726, 0.10923071205615997]}, "gradients/phi_z.nn_layers.1.weight": {"_type": "histogram", "values": [1.0, 0.0, 0.0, 0.0, 0.0, 0.0, 0.0, 1.0, 0.0, 0.0, 1.0, 1.0, 0.0, 0.0, 0.0, 0.0, 1.0, 1.0, 2.0, 0.0, 1.0, 3.0, 1.0, 0.0, 1.0, 1.0, 2.0, 5.0, 2.0, 5.0, 2.0, 3.0, 4.0, 4.0, 3.0, 3.0, 4.0, 8.0, 13.0, 6.0, 4.0, 8.0, 5.0, 13.0, 9.0, 5.0, 7.0, 7.0, 10.0, 19.0, 14.0, 8.0, 10.0, 8.0, 17.0, 12.0, 41.0, 73.0, 26.0, 10.0, 11.0, 3.0, 0.0, 1.0], "bins": [-1.461308479309082, -1.435958743095398, -1.4106091260910034, -1.3852593898773193, -1.3599096536636353, -1.3345600366592407, -1.3092103004455566, -1.2838605642318726, -1.2585108280181885, -1.233161211013794, -1.2078114748001099, -1.1824617385864258, -1.1571121215820312, -1.1317623853683472, -1.106412649154663, -1.0810630321502686, -1.0557132959365845, -1.0303635597229004, -1.0050139427185059, -0.9796642065048218, -0.9543144702911377, -0.9289647936820984, -0.9036151170730591, -0.878265380859375, -0.8529157042503357, -0.8275660276412964, -0.8022162914276123, -0.776866614818573, -0.7515169382095337, -0.7261672019958496, -0.7008175253868103, -0.6754677891731262, -0.6501180529594421, -0.6247683763504028, -0.5994186401367188, -0.5740689635276794, -0.5487192869186401, -0.523369550704956, -0.49801987409591675, -0.47267016768455505, -0.44732046127319336, -0.42197078466415405, -0.39662107825279236, -0.37127137184143066, -0.34592169523239136, -0.32057198882102966, -0.29522228240966797, -0.2698725759983063, -0.24452288448810577, -0.21917319297790527, -0.19382348656654358, -0.16847378015518188, -0.14312408864498138, -0.11777438968420029, -0.09242469072341919, -0.06707499176263809, -0.041725292801856995, -0.016375593841075897, 0.0089741051197052, 0.0343238040804863, 0.059673503041267395, 0.08502320200204849, 0.11037290096282959, 0.13572260737419128, 0.16107229888439178]}, "gradients/phi_z.nn_layers.0.bias": {"_type": "histogram", "values": [2.0, 0.0, 0.0, 0.0, 0.0, 0.0, 0.0, 0.0, 0.0, 0.0, 2.0, 0.0, 0.0, 0.0, 0.0, 0.0, 1.0, 1.0, 0.0, 0.0, 0.0, 0.0, 0.0, 0.0, 1.0, 0.0, 2.0, 1.0, 0.0, 0.0, 1.0, 0.0, 0.0, 1.0, 0.0, 1.0, 0.0, 0.0, 0.0, 1.0, 0.0, 2.0, 0.0, 0.0, 0.0, 0.0, 0.0, 1.0, 0.0, 0.0, 0.0, 0.0, 0.0, 0.0, 0.0, 1.0, 0.0, 1.0, 0.0, 0.0, 0.0, 0.0, 0.0, 1.0], "bins": [-1.4378671646118164, -1.4126962423324585, -1.3875253200531006, -1.3623543977737427, -1.3371834754943848, -1.3120124340057373, -1.2868415117263794, -1.2616705894470215, -1.2364996671676636, -1.2113287448883057, -1.1861578226089478, -1.1609869003295898, -1.1358158588409424, -1.1106449365615845, -1.0854740142822266, -1.0603030920028687, -1.0351321697235107, -1.0099612474441528, -0.9847903251647949, -0.9596193432807922, -0.9344484210014343, -0.9092774987220764, -0.8841065168380737, -0.8589355945587158, -0.8337646722793579, -0.80859375, -0.7834228277206421, -0.7582518458366394, -0.7330809235572815, -0.7079100012779236, -0.6827390193939209, -0.657568097114563, -0.6323971748352051, -0.6072262525558472, -0.5820553302764893, -0.5568843483924866, -0.5317134261131287, -0.5065425038337708, -0.48137155175209045, -0.45620059967041016, -0.43102967739105225, -0.40585875511169434, -0.38068780303001404, -0.35551685094833374, -0.33034592866897583, -0.3051750063896179, -0.2800040543079376, -0.2548331022262573, -0.22966217994689941, -0.2044912427663803, -0.1793203055858612, -0.1541493684053421, -0.128978431224823, -0.1038074940443039, -0.07863655686378479, -0.053465619683265686, -0.028294682502746582, -0.003123745322227478, 0.022047191858291626, 0.04721812903881073, 0.07238906621932983, 0.09756000339984894, 0.12273094058036804, 0.14790187776088715, 0.17307281494140625]}, "gradients/phi_z.nn_layers.0.weight": {"_type": "histogram", "values": [1.0, 0.0, 0.0, 0.0, 0.0, 0.0, 1.0, 1.0, 1.0, 1.0, 3.0, 1.0, 2.0, 1.0, 1.0, 4.0, 2.0, 3.0, 2.0, 2.0, 2.0, 3.0, 2.0, 5.0, 5.0, 8.0, 10.0, 6.0, 11.0, 11.0, 7.0, 4.0, 12.0, 15.0, 14.0, 12.0, 13.0, 18.0, 16.0, 9.0, 21.0, 31.0, 6.0, 10.0, 5.0, 6.0, 7.0, 3.0, 3.0, 1.0, 1.0, 1.0, 1.0, 2.0, 3.0, 1.0, 3.0, 0.0, 2.0, 1.0, 0.0, 0.0, 1.0, 2.0], "bins": [-1.38057541847229, -1.346981406211853, -1.313387393951416, -1.279793381690979, -1.246199369430542, -1.2126052379608154, -1.1790112257003784, -1.1454172134399414, -1.1118232011795044, -1.0782291889190674, -1.0446351766586304, -1.0110411643981934, -0.9774470925331116, -0.9438530802726746, -0.9102590084075928, -0.8766649961471558, -0.8430709838867188, -0.8094769716262817, -0.7758829593658447, -0.7422888875007629, -0.7086948752403259, -0.6751008629798889, -0.6415067911148071, -0.6079127788543701, -0.5743187665939331, -0.5407247543334961, -0.5071307420730591, -0.4735366702079773, -0.4399426579475403, -0.40634864568710327, -0.37275460362434387, -0.3391605615615845, -0.30556660890579224, -0.2719725966453552, -0.23837855458259583, -0.20478452742099762, -0.17119050025939941, -0.1375964730978012, -0.104002445936203, -0.0704084187746048, -0.03681439161300659, -0.0032203644514083862, 0.03037366271018982, 0.06396768987178802, 0.09756171703338623, 0.13115574419498444, 0.16474977135658264, 0.19834379851818085, 0.23193782567977905, 0.26553183794021606, 0.29912588000297546, 0.33271992206573486, 0.3663139343261719, 0.3999079465866089, 0.4335019886493683, 0.4670960307121277, 0.5006900429725647, 0.5342840552330017, 0.5678781270980835, 0.6014721393585205, 0.6350661516189575, 0.6686601638793945, 0.7022541761398315, 0.7358482480049133, 0.7694422602653503]}, "train/epoch": 6, "train/loss": -6574.322601318359, "train/loglik": 631.3914794921875, "train/kldiv": -1543.363525390625, "train/out_l": 50.05772399902344, "_runtime": 9.470706224441528, "_step": 10, "val/epoch": 6, "val/loss": -606.066650390625, "val/loglik": 43.189208984375, "val/kldiv": -157.60287475585938, "val/out_l": 3.690382242202759, "test/epoch": "evaluation", "test/loss": -605.3535766601562, "test/loglik": 42.802520751953125, "test/kldiv": -157.52989196777344, "test/out_l": 4.356441020965576, "_wandb": {"runtime": 9}}